{
  "in_shape": [null, null, 1],
  "layers": [
    {
      "type": "gru",
      "shape": [null, null, 8],
      "weights": [
        [
          [
            -0.21075739,
            0.6054781,
            1.3687366,
            -0.74198735,
            1.18403,
            -0.08632209,
            2.8161912,
            0.472986,
            0.8656385,
            -0.7760961,
            -1.0059823,
            0.4806414,
            -0.7475988,
            0.02504039,
            -0.25764415,
            -1.5902315,
            -0.05855808,
            0.18729268,
            0.39133832,
            0.09721922,
            -0.2951807,
            -0.6268158,
            -0.3197776,
            -1.027245
          ]
        ],
        [
          [
            4.7428858e-1,
            2.0151305,
            4.2385286e-1,
            -9.9104196e-1,
            1.6474878,
            7.9633319e-1,
            1.6663148,
            7.4315929e-1,
            2.7698568e-1,
            -1.0389292e-1,
            5.9773326e-2,
            -5.4592764e-1,
            -1.2601462e-1,
            -6.251899e-1,
            3.5972338e-2,
            -2.1107323e-1,
            3.6214974e-2,
            3.3480129e-3,
            6.9292194e-1,
            2.3714194e-1,
            -6.8074131e-1,
            -1.8927598e-1,
            -5.8977908e-1,
            -2.9815978e-1
          ],
          [
            -1.175087,
            -3.7036681e-1,
            1.5181254,
            -1.410089,
            -7.8686923e-1,
            -1.0276054,
            8.1712669e-1,
            9.905287e-1,
            -1.6695662e-1,
            -5.1752239e-1,
            -1.2095793,
            -7.7408284e-2,
            -6.9796586e-1,
            -1.8526648e-1,
            -4.502781e-1,
            -1.2009041e-1,
            3.9973557e-3,
            7.3732102e-1,
            3.6982223e-1,
            -3.5739943e-1,
            -1.91358e-1,
            -9.6629918e-2,
            5.1388011e-4,
            -1.6692568e-1
          ],
          [
            -4.3396071e-1,
            1.3347064,
            3.0736115,
            -2.4538021,
            -3.1299475e-1,
            -5.0040528e-2,
            1.7083404,
            1.1097524,
            7.5312686e-1,
            -3.1858498e-1,
            -9.7476996e-2,
            -9.8702863e-2,
            -1.6956252,
            1.0352992e-1,
            4.463447e-1,
            5.7630378e-1,
            -4.0485725e-1,
            -3.3826816e-1,
            9.883244e-1,
            -2.3112759e-1,
            -1.7318705e-1,
            -4.6098089e-1,
            -5.1831931e-1,
            5.4804683e-1
          ],
          [
            1.361302,
            7.0442438e-1,
            -5.7564723e-1,
            1.1731999,
            2.9941854e-1,
            2.9369211e-1,
            2.1269675e-1,
            -5.5143226e-2,
            2.7243041e-2,
            4.8489708e-1,
            1.6945522e-1,
            2.5573632e-2,
            6.3084662e-1,
            -4.833453e-1,
            -1.2896451e-1,
            -1.4013131e-1,
            2.0921686e-1,
            8.3068823e-3,
            -1.8245604e-2,
            6.5433416e-3,
            5.0456208e-1,
            6.0458642e-1,
            -1.0283412e-1,
            -1.8442123e-1
          ],
          [
            1.0858027,
            2.4136227e-1,
            -1.8394868,
            1.5089214,
            -9.5842153e-1,
            4.6734521e-1,
            -4.744246e-1,
            6.9863534e-1,
            1.99387e-2,
            -1.1741354,
            -2.2313812e-1,
            -3.9719947e-4,
            6.3134533e-1,
            -4.8691261e-1,
            -2.8310317e-1,
            -1.7637981e-1,
            -1.5062104e-1,
            2.7976233e-1,
            -6.6989011e-1,
            3.7744969e-1,
            7.128523e-1,
            -2.3195742e-1,
            3.1418213e-1,
            7.0018314e-2
          ],
          [
            -1.6701572,
            5.3843576e-1,
            1.0068293,
            2.8903404e-1,
            -5.3835219e-1,
            -8.7723029e-1,
            4.6495497e-1,
            -8.8189745e-1,
            -2.1405795e-1,
            -4.2752737e-1,
            -1.3722649e-1,
            1.5874976e-1,
            1.5186422e-1,
            3.7349799e-1,
            -6.7523248e-2,
            -2.1317062e-1,
            6.9127065e-1,
            9.2035818e-1,
            -4.8704621e-1,
            5.0735265e-1,
            -5.3658324e-1,
            1.4546238e-1,
            1.8126504e-1,
            2.1616223e-1
          ],
          [
            6.2344942e-2,
            -9.0996516e-1,
            -3.6317644e-1,
            1.4754311,
            9.642238e-1,
            7.4855697e-1,
            -1.5507582e-2,
            -3.8617933e-1,
            4.1391969e-1,
            1.2308886e-1,
            7.4280493e-2,
            5.7990444e-1,
            6.257657e-3,
            -7.655894e-2,
            2.674714e-1,
            -2.6924038e-1,
            5.4430783e-1,
            5.1869959e-1,
            -6.623534e-1,
            5.7182837e-1,
            4.5119055e-2,
            5.9594953e-1,
            1.4766665e-1,
            2.2041665e-1
          ],
          [
            1.0674412,
            8.7621532e-2,
            -1.8163028,
            3.5101917e-1,
            5.647561e-1,
            7.7424192e-1,
            -8.3166242e-2,
            1.0700716,
            3.1826931e-1,
            4.0626863e-1,
            4.7105208e-1,
            4.6426937e-1,
            4.2077604e-1,
            4.5283455e-1,
            3.6302963e-1,
            2.4167582e-1,
            6.5625405e-1,
            2.3789653e-1,
            -6.6008532e-1,
            2.7583551e-1,
            -5.153681e-1,
            3.1439209e-1,
            4.7239596e-1,
            1.2636654e-1
          ]
        ],
        [
          [
            0.652125,
            1.0250875,
            -0.91555035,
            -0.06568845,
            1.1834621,
            0.8506025,
            0.50243276,
            0.48164925,
            0.5874946,
            0.5587838,
            0.5186577,
            0.2363661,
            0.22475371,
            0.03529475,
            0.23252216,
            0.18500769,
            0.15227446,
            -0.18457718,
            0.22394295,
            -0.12496498,
            0.06158604,
            -0.09617629,
            0.04273995,
            0.1346676
          ],
          [
            0.5856071,
            0.9920984,
            -0.92830217,
            -0.00705122,
            1.1233459,
            0.76981544,
            0.51116073,
            0.42689523,
            0.5704367,
            0.54970306,
            0.553265,
            0.3046113,
            0.14810774,
            0.09177987,
            0.2251141,
            0.17360786,
            0.15246332,
            -0.24539031,
            -0.10832546,
            0.13399844,
            0.10913482,
            -0.12836468,
            0.255531,
            0.20779873
          ]
        ]
      ]
    },
    {
      "type": "dense",
      "shape": [null, null, 1],
      "weights": [
        [
          [0.2689306],
          [0.56197155],
          [0.02371717],
          [0.86055154],
          [-0.17022459],
          [0.9606014],
          [0.24872237],
          [-0.14106391]
        ],
        [0.0590466]
      ]
    }
  ]
}
