{
  "in_shape": [null, null, 1],
  "layers": [
    {
      "type": "gru",
      "shape": [null, null, 8],
      "weights": [
        [
          [
            -0.527477,
            -0.4532593,
            1.6960614,
            -0.34556326,
            0.4297649,
            -1.4093574,
            -1.1323147,
            -1.622446,
            -0.22179674,
            0.6159499,
            -0.3769271,
            0.13822769,
            0.17010325,
            1.4252387,
            -0.02522892,
            -0.03733066,
            -0.4337218,
            -0.34290183,
            -0.8891562,
            0.53998697,
            -0.45091423,
            0.17824934,
            -0.11493694,
            0.05646428
          ]
        ],
        [
          [
            -1.6323532,
            0.8832335,
            0.82500166,
            -1.583886,
            0.7579658,
            -1.4049315,
            0.42582518,
            -0.36533168,
            -0.11343176,
            -0.64920133,
            -0.00634785,
            -0.03717555,
            -0.39614415,
            -0.01582852,
            -0.2923631,
            -0.62748337,
            0.75232947,
            -0.4019652,
            -0.29438385,
            -0.41237828,
            -0.0167868,
            0.00995096,
            -0.20443867,
            -0.24044925
          ],
          [
            -0.8484256,
            0.02383177,
            0.30936688,
            0.52651054,
            -1.0704974,
            -0.3370439,
            0.94061446,
            2.241617,
            0.03832133,
            -0.21539631,
            0.01225581,
            0.28095603,
            -0.7911859,
            0.04836631,
            -0.5801711,
            -0.07856782,
            0.59898895,
            0.7014969,
            0.13739498,
            -0.30389938,
            0.14431886,
            0.44414598,
            0.84643954,
            0.26713094
          ],
          [
            -0.21057957,
            -0.48711145,
            1.4242747,
            -0.5730254,
            -0.40838575,
            -0.9116315,
            0.6886472,
            0.48791632,
            0.5318742,
            -0.7452276,
            -0.01992542,
            -0.41199723,
            -0.5716194,
            -0.9167191,
            -0.7804004,
            -0.6746099,
            -0.11927565,
            0.6815174,
            0.4566301,
            0.20936231,
            0.57089835,
            -0.8658827,
            0.7572276,
            0.23725294
          ],
          [
            -1.2548069,
            0.6063727,
            0.4197761,
            -1.0062231,
            0.74953496,
            0.39295584,
            0.6912501,
            0.8333996,
            -0.2836925,
            -0.54465365,
            0.01682262,
            -0.30280748,
            -0.19413334,
            0.11433873,
            -0.6146446,
            -0.3110674,
            -0.28674668,
            0.23222363,
            0.6018925,
            0.55321413,
            0.20710474,
            0.1143731,
            -0.04453988,
            -0.2581391
          ],
          [
            0.37089577,
            0.25766703,
            0.43746668,
            -0.2434833,
            -0.54126877,
            -0.5931884,
            0.6228156,
            1.5301939,
            -0.24981959,
            -0.5762369,
            -0.80619746,
            -0.32335016,
            -0.36730856,
            0.18326482,
            -0.49486315,
            -0.05692653,
            0.0991744,
            0.41699046,
            -0.293335,
            -0.2664309,
            0.13070919,
            0.2575306,
            0.786449,
            0.69670767
          ],
          [
            0.6592544,
            -0.8329152,
            -0.9359952,
            -0.09724358,
            0.3211133,
            0.5889076,
            -1.5068736,
            -0.54361856,
            0.56978595,
            1.0097951,
            0.6101386,
            0.70123523,
            -0.2028823,
            0.71123725,
            0.9762591,
            0.39416403,
            -0.13564438,
            -0.23545864,
            0.23338252,
            0.25606415,
            0.37845716,
            0.39840034,
            -0.19807948,
            0.10822747
          ],
          [
            -1.068308,
            0.4243879,
            1.1134671,
            -0.00671427,
            -0.7231945,
            -0.06374886,
            0.28859028,
            2.027734,
            -0.1196614,
            -0.28881973,
            -0.2253876,
            -0.63545585,
            -0.32905778,
            0.46152425,
            -1.2150424,
            0.20689027,
            0.33270195,
            0.26421973,
            -0.2611271,
            -0.0463513,
            0.36296165,
            0.33976167,
            0.67268586,
            0.42130515
          ],
          [
            1.0024545,
            -0.8979219,
            -0.4606817,
            1.6288778,
            -0.43615434,
            -0.16547397,
            -1.3286374,
            0.19710565,
            -0.13484326,
            0.01228035,
            0.5828099,
            0.05065876,
            -0.27321652,
            0.70810837,
            0.24837847,
            0.40342274,
            0.1200042,
            0.4677693,
            -0.29551736,
            -0.38835278,
            -0.08476584,
            0.7099492,
            0.295669,
            0.05786236
          ]
        ],
        [
          [
            0.77966547,
            0.23512185,
            -0.30826998,
            1.1687665,
            0.06954563,
            0.7323267,
            -0.4367138,
            0.46684164,
            0.46928874,
            0.15666138,
            0.742312,
            0.38943726,
            0.0305368,
            0.24815367,
            0.2564296,
            0.12721594,
            -0.12097383,
            0.09491241,
            -0.05494418,
            -0.2304874,
            0.14544603,
            0.18934879,
            -0.0163425,
            0.04551909
          ],
          [
            0.72595227,
            0.27653664,
            -0.34618953,
            1.2172856,
            0.13265584,
            0.76815516,
            -0.42085463,
            0.47575158,
            0.4428186,
            0.14147358,
            0.6907643,
            0.43244076,
            -0.00532867,
            0.21272086,
            0.28124544,
            0.20547734,
            -0.20713802,
            -0.1608577,
            -0.00502483,
            -0.2992689,
            -0.2145608,
            0.17782384,
            -0.11648957,
            0.19886497
          ]
        ]
      ]
    },
    {
      "type": "dense",
      "shape": [null, null, 1],
      "weights": [
        [
          [1.0067502],
          [-0.421847],
          [-0.12050608],
          [-0.81658554],
          [0.33933163],
          [0.56491584],
          [0.15144044],
          [0.29753608]
        ],
        [-0.106946]
      ]
    }
  ]
}
