{
  "in_shape": [null, null, 1],
  "layers": [
    {
      "type": "gru",
      "shape": [null, null, 8],
      "weights": [
        [
          [
            1.2837585,
            -0.69544137,
            -0.53878754,
            -0.31481192,
            -0.22275,
            -0.31569573,
            -3.5500429,
            -1.3932437,
            -0.05114939,
            -0.08064479,
            -0.03692441,
            0.65088934,
            0.7879422,
            -0.66127163,
            -0.40277663,
            0.10464018,
            0.13596715,
            -0.4748713,
            0.26402512,
            0.3544467,
            -0.45067686,
            0.3647725,
            0.9151001,
            0.14552842
          ]
        ],
        [
          [
            -0.6295251,
            -0.2856519,
            1.1949072,
            -0.16028905,
            1.5779276,
            -0.9236236,
            -0.2006683,
            -0.2397179,
            0.3431959,
            0.34155744,
            -1.163171,
            0.56383467,
            0.42554665,
            -1.3038434,
            -0.38524547,
            -0.43198505,
            -0.08991249,
            0.2766458,
            -0.6835407,
            -0.33319807,
            -0.17030492,
            -0.73021513,
            0.06067693,
            -0.13720089
          ],
          [
            0.22713308,
            -1.8026258,
            -0.2717609,
            -1.2394009,
            0.98177165,
            0.89683914,
            -0.94952846,
            -0.59541035,
            -0.26257947,
            0.6759381,
            -0.38867635,
            0.7037632,
            0.03489321,
            0.04380789,
            -0.33661148,
            0.20128612,
            -0.16744693,
            1.101534,
            0.15964255,
            0.5993539,
            -1.6585355,
            0.14214732,
            0.8521949,
            0.51629555
          ],
          [
            1.7539221,
            1.3230349,
            -0.40684006,
            0.34395215,
            0.11293159,
            -0.98292315,
            0.3397305,
            0.3960991,
            -0.06710639,
            0.34198892,
            -0.13544986,
            0.4542215,
            -0.43754962,
            0.70754695,
            -0.07377489,
            0.5685261,
            -0.22433282,
            0.04232566,
            0.07476734,
            0.3942217,
            0.14606993,
            0.51018214,
            0.17764787,
            -0.2009113
          ],
          [
            -0.19285046,
            -1.7567729,
            0.18328531,
            -0.93860894,
            1.3572947,
            0.82007307,
            0.9362216,
            0.5158472,
            -0.36466703,
            -0.5303273,
            -0.6496255,
            -0.8321834,
            -0.23519301,
            -1.2044144,
            -0.78529274,
            -0.03115151,
            -0.29483393,
            -0.4301436,
            0.3493185,
            0.60344577,
            0.57892805,
            -0.05737939,
            0.21056564,
            -0.7476334
          ],
          [
            -0.955329,
            -1.6574849,
            0.20312525,
            -0.8089012,
            -0.60641444,
            1.1983141,
            1.1928453,
            0.5659474,
            -0.26274318,
            -0.16536504,
            -0.34869596,
            -0.47877836,
            0.1331098,
            -0.73472553,
            0.4773594,
            -0.09922569,
            -0.1804054,
            -0.00900446,
            -0.61040133,
            -0.10422251,
            0.31940544,
            0.15764505,
            -0.3862068,
            -0.68516564
          ],
          [
            2.5089512,
            1.1859063,
            -1.1283528,
            -0.04692506,
            -0.605955,
            -1.1075141,
            -0.7578698,
            0.18545996,
            -0.25334516,
            0.70884156,
            -0.7459226,
            0.16394433,
            0.17018278,
            1.4935793,
            -0.42081884,
            1.0675044,
            -0.6791333,
            0.15498999,
            0.670088,
            0.46795672,
            -0.13084541,
            0.7631461,
            -0.18875651,
            -0.07030623
          ],
          [
            1.9203601,
            0.1435705,
            -0.5943105,
            -0.85174257,
            0.62496585,
            0.55765355,
            -0.9694388,
            -0.12683146,
            -1.3239443,
            -0.2231176,
            -1.158084,
            -0.11487364,
            0.57445776,
            0.48518154,
            -0.93556947,
            1.918383,
            -0.67794424,
            -0.23338118,
            0.33881637,
            0.653662,
            -0.22883745,
            0.59717673,
            0.72824067,
            0.88177866
          ],
          [
            2.7303195,
            0.1135795,
            -0.96510094,
            -0.79134643,
            -0.00442439,
            0.6521853,
            -1.1873451,
            0.06999794,
            -0.9271706,
            -1.1248646,
            -2.0938537,
            -0.8505303,
            -0.37278035,
            1.0118517,
            -0.53009015,
            0.47298193,
            -0.28537312,
            -0.15913686,
            -0.0334582,
            0.73426867,
            0.13742806,
            0.7733518,
            0.0148055,
            0.37319732
          ]
        ],
        [
          [
            -0.14986503,
            0.86236894,
            0.5290472,
            0.5055055,
            0.03253594,
            -0.9720271,
            -0.64803123,
            -0.28029907,
            0.49378565,
            0.29783762,
            0.2907141,
            0.44443977,
            0.58103395,
            0.085161,
            0.42600974,
            0.5366709,
            -0.04086062,
            -0.29064158,
            0.13042787,
            -0.15936527,
            -0.05324863,
            0.00181732,
            0.0304658,
            -0.17460234
          ],
          [
            -0.09120747,
            0.8667588,
            0.51266956,
            0.5131061,
            -0.00516948,
            -0.94886464,
            -0.6718298,
            -0.29103458,
            0.4540464,
            0.28763628,
            0.27995348,
            0.5018593,
            0.53481245,
            0.11376466,
            0.3944464,
            0.5411644,
            0.22487177,
            0.06026754,
            0.10011671,
            -0.17886637,
            -0.2764633,
            0.20870182,
            -0.09615957,
            -0.19007955
          ]
        ]
      ]
    },
    {
      "type": "dense",
      "shape": [null, null, 1],
      "weights": [
        [
          [0.0415669],
          [1.2816811],
          [-0.4277674],
          [0.12117533],
          [-0.84591573],
          [-0.13480082],
          [-0.2890983],
          [0.3952503]
        ],
        [-0.0668569]
      ]
    }
  ]
}
