{
  "in_shape": [null, null, 1],
  "layers": [
    {
      "type": "gru",
      "shape": [null, null, 8],
      "weights": [
        [
          [
            -1.2139369,
            0.3385323,
            0.80420727,
            1.6083051,
            1.4925718,
            1.3737986,
            0.7825978,
            -0.56714857,
            -1.9341521,
            1.5931427,
            -1.6734984,
            -1.1063985,
            1.7804472,
            0.67403615,
            0.89329886,
            -0.51074517,
            -0.23955683,
            0.7172214,
            -1.0044461,
            -0.9335916,
            0.07492222,
            0.51499724,
            -0.03956257,
            1.6917198
          ]
        ],
        [
          [
            3.141804,
            0.67058885,
            2.6651661,
            -0.47483295,
            -1.0735898,
            -0.86757445,
            -0.1796108,
            1.6244127,
            -1.7627958,
            -0.21538673,
            -0.68624073,
            -0.16227622,
            -1.9899952,
            -0.6517866,
            0.12845302,
            -0.22712867,
            1.0972071,
            0.23319997,
            -0.9037699,
            0.5206569,
            0.450195,
            0.2719004,
            0.02462878,
            0.04783935
          ],
          [
            -4.12596,
            -0.37444943,
            -2.7517006,
            -0.29510546,
            -0.88339454,
            0.88163555,
            1.5889136,
            -4.319661,
            -0.8705499,
            0.3835366,
            0.14798161,
            -0.6847,
            0.22013366,
            -0.3148343,
            0.10226817,
            1.1126875,
            0.31557336,
            0.49231905,
            -0.5117021,
            0.546042,
            0.6252459,
            0.3578866,
            0.4606673,
            0.34613645
          ],
          [
            -1.8204486,
            -0.14154401,
            -1.0374238,
            -0.12069672,
            1.4717772,
            1.7998067,
            1.584553,
            -1.026908,
            1.319417,
            0.10831594,
            0.7346144,
            1.2672064,
            1.863549,
            -0.44397247,
            -0.31955013,
            -0.60979056,
            -0.58167547,
            -0.33757186,
            0.3226781,
            -0.05887755,
            -0.18357728,
            -0.3705915,
            -0.24613434,
            -0.00704994
          ],
          [
            -2.021561,
            0.49756446,
            -0.30117846,
            -0.44629768,
            0.40414488,
            1.8876151,
            0.21780556,
            -1.3006269,
            0.08414963,
            0.36508253,
            0.6312261,
            0.5022784,
            0.7274996,
            -1.0849671,
            0.4348315,
            1.4218261,
            -0.76384425,
            0.10002236,
            0.40649396,
            0.11637715,
            0.36665604,
            0.57892746,
            0.90598017,
            -0.59815174
          ],
          [
            -1.7647609,
            -0.01210297,
            0.89860624,
            -0.97938013,
            -0.5776816,
            -0.04211174,
            -0.00433548,
            4.006452,
            -0.5038501,
            0.35810244,
            -0.86057395,
            0.8300092,
            0.8739552,
            0.4124341,
            -1.0430365,
            -0.84326804,
            0.3877162,
            0.5794478,
            0.16629633,
            -0.2231631,
            0.5476802,
            -0.4472531,
            -0.2681104,
            -0.3678967
          ],
          [
            -2.5809216,
            -1.3351521,
            0.10584637,
            -0.57550067,
            0.9301505,
            -1.3555326,
            -1.8939396,
            1.7893584,
            2.584669,
            -0.83844954,
            0.1726339,
            0.66023165,
            0.265165,
            0.44711536,
            0.06520545,
            0.38311222,
            -1.197697,
            -0.89168596,
            1.4506246,
            0.7685483,
            -0.26355,
            1.0817158,
            -0.65116876,
            -1.7876749
          ],
          [
            2.6200466,
            -0.01892568,
            0.05581176,
            -0.56824446,
            -0.5439765,
            0.19408575,
            0.21479277,
            -0.328629,
            -0.45227778,
            -0.5151282,
            -0.5981347,
            0.3245713,
            0.31973675,
            -0.1503376,
            0.22088172,
            1.394541,
            -0.2451104,
            -0.3729873,
            -0.8970123,
            0.41759062,
            -0.49992839,
            0.44834486,
            0.21642014,
            0.6118992
          ],
          [
            4.1868796,
            1.6725602,
            1.2358257,
            -0.802163,
            -0.8140879,
            -0.67581,
            -0.0947513,
            0.8632045,
            -2.5856109,
            -0.20327485,
            -0.9125204,
            -0.4258088,
            -0.9158329,
            -0.35309163,
            0.8767788,
            -0.39496553,
            1.2591833,
            -0.12940939,
            -0.7328527,
            0.7637704,
            0.09033938,
            0.3005506,
            -0.40472215,
            0.6820012
          ]
        ],
        [
          [
            -1.0236852,
            0.58247596,
            0.00855568,
            -0.34669265,
            0.42616755,
            0.86796373,
            0.90644836,
            -0.2593728,
            -0.14748247,
            0.11211689,
            0.65369177,
            0.98476696,
            -0.03422693,
            0.20028086,
            0.10750532,
            0.69231653,
            0.29449123,
            0.05206126,
            0.03069792,
            0.09513818,
            0.0919253,
            -0.00130296,
            -0.10311135,
            0.09793771
          ],
          [
            -0.97872025,
            0.55254847,
            0.07443211,
            -0.2915647,
            0.36239183,
            0.9193149,
            0.96163225,
            -0.2559162,
            -0.10058709,
            0.14277606,
            0.64612556,
            1.0097448,
            -0.09136689,
            0.11158562,
            0.0760247,
            0.70268923,
            -0.31678623,
            0.23482898,
            0.1941489,
            0.19488564,
            0.01324697,
            0.02416836,
            0.19106996,
            0.14916961
          ]
        ]
      ]
    },
    {
      "type": "dense",
      "shape": [null, null, 1],
      "weights": [
        [
          [-0.16879508],
          [-0.76467973],
          [-0.13576327],
          [0.43353727],
          [-0.9420055],
          [-1.2182641],
          [-0.6342814],
          [0.16264066]
        ],
        [0.179027]
      ]
    }
  ]
}
