{
  "in_shape": [null, null, 1],
  "layers": [
    {
      "type": "gru",
      "shape": [null, null, 8],
      "weights": [
        [
          [
            2.046524,
            -0.8568421,
            0.7756388,
            -3.7182229,
            0.30646306,
            -0.07486624,
            -3.8364937,
            -1.5234,
            0.4872847,
            -0.01554574,
            0.5156879,
            2.1728678,
            -0.5538291,
            -0.0986065,
            0.9917901,
            0.7295325,
            -0.35657027,
            -0.5662199,
            -0.44874236,
            -0.2126016,
            0.06158077,
            0.60096824,
            0.01083502,
            -0.8014992
          ]
        ],
        [
          [
            0.39758915,
            -0.6958956,
            0.6616986,
            0.27204883,
            -0.61676484,
            0.11894534,
            2.4383857,
            1.817025,
            -0.35088095,
            -0.43390274,
            -0.5060608,
            0.6949474,
            -0.65116435,
            -0.6622732,
            -0.8028227,
            -0.50794184,
            -0.04787236,
            0.16319752,
            -0.38312763,
            0.1674579,
            0.10375793,
            -0.04145382,
            0.61586547,
            0.43693998
          ],
          [
            -0.4893002,
            -0.767521,
            1.0153184,
            -0.3019974,
            -0.77133685,
            -0.8050711,
            0.26402128,
            0.754168,
            0.14398488,
            -0.01770381,
            -0.6623903,
            0.20582736,
            -0.9248636,
            -0.42275876,
            -0.31756562,
            -0.38619214,
            0.15557349,
            0.42963693,
            0.21498828,
            0.03463896,
            0.11857966,
            -0.06306607,
            -0.1306425,
            -0.35900426
          ],
          [
            1.0621297,
            -0.87122667,
            0.84289724,
            1.9705075,
            -1.1218412,
            -0.36954582,
            1.8431132,
            0.66770375,
            -0.87323105,
            -0.39572564,
            -0.2403234,
            0.25523204,
            -0.70291984,
            -0.532436,
            -0.566496,
            -1.4271543,
            0.61949766,
            -0.01303751,
            0.75569075,
            -0.08254505,
            -0.17660673,
            -0.1503143,
            0.5632188,
            0.43094003
          ],
          [
            -0.11745723,
            -1.2800341,
            0.14498644,
            0.66481644,
            -0.74864113,
            -0.6694143,
            0.577294,
            0.23378477,
            0.16401546,
            -0.19186495,
            -0.56451017,
            -0.40986225,
            -0.8949738,
            -0.56322217,
            -0.85891014,
            -0.6810162,
            0.41256425,
            -0.14972483,
            0.06506428,
            0.43608937,
            0.5505035,
            0.01782134,
            -0.03663711,
            0.40585324
          ],
          [
            -1.1338686,
            0.34753823,
            0.00753305,
            -2.00941,
            -0.4434583,
            -0.2895381,
            -1.613189,
            -1.0694427,
            0.61228496,
            0.36791766,
            0.7730385,
            -0.31650668,
            0.22327037,
            0.34142464,
            0.1617694,
            0.7299259,
            -0.24526615,
            -0.02675777,
            -0.86177444,
            -0.1304937,
            0.7763556,
            0.27071226,
            -0.20222163,
            -0.7046945
          ],
          [
            0.96515304,
            -0.526974,
            0.52010095,
            2.656258,
            -2.491054,
            -0.7053391,
            0.28888935,
            0.7859227,
            0.04775869,
            -0.32142323,
            0.22356196,
            -0.0445655,
            -0.21810348,
            -0.40225744,
            -0.6449578,
            -0.32686728,
            -0.17842546,
            0.16995111,
            0.57101935,
            0.2950349,
            -0.63713247,
            0.44631875,
            -0.70021313,
            -0.25501645
          ],
          [
            -0.5797981,
            -0.75796264,
            -0.64042807,
            0.7747544,
            -0.2865799,
            0.47108078,
            1.8531889,
            0.30378875,
            -0.4791836,
            -0.6154128,
            -0.15860648,
            0.5768603,
            -0.2530279,
            0.00566075,
            -0.84114224,
            0.2552478,
            -0.33135563,
            0.69225425,
            -0.28518215,
            -0.02972352,
            0.00467002,
            -0.5643693,
            0.61359537,
            0.5400307
          ],
          [
            0.02628717,
            -0.25299028,
            0.40200356,
            1.993246,
            -1.1260494,
            0.7244369,
            3.1798825,
            1.3328669,
            -0.39929917,
            -0.7654227,
            0.21416695,
            0.7288323,
            0.25598383,
            -0.11860243,
            -0.98867583,
            -0.7242912,
            0.13979395,
            0.61360407,
            0.171009,
            -0.05167285,
            0.6174089,
            -0.21545961,
            0.7159047,
            0.7002394
          ]
        ],
        [
          [
            -0.3519299,
            0.68798447,
            0.16546343,
            0.45238584,
            0.75401586,
            0.848794,
            -0.08472013,
            -0.51612824,
            0.25800776,
            0.20760609,
            0.3968174,
            -0.05743532,
            0.56922185,
            0.08480584,
            0.31946078,
            0.2533968,
            0.0183373,
            0.08359998,
            0.10268895,
            -0.29526752,
            -0.06137423,
            -0.3732844,
            -0.10818419,
            0.12658729
          ],
          [
            -0.42386368,
            0.59648573,
            0.13217814,
            0.4026261,
            0.7840411,
            0.85984206,
            -0.01308205,
            -0.5117679,
            0.31198704,
            0.252217,
            0.3661753,
            -0.11091366,
            0.53691113,
            0.10177431,
            0.28732368,
            0.22823761,
            -0.16608319,
            -0.15099223,
            -0.04301639,
            -0.39594054,
            0.03632382,
            -0.32123828,
            0.05990248,
            -0.12361422
          ]
        ]
      ]
    },
    {
      "type": "dense",
      "shape": [null, null, 1],
      "weights": [
        [
          [0.12965983],
          [0.77715296],
          [-0.6874055],
          [0.05818796],
          [1.0970697],
          [-0.3257501],
          [-0.01181241],
          [0.0724635]
        ],
        [0.0210312]
      ]
    }
  ]
}
