{"model_data": {"model": "SimpleRNN", "input_size": 2, "skip": 1, "output_size": 1, "unit_type": "LSTM", "num_layers": 1, "hidden_size": 24, "bias_fl": true}, "state_dict": {"rec.weight_ih_l0": [[-0.029300762340426445, 0.36065804958343506], [0.33027973771095276, -0.16276316344738007], [0.1710846871137619, -0.8669321537017822], [0.13495728373527527, 0.007436088752001524], [-0.21704734861850739, -0.19976237416267395], [0.00158212601672858, 0.18483731150627136], [0.038824208080768585, -0.1854134500026703], [0.02169908583164215, -0.20119507610797882], [-0.05806419253349304, -0.20259703695774078], [-0.05208367481827736, 0.31528955698013306], [0.02078278362751007, 0.2409672737121582], [-0.11400085687637329, 0.21912075579166412], [0.3160630762577057, -0.08085469901561737], [0.006878964137285948, -0.21191227436065674], [0.03737903758883476, 0.11097586899995804], [-0.10139378905296326, 0.04502303525805473], [0.2513832747936249, -0.3865368068218231], [0.03532484546303749, 0.30486443638801575], [-0.007474288810044527, 0.29588162899017334], [0.03745007887482643, 0.3014107942581177], [-0.05362946167588234, -0.050001587718725204], [0.16982604563236237, -0.18035876750946045], [-0.04944873973727226, 0.07834004610776901], [0.007197974249720573, 0.7029563188552856], [0.06899087131023407, -0.07532169669866562], [0.13150420784950256, 0.44754719734191895], [0.22979505360126495, 0.45027047395706177], [0.1007448136806488, 0.6618205904960632], [0.02141495794057846, 0.2717151641845703], [-0.026499228551983833, -0.08604947477579117], [0.06940101087093353, 0.34643805027008057], [-0.21381419897079468, 0.45480021834373474], [-0.10528430342674255, 0.32222652435302734], [-0.012582275085151196, 0.3477015495300293], [0.15065841376781464, 0.25130948424339294], [0.16157585382461548, 0.2819029688835144], [-0.020494284108281136, 0.18952418863773346], [-0.0720563605427742, 0.3253978192806244], [0.0733361765742302, 0.1552078127861023], [-0.15407277643680573, 0.12105479836463928], [-0.018792076036334038, 0.6083325743675232], [-0.14049199223518372, -0.17352330684661865], [-0.10742650181055069, 0.036764755845069885], [-0.18043217062950134, -0.08016696572303772], [-0.12004658579826355, 0.038372982293367386], [-0.024456974118947983, 0.345987468957901], [0.07120448350906372, 0.07208339124917984], [0.0903942734003067, 0.503856360912323], [2.161252737045288, -0.8331736326217651], [-0.062216755002737045, 0.10122653841972351], [0.053681038320064545, -0.11849210411310196], [0.20900419354438782, -0.24612990021705627], [-0.2419099509716034, 0.012832877226173878], [-0.142668217420578, 0.580769956111908], [0.15703853964805603, 0.023773474618792534], [0.1628173440694809, -0.2600021958351135], [-0.09126944839954376, -0.03814077749848366], [-0.34177470207214355, -0.561970055103302], [0.1370616853237152, 1.4487903118133545], [-0.038055308163166046, -0.30596157908439636], [-0.20069435238838196, -1.1448612213134766], [0.3316742479801178, -0.25862911343574524], [0.16584040224552155, 0.10233361274003983], [-0.30151984095573425, 0.007468442432582378], [0.029539836570620537, -0.4092453420162201], [1.277900218963623, -0.05054248496890068], [1.074691891670227, 0.46923837065696716], [0.05713061988353729, 0.24184611439704895], [0.18630991876125336, 0.060869015753269196], [-0.11561821401119232, -0.2022278755903244], [0.21944314241409302, -0.3235532343387604], [-1.4006425142288208, 0.4328294098377228], [-0.022691139951348305, 0.32435959577560425], [0.04975493624806404, 0.34354880452156067], [0.21862450242042542, 0.19090433418750763], [0.046826187521219254, 0.18193857371807098], [-0.128488227725029, 0.0770704448223114], [0.40960413217544556, -0.3312339782714844], [0.050135619938373566, -0.2760442793369293], [0.010166842490434647, 0.12020191550254822], [0.011705310083925724, 0.43360504508018494], [-0.5150260329246521, -0.1238095611333847], [0.33382362127304077, 0.1683795303106308], [-0.266231894493103, -0.0994337871670723], [-0.6545425653457642, -0.4547485411167145], [-0.1597623974084854, 0.1566232144832611], [0.02322196029126644, 0.25770410895347595], [-0.11542993783950806, 0.04261777549982071], [-0.14839786291122437, 0.08175011724233627], [0.07491898536682129, 0.36511000990867615], [-0.013657390139997005, 0.29276108741760254], [0.19107972085475922, 0.3459903597831726], [-0.5588303804397583, -0.7326321005821228], [-0.010099351406097412, 0.15462642908096313], [0.14038076996803284, -0.06327927112579346], [-0.04030756652355194, 0.2495764046907425]], "rec.weight_hh_l0": [[-0.03195991739630699, 0.27560219168663025, -0.21553172171115875, 0.17401306331157684, 0.21749424934387207, -0.05227523669600487, 0.2308323085308075, -0.3236044645309448, -0.16969984769821167, -0.18398931622505188, 0.24277234077453613, -0.21704381704330444, -0.210749551653862, -0.3262634873390198, 0.30748099088668823, 0.04894501343369484, -0.1181664690375328, -0.15768183767795563, 0.01678684540092945, -0.17650876939296722, -0.1689925193786621, -0.24954895675182343, 0.028027182444930077, 0.0003423586895223707], [0.3724866211414337, 0.49050188064575195, 0.060201119631528854, -0.1978367120027542, 0.20572127401828766, 0.062522754073143, -0.06832116097211838, 0.2856786251068115, 0.13685601949691772, -0.001274523907341063, -0.047509729862213135, 0.15722930431365967, -0.0028855560813099146, 0.516808807849884, -0.005201257765293121, -0.07618103921413422, -0.006828718818724155, -0.09230756014585495, 0.06713559478521347, 0.08090399205684662, -0.024121664464473724, 0.8073756694793701, -0.054329581558704376, -0.3041688799858093], [0.16704578697681427, -0.47155579924583435, 0.02605559304356575, 0.2879142761230469, -0.3585154414176941, 0.019887343049049377, -0.37640896439552307, 0.39004096388816833, -0.11660739779472351, -0.0928058996796608, 0.22625820338726044, -0.1345800906419754, 0.151299849152565, 0.26121851801872253, -0.6405943036079407, -0.02737043797969818, 0.12185678631067276, -0.017554517835378647, -0.4192337691783905, -0.10994413495063782, 0.30377060174942017, 0.2750512957572937, -0.42507311701774597, 0.04521967098116875], [0.07321008294820786, -0.4906632602214813, -0.23722457885742188, 0.9672154784202576, 0.09976866841316223, 0.19244056940078735, -0.6469122171401978, 0.20152892172336578, -0.12381505221128464, -0.18097296357154846, -0.13677839934825897, -0.2686500549316406, 0.15895837545394897, 0.24996356666088104, -0.7662562131881714, 0.060896776616573334, 0.21562613546848297, 0.06771602481603622, 0.0646338015794754, -0.08480755984783173, 0.3120184540748596, -0.18046796321868896, -0.4341655969619751, 0.19353587925434113], [0.012876606546342373, -0.13013826310634613, 0.14921006560325623, 0.08617565780878067, 0.21230867505073547, -0.00016723723092582077, -0.21013660728931427, 0.19915303587913513, 0.2255924493074417, 0.12590499222278595, 0.1416252702474594, 0.07167930901050568, 0.02352912537753582, -0.16731670498847961, -0.3602955937385559, 0.016520634293556213, -0.057442136108875275, 0.030323445796966553, -0.028624551370739937, -0.21059885621070862, 0.0777696818113327, -0.017285428941249847, -0.1437024176120758, 0.13421259820461273], [-0.024452658370137215, 0.3103688657283783, -0.21936418116092682, 0.10549937933683395, -0.0025020905304700136, 0.13159002363681793, 0.30275607109069824, -0.17814289033412933, -0.02868473343551159, 0.11237122863531113, -0.08649548143148422, -0.09375124424695969, -0.05630515515804291, -0.24519428610801697, 0.3273693025112152, -0.002306020585820079, 0.023423243314027786, 0.016624346375465393, -0.04533665254712105, 0.09093862771987915, -0.175408735871315, -0.17426623404026031, 0.1353602409362793, -0.003689807839691639], [-0.173433318734169, -0.10516369342803955, 0.06442665308713913, 0.3703405559062958, 0.1426573395729065, -0.0285666324198246, 0.03570102900266647, -0.11752768605947495, 0.14517228305339813, 0.06146376579999924, -0.022631658241152763, 0.18991626799106598, 0.1107989177107811, 0.16223491728305817, -0.05063498020172119, 0.029729271307587624, 0.06316743046045303, -0.037376418709754944, -0.08077923208475113, -0.26329728960990906, 0.0426425039768219, 0.24007439613342285, -0.10134841501712799, -0.030970748513936996], [-0.5643651485443115, -0.6798168420791626, 0.8367927670478821, 0.29173487424850464, 0.18424339592456818, -0.21410022675991058, -0.7924161553382874, -0.48738813400268555, 0.01611979492008686, 0.15164490044116974, -0.134395569562912, 0.6781770586967468, -0.07531636208295822, 0.16823738813400269, -0.7109658122062683, 0.014947674237191677, -0.8077579140663147, 0.2447090744972229, -0.08044500648975372, 0.199249729514122, 0.35253533720970154, 0.26304978132247925, -0.26556476950645447, 0.010866998694837093], [0.034730684012174606, -1.1712019443511963, 0.34968316555023193, -0.29642602801322937, -0.3349975049495697, 0.35778501629829407, -0.7006230354309082, 0.04151708632707596, 0.6602219343185425, -0.44263529777526855, -0.010578762739896774, -0.1716739535331726, 0.16528116166591644, 0.25387686491012573, -0.857801616191864, 0.15803946554660797, 0.007285229861736298, -0.016617901623249054, 0.18683680891990662, -0.10190369188785553, 0.46713218092918396, -0.05057256668806076, -0.39639154076576233, 0.21265430748462677], [-0.0184293445199728, 0.3816160261631012, -0.2662716507911682, 0.08392032235860825, 0.0609113834798336, 0.08725143224000931, 0.3142460286617279, -0.22508539259433746, -0.01727435737848282, 0.0030083819292485714, 0.054675422608852386, -0.12132752686738968, -0.03936324641108513, -0.2814863622188568, 0.3559427857398987, 0.01704069785773754, -0.05443685129284859, 0.014347314834594727, -0.061147335916757584, -0.007129690609872341, -0.17550477385520935, -0.1816166788339615, 0.21584978699684143, 0.056674595922231674], [0.06506779789924622, 0.0907832682132721, -0.0791533812880516, -0.002236975822597742, 0.07226770371198654, 0.08461455255746841, 0.07881790399551392, -0.059529852122068405, 0.004920302424579859, -0.009391995146870613, -0.013845364563167095, -0.06407472491264343, -0.029648086056113243, -0.11514062434434891, 0.1038520559668541, 0.008649267256259918, -0.09316416084766388, -0.035996392369270325, -0.04901748523116112, 0.012325940653681755, -0.030354535207152367, -0.08148130029439926, 0.024168137460947037, -0.03730535879731178], [-0.36119386553764343, 0.12513653934001923, -0.023077327758073807, 0.39415788650512695, 0.004233688116073608, -0.1595769226551056, 0.04790684953331947, -0.15634123980998993, -0.021569926291704178, -0.04412447288632393, 0.07380075007677078, -0.10862298309803009, -0.0660451129078865, -0.10339365154504776, 0.15094687044620514, 0.03319181129336357, -0.11623724550008774, -0.11387293040752411, 0.09232528507709503, -0.16575829684734344, 0.09850223362445831, -0.1924578994512558, 0.016057217493653297, 0.01051731314510107], [0.46051084995269775, 0.0475841648876667, 0.2824578583240509, -0.06492379307746887, -0.0037315511144697666, -0.07338034361600876, -0.07914985716342926, 0.5766896605491638, 0.06166554614901543, 0.08244552463293076, -0.24219760298728943, 0.2942853271961212, 0.22171775996685028, 0.2502904534339905, -0.19037441909313202, -0.007211546413600445, -0.2558918595314026, 0.19509461522102356, 0.08123769611120224, 0.18903891742229462, -0.027442939579486847, 0.42264324426651, 0.15081100165843964, -0.24170473217964172], [-0.06284962594509125, -0.6148824691772461, 0.6262205839157104, -0.02308722399175167, 0.1953054666519165, -0.040771543979644775, -0.7832180857658386, 0.14597979187965393, 0.054078079760074615, -0.012458988465368748, 0.3386509120464325, 0.006024856586009264, -0.23825395107269287, -0.21868649125099182, -0.9587374329566956, 0.08205374330282211, -0.19564242660999298, 0.25110718607902527, -0.2727769911289215, 0.06815658509731293, 0.37124109268188477, -0.7002813220024109, -0.22617551684379578, 0.28692561388015747], [0.0007404564530588686, 0.09533748030662537, -0.08120372891426086, -0.016538143157958984, 0.0023793643340468407, 0.017756348475813866, 0.1025175228714943, -0.06365101039409637, -0.004745440557599068, 0.02587566338479519, -0.013485176488757133, 0.02389645390212536, -0.01685294695198536, -0.07912241667509079, 0.10479875653982162, -0.01153521053493023, 0.014192799106240273, 0.04306807368993759, 0.006278804037719965, 0.001937544671818614, -0.059100404381752014, -0.021632175892591476, 0.024971548467874527, 0.0009642905206419528], [0.0008974853553809226, -0.05139074847102165, -0.018502384424209595, 0.010666826739907265, -0.04867428541183472, 0.05489550158381462, -0.041483763605356216, -0.02248634584248066, -0.03600972890853882, 0.08678235113620758, 0.07190941274166107, -0.04265955835580826, -0.009473125450313091, -0.09404174238443375, -0.005939848721027374, 0.051011621952056885, -0.09300371259450912, -0.039854444563388824, 0.05350944399833679, 0.0924106314778328, 0.0070559983141720295, -0.18490517139434814, 0.11277371644973755, 0.056873831897974014], [0.26543939113616943, -0.029750557616353035, 0.2197774201631546, -0.3807165026664734, -0.12193785607814789, -0.05347763001918793, -0.16413596272468567, 0.1385834664106369, 0.16786803305149078, -0.17246823012828827, 0.12639760971069336, 0.08365324139595032, 0.021807178854942322, 0.3316980004310608, -0.3275904655456543, -0.02252567932009697, 0.10087909549474716, -0.050595127046108246, 0.2462785542011261, 0.03561379015445709, 0.023001786321401596, 0.3110695481300354, -0.005684429779648781, 0.08254316449165344], [0.05457833409309387, 0.33906203508377075, -0.285579651594162, 0.012349026277661324, 0.1080581471323967, 0.0984722301363945, 0.30587664246559143, -0.2209247499704361, -0.07254084199666977, -0.009461757726967335, 0.07923863083124161, -0.14467863738536835, -0.10762748122215271, -0.3406273126602173, 0.3399537205696106, 0.033412035554647446, -0.1010940745472908, 0.026404036208987236, -0.10571622103452682, 0.10387691855430603, -0.14864519238471985, -0.15792931616306305, 0.15248757600784302, 0.008164823055267334], [-0.0500115230679512, 0.3352559208869934, -0.23647131025791168, 0.06383612751960754, 0.02884560450911522, 0.021640753373503685, 0.3157193958759308, -0.2355320155620575, -0.023239409551024437, -0.0002661821781657636, 0.009109770879149437, -0.09061088413000107, -0.007127825636416674, -0.2828870415687561, 0.3521210849285126, 0.003873026231303811, -0.1043480932712555, -0.025994230061769485, 0.012498634867370129, -0.06888038665056229, -0.17353621125221252, -0.11031443625688553, 0.10820111632347107, 0.03701511770486832], [0.030542895197868347, 0.3568878471851349, -0.2607296407222748, 0.01665707491338253, 0.11107069998979568, 0.06663437187671661, 0.3150433897972107, -0.20857715606689453, -0.014123402535915375, -0.0036210822872817516, 0.12921272218227386, -0.13538998365402222, -0.05687969923019409, -0.27429521083831787, 0.35702088475227356, -0.011802413500845432, -0.08198835700750351, 0.0057190656661987305, -0.04938748851418495, 0.11678938567638397, -0.18509554862976074, -0.1058993861079216, 0.14818626642227173, 0.039318762719631195], [0.04398331791162491, -0.015937605872750282, -0.08411850035190582, -0.06566724181175232, 0.030498366802930832, 0.11629966646432877, 0.04497244954109192, -0.01701241545379162, -0.020830202847719193, -0.034826524555683136, 0.051535386592149734, 0.008375638164579868, 0.014214499853551388, 0.003994837868958712, 0.03989759460091591, 0.011679590679705143, 0.01917608268558979, 0.0408245287835598, 0.027599725872278214, 0.01168613787740469, -0.033054616302251816, 0.029042381793260574, -0.0322103388607502, 0.1220950111746788], [0.07970971614122391, -0.7776174545288086, 0.8346745371818542, 0.3388630449771881, -0.3634907007217407, 0.3040885925292969, -0.6737820506095886, 0.4142312705516815, 0.22883042693138123, -0.21564821898937225, -0.07739733159542084, 0.27807751297950745, 0.06445890665054321, 0.6024386882781982, -0.7383745908737183, -0.04333700239658356, 0.025437170639634132, -0.019376149401068687, 0.03523667901754379, -0.3032751977443695, 0.26565927267074585, -0.39158666133880615, -0.2940722107887268, 0.2715150713920593], [-0.04787560552358627, 0.30232661962509155, -0.10792689025402069, -0.04110768064856529, 0.007702622562646866, -0.0025490468833595514, 0.21665047109127045, -0.13918137550354004, 0.1019878014922142, 0.058368515223264694, -0.024565231055021286, 0.014244342222809792, -0.003861081087961793, -0.18552707135677338, 0.23990391194820404, -0.04874681308865547, 0.02481803670525551, 0.046717166900634766, -0.2463720738887787, 0.03782946243882179, -0.1738547682762146, -0.09201283007860184, 0.08930161595344543, 0.08497896790504456], [-0.3483082354068756, 0.3423285484313965, -0.15124094486236572, 0.23994316160678864, -0.2644023895263672, 0.27611151337623596, -0.23222024738788605, -0.08828970044851303, -0.3100178837776184, -0.27699771523475647, 0.8455222249031067, -0.02282601408660412, 0.025880131870508194, -0.08568106591701508, -0.06865331530570984, 0.2807014286518097, -0.5219111442565918, -0.165733203291893, 0.07524719834327698, -0.032257288694381714, 0.28561490774154663, -0.08657683432102203, -0.16710418462753296, 0.13353483378887177], [0.25400081276893616, 0.16812212765216827, -0.0956907719373703, -0.04025386646389961, 0.18857987225055695, 0.1649787873029709, 0.03183987736701965, 0.19188615679740906, -0.615506649017334, 0.03648625314235687, 0.310403048992157, -0.4921601712703705, -0.27011990547180176, -0.21177203953266144, -0.06786926090717316, 0.08155606687068939, -0.2080511450767517, 0.10813590884208679, 0.2620687782764435, 0.091975137591362, -0.0803220346570015, -0.015490416437387466, 0.19700324535369873, -0.1367783099412918], [-0.00692764762789011, 0.7420095801353455, -0.23297685384750366, 0.0031180207151919603, 0.241752028465271, 0.22359587252140045, 0.25985631346702576, 0.06052820011973381, 0.0010278590489178896, 0.17327575385570526, 0.14367204904556274, 0.01619897596538067, -0.050094589591026306, 0.15497994422912598, 0.3717094957828522, -0.04137851670384407, -0.022353406995534897, 0.11959313601255417, 0.015377938747406006, 0.10578133165836334, -0.05318312346935272, 0.5462422966957092, -0.20217351615428925, -0.3246879279613495], [-0.47604262828826904, 0.6930278539657593, -0.22583216428756714, 0.7813929915428162, 0.03340718522667885, 0.117995984852314, 0.768020510673523, 0.2588633596897125, -0.013032411225140095, -0.09413296729326248, 0.008360529318451881, -0.20580677688121796, -0.24986357986927032, 0.1432403177022934, 0.7354264855384827, 0.0254598967730999, -0.09791111946105957, 0.16706806421279907, -0.33981460332870483, 0.439418226480484, -0.22340461611747742, 0.17674781382083893, 0.06752380728721619, 0.04160572960972786], [0.01859503984451294, 0.6883248090744019, -0.3336256742477417, -0.05296054854989052, -0.3048568665981293, -0.3245243728160858, 0.7197705507278442, -0.0565544031560421, -0.2375192493200302, 0.11266050487756729, -0.02811533771455288, -0.31816667318344116, 0.2727740406990051, -0.46084263920783997, 0.8090394139289856, -0.1303618997335434, 0.02461194060742855, -0.15047648549079895, -0.07471326738595963, 0.1428428441286087, -0.25503817200660706, -0.10661249607801437, 0.04892228543758392, -0.4758824408054352], [-0.14998623728752136, 0.3902840316295624, -0.47311899065971375, 0.3897630572319031, -0.2660551071166992, -0.11089155822992325, 0.3761294186115265, -0.2383093535900116, 0.05384005233645439, -0.0246640183031559, -0.2435186207294464, -0.27865371108055115, -0.09301656484603882, -0.17494280636310577, 0.4609069228172302, -0.016157956793904305, 0.2408159375190735, 0.06245200335979462, 0.05885792151093483, 0.11990626156330109, -0.14636960625648499, -0.22733138501644135, 0.25631868839263916, -0.2826317250728607], [-0.08290975540876389, 0.04085159674286842, -0.18876118957996368, 0.197694793343544, -0.06627951562404633, 0.4026001989841461, 0.06895825266838074, 0.17339396476745605, -0.21905596554279327, 0.7034820914268494, -0.18374276161193848, -0.08588757365942001, 0.1105663925409317, 0.03561544418334961, 0.05224509909749031, 0.12298254668712616, 0.18279261887073517, 0.5582000613212585, -0.012213743291795254, 0.05927003175020218, -0.022074013948440552, -0.2741355299949646, -0.049810703843832016, 0.42453378438949585], [-0.1558336764574051, 0.28916987776756287, -0.17197257280349731, 0.23689089715480804, 0.24606414139270782, -0.05972262844443321, 0.43922004103660583, -0.28268420696258545, 0.13117332756519318, 0.03313354402780533, 0.05870572477579117, 0.09335938096046448, 0.08144406229257584, 0.021447287872433662, 0.36948102712631226, -0.008609773591160774, 0.06816256046295166, -0.11485492438077927, -0.0881216749548912, -0.39947301149368286, -0.06301943212747574, 0.23652014136314392, -0.1116291880607605, -0.1610444039106369], [-0.0381469689309597, 0.5258746147155762, -0.4690263271331787, 0.4439397156238556, 0.22443608939647675, 0.4674874544143677, 0.5807793140411377, -0.029448440298438072, -0.25426411628723145, -0.09955372661352158, -0.4756906032562256, -0.6972887516021729, -0.12818442285060883, -0.4576205313205719, 0.7631542682647705, -4.917027581541333e-06, 0.2358413189649582, 0.40011030435562134, -0.847134530544281, 0.13531114161014557, -0.29625359177589417, 0.1592075377702713, -0.10877218097448349, -0.039339579641819], [0.014157126657664776, 0.7360155582427979, -0.6943585872650146, -0.1006586030125618, -0.09250804781913757, 0.34588396549224854, 0.9354117512702942, -0.1957346498966217, -0.2474689781665802, 0.22780583798885345, -0.11038624495267868, 0.21636971831321716, 0.16715176403522491, -0.49619948863983154, 0.9971058368682861, 0.060035884380340576, 0.39902263879776, -0.028986671939492226, -0.11072570830583572, 0.35849905014038086, -0.5396491885185242, -0.056482456624507904, 0.22903676331043243, -0.29117727279663086], [0.17219458520412445, 0.2913634479045868, 0.013870703056454659, 0.33211448788642883, -0.15043993294239044, 0.04507051408290863, 0.019585320726037025, 0.15672583878040314, -0.0037379595451056957, 0.04982190951704979, 0.2725248336791992, -0.476043164730072, 0.01771160028874874, 0.07940026372671127, -0.12226907908916473, -0.017874468117952347, -0.08043613284826279, 0.1348128318786621, -0.05259805917739868, 0.2451205849647522, 0.21636492013931274, -0.3356582522392273, 0.25497201085090637, -0.27396121621131897], [0.49980828166007996, 0.20502892136573792, -0.1375177651643753, -0.05922667682170868, 0.24225644767284393, -0.052717212587594986, 0.11947300285100937, -0.054103538393974304, 0.03427121415734291, 0.15410469472408295, -0.119481161236763, -0.15665040910243988, 0.012464466504752636, -0.27896735072135925, 0.24181145429611206, 0.0037325192242860794, -0.33878862857818604, -0.2278689742088318, 0.1129457876086235, -0.014638681896030903, -0.11892654001712799, -0.05463279038667679, -0.006239553447812796, -0.1564614176750183], [0.2230103760957718, 0.1143103614449501, -0.07129232585430145, 0.5903621315956116, 0.26659640669822693, 0.228770449757576, 0.023285657167434692, 0.027929259464144707, -0.05380536988377571, 0.10389164835214615, -0.10752877593040466, -0.10702965408563614, -0.2393462210893631, -0.051873914897441864, 0.0519375242292881, -0.02819720096886158, -0.11649349331855774, 0.20590780675411224, 0.10332014411687851, 0.25221529603004456, 0.16245421767234802, -0.13265471160411835, -0.21240539848804474, -0.10418448597192764], [0.2122800499200821, 0.3568447232246399, -0.16268804669380188, -0.027997616678476334, 0.09809853136539459, -0.026034895330667496, 0.24950096011161804, 0.1678583323955536, 0.20329877734184265, 0.18425998091697693, -0.0958842858672142, 0.09377632290124893, 0.30123916268348694, -0.12423708289861679, 0.18989570438861847, -0.008788121864199638, -0.12057765573263168, -0.17893527448177338, 0.11729694902896881, -0.03632296249270439, -0.11420532315969467, 0.03345618396997452, 0.1257079690694809, -0.05222911015152931], [0.15590962767601013, 0.8824267983436584, -0.3015381693840027, -0.5071037411689758, -0.4183557331562042, 0.649285614490509, 0.8969048857688904, -0.043103910982608795, 0.33200696110725403, 0.2954235076904297, 0.0326894149184227, -0.05052455887198448, 0.03194136172533035, -0.658045768737793, 1.0501008033752441, 0.01642349176108837, 0.000943543913308531, 0.21177607774734497, -0.07993513345718384, 0.5702114105224609, -0.4154479205608368, -0.2860863506793976, 0.23960155248641968, -0.11944473534822464], [0.06895671039819717, 0.18174895644187927, -0.190653458237648, -0.03726215288043022, 0.05524511635303497, 0.05946143716573715, 0.22150905430316925, -0.1335098296403885, -0.01347530260682106, 0.04677087813615799, -0.053578414022922516, -0.010804738849401474, -0.04150514677166939, -0.1503528654575348, 0.22891037166118622, -0.02545902319252491, 0.015782080590724945, 0.07921909540891647, 0.03929668664932251, -0.042505908757448196, -0.12685315310955048, -0.044888582080602646, 0.05082674324512482, -0.012094683013856411], [0.005703090224415064, 0.013551648706197739, -0.09284209460020065, 0.04629030078649521, -0.03721671551465988, 0.06848406791687012, 0.031031286343932152, -0.09529388695955276, -0.0732685923576355, 0.13207276165485382, 0.09837450832128525, -0.12155882269144058, -0.04628223180770874, -0.16929034888744354, 0.0731649249792099, 0.05980153754353523, -0.1302126944065094, -0.09454183280467987, 0.01725107617676258, 0.13803572952747345, -0.038586027920246124, -0.2551940083503723, 0.1708211600780487, 0.06894876807928085], [-0.4295419156551361, 0.6169363260269165, -0.22852206230163574, 0.20162458717823029, -0.2095765918493271, 0.10497019439935684, 0.3684203624725342, -0.37046900391578674, 0.3073875308036804, 0.005080860108137131, -0.006382212974131107, -0.1761312186717987, -0.14953377842903137, -0.19173328578472137, 0.3865986764431, -0.08584392070770264, -0.19605346024036407, 0.14227081835269928, -0.2313019335269928, -0.062405798584222794, -0.0213578250259161, 0.06685322523117065, -0.17394936084747314, 0.14786048233509064], [0.08536256849765778, 0.10880507528781891, -0.1526201218366623, -0.04012336581945419, 0.017867669463157654, 0.4146887958049774, -0.01619843766093254, -0.055060598999261856, -0.13168266415596008, 0.051747970283031464, -0.29596778750419617, -0.06000395864248276, 0.011386164464056492, -0.3046140968799591, -0.12269552797079086, 0.17024140059947968, -0.07318980991840363, -0.018396081402897835, 0.4626676142215729, -0.23510263860225677, 0.1302373856306076, -0.2670251429080963, 0.41036203503608704, 0.18106111884117126], [-0.13768181204795837, 0.18356364965438843, -0.03181402012705803, -0.03464999794960022, 0.28867727518081665, 0.0831044614315033, 0.08962400257587433, -0.14745205640792847, -0.07809743285179138, -0.12179237604141235, -0.03596525639295578, -0.2687676250934601, -0.04677460342645645, -0.31473731994628906, 0.01966310292482376, -0.06273326277732849, -0.05651409178972244, 0.3025014102458954, -0.17189309000968933, -0.11011983454227448, -0.008028344251215458, 0.06393587589263916, 0.22092612087726593, 0.2949952483177185], [-0.07818957418203354, 0.0394325777888298, -0.17393581569194794, 0.25079068541526794, 0.07725265622138977, 0.020410681143403053, 0.23149791359901428, 0.052107956260442734, -0.12893226742744446, 0.16196022927761078, -0.059663910418748856, 0.026113783940672874, 0.18307197093963623, 0.1421845555305481, 0.14161746203899384, 0.015335788950324059, 0.5677376389503479, 0.2290131002664566, -0.23945005238056183, 0.5254707932472229, -0.21179132163524628, -0.093050517141819, 0.028010986745357513, 0.0786350890994072], [0.026773937046527863, 0.13441358506679535, -0.3082123398780823, 0.03637189045548439, 0.10786793380975723, 0.1961108148097992, 0.22300578653812408, -0.15787118673324585, -0.06667598336935043, -0.09625637531280518, 0.039980240166187286, -0.06463254988193512, -0.00034027668880298734, -0.09597637504339218, 0.25552767515182495, 0.024658989161252975, 0.1347452700138092, 0.04894864559173584, 0.08106603473424911, -0.003369169542565942, -0.1621054708957672, -0.07938957959413528, 0.024310464039444923, 0.19907012581825256], [-0.011064460501074791, 0.7793432474136353, -0.6545650959014893, 0.30124565958976746, 0.3183631896972656, 0.46926310658454895, 0.9004857540130615, -0.19593846797943115, -0.1288793832063675, 0.27027666568756104, -0.05531425401568413, -0.14784353971481323, -0.08017715811729431, -0.11371055245399475, 1.0650160312652588, 0.01616385020315647, 0.32058486342430115, 0.24698449671268463, -0.7660550475120544, -0.24988998472690582, -0.4972648322582245, 0.15322794020175934, 0.28209763765335083, -0.2770337462425232], [0.15853974223136902, 0.1567830741405487, 0.0803535208106041, -0.27972888946533203, -0.11958783864974976, -0.3105144500732422, 0.038422659039497375, -0.17230117321014404, 0.39176762104034424, -0.06564255058765411, 0.06904452294111252, -0.49573251605033875, -0.012497724033892155, -0.13396817445755005, 0.032486509531736374, -0.10423468053340912, -0.1655699759721756, -0.5703299641609192, -0.17379821836948395, -0.23767046630382538, 0.06058628112077713, -0.18059666454792023, -0.14844609797000885, 0.08121686428785324], [-0.07738430052995682, 0.1978827714920044, -0.20638875663280487, 0.1869928538799286, -0.36476463079452515, 0.05283896252512932, 0.07149087637662888, -0.10757025331258774, -0.18915554881095886, 0.19058595597743988, 0.10630880296230316, -0.10185346007347107, -0.06896055489778519, 0.07618162781000137, 0.12928491830825806, -0.011357594281435013, -0.3224963843822479, -0.10965729504823685, -0.0021057077683508396, -0.14931631088256836, 0.10849504917860031, -0.12110105901956558, 0.05243868753314018, -0.10847106575965881], [0.106171615421772, -0.10528263449668884, -0.7901628613471985, -0.23068882524967194, 0.07637898623943329, -0.05993880331516266, -0.040085770189762115, -0.8164618611335754, -0.13699807226657867, -0.014224722981452942, 0.09974570572376251, 0.3322998583316803, 0.8345630168914795, -0.47221890091896057, -0.22043490409851074, -0.0038898377679288387, 0.10984477400779724, 0.12963053584098816, -0.21027831733226776, 0.036690182983875275, 0.3480263650417328, -0.7779650688171387, 0.04536948725581169, -0.052340179681777954], [-0.08214835077524185, -0.16342414915561676, 0.17732439935207367, 0.20137234032154083, -0.0373368076980114, -0.037964023649692535, 0.12817133963108063, -0.22929100692272186, 1.268849492073059, -0.10743559896945953, 0.027485616505146027, 0.005977137479931116, 0.016458533704280853, -0.1602742224931717, 0.29599806666374207, -0.0765036791563034, -0.16268247365951538, -0.005315118469297886, -0.07030991464853287, -0.006639385595917702, -0.04780631512403488, -0.13912689685821533, -0.10849545150995255, 0.28749731183052063], [0.3013182282447815, 0.05421404540538788, -0.16799047589302063, 0.06379728019237518, 0.24757020175457, -0.5402816534042358, -0.07858623564243317, 0.45161548256874084, 0.003039759583771229, -0.3134141266345978, -0.06539897620677948, 0.0316581167280674, 0.399745911359787, 0.38154420256614685, -0.1536906361579895, -0.07942967861890793, 0.11153166741132736, -0.34301871061325073, -0.08966362476348877, -0.018582848832011223, 0.050753552466630936, 0.17719553411006927, -0.03455699607729912, -0.4855537712574005], [-0.21896184980869293, -0.023138726130127907, 1.1282281875610352, 0.15884195268154144, 0.03927922621369362, 0.06527608633041382, 0.06803371012210846, 0.2852928042411804, 0.17021863162517548, 0.03450322523713112, 0.04641617462038994, -0.025451138615608215, 0.29556894302368164, -1.4209961891174316, 0.02468046173453331, -0.04324868321418762, -0.20602820813655853, 0.23735418915748596, -0.11557527631521225, -0.006990235764533281, -0.14189672470092773, 0.1684449166059494, 0.004256370477378368, -0.07217394560575485], [0.26386669278144836, 0.003379243891686201, -0.693693995475769, 0.32031702995300293, -0.36599311232566833, -0.08385055512189865, -0.4139730930328369, -0.24357059597969055, 0.33206653594970703, -0.07164472341537476, 0.20661845803260803, -0.12138098478317261, -0.24660761654376984, -0.720248818397522, -0.1524447351694107, 0.010624280199408531, 0.3392515778541565, -0.019481681287288666, -0.11080455780029297, -0.16651126742362976, 0.00605631060898304, 0.9156432747840881, 0.16226255893707275, -0.28873947262763977], [-0.2304246723651886, -0.18540143966674805, -0.42964300513267517, -0.4630804657936096, -0.012575628235936165, -0.3191894590854645, 0.14468492567539215, -0.09803193807601929, -0.03499367833137512, -0.03930561989545822, 0.19618964195251465, 0.17977365851402283, -0.5220484733581543, 0.4742777943611145, 0.1801011860370636, 0.04748501256108284, -0.09855929762125015, 1.3039134740829468, -0.15830089151859283, 0.061921875923871994, 0.013038646429777145, 0.37251660227775574, -0.7046125531196594, 0.3734584152698517], [-0.08755513280630112, 0.12949199974536896, -0.16183114051818848, 0.3090817630290985, 0.051453519612550735, -0.013694467023015022, 0.2351761907339096, -0.08828438073396683, -0.0662931278347969, 0.05777563527226448, -0.11188393831253052, 0.01754792407155037, 0.10566244274377823, 0.008190774358808994, 0.10804744064807892, 0.019013693556189537, 0.10847393423318863, 0.06552241742610931, -0.05612488463521004, -0.05496123060584068, 0.04099209979176521, 0.18044587969779968, -0.1395440250635147, -0.2189301997423172], [-0.06470102816820145, 0.09048990905284882, 0.17133674025535583, -0.5817226767539978, -0.5145103931427002, 0.27698302268981934, -0.16656352579593658, -0.010828723199665546, 0.03054920583963394, -0.13525231182575226, -0.08561265468597412, 0.14856070280075073, -0.06408219039440155, -0.07094413787126541, -0.0833284854888916, -0.01806984655559063, -0.12855367362499237, -0.3098662495613098, 0.5822051167488098, -0.05866849422454834, 0.22473013401031494, -0.20274445414543152, 0.24745111167430878, -0.25491225719451904], [0.3865602910518646, -0.14429971575737, -0.248722106218338, 0.03344307839870453, 0.1641722321510315, 0.49023258686065674, 0.22538413107395172, -0.15531133115291595, 0.2697249948978424, 0.4945262670516968, -0.3220708668231964, 0.20897558331489563, 0.25355592370033264, 0.18920233845710754, 0.06574685126543045, 0.09690333157777786, 0.13558554649353027, -0.006240729708224535, 0.6091862320899963, 0.36057788133621216, -0.09455601871013641, 0.06871223449707031, -0.3803469240665436, 0.5541496872901917], [-0.17759393155574799, -0.007734140381217003, -0.0893300324678421, -0.10191574692726135, -0.07550429552793503, 0.5433228611946106, 0.24236683547496796, 0.31107959151268005, -0.664432168006897, 0.6613834500312805, -0.3187405467033386, 0.6947741508483887, 0.16169670224189758, -0.1353594958782196, 0.19731537997722626, 0.09992973506450653, 0.12380571663379669, 1.7552043199539185, 0.17763486504554749, -0.020931009203195572, -0.4172123372554779, 0.03324766457080841, -0.006109590642154217, 0.8629011511802673], [0.11406786739826202, 0.04321344569325447, -0.013467899523675442, -0.039520345628261566, 0.04598463326692581, -0.05067405849695206, -0.007565155625343323, -0.0724322497844696, 0.035630058497190475, -0.02325873263180256, 0.2274307757616043, 0.07262042164802551, 0.12307273596525192, -0.06925781071186066, -0.25969943404197693, -0.013846337795257568, -0.016957534477114677, 0.0895463228225708, 0.019425958395004272, 0.015661435201764107, 0.3764227628707886, -0.027743235230445862, 0.0135782016441226, 0.036253295838832855], [-0.9186887145042419, 0.17274363338947296, 0.21485044062137604, 0.3066778779029846, 0.2010054737329483, -0.0633818507194519, -0.42400282621383667, -0.06783351302146912, -0.03575529530644417, 0.027759110555052757, 0.14328396320343018, 0.18021126091480255, -0.023692188784480095, 0.47846513986587524, -0.018802180886268616, -0.015205844305455685, 0.19912749528884888, -0.026118071749806404, -0.4215012788772583, 0.0281419288367033, -0.027657490223646164, 0.6400456428527832, 0.2294352948665619, 0.34538277983665466], [0.08814198523759842, -0.00934992078691721, -0.0727267861366272, 0.064183808863163, -0.2595852315425873, -0.10103518515825272, -0.07539600878953934, 0.20333482325077057, -0.12259881943464279, 0.13669772446155548, -0.2929009199142456, -0.10041777044534683, -0.1361372023820877, -0.11803796887397766, -0.16870403289794922, -0.06420217454433441, 0.22279833257198334, -0.05137382447719574, -0.17980173230171204, -0.14432254433631897, -0.06368637084960938, 0.17849355936050415, -0.03263042867183685, 0.20405544340610504], [0.0637223869562149, 0.10182405263185501, -0.11836520582437515, 1.0965062379837036, 0.6524550318717957, 0.17400085926055908, 0.2239835411310196, -0.04411754384636879, -0.03200080618262291, 0.12058559060096741, -0.16377951204776764, -0.1838974952697754, 0.34787482023239136, 0.10794171690940857, 0.02760486863553524, -0.11695562303066254, -0.07300642132759094, -0.07571929693222046, 0.4675307273864746, -0.10115469992160797, 0.12003041803836823, 0.641532301902771, -0.16940350830554962, 0.3745310306549072], [0.10630383342504501, 0.32205629348754883, -0.202305868268013, -0.04375102370977402, 0.037185367196798325, -0.08362815529108047, 0.2626187205314636, -0.2269018590450287, -0.008070203475654125, 0.007887802086770535, 0.229405477643013, -0.14316435158252716, -0.10010067373514175, -0.29375043511390686, 0.2208402454853058, 0.000773038191255182, 0.05397829785943031, 0.03255225718021393, 0.1854475736618042, 0.05185360461473465, -0.1812269687652588, -0.012273699976503849, 0.055270835757255554, 0.062302421778440475], [-0.05685555562376976, -0.038975708186626434, 0.004547185264527798, 0.11559966951608658, -0.029091181233525276, 0.12471238523721695, -0.03014557994902134, 0.017005905508995056, -0.2343233972787857, -0.1500932276248932, 0.12920118868350983, -0.01011051144450903, 0.03990301489830017, -0.012796761468052864, -0.03103218786418438, 0.13961277902126312, -0.11105544865131378, 0.1422956883907318, 0.08179392665624619, 0.005088655278086662, 0.03311217948794365, -0.08449245244264603, 0.12572231888771057, 0.0017201033188030124], [-0.5769581198692322, 0.20730875432491302, 0.197662815451622, 0.017853422090411186, 0.3863248825073242, -0.08077205717563629, 0.09203241020441055, -0.37236008048057556, -0.2553691565990448, -0.040044818073511124, 0.006171771325170994, 0.012046150863170624, 0.06678172945976257, 0.4910796880722046, 0.11514483392238617, -0.016196060925722122, 0.12763798236846924, -0.09343887865543365, -0.20777995884418488, 0.2700473368167877, -0.22029368579387665, -0.01899629645049572, 0.1055893823504448, 0.24783480167388916], [-0.9855359792709351, -0.03338742256164551, -0.21309390664100647, -0.4281677007675171, -0.0004757744027301669, -0.22548656165599823, 0.11660631746053696, 1.152369737625122, -0.5816301703453064, -0.12480099499225616, -0.2381431758403778, 0.19341763854026794, -0.43822237849235535, -0.5785765051841736, 0.14061352610588074, 0.1152077317237854, 0.3413850665092468, 0.28639158606529236, -0.16066814959049225, -0.13998539745807648, 0.7230485677719116, -0.2235785722732544, 0.16907614469528198, 0.8206605315208435], [0.671667218208313, -0.11802683770656586, 0.14391517639160156, 0.085996612906456, 0.010947378352284431, -0.008115941658616066, 0.16663366556167603, -0.8830552101135254, -0.2284538745880127, -0.1089002788066864, -0.21687589585781097, 0.5400180220603943, 0.7496479153633118, -0.2678900361061096, -0.12178847193717957, 0.009625625796616077, 0.4105222821235657, -0.040911536663770676, 0.11132080107927322, -0.007531512528657913, 0.29349830746650696, -0.2740235924720764, -0.017824484035372734, 0.34650155901908875], [-0.839853048324585, 0.14926595985889435, 0.9686872959136963, -0.29841548204421997, -0.29727903008461, -0.028588753193616867, 0.12475496530532837, 0.7109715938568115, 0.1852312684059143, -0.15391136705875397, 0.1816159039735794, -0.3551979660987854, -0.10075200349092484, 0.12245390564203262, 0.05081440508365631, -0.03344929590821266, -0.23192186653614044, 1.3251473903656006, -1.9042915105819702, 1.0833534002304077, 0.05867630988359451, -0.29431983828544617, 0.13607238233089447, -0.16338923573493958], [-0.056231625378131866, -0.20329689979553223, 0.14087796211242676, -0.04659638926386833, 0.11776460707187653, 0.024972716346383095, -0.13084372878074646, -0.016974059864878654, 0.038123391568660736, 0.17910686135292053, -0.13550911843776703, 0.07368496060371399, -0.13067273795604706, 0.006223390344530344, -0.3400493860244751, -0.07438447326421738, -0.07034838944673538, 0.04545988515019417, 0.0734483003616333, -0.016744039952754974, 0.21021734178066254, 0.18460851907730103, -0.20632028579711914, -0.254928320646286], [0.5141770839691162, 0.061033643782138824, 0.24818308651447296, -0.3994736969470978, 0.02436366118490696, 0.09549879282712936, 0.15010762214660645, 0.12101885676383972, -0.2877035439014435, 0.02116292156279087, -0.05435212701559067, 0.09236849844455719, 0.39145201444625854, -0.6184468865394592, 0.07386656850576401, 0.04729486629366875, -0.19963185489177704, -0.686191737651825, 0.38449692726135254, 0.340366393327713, 0.11002103984355927, 0.05453311651945114, -0.0057873595505952835, -0.3540195822715759], [0.6442004442214966, 0.3644625246524811, 0.3525981605052948, 0.21310843527317047, -0.3938576281070709, -0.07891403883695602, -0.03752291947603226, 0.3630048930644989, -0.1598648726940155, 0.058314308524131775, 0.11375252902507782, -0.2952577769756317, 0.4086524546146393, -0.28361666202545166, 0.12944833934307098, 0.17792366445064545, -0.10632694512605667, -0.6120027899742126, 0.30147311091423035, -0.27894121408462524, -0.20527184009552002, -0.445721298456192, -0.09604521095752716, -0.3453977406024933], [-0.2625720500946045, 0.300811231136322, -0.22025318443775177, -0.34230509400367737, 0.9141255021095276, -0.05652342364192009, 0.36901727318763733, 0.25335609912872314, 0.07826900482177734, -0.003040134673938155, -0.47661519050598145, 0.0008307807147502899, -0.027204880490899086, 0.35168421268463135, -0.21861900389194489, 0.12029927223920822, -0.4021620452404022, -0.06390070170164108, -0.031935859471559525, 0.35962653160095215, 0.263125479221344, -0.08259913325309753, -0.02538859099149704, 0.33614829182624817], [-0.025860020890831947, 0.34826672077178955, -0.2478610873222351, 0.08663679659366608, 0.1516350358724594, 0.002051967428997159, 0.3200419545173645, -0.2880808413028717, -0.08591488003730774, -0.09082316607236862, 0.13478577136993408, -0.19121067225933075, -0.12695324420928955, -0.3003503382205963, 0.39460042119026184, 0.017257561907172203, -0.02977045811712742, -0.1331622302532196, 0.003909698221832514, -0.13001233339309692, -0.24647870659828186, -0.19566527009010315, 0.11253847926855087, 0.014026199467480183], [0.06189408898353577, 0.4271450340747833, -0.3342757821083069, -0.02229602262377739, -0.052573781460523605, 0.17431572079658508, 0.3870930075645447, -0.12458474934101105, -0.22135289013385773, 0.2256840169429779, 0.011394994333386421, 0.06497147679328918, 0.0549030564725399, -0.15834298729896545, 0.417941153049469, 0.013396257534623146, 0.042494289577007294, 0.07960716634988785, 0.08656412363052368, 0.02850937843322754, -0.17940200865268707, -0.01076560653746128, 0.12207894027233124, -0.24779219925403595], [-0.10075975209474564, 0.2855384349822998, -0.41002175211906433, -0.22048433125019073, 0.1423841118812561, 0.15434272587299347, 0.3267531394958496, -0.32786959409713745, 0.03510612994432449, 0.1521686315536499, 0.05384068563580513, 0.07081255316734314, -0.02919946424663067, -0.11769009381532669, 0.3601764738559723, -0.009579109959304333, 0.06517204642295837, -0.05248907580971718, 0.3884119689464569, 0.23629552125930786, -0.16953657567501068, 0.17972664535045624, -0.1945853978395462, 0.1516297310590744], [-0.11039063334465027, 0.32166850566864014, -0.24480806291103363, 0.5362972617149353, 0.2270514965057373, 0.14024662971496582, 0.055216457694768906, -0.09977507591247559, 0.055153246968984604, 0.257608562707901, 0.015147251076996326, -0.20449477434158325, -0.035576291382312775, -0.3645673394203186, 0.16959288716316223, 0.012627745978534222, 0.0015722833340987563, 0.051465824246406555, -0.0027368501760065556, 0.45481255650520325, -0.05980653315782547, -0.0029406296089291573, 0.027300279587507248, 0.30225518345832825], [-0.12183874845504761, 0.22397220134735107, -0.19957232475280762, 0.13688737154006958, 0.11813638359308243, 0.10519564151763916, 0.09353955835103989, -0.08086755871772766, 0.0833427906036377, 0.19533014297485352, -0.15619783103466034, 0.1516517996788025, 0.011916904710233212, -0.02545982599258423, 0.20858696103096008, -0.012035854160785675, -0.03909716382622719, 0.0567653626203537, -0.01710800640285015, -0.6293211579322815, -0.1750021129846573, -0.09649720788002014, 0.03680311515927315, -0.12926889955997467], [0.8396279811859131, 0.19471552968025208, 0.44112429022789, 0.3279431462287903, -0.051878415048122406, 0.12897919118404388, 0.23403063416481018, 0.19585901498794556, -0.11905865371227264, -0.4800046384334564, 0.48868632316589355, -0.059104230254888535, 0.04251306131482124, -0.1264798641204834, -0.07772444188594818, 0.19604985415935516, -0.14259396493434906, -0.8780785799026489, 0.2359371930360794, -0.15617303550243378, 0.029808897525072098, -0.41302159428596497, 1.1236671209335327, -0.9137368202209473], [0.6458597779273987, 0.3389436900615692, -0.25107160210609436, -0.9900562763214111, -0.35747891664505005, -0.18007788062095642, 0.6305326223373413, 0.03791063651442528, -0.23014822602272034, 0.1154019758105278, -0.4428138732910156, -0.08646493405103683, 0.056666214019060135, -0.08773408085107803, 0.35412701964378357, -0.12981878221035004, 0.02877882681787014, -0.02963973581790924, -0.43213537335395813, 0.12126243859529495, -0.4207690954208374, 0.2425065040588379, 0.2409423142671585, -0.3580867648124695], [-0.37473171949386597, 0.08821208775043488, 0.017033997923135757, 0.206807941198349, 0.10125304758548737, -0.056977611035108566, 0.16478466987609863, -0.8379920721054077, 0.10131433606147766, 0.10092109441757202, -0.21938157081604004, -0.040573377162218094, 0.04455047473311424, -0.22180800139904022, 0.1549234390258789, -0.007984424941241741, -0.021138114854693413, -0.022450663149356842, 0.026538709178566933, -0.17303259670734406, 0.024983596056699753, -0.03561326488852501, -0.16235925257205963, 0.09675722569227219], [-0.3082507848739624, 0.1281193196773529, -0.048899468034505844, 0.09630559384822845, 0.21994607150554657, 0.055790096521377563, 0.05325028672814369, -0.29450708627700806, 0.1421300172805786, -0.3088113069534302, 0.10134485363960266, -0.048151787370443344, -0.044982340186834335, -0.12562991678714752, 0.16747432947158813, 0.05399147421121597, 0.2616907060146332, 0.12516339123249054, -0.12516827881336212, 0.14729513227939606, 0.04803844913840294, -0.006071071140468121, -0.24067354202270508, -0.20739254355430603], [-0.10811225324869156, 0.5387904644012451, -0.07776656746864319, 0.166913241147995, -0.3071838319301605, 1.565737247467041, 0.04244660958647728, -0.009324278682470322, -0.03341853618621826, -0.6665639281272888, -0.04973657801747322, 0.2323964685201645, 0.2239430844783783, 0.36347687244415283, -0.3975589871406555, 0.052670612931251526, 0.15961726009845734, 0.7057152986526489, 0.10767094045877457, -0.031230736523866653, 0.34881624579429626, 0.08260840177536011, 0.6855911016464233, 0.5956243872642517], [0.06249348446726799, 0.0914396420121193, 0.47821733355522156, 0.3350718021392822, 0.05267607793211937, -0.003106822492554784, 0.1657312959432602, 0.26323214173316956, 0.27523866295814514, -0.0025803791359066963, -0.2070848047733307, 0.07198739051818848, 0.018826978281140327, 0.513932466506958, -0.2122565507888794, -0.13971123099327087, 0.2908780872821808, 0.21816986799240112, -0.0473473034799099, 0.23999331891536713, 0.17620040476322174, -0.02460319735109806, 0.17925311625003815, 0.4168318212032318], [-0.21783645451068878, 0.12137199938297272, -0.09665945172309875, 0.2999729812145233, -0.046372123062610626, -0.12645921111106873, -0.006411315873265266, 0.21137504279613495, 0.1282770037651062, -0.054520271718502045, -0.057797543704509735, 0.0997680276632309, -0.23032675683498383, 0.2391258180141449, 0.1392393559217453, -0.06063453480601311, 0.14379744231700897, -0.009429377503693104, -0.8156020641326904, -0.2216130793094635, -0.010327408090233803, 0.36339297890663147, -0.11253909021615982, -0.22769378125667572], [-0.32105785608291626, -0.024499699473381042, 0.13296131789684296, -0.2886926829814911, -0.0697019025683403, 0.12157407402992249, -0.07594438642263412, 0.2784382104873657, 0.1849355846643448, 0.009814579039812088, 0.03815604746341705, 0.4421277642250061, 0.18115507066249847, 0.4170311987400055, 0.036709751933813095, -0.021186692640185356, 0.21343879401683807, -0.3514459729194641, -0.21122200787067413, -0.06713151186704636, -0.025565341114997864, 0.07158033549785614, -0.15916232764720917, 0.31213104724884033], [-0.14135634899139404, 0.2771981954574585, -0.11828502267599106, -0.04254063218832016, -0.18333207070827484, 0.20264536142349243, 0.2141590118408203, -0.021982373669743538, 0.034890346229076385, -0.03429490700364113, 0.1491091549396515, -0.2649341821670532, 0.03214356675744057, -0.5944328904151917, 0.2484063357114792, 0.04221648722887039, 0.01789603754878044, 0.30972960591316223, -0.3218046724796295, -0.0031431643292307854, -0.13188718259334564, -0.41883450746536255, -0.09999454021453857, 0.3160848915576935], [0.03170565143227577, 0.37818431854248047, -0.3406308591365814, -0.04707099124789238, -0.04598977044224739, 0.08481699228286743, 0.4146812856197357, -0.16750237345695496, -0.07234623283147812, 0.10400572419166565, -0.0763673484325409, -0.012610726989805698, -0.011805751360952854, -0.20433521270751953, 0.5169790983200073, -0.025976141914725304, 0.06953436136245728, 0.05638418346643448, 0.028675533831119537, 0.09018827974796295, -0.2809096574783325, -0.02808254212141037, 0.054323963820934296, -0.0939645916223526], [-0.03652164340019226, -0.05716892331838608, -0.012457415461540222, 0.023262815549969673, -0.05539349839091301, 0.0389036200940609, -0.04596688225865364, -0.019771084189414978, -0.028248699381947517, 0.07687514275312424, 0.08130441606044769, -0.04666036739945412, -0.011623406782746315, -0.09333965182304382, -0.011396169662475586, 0.05579954385757446, -0.1003107875585556, -0.007975177839398384, 0.02405271679162979, 0.15645277500152588, 0.012894727289676666, -0.19152484834194183, 0.10278294235467911, 0.09056417644023895], [-0.2837342917919159, 0.29096561670303345, -0.14244259893894196, -0.004760377109050751, 0.0229470394551754, 0.12257350236177444, 0.26414990425109863, -0.13947628438472748, 0.029225081205368042, 0.02638878859579563, -0.14999936521053314, 0.133540078997612, 0.027481751516461372, -0.10986343771219254, 0.16165705025196075, -0.029734941199421883, 0.07878759503364563, 0.054616957902908325, -0.26089778542518616, 0.010247543454170227, -0.1103094145655632, -0.015487175434827805, 0.07367293536663055, 0.0626281350851059], [0.10834833979606628, 0.3534711003303528, -0.30879920721054077, 0.024446258321404457, 0.12071642279624939, 0.032812029123306274, 0.3146151900291443, -0.2526511251926422, -0.0746939405798912, -0.013352042064070702, 0.11056292057037354, -0.1800895631313324, -0.12714749574661255, -0.3744126558303833, 0.36247962713241577, 0.02939838171005249, -0.13051794469356537, 0.028799505904316902, -0.03337744250893593, 0.12035194039344788, -0.14093008637428284, -0.18729928135871887, 0.11433526873588562, -0.004636904690414667], [-0.06038375571370125, 0.379334032535553, -0.24659377336502075, 0.062028806656599045, 0.04427637532353401, 0.010394498705863953, 0.3563920855522156, -0.24421551823616028, 0.0005756753380410373, 0.0010402544867247343, -0.0033701048232614994, -0.0898437350988388, -0.013428831472992897, -0.3054881989955902, 0.4083613157272339, -0.017629237845540047, -0.0939960926771164, -0.008741052821278572, -0.02845720201730728, -0.03693568333983421, -0.22018496692180634, -0.11433915793895721, 0.17239154875278473, 0.05781412869691849], [0.07592792063951492, -0.227739155292511, -0.15194126963615417, -0.18138231337070465, 0.03210834786295891, 0.012332997284829617, 0.06298857927322388, -0.2077554166316986, 0.15949054062366486, -0.13763199746608734, 0.30094462633132935, -0.09939828515052795, 0.012561745010316372, -0.07567065209150314, -0.22350676357746124, 0.042136725038290024, -0.7601584792137146, 0.005666729062795639, -0.2573684751987457, -0.4845341145992279, 0.27544528245925903, 0.03154613450169563, 0.04295114055275917, 0.06938034296035767], [0.8755578398704529, 0.04338919743895531, 0.26804062724113464, -0.16340243816375732, 0.0005423001130111516, -0.4457646310329437, -0.004607669077813625, 0.01000185590237379, 0.1067597046494484, -0.10905269533395767, -0.14637406170368195, 0.3406781256198883, -0.10060489922761917, 0.10660438239574432, 0.225901797413826, -0.1776885688304901, 0.13554967939853668, 0.9250310659408569, 0.09024117887020111, 0.006575833540409803, -0.7282608151435852, 0.2311805635690689, 0.26752734184265137, 0.23489117622375488], [-0.08906375616788864, 0.012613198719918728, -0.1412002593278885, 0.08580898493528366, -0.11152978241443634, 0.0807822197675705, 0.2371344417333603, -0.2713843584060669, -0.15591774880886078, 0.10307928174734116, -0.07334010303020477, -0.4950399100780487, 0.014972229488193989, -0.030835367739200592, 0.3245810568332672, 0.09013813734054565, 0.026565155014395714, -0.22572515904903412, 0.0020927665755152702, 0.00901553500443697, -0.05826845020055771, -0.5284567475318909, -0.04188338667154312, -0.09635904431343079], [0.07004988193511963, 0.2617505192756653, 0.10905798524618149, -0.9779931306838989, 0.005496522877365351, 0.3702612519264221, 0.14630556106567383, -0.17018240690231323, 0.11779840290546417, 0.3625537157058716, 0.08942405134439468, 0.04396319389343262, 0.16084453463554382, -0.3266627788543701, -0.021994922310113907, -0.061378393322229385, 0.04105357453227043, 0.3403085470199585, -0.29515042901039124, 0.1671776920557022, -0.03193875774741173, 0.2771664261817932, 0.270169734954834, 0.15718336403369904], [-0.06032430753111839, 0.3902417719364166, -0.22306601703166962, 0.24777428805828094, -0.13503508269786835, 0.25109031796455383, 0.1761612445116043, -0.14329499006271362, -0.1830025613307953, 0.05807456374168396, -0.05849159136414528, -0.19327354431152344, -0.017114993184804916, -0.023187225684523582, 0.2226731926202774, 0.10524005442857742, -0.13776956498622894, -0.12170641124248505, 0.10351374745368958, -0.006955489981919527, -0.10506606847047806, -0.25105413794517517, 0.31714674830436707, -0.012365950271487236]], "rec.bias_ih_l0": [0.212811678647995, -0.089190274477005, -0.5117495656013489, -0.8270356059074402, -0.3701036870479584, 0.3646067678928375, -0.16058272123336792, -0.717235267162323, -0.9434112906455994, 0.4104636311531067, 0.2983546555042267, 0.1659698188304901, 0.12377511709928513, -0.8395965099334717, 0.18173374235630035, -0.01221118401736021, -0.2778511643409729, 0.3872971832752228, 0.353613018989563, 0.3732818365097046, 0.11401324719190598, -0.5650347471237183, 0.2569180428981781, -0.1705414354801178, -0.2168235033750534, 0.4586656987667084, 0.8028182983398438, 0.8467842936515808, 0.4509575068950653, 0.09790340811014175, 0.45649445056915283, 0.7980072498321533, 1.0588743686676025, -0.0917605459690094, 0.355092853307724, 0.09165839850902557, 0.40615272521972656, 0.9996131658554077, 0.31265902519226074, 0.0694354772567749, 0.4306478202342987, -0.08314704149961472, -0.008355948142707348, 0.18919381499290466, 0.32951754331588745, 1.042822003364563, 0.05559975281357765, 0.05713581293821335, -0.1462796926498413, 0.1482909619808197, -0.266794890165329, 0.08675052225589752, -0.1417727917432785, 0.07638691365718842, 0.12188750505447388, -0.03705131635069847, -0.04174680635333061, 0.05974772572517395, -0.5108407139778137, 0.28055334091186523, 0.12729623913764954, -0.1076696366071701, -0.12176132947206497, -0.03619575500488281, -0.05948964133858681, 0.08603434264659882, -0.30692386627197266, 0.2360677719116211, 0.07266975939273834, -0.14407281577587128, 0.06395787000656128, -0.2606997489929199, 0.30725717544555664, 0.40309619903564453, 0.42267197370529175, 0.17958053946495056, 0.20275913178920746, -0.1433008760213852, 0.34187033772468567, 0.2158944457769394, 0.13366280496120453, -0.4222773313522339, 0.04190663620829582, 0.28660503029823303, 0.20875339210033417, 0.2864672541618347, 0.5273787975311279, -0.017172496765851974, 0.17633818089962006, 0.4098440706729889, 0.39206939935684204, -0.2913432717323303, 0.2670399248600006, 0.2568610906600952, -0.025283563882112503, 0.1422530859708786], "rec.bias_hh_l0": [0.21281182765960693, -0.09084633737802505, -0.5264442563056946, -0.8668137788772583, -0.37010401487350464, 0.3646067678928375, -0.15782414376735687, -0.7226806282997131, -0.9969832897186279, 0.4104636311531067, 0.2983546555042267, 0.1659698784351349, 0.12377511709928513, -0.8836554288864136, 0.18173374235630035, -0.01221118401736021, -0.2779330611228943, 0.3872971832752228, 0.353613018989563, 0.3732818365097046, 0.11401324719190598, -0.5821782350540161, 0.2569180428981781, -0.17741897702217102, -0.21839961409568787, 0.46186867356300354, 0.7247403264045715, 0.851777970790863, 0.4509575068950653, 0.09726644307374954, 0.46558815240859985, 0.7987805008888245, 1.056585431098938, -0.07605624943971634, 0.3550923466682434, 0.09325824677944183, 0.4061298668384552, 1.0796231031417847, 0.31265902519226074, 0.0694354772567749, 0.43061429262161255, -0.08329594880342484, -0.007008132990449667, 0.18805892765522003, 0.32951754331588745, 1.0319182872772217, 0.05617690086364746, 0.06273002177476883, -0.13374890387058258, 0.08745085448026657, -0.18498650193214417, -0.051554758101701736, -0.1330399066209793, 0.10793383419513702, 0.12245786935091019, -0.0442584864795208, -0.10133757442235947, 0.10593581944704056, -0.4427407383918762, 0.30382275581359863, 0.1095464825630188, -0.24628326296806335, -0.12547874450683594, -0.036195944994688034, 0.025790899991989136, 0.15211397409439087, -0.23647622764110565, 0.23676972091197968, 0.07266975939273834, -0.11523891985416412, 0.09133601188659668, -0.23779769241809845, 0.30725717544555664, 0.40953895449638367, 0.4221072494983673, 0.17746591567993164, 0.20275907218456268, -0.14292743802070618, 0.33335667848587036, 0.19645029306411743, 0.14604128897190094, -0.47560301423072815, 0.0436534620821476, 0.22901372611522675, 0.22812572121620178, 0.2847226858139038, 0.526782751083374, -0.017172496765851974, 0.17633835971355438, 0.4098440706729889, 0.39206939935684204, -0.2852087616920471, 0.26076650619506836, 0.2570567727088928, -0.019224967807531357, 0.14224335551261902], "lin.weight": [[-0.26839596033096313, -0.24889463186264038, 0.21874581277370453, -0.14600157737731934, 0.06120888143777847, 0.4674146771430969, 0.10048031061887741, -0.30150705575942993, -0.18862056732177734, 1.2317943572998047, -0.054974332451820374, 0.11402017623186111, 0.3110924959182739, -0.33713072538375854, -0.09705743938684464, 0.09028038382530212, 0.10887864232063293, -0.25092753767967224, -0.10470008105039597, 0.0080195851624012, -0.38468319177627563, -0.17802336812019348, -0.28761401772499084, 0.06713338196277618]], "lin.bias": [-0.24365031719207764]}}