{"model_data": {"model": "SimpleRNN", "input_size": 2, "skip": 1, "output_size": 1, "unit_type": "LSTM", "num_layers": 1, "hidden_size": 24, "bias_fl": true}, "state_dict": {"rec.weight_ih_l0": [[-0.008244792930781841, 0.2598472535610199], [-0.006767860613763332, 0.3426549434661865], [-0.29599529504776, -0.26831498742103577], [0.01789000816643238, 0.19969020783901215], [0.1944860816001892, -0.787264883518219], [-0.18712890148162842, 0.5079841017723083], [-0.1314910352230072, 0.8207111954689026], [-0.09573158621788025, 0.3965771794319153], [0.017893869429826736, 0.3711856007575989], [0.0026493670884519815, 0.0031573264859616756], [-0.040685031563043594, -0.47722309827804565], [0.229009747505188, -0.04307360202074051], [-0.038197267800569534, 0.1910366266965866], [0.11116014420986176, -0.5975172519683838], [-0.006620429921895266, -0.4015547037124634], [0.03542204201221466, 0.07186207175254822], [0.06703813374042511, -0.12831752002239227], [-0.03396289423108101, -0.12974967062473297], [0.03374404087662697, -0.11819794028997421], [0.5960552096366882, -0.7453843951225281], [0.19126394391059875, 0.1977941393852234], [0.22322657704353333, -0.14378578960895538], [-0.053986579179763794, 0.3105732202529907], [0.145035520195961, -0.1670711636543274], [0.08897317945957184, 0.08782096952199936], [0.03681132197380066, 0.21180665493011475], [-0.09384896606206894, 0.8608633875846863], [-0.11796408146619797, 0.06286457926034927], [0.17718030512332916, 0.5984753370285034], [0.05766669288277626, 0.4136170744895935], [-0.2653162479400635, 0.33301785588264465], [-0.28197959065437317, 0.18822124600410461], [0.0063736941665410995, 0.24006392061710358], [0.0020936280488967896, 0.006573266349732876], [0.14189274609088898, 0.4441685676574707], [0.19476868212223053, -0.38599714636802673], [-0.06368893384933472, 0.20274537801742554], [0.2046562135219574, 0.7160258293151855], [-0.0006205253303050995, 0.7093278169631958], [0.03234650939702988, -0.06826100498437881], [0.06623542308807373, 0.66412353515625], [0.22324083745479584, 0.7864071726799011], [0.05584528669714928, -0.2572631537914276], [0.3512306809425354, -0.17133493721485138], [-0.019740095362067223, 0.4616207480430603], [0.25108930468559265, 0.3212772607803345], [-0.21088247001171112, -0.1175835132598877], [0.1743515133857727, 0.15293246507644653], [-0.5597497820854187, -0.8735942244529724], [0.12592576444149017, -0.20138444006443024], [-0.14302514493465424, -0.26774874329566956], [0.419416606426239, 0.2159261852502823], [0.2772597074508667, -0.09611497819423676], [-0.5540152192115784, -0.34459763765335083], [0.06455738097429276, -0.45469439029693604], [2.447188138961792, -0.5110363960266113], [-0.36686718463897705, -0.8694769740104675], [-0.02704225853085518, -0.010198335163295269], [0.20460067689418793, -0.07045570760965347], [0.19797945022583008, 0.0330062061548233], [-0.28778836131095886, 0.4854847490787506], [-0.046523477882146835, 0.10354838520288467], [-0.23535238206386566, 0.0065467581152915955], [0.05463077872991562, -0.6816537380218506], [-0.2183118611574173, 0.17898185551166534], [-0.6665640473365784, -0.1571204662322998], [0.05150667577981949, -1.0715502500534058], [-0.28409820795059204, 0.04109663888812065], [0.7002533674240112, -0.11648040264844894], [-0.18946966528892517, -0.10957593470811844], [0.6228762865066528, 0.4011188745498657], [0.1804247349500656, 0.03271235153079033], [-0.24858495593070984, -0.08701939880847931], [0.30047133564949036, -0.26668044924736023], [0.29908519983291626, 0.09107493609189987], [0.0006346905138343573, 0.2469729483127594], [-0.0026019446086138487, 0.08611184358596802], [0.28460437059402466, 0.07266032695770264], [-0.01624220609664917, 0.23914475739002228], [-0.11808306723833084, 0.4031868577003479], [0.010842293500900269, 0.422882616519928], [0.002578781684860587, 0.0031680858228355646], [0.23063039779663086, 0.349605530500412], [0.040667250752449036, 0.3286045789718628], [-0.03730745241045952, 0.1137818843126297], [-0.044454704970121384, -0.3203624486923218], [0.14056798815727234, 0.23551128804683685], [0.11820541322231293, -0.009119479916989803], [0.07028307020664215, 0.16720986366271973], [-0.23718851804733276, 0.07753651589155197], [0.4159443974494934, -1.221086859703064], [0.05920402333140373, 0.3221485912799835], [0.02714746817946434, 0.13529789447784424], [-0.06763996928930283, 0.28776082396507263], [-0.13172993063926697, 0.23143284022808075], [0.1078236922621727, 0.13857172429561615]], "rec.weight_hh_l0": [[-0.07581867277622223, 0.007808492053300142, -0.15305465459823608, -0.1956092268228531, 0.10606691241264343, -0.04579223319888115, 0.05282492935657501, 0.05235092341899872, -0.22698594629764557, 0.004610761534422636, 0.10162675380706787, 0.2281423658132553, 0.14343994855880737, 0.12949778139591217, -0.020257364958524704, 0.1448134183883667, 0.1875031739473343, 0.08621075749397278, -0.017557254061102867, -0.2698437571525574, 0.014109420590102673, 0.09057825058698654, -0.22462594509124756, 0.033225782215595245], [0.18021160364151, -0.03850390762090683, -0.2529912292957306, -0.09395485371351242, 0.21728713810443878, 0.016700776293873787, -0.05918293818831444, -0.004637998528778553, -0.03606146201491356, -0.002472799504175782, 0.1617784947156906, 0.3595722019672394, 0.1408771127462387, 0.23392875492572784, 0.037847280502319336, 0.047631219029426575, 0.1501704305410385, 0.16282334923744202, -0.14439773559570312, -0.3841826021671295, 0.09523223340511322, 0.15294085443019867, 0.05407080799341202, 0.032615575939416885], [-0.12720660865306854, 0.2630855143070221, -0.05119480937719345, 0.21030521392822266, -0.05743733420968056, 0.10416579991579056, 0.09047561138868332, 0.015590673312544823, 0.18503932654857635, 0.010117031633853912, -0.4658413827419281, -0.78518146276474, -0.383511483669281, -0.4964553713798523, -0.0352446548640728, -0.12631632387638092, 0.1038631722331047, -0.08430934697389603, 0.046348363161087036, 0.5504377484321594, -0.16250132024288177, -0.03124351054430008, 0.032680291682481766, 0.34621769189834595], [0.051702070981264114, 0.08202707022428513, -0.15310850739479065, -0.07711595296859741, 0.1354982703924179, -0.06314893811941147, -0.09561307728290558, 0.031244883313775063, 0.12416230142116547, -0.0016439097234979272, 0.12648729979991913, 0.29489660263061523, 0.1394617110490799, 0.17109182476997375, -0.003007036866620183, -0.03270557150244713, 0.05182851105928421, 0.1706843078136444, -0.07668851315975189, -0.26728612184524536, 0.09044215083122253, 0.08004426956176758, 0.06072615832090378, -0.08408430218696594], [-0.24938423931598663, -0.28159335255622864, 0.23866401612758636, 0.300730437040329, -0.2556311786174774, 0.5078253746032715, 0.6954697966575623, 0.01675669103860855, -0.23375315964221954, 0.014114986173808575, -0.09477350115776062, -0.6377730965614319, -0.1354297697544098, -0.23984210193157196, -0.42468616366386414, 0.09490470588207245, -0.4385074973106384, -0.39324331283569336, 0.03624578192830086, 0.908665120601654, 0.34097322821617126, -0.18120741844177246, 0.13558131456375122, -0.045079924166202545], [-0.3291308581829071, 0.016871541738510132, -0.35323208570480347, -0.2701324224472046, 0.07889895141124725, -0.6541748046875, 0.30506274104118347, -0.058340009301900864, -0.31944918632507324, 0.007134594023227692, 0.026115035638213158, -0.002113994676619768, 0.30587705969810486, 0.16963902115821838, 0.09498291462659836, -0.5478235483169556, 0.226194366812706, 0.23729486763477325, -0.20927514135837555, -0.11924983561038971, -0.06565231084823608, 0.10804778337478638, -0.29995858669281006, -0.04961403086781502], [-0.4944746494293213, -0.1861678659915924, -0.27431726455688477, -0.30493655800819397, 0.3031907081604004, 0.11171157658100128, -0.161305233836174, 0.14628903567790985, -0.42656466364860535, 0.010434739291667938, -0.11980243027210236, -0.2930299937725067, -0.39630258083343506, 0.2817222774028778, 0.21646937727928162, -0.7205219864845276, -0.025330519303679466, 0.4877912700176239, -0.2536831200122833, 0.12051283568143845, -0.32128626108169556, -0.010171107947826385, -0.021228516474366188, 0.2567169964313507], [-0.0800280049443245, -0.01872965693473816, -0.24993744492530823, -0.11766768991947174, 0.13593769073486328, -0.01821315661072731, -0.1478504240512848, 0.03491302579641342, 0.006814603228121996, 0.002707915147766471, 0.16005761921405792, 0.3162584900856018, 0.21382448077201843, 0.29303351044654846, 0.10552068799734116, -0.031264640390872955, 0.1119484230875969, 0.17495375871658325, -0.13568918406963348, -0.23362763226032257, -0.061829183250665665, 0.13043303787708282, -0.046841952949762344, 0.06645351648330688], [-0.13698600232601166, -0.04777144640684128, -0.2037067711353302, 0.06174555420875549, 0.11873720586299896, -0.13415729999542236, -0.08224856108427048, -0.08249972760677338, -0.07270272821187973, 0.002372352872043848, 0.2044263333082199, 0.2097780704498291, 0.22286255657672882, 0.10418473184108734, 0.020311148837208748, 0.006869274191558361, 0.06205177679657936, 0.17476986348628998, -0.0905749723315239, -0.25548866391181946, -0.02257404290139675, 0.054425712674856186, -0.0023371123243123293, -0.0825205072760582], [0.0010494869202375412, 0.002355442149564624, -0.0028492342680692673, 0.004205839242786169, 0.0024710639845579863, 0.0010372961405664682, 0.0034061316400766373, 0.002356183947995305, 0.0018407077295705676, -8.012461330508813e-05, 6.473378016380593e-05, 0.0034049535170197487, 0.0020642015151679516, 0.00042944285087287426, 0.0012320937821641564, 0.0005661616451106966, 0.0018050152575597167, -0.0005054019857198, -0.003013938432559371, -0.00436734315007925, 0.001972450874745846, 0.004289901349693537, -0.0007700992864556611, -0.00026626914041116834], [-0.4291897118091583, -0.34780630469322205, 0.565384030342102, 0.34958910942077637, -0.036228690296411514, -0.29282036423683167, 0.13405457139015198, 0.1334334760904312, -0.0191482100635767, 0.024581102654337883, -0.20207181572914124, -0.6542676687240601, -0.3428618907928467, -0.19723409414291382, -0.3917064964771271, 0.03596501052379608, -0.04389915615320206, -0.0026487098075449467, -0.27511489391326904, 1.1339434385299683, -0.05277848616242409, -0.371792197227478, -0.01048428937792778, 0.2017257809638977], [-0.15761204063892365, 0.12310747057199478, 0.10395490378141403, -0.05591012164950371, 0.1253499984741211, -0.14720578491687775, 0.3216738700866699, 0.04882493615150452, -0.22396297752857208, 0.0038713086396455765, -0.08465540409088135, 0.3700712323188782, 0.30098414421081543, -0.26677924394607544, -0.05111513286828995, 0.3069780468940735, -0.2957809269428253, -0.3030884563922882, 0.06893561780452728, -0.18309296667575836, 0.1161976084113121, 0.059500932693481445, -0.4553849697113037, -0.25081127882003784], [-0.1356726884841919, 0.04019996151328087, -0.14755254983901978, -0.35439255833625793, 0.04118932783603668, -0.005707998760044575, -0.08126802742481232, -0.06611014157533646, -0.006706935819238424, 0.0001660808629821986, -0.0010193256894126534, 0.09587331861257553, 0.10159061849117279, 0.09316619485616684, 0.003870149841532111, 0.14684072136878967, 0.03701915964484215, -0.1239461824297905, -0.026094520464539528, 0.008108453825116158, 0.040712833404541016, -0.019248323515057564, -0.11796102672815323, 0.14279846847057343], [-0.1475333273410797, 0.09672754257917404, -0.29129940271377563, 0.4707779288291931, -0.8035982251167297, 0.23681165277957916, -0.3058270215988159, -0.1604805439710617, -0.2815674841403961, -0.0006029302603565156, -0.1893468201160431, -0.4538024365901947, -0.3119185268878937, 0.2878435552120209, 0.14571204781532288, 0.1893112063407898, -0.0808146521449089, -0.8649786710739136, 0.21358077228069305, 0.6634660363197327, -0.5025404095649719, -0.4096532166004181, 0.3202933967113495, 0.0171220600605011], [-0.29776686429977417, -0.06850599497556686, -0.03715362027287483, 0.20180466771125793, -0.4012535810470581, 0.2748861014842987, 0.27736982703208923, 0.12525677680969238, 0.13750116527080536, 0.009672741405665874, -0.26855766773223877, -0.9374918341636658, -0.35303959250450134, -0.43895772099494934, -0.20965394377708435, 0.10319288820028305, 0.12090329080820084, -0.04860631376504898, 0.023190991953015327, 0.7032793164253235, -0.06173575296998024, -0.07991132885217667, -0.04048455134034157, -0.028895972296595573], [0.1790798306465149, -0.04363611340522766, -0.11651481688022614, 0.2462320625782013, 0.07754258811473846, 0.03949328139424324, -0.07019489258527756, -0.03070918098092079, -0.11611854285001755, 0.0006240662769414485, 0.05133005604147911, 0.17764191329479218, 0.16858994960784912, -0.026520749554038048, 0.12455528974533081, 0.06671339273452759, 0.0988675206899643, 0.010921747423708439, -0.049672484397888184, -0.15798012912273407, 0.0739867314696312, 0.22806541621685028, 0.08379525691270828, 0.14470204710960388], [0.2309950590133667, -0.35012754797935486, 0.22882430255413055, 0.233672633767128, -0.4296341836452484, 0.05770452693104744, 0.18340423703193665, 0.16739465296268463, -0.22192902863025665, -0.0011800382053479552, -0.3167478144168854, -1.0121537446975708, -0.07295776903629303, -0.7119171023368835, -0.743546187877655, -0.028305521234869957, 0.14766348898410797, -0.3634965717792511, -0.023174220696091652, 0.9964424967765808, -0.059235528111457825, -0.2351328283548355, -0.12537528574466705, 0.5496863126754761], [-0.23719699680805206, -0.30000564455986023, -0.3551780879497528, 0.34175795316696167, 0.25015145540237427, -0.016777748242020607, -0.18228286504745483, -0.09647414088249207, -0.33002787828445435, 0.005483617074787617, -0.6269530057907104, -0.7659874558448792, -0.12341596186161041, -0.2391943335533142, -0.7978096604347229, -0.1264045536518097, -0.2724149525165558, -0.13409732282161713, -0.09831305593252182, 0.8731418251991272, -0.3349016010761261, 0.12105745822191238, 0.07764077186584473, -0.27750158309936523], [0.16213564574718475, -0.16727405786514282, 0.0272220391780138, 0.06211472302675247, 0.05250220745801926, 0.15442325174808502, -0.18691614270210266, 0.03849644213914871, -0.22483965754508972, 0.0042132227681577206, -0.08460478484630585, -0.017417682334780693, 0.07387030124664307, 0.022026151418685913, 0.008734620176255703, -0.04880824685096741, 0.12580886483192444, 0.07370743900537491, 0.2607627213001251, -0.10228458791971207, 0.0023374164011329412, -0.025247909128665924, -0.07653603702783585, 0.08037669956684113], [-0.020524870604276657, 0.0018676825566217303, 0.25636425614356995, 0.27998021245002747, -0.227983757853508, -0.061232224106788635, 0.4788874089717865, 0.24340368807315826, 0.1691601425409317, -0.0015928182983770967, 0.06565249711275101, -0.07454150170087814, -0.3740008771419525, -0.8220912218093872, 0.0013502963120117784, -0.030253592878580093, 0.18732663989067078, -0.10793621093034744, 0.11814091354608536, -0.0063933320343494415, -0.15945450961589813, -0.35012727975845337, -0.11292339116334915, -0.014130176976323128], [-0.040230847895145416, -0.1184319332242012, 0.008994077332317829, 0.15295687317848206, -0.009865429252386093, 0.09921003878116608, 0.08771821856498718, 0.26667386293411255, -0.28250962495803833, 0.006977743469178677, -0.1960112750530243, -0.46764442324638367, 0.052347153425216675, -0.1285991370677948, -0.06318636238574982, -0.05815499275922775, -0.06946265697479248, 0.08149532973766327, -0.26482585072517395, 0.374875009059906, -0.20697209239006042, -0.33707141876220703, -0.11245184391736984, 0.025353647768497467], [-0.3110872805118561, 0.04699567332863808, 0.1816914826631546, -0.012642011046409607, -0.001812428585253656, 0.3211272656917572, -0.17699870467185974, -0.027301201596856117, -0.4846561551094055, -0.0028130689170211554, -0.08570389449596405, -0.22693662345409393, 0.06716016680002213, -0.3804275691509247, -0.26138797402381897, -0.06738363951444626, -0.40838000178337097, -0.5082046389579773, 0.02272886410355568, 0.39806175231933594, 0.023896312341094017, -0.2716861069202423, 0.2792884409427643, -0.13793082535266876], [-0.17463319003582, 0.04481949657201767, -0.25390785932540894, -0.1941225230693817, 0.11110483109951019, -0.04826882481575012, -0.1658180058002472, -0.01071671862155199, -0.16248896718025208, 0.007926157675683498, 0.2717507779598236, 0.15224726498126984, 0.28398334980010986, 0.28825849294662476, 0.06825379282236099, -0.022508936002850533, 0.1293678879737854, 0.062167976051568985, 0.04708452895283699, -0.10172522813081741, -0.009903023019433022, 0.1397293210029602, -0.20521953701972961, -0.022958731278777122], [-0.018242336809635162, 0.12777964770793915, 0.14503584802150726, 0.2591840624809265, -0.16141706705093384, 0.016433415934443474, 0.1357409805059433, 0.08023996651172638, -0.28638818860054016, -0.005536139477044344, 0.1831158995628357, -0.053696807473897934, -0.09417209774255753, -0.36356449127197266, -0.36524662375450134, 0.15074867010116577, -0.06296805292367935, -0.19983601570129395, 0.01607925072312355, -0.13497428596019745, -0.19981910288333893, 0.21753598749637604, -0.26637688279151917, -0.1592966467142105], [-0.14247769117355347, 0.13252174854278564, -0.18406033515930176, -0.29347875714302063, -0.12110169231891632, -0.0650126188993454, 0.11027940362691879, 0.47654440999031067, 0.172333762049675, 0.002105658408254385, -0.04885190352797508, 0.3334789276123047, 0.1586318016052246, 0.06776133924722672, -0.009137148968875408, 0.2670944929122925, 0.290060430765152, 0.012457692064344883, -0.002866239519789815, -0.4519719183444977, 0.2765350341796875, 0.20057612657546997, -0.06487211585044861, 0.035441745072603226], [-0.043610990047454834, -0.396193265914917, -0.26137250661849976, 0.28875255584716797, 0.22570554912090302, 0.6845036745071411, 0.018151409924030304, 0.009785622358322144, -0.010927463881671429, -0.00568268122151494, 0.500183641910553, 0.009943758137524128, 0.19350579380989075, 0.03666401281952858, 0.09636262059211731, -0.19159001111984253, 0.10081011801958084, 0.026797587051987648, -0.19260038435459137, -0.035065535455942154, -0.1620979905128479, 0.359508216381073, 0.5022812485694885, 0.01874563656747341], [0.23252011835575104, 0.08843788504600525, -0.31816476583480835, -0.17675340175628662, 0.5386723279953003, 0.2091101109981537, -0.4348449110984802, 0.03824840858578682, -0.18807213008403778, 0.004358518403023481, -0.1945350021123886, 0.7425886988639832, 0.5030896067619324, 0.5145812034606934, 0.3884011209011078, 0.10995963215827942, 0.36284390091896057, 0.3072338104248047, -0.18171338737010956, -0.7622785568237305, 0.12620900571346283, 0.445076048374176, 0.06797607988119125, 0.5081276893615723], [0.1701321005821228, 0.23976124823093414, -0.11333833634853363, -0.11135000735521317, 0.1692739576101303, 0.10480900853872299, -0.27083727717399597, -0.09855282306671143, 0.3133200407028198, -0.0007750791846774518, 0.11525268852710724, 0.0887681320309639, 0.04827581346035004, 0.15710489451885223, -0.08986806869506836, 0.061733175069093704, -0.11071281880140305, 0.23855814337730408, -0.1141567975282669, 0.03825432062149048, 0.1979932188987732, 0.2323828488588333, 0.49364015460014343, -0.02053023874759674], [-0.1829647421836853, -0.14372429251670837, -0.5298879146575928, -0.5724473595619202, 0.36595553159713745, -0.16851955652236938, -0.3595706820487976, 0.022994209080934525, -0.06206421181559563, 0.01230156235396862, 0.370496541261673, 0.7604832649230957, 0.7882986664772034, 0.333049476146698, 0.054286256432533264, 0.14452329277992249, 0.14075808227062225, -0.5279480218887329, -0.12345438450574875, -0.906319260597229, 0.018808403983712196, 0.6749616265296936, -0.4066241681575775, -0.04088163003325462], [-0.9611337184906006, 0.3240310251712799, -0.19015195965766907, -0.4970349967479706, 0.15822573006153107, -1.2917536497116089, 1.1080389022827148, -0.16357257962226868, 0.30061104893684387, -0.004960808902978897, -0.165723517537117, 0.2754206359386444, -0.4515761435031891, -0.37952113151550293, -0.2607850730419159, 0.24220971763134003, 0.3978835940361023, -0.3725484609603882, 0.013605221174657345, -0.12070156633853912, 0.11419433355331421, 0.6444981694221497, -0.3324691951274872, 0.0809592753648758], [-0.22801846265792847, -0.0829264298081398, -0.09605669230222702, 0.1951606422662735, 0.4750969111919403, -0.029571756720542908, -0.1960781216621399, -0.6516214609146118, -0.4762518107891083, 0.006976945325732231, -0.24048498272895813, -0.17464344203472137, 0.34517744183540344, 0.05352889746427536, 0.06466633826494217, 0.03299209102988243, 0.11422321945428848, 0.07578641176223755, -0.005098152440041304, -0.03190087899565697, -0.18650095164775848, 0.4645541310310364, -0.2255926877260208, -0.08042504638433456], [-0.4381093978881836, -0.05103151500225067, -0.07689956575632095, 0.059455808252096176, 0.3214980959892273, -0.08253461867570877, -0.14767049252986908, 0.09521342813968658, -0.1887594610452652, 0.0073785544373095036, 0.20922434329986572, -0.14191071689128876, -0.023756498470902443, -0.0038680322468280792, 0.1810254156589508, 0.043018124997615814, -0.016342317685484886, -0.04791223630309105, -0.3155573308467865, 0.09346036612987518, -0.371000200510025, 0.9362159967422485, -0.32126304507255554, 0.4154483675956726], [-0.23615089058876038, -0.09882086515426636, -0.06071384996175766, 0.2189556211233139, 0.10336918383836746, -0.12885428965091705, -0.2909207046031952, -0.20615969598293304, 0.0389239676296711, 0.009221924468874931, 0.07457638531923294, -0.0021221942733973265, 0.3022795021533966, -0.19108963012695312, 0.0943068191409111, 0.16415394842624664, -0.07411894202232361, 0.2375321239233017, -0.08338220417499542, 0.04384395107626915, -0.17971394956111908, 0.184602752327919, 0.14767739176750183, -0.013214020058512688], [0.0006110336980782449, 0.0036276192404329777, -0.00524932611733675, 0.0013014542637392879, 0.004357918165624142, -0.0010814177803695202, 0.0037843280006200075, 0.0006084758788347244, 0.0003194742603227496, -9.604489605408162e-05, 0.0018987240036949515, 0.006607880350202322, 0.004171410109847784, 0.0026107875164598227, 0.001485606306232512, 0.00032961039687506855, 0.003249131143093109, 0.0009560566395521164, -0.0040030283853411674, -0.007357493508607149, 0.0025873074773699045, 0.005662943236529827, -0.0027405547443777323, -0.000735509442165494], [0.00037480590981431305, -0.1785738319158554, -0.2730562090873718, 0.08664786070585251, 0.3884884715080261, -0.4076957106590271, -0.7355998754501343, -0.0978226438164711, -0.025956572964787483, 0.005064002238214016, 0.34938281774520874, 1.0838629007339478, 0.5888411402702332, 0.5462239980697632, 0.37005510926246643, 0.3257147967815399, 0.10867511481046677, 0.37853509187698364, 0.2082596868276596, -0.8902519941329956, 0.0689748227596283, 0.5196661353111267, -0.1838882565498352, 0.06398758292198181], [0.03509575501084328, -0.1997307687997818, 0.11830952763557434, -0.10947202146053314, 0.20013821125030518, 0.25315937399864197, -0.0020151857752352953, 0.2936938405036926, -0.04408613592386246, -0.008769776672124863, -0.2567771077156067, 0.35111257433891296, 0.01427255105227232, -0.143650084733963, 0.09616295248270035, -0.023512370884418488, -0.29473063349723816, -0.24463295936584473, -0.009642069227993488, 0.09467022866010666, 0.18793725967407227, -0.17349125444889069, -0.033045824617147446, -0.0664418414235115], [0.35088473558425903, 0.1275162249803543, -0.02587134577333927, 0.02873443253338337, 0.2908809781074524, 0.04758549481630325, -0.029540641233325005, -0.1068027913570404, -0.228867307305336, 0.0016779499128460884, 0.18144020438194275, 0.2175208181142807, -0.019322356209158897, -0.0675722062587738, 0.16608071327209473, 0.23366549611091614, 0.28552451729774475, 0.2192680388689041, 0.02663184329867363, -0.03337942436337471, 0.21469774842262268, -0.06425461173057556, -0.19062642753124237, 0.3346034586429596], [-0.07088551670312881, -0.24674734473228455, -0.4962828755378723, -0.35753801465034485, 0.025939548388123512, -0.12800870835781097, -0.58903968334198, -0.38860780000686646, -0.487070232629776, 0.0037068978417664766, 0.1059250608086586, 0.596115231513977, 0.6538816690444946, 0.22094380855560303, -0.11036479473114014, 0.3683502972126007, -0.06335660070180893, -0.7394930720329285, 0.023162079975008965, -0.7600696682929993, 0.11675143241882324, 0.20396028459072113, 0.06870003044605255, 0.0030970792286098003], [0.39480751752853394, -0.6401869058609009, -0.378124862909317, -0.19932571053504944, 0.4153984785079956, 0.1655266135931015, -0.4057445526123047, 0.5080639719963074, -0.024785911664366722, 0.003804521868005395, 0.3884444236755371, 0.7625911235809326, 0.5769655704498291, 0.0023885294795036316, 0.30349135398864746, 0.036611877381801605, 0.5885058045387268, -0.023338837549090385, 0.07301302999258041, -0.9025963544845581, 0.10934305936098099, 0.48174166679382324, 0.30995506048202515, -0.12853720784187317], [0.10397215932607651, 0.0859970673918724, -0.24499419331550598, 0.20298214256763458, -0.0012607696698978543, -0.3020794987678528, -0.24558721482753754, 0.057607050985097885, 0.0164168830960989, 0.0004663040454033762, 0.08286453038454056, 0.10071903467178345, 0.16386716067790985, -0.16449786722660065, 0.09537776559591293, 0.06395021080970764, 0.21068821847438812, -0.0916057825088501, -0.1544809639453888, 0.044602084904909134, -0.05364394560456276, 0.40170779824256897, -0.0851120799779892, 0.3003018796443939], [0.3782217502593994, -0.13389451801776886, -0.5512186288833618, 0.04764547944068909, 0.2258080393075943, -0.08481483906507492, -0.9435878992080688, 0.1059882789850235, -0.16229349374771118, 0.0005658168811351061, -0.20800799131393433, 0.8026849031448364, 0.5877507925033569, 0.26375195384025574, 0.21230946481227875, 0.2966059446334839, 0.1657162755727768, 0.3397808372974396, -0.08788138628005981, -0.9275069832801819, -0.06399628520011902, 0.11126221716403961, -0.5678129196166992, -0.059114884585142136], [0.06083502992987633, 0.22346113622188568, -0.29595163464546204, -0.036524754017591476, 0.12369389086961746, -0.00884697213768959, -0.49736326932907104, -0.2444440871477127, 0.04832827299833298, -0.014530209824442863, -0.04797951504588127, 0.8507046699523926, -0.16138923168182373, 0.08379217982292175, 0.2545887529850006, 0.22512023150920868, 0.46744504570961, -0.11816795915365219, 0.05188385024666786, -0.8791969418525696, 0.40502792596817017, 0.4251614212989807, 0.22008851170539856, -0.23408357799053192], [0.3280763328075409, -0.3293980360031128, 0.10363825410604477, 0.11895404756069183, 0.033746492117643356, 0.4160916805267334, -0.34359070658683777, 0.169559508562088, -0.07002688199281693, 0.0008787385304458439, -0.11838357150554657, 0.20218303799629211, 0.11803027987480164, 0.03458104282617569, -0.0055800676345825195, -0.041306305676698685, 0.22835244238376617, 0.17702101171016693, 0.46044081449508667, -0.2684577703475952, 0.005140973720699549, -0.12425845116376877, 0.04573335498571396, 0.07459264248609543], [-0.014724778942763805, 0.024002153426408768, -0.2984734773635864, 0.0037053523119539022, 0.2294825315475464, -0.016953710466623306, -0.009575022384524345, -0.396904319524765, -0.15921977162361145, 0.0018696702318266034, 0.40096306800842285, 0.5236810445785522, -0.04338658228516579, -0.44784873723983765, 0.44214120507240295, 0.03542798385024071, 0.6187743544578552, 0.5078388452529907, -0.1433156579732895, -0.6952778697013855, 0.0873882845044136, -0.08054537326097488, -0.06995131075382233, 0.03883674368262291], [0.08911342918872833, 0.14625230431556702, -0.3575826585292816, 0.15308405458927155, 0.21553251147270203, -0.0936594009399414, -0.08925323933362961, -0.10507912188768387, -0.07555681467056274, 0.0031179513316601515, 0.2370416224002838, 0.43175679445266724, 0.41494014859199524, 0.23042656481266022, -0.09568479657173157, 0.20678822696208954, 0.4343825876712799, 0.059129949659109116, -0.033942583948373795, -0.4147355854511261, 0.14065830409526825, 0.060144662857055664, -0.33113932609558105, 0.022703787311911583], [-0.13948781788349152, 0.030016720294952393, -0.29687410593032837, 0.04702978581190109, 0.3323822319507599, -0.020512424409389496, -0.2188853621482849, 0.15561196208000183, -0.10205401480197906, -0.012929599732160568, -0.19847843050956726, 0.38428691029548645, 0.40969762206077576, -0.003896616864949465, 0.2734672427177429, -0.1951967179775238, 0.076749287545681, -0.2526836097240448, -0.21651898324489594, -0.3441438674926758, 0.11723832041025162, 0.08953558653593063, -0.2516774833202362, 0.09601880609989166], [-0.07892899215221405, -0.09743493050336838, -0.1190156638622284, 0.007908709347248077, 0.2116745412349701, 0.08078818768262863, 0.09795282781124115, 0.00653707655146718, 0.32927048206329346, 0.015384620986878872, 0.21569247543811798, 0.09622861444950104, 0.8269158601760864, 0.33552369475364685, 0.10838654637336731, -0.04086482897400856, -0.020755205303430557, 0.1795136034488678, 0.34749072790145874, 0.1732492744922638, 0.18058642745018005, 0.42712295055389404, -0.1254332810640335, -0.16910383105278015], [0.07833019644021988, 0.08390341699123383, -0.17628730833530426, 0.07243333011865616, -0.10793730616569519, -0.02694324404001236, 0.04704185575246811, 0.16471782326698303, -0.04521651938557625, -0.005493399687111378, 0.310806006193161, 0.24271701276302338, 0.024057310074567795, -0.17144159972667694, -0.21851208806037903, 0.15032850205898285, 0.13038578629493713, -0.12559635937213898, -0.12587504088878632, -0.38568559288978577, 0.2022167593240738, 0.2878870666027069, 0.17188377678394318, -0.16470684111118317], [-0.0034214688930660486, -0.2311306595802307, 0.4072302579879761, -0.36151376366615295, 0.007102599833160639, -0.07743512094020844, -0.18268026411533356, -0.40480655431747437, -0.048670776188373566, -0.0059570553712546825, 0.110946886241436, 0.05407248064875603, 0.5461910963058472, -0.9607972502708435, 0.09364166110754013, 0.14024463295936584, -0.16789160668849945, 0.33429965376853943, -0.05145388841629028, -0.6619914770126343, -0.7017033100128174, 0.06351372599601746, 0.3643181025981903, 0.21069373190402985], [-0.6853333711624146, 0.03710314631462097, 0.1313782036304474, -0.5469829440116882, 0.7254981398582458, -0.2091968059539795, 1.0507166385650635, -0.021113673225045204, 0.6809694170951843, 0.004267091862857342, -0.5154097676277161, 0.6956482529640198, -0.26784762740135193, -0.006547597236931324, -0.13876764476299286, 0.8263974785804749, 0.3903145492076874, -0.17199385166168213, 0.08694370836019516, 0.12845346331596375, 0.13291996717453003, -0.3030635416507721, -0.3222014009952545, 0.36419835686683655], [0.03748146817088127, -0.06696220487356186, 0.36862820386886597, 0.07282063364982605, 0.5065188407897949, 0.23019905388355255, 0.47829949855804443, 0.04503801092505455, 0.06699707359075546, -0.0020308957900851965, 0.26495078206062317, 0.0344989113509655, -0.2043832242488861, 0.018528908491134644, 0.06231999769806862, -0.30733123421669006, -0.16673564910888672, 0.5723064541816711, 0.2215648740530014, 0.25718602538108826, -0.32745230197906494, -0.191313236951828, -0.2026294767856598, 0.16029787063598633], [0.17763350903987885, 0.05030851438641548, 0.3878042697906494, 0.22539439797401428, -0.3566097021102905, -0.1403886377811432, -0.18557392060756683, -0.17180177569389343, -0.5298836827278137, -0.0073010302148759365, 0.10898805409669876, -0.41368892788887024, 0.40106552839279175, 0.11740338057279587, 0.5451192259788513, 0.21699018776416779, 0.7967457175254822, 0.5858022570610046, 0.25713953375816345, -0.0401972196996212, 0.4638311564922333, 0.23501667380332947, -0.1855178028345108, -0.6564267873764038], [-0.09087338298559189, -0.14353378117084503, 0.4278601408004761, -0.05647934228181839, 0.23446962237358093, 0.46310579776763916, -0.4552401900291443, -0.05935601145029068, -0.3445533812046051, -0.00666827755048871, -0.6585785746574402, 0.15056800842285156, -0.0917961448431015, 0.07425646483898163, -0.3047330975532532, -0.10286421328783035, -0.11668898165225983, 0.025685641914606094, -0.30208826065063477, -0.16698703169822693, 0.22634804248809814, 0.23972736299037933, -0.008274756371974945, -0.1672995239496231], [0.6558783650398254, -0.8841627240180969, -0.12015148252248764, 0.2600739300251007, 0.025340650230646133, 0.18079879879951477, -0.43986111879348755, 0.5246817469596863, -0.7365894317626953, 0.014237961731851101, 0.7289936542510986, -0.8055989146232605, 0.29359057545661926, 0.31438642740249634, 0.10030756145715714, -0.09546330571174622, -0.21021120250225067, 0.19799359142780304, 0.45667457580566406, -0.1644146591424942, -0.09350844472646713, -0.07157548516988754, 0.1483040302991867, 0.11087832599878311], [-0.27627313137054443, -0.14621879160404205, -0.27555570006370544, 0.19984012842178345, 0.6447800993919373, 0.020965132862329483, 0.30689913034439087, 1.161460041999817, 0.3008805513381958, 0.010494228452444077, 0.04235152155160904, 0.1327844262123108, -0.15934620797634125, 0.3836676776409149, 0.23628373444080353, -0.2621040344238281, 0.7848832011222839, -0.43363505601882935, -0.7717453837394714, -0.05458391085267067, -0.01110657025128603, 0.2366485446691513, -0.01608424447476864, 0.14275290071964264], [0.06690555810928345, 0.02417898178100586, -0.8101111054420471, -0.12854266166687012, -0.23342716693878174, -0.008881711401045322, -0.05949118733406067, 0.11954677850008011, -0.08885469287633896, -0.0043210601434111595, 0.36823588609695435, -0.4317089021205902, 0.02109970524907112, 1.0213748216629028, 0.39347150921821594, 0.07834526896476746, 0.6098524332046509, 0.6007283329963684, 0.0041490220464766026, 0.20811837911605835, -0.026949910447001457, -0.16157649457454681, -0.005479216109961271, 0.2521294057369232], [-0.3727397322654724, 0.05996181070804596, -0.6783239245414734, 0.5769428014755249, -0.1405472755432129, -0.0425819493830204, -0.10152234137058258, 1.2132482528686523, -0.050727955996990204, 0.011814204044640064, -0.2018156349658966, -0.1288231611251831, -0.004346351604908705, 0.6525465250015259, 0.27669191360473633, 0.2741694748401642, 0.16391268372535706, 0.0983399972319603, -0.1877174824476242, 0.317234069108963, 0.3004378080368042, -0.25388237833976746, 0.05702102929353714, -0.27020493149757385], [-0.0096596609801054, 0.0037380673456937075, 0.006233720574527979, -0.020164810121059418, 0.0037102852948009968, -0.01930808834731579, 0.00440915348008275, -0.005697957240045071, -0.02645086869597435, 0.008175400085747242, 0.0017515921499580145, -0.008236055262386799, 0.02517540752887726, 0.0036852394696325064, -0.009185632690787315, 0.0028644485864788294, -0.0037759551778435707, 0.015186106786131859, 0.013299842365086079, 0.0002369067951804027, 0.01049071829766035, -0.0012689498253166676, 0.00988784059882164, 0.0007735695689916611], [-0.40383556485176086, 0.6949014663696289, -0.06612031906843185, -0.07200507074594498, -0.17919212579727173, -0.5159106850624084, -0.13412024080753326, -0.36752042174339294, -0.00044474174501374364, -0.017447184771299362, 0.23629426956176758, -0.002578896936029196, -0.04804009199142456, -0.2967242896556854, -0.2888506352901459, 0.4269786775112152, 0.517857015132904, -0.3606981635093689, -0.1050013080239296, -0.1451503336429596, 0.17667445540428162, -0.10961347073316574, -0.02274739369750023, 0.01313022430986166], [-0.06281597167253494, -0.057409774512052536, -0.38255658745765686, 0.22362922132015228, 0.3085238039493561, 0.25402146577835083, -0.05550405755639076, 0.952765941619873, 0.46495312452316284, -0.014088891446590424, 0.2734280824661255, -0.06717287003993988, -0.08564338088035583, 0.33639758825302124, -0.036519747227430344, -0.3526129126548767, 0.17136114835739136, -0.09474096447229385, 0.09804833680391312, 0.04318487271666527, -0.019634217023849487, -0.07130442559719086, 0.18750940263271332, 0.10197680443525314], [0.253264456987381, 0.15166661143302917, -0.0809488371014595, -0.06857427209615707, 0.14397463202476501, -0.03895829990506172, -0.03224648907780647, -0.6065002679824829, 0.09130790829658508, 0.0006764797144569457, 0.05504334717988968, -0.09930534660816193, -0.08256038278341293, -0.12410803884267807, 0.25553715229034424, 0.020808054134249687, -0.4946879744529724, 0.08901716768741608, 0.35826975107192993, 0.16301041841506958, -0.35868513584136963, -0.24310986697673798, -1.0169013738632202, -0.06031504273414612], [0.09501770883798599, -0.04421812295913696, -0.2699333429336548, 0.4491420090198517, -0.13911953568458557, -0.0003252620517741889, -0.5387957096099854, -0.4497264623641968, -0.44283685088157654, 0.002256510779261589, -0.12070804834365845, 0.08920951187610626, 0.07128418982028961, 0.3394043445587158, -0.07921602576971054, 0.27112671732902527, 0.0051016416400671005, -0.20520047843456268, -0.07352202385663986, -0.11796203255653381, 0.06348011642694473, 0.009974988177418709, 0.19382396340370178, 0.29453131556510925], [-0.17887535691261292, 0.10281688719987869, 0.5175290107727051, 0.24917910993099213, 0.08553972095251083, 0.10208048671483994, -0.002874671947211027, -0.0614502839744091, 0.1687767505645752, 0.0038960722740739584, 0.12266343832015991, -0.21168328821659088, -0.2677350342273712, 0.1710071861743927, 0.34897446632385254, 0.37697646021842957, 0.5886306762695312, 0.9951114654541016, 0.1721295267343521, 0.21923521161079407, 0.19437766075134277, -0.066474050283432, 0.24479235708713531, 0.038745228201150894], [-0.18127554655075073, -0.38514113426208496, 0.19626164436340332, -0.07920468598604202, 0.13755831122398376, 0.07104824483394623, -0.13669835031032562, -0.9858352541923523, 0.044239625334739685, -0.007738075219094753, 0.10314818471670151, 0.12514042854309082, -0.10880960524082184, -0.26148438453674316, 0.05283310264348984, 0.14294873178005219, 0.18380920588970184, -0.19485075771808624, -0.2224762886762619, -0.11704221367835999, 0.012681649066507816, 0.36451175808906555, -0.1912110149860382, -0.18876121938228607], [0.28071120381355286, 0.17412367463111877, -0.05218531936407089, 0.07338706403970718, -0.2144637554883957, 0.16282561421394348, -0.08300261944532394, -0.0574142150580883, -0.44562071561813354, 0.001559874159283936, -0.0020372469443827868, -0.19997011125087738, -0.03770613297820091, -0.24421800673007965, -0.7597893476486206, -0.3681395351886749, 0.44718271493911743, 0.3703067898750305, 0.021916715428233147, -0.10276946425437927, -0.7607430815696716, -0.3913484215736389, -0.22095215320587158, 0.2569411098957062], [-0.11152941733598709, -0.05985317751765251, -0.17982186377048492, 0.030890168622136116, 0.2273378223180771, -0.016483325511217117, -0.06985894590616226, -0.17779399454593658, -0.03074748069047928, 0.0005676011787727475, -0.2389174848794937, -0.044343095272779465, 0.12732650339603424, 0.8589581847190857, -1.2288230657577515, 0.09487792104482651, -0.17657187581062317, 0.32373225688934326, -0.08132138103246689, 0.26465821266174316, -0.27514737844467163, -0.1400701403617859, 0.3119015693664551, -0.03779539093375206], [-0.13557665050029755, 0.05703093856573105, 0.1638828068971634, -0.14032530784606934, 0.18411311507225037, -0.1588292121887207, -0.03559690713882446, -0.05680471286177635, 0.47037696838378906, 0.005284174345433712, -0.07374999672174454, 0.11099991947412491, -0.08962144702672958, 0.02398032695055008, -0.08173628896474838, 0.021407529711723328, 0.0197789054363966, -0.24971918761730194, 0.03695816174149513, -0.1156872883439064, -0.17826557159423828, 0.04029914364218712, 0.11235791444778442, 0.07867024838924408], [-0.041762981563806534, -0.1537221521139145, 0.01020832173526287, 0.12298683822154999, 0.032250698655843735, -0.04237973317503929, 0.22226326167583466, 0.004478275775909424, -0.133672833442688, 0.0059334151446819305, 0.11739636957645416, -0.2170577198266983, -0.07688289135694504, 0.08743971586227417, -0.0148145891726017, 0.2869040369987488, 0.20003987848758698, -0.3410639464855194, 0.142483651638031, 0.29637154936790466, 0.03928336501121521, -0.06477800011634827, -0.05534207820892334, 0.2068539559841156], [-0.04648923501372337, -0.02193579263985157, 0.5809781551361084, 0.2200724482536316, -0.6230809688568115, 0.014241606928408146, -0.1804460883140564, 0.02330966852605343, -0.5392006635665894, 0.009396796114742756, -0.038227785378694534, -0.026178471744060516, 0.270830899477005, -0.5385410189628601, -0.36773043870925903, -0.015122233889997005, 0.7695421576499939, 0.1373998522758484, -0.4782446026802063, -0.22589214146137238, -0.2379225790500641, -0.03933149576187134, 0.32063132524490356, 0.17252452671527863], [0.10824768245220184, -0.010052026249468327, -0.09076178818941116, 0.03419830650091171, 0.565754771232605, -0.08861267566680908, 0.10093975067138672, 0.37384486198425293, 0.18087321519851685, -0.009622604586184025, 0.37054094672203064, 0.3106288015842438, -0.03184255212545395, -0.404902845621109, 0.556380033493042, -0.004438341129571199, 0.1243034228682518, -0.08607445657253265, -0.5144102573394775, -0.28421369194984436, 0.07688690721988678, 0.32032203674316406, 0.019619770348072052, 0.03167082741856575], [0.007646526210010052, 0.23337385058403015, 0.07227027416229248, 0.04564209282398224, -0.11484146863222122, -0.10742358863353729, -0.9381361603736877, -0.11832736432552338, -0.02956555411219597, -0.005935370922088623, 0.6570979952812195, -0.7204647660255432, 0.1982203722000122, -0.5351271629333496, -0.07240443676710129, 0.7513498067855835, 0.6830471754074097, 0.01203673705458641, 0.17531165480613708, -0.4160543978214264, 0.4780922830104828, -0.14376947283744812, 0.501043438911438, 0.592628538608551], [-0.08953456580638885, -0.006167032290250063, -0.5034404397010803, 0.37039682269096375, 0.11473159492015839, 0.11274087429046631, -0.1439666897058487, -0.28811973333358765, -0.0939241498708725, -0.0010541834635660052, -0.66411292552948, -0.1502053141593933, -0.1014026552438736, 0.04765370860695839, 0.6111268401145935, 0.1649741679430008, 0.41305577754974365, 0.06054382026195526, 0.25756239891052246, -0.09083200991153717, -0.5035356879234314, -0.15614478290081024, 0.20496498048305511, -0.02839529700577259], [0.2363571971654892, -0.04266051948070526, 0.24238446354866028, 0.33820289373397827, 0.5034012794494629, 0.37241438031196594, -1.0179481506347656, -0.45855453610420227, -0.693595826625824, 0.0062958556227386, -0.4438505470752716, 0.012055664323270321, 0.4370448887348175, 0.3389388620853424, 0.3975191116333008, 0.1188940480351448, 0.062008559703826904, 0.42543137073516846, 0.5167554616928101, 0.26951488852500916, -0.16692964732646942, 0.013928870670497417, 0.09530438482761383, 0.6046146750450134], [-1.196822166442871, -0.7142322659492493, -0.25637030601501465, -0.6505855917930603, -0.1528087556362152, -0.2364213466644287, 1.0016958713531494, 0.046374909579753876, 0.7739455699920654, -0.007051341701298952, -0.059989653527736664, -0.2017001062631607, -0.47594183683395386, -0.14154689013957977, -0.13151846826076508, 0.3548925518989563, 0.36636385321617126, -0.16366098821163177, -0.49169856309890747, 0.17269957065582275, 0.04391619190573692, -0.0574815459549427, -0.3277653455734253, -0.0516146682202816], [-0.18308383226394653, -0.057485196739435196, -0.6288967728614807, 0.0650000274181366, -0.5985303521156311, -0.017579030245542526, -0.13868413865566254, -0.06836114823818207, -0.033623840659856796, -0.00416713347658515, 0.3189021646976471, 0.07864689826965332, 0.06837454438209534, 0.7886954545974731, 0.11160039901733398, -0.15928258001804352, 0.3030145764350891, -0.6786082983016968, 0.1581726223230362, -0.013064135797321796, -0.022052152082324028, 0.04754573479294777, -0.09299754351377487, -0.2500762343406677], [0.09438343346118927, 0.1083042249083519, -0.16749036312103271, -0.13560442626476288, 0.15563364326953888, 0.019267158582806587, -0.041942570358514786, -0.032600294798612595, 0.14545145630836487, -0.0017181339208036661, 0.16030924022197723, 0.38630494475364685, 0.20739872753620148, 0.1947321891784668, -0.006532912142574787, -0.05906644091010094, 0.0740341916680336, 0.19409377872943878, -0.07261266559362411, -0.2972341775894165, 0.09079865366220474, 0.06267988681793213, 0.13714757561683655, -0.08110012859106064], [-0.11162830889225006, -0.15918470919132233, -0.2548406720161438, -0.0710320770740509, 0.22375522553920746, -0.18597114086151123, 0.03372790664434433, 0.09734825044870377, 0.09188687801361084, 0.01478284876793623, 0.0717022716999054, 0.20111854374408722, 0.18381072580814362, 0.2685855031013489, 0.337223619222641, -0.12838569283485413, 0.17511294782161713, 0.2455514818429947, -0.05404879152774811, -0.01689586415886879, -0.1738189458847046, 0.02335413359105587, 0.04218289628624916, -0.032225076109170914], [0.15921251475811005, -1.0614898204803467, 0.06020893156528473, 0.17807528376579285, 0.039820410311222076, -0.4465090036392212, -0.261581152677536, -0.4568667709827423, -0.0785110667347908, -0.019028352573513985, -0.22314319014549255, -0.5496384501457214, 0.315184623003006, -0.1611989438533783, -0.08350570499897003, 0.001211668481118977, -0.3994297683238983, 0.19992870092391968, -0.4592931568622589, 0.2512620687484741, 0.012153181247413158, -0.14044126868247986, 0.1793522834777832, 0.1854199469089508], [0.11153213679790497, 0.03758690506219864, -0.28164851665496826, 0.07766585797071457, 0.17042279243469238, -0.09649890661239624, -0.07568160444498062, -0.09652134031057358, -0.03642301261425018, -0.0038543478585779667, 0.07730341702699661, 0.31139618158340454, 0.09748911112546921, 0.2582281529903412, 0.18993063271045685, 0.13132163882255554, 0.16628354787826538, 0.14720408618450165, -0.13463039696216583, -0.5012016296386719, -0.048021961003541946, 0.5961388349533081, 0.06567969918251038, 0.08189380913972855], [0.04304789751768112, 0.007240425329655409, -0.2644621431827545, -0.04685733839869499, 0.18057675659656525, -0.021813465282320976, -0.16637054085731506, -0.02712060697376728, 0.0322071835398674, 0.0007056726608425379, 0.1387939602136612, 0.3543797731399536, 0.22463040053844452, 0.3137774169445038, 0.11062498390674591, -0.014109245501458645, 0.14626967906951904, 0.20143872499465942, -0.1320895403623581, -0.3429783582687378, 0.0027685952372848988, 0.10203654319047928, -0.022138379514217377, 0.08451917767524719], [-0.058426689356565475, -0.10351237654685974, -0.23236730694770813, 0.026885410770773888, 0.1203073188662529, -0.06970430165529251, -0.20095592737197876, -0.10584542155265808, -0.08939825743436813, 0.0016959388740360737, 0.22292453050613403, 0.26227623224258423, 0.2856040894985199, 0.17095652222633362, 0.02900479920208454, 0.036282602697610855, 0.09335725009441376, 0.18220354616641998, -0.10578899085521698, -0.3073286712169647, 0.01585286669433117, 0.022226350381970406, 0.05580541491508484, -0.06840427219867706], [0.0009668589918874204, 0.0026152865029871464, -0.0028324429877102375, 0.003773824777454138, 0.0024993959814310074, 0.000411340210121125, 0.004218778107315302, 0.0022171298041939735, 0.0014146638568490744, -7.536650082329288e-05, 4.872330464422703e-05, 0.003117888467386365, 0.001497140503488481, 0.00041381095070391893, 0.001199275953695178, 0.00032865212415345013, 0.001797754317522049, -0.0005866195424459875, -0.003118689637631178, -0.004382187034934759, 0.0020599679555743933, 0.004415721166878939, -0.0011380250798538327, -0.00025895205908454955], [-0.037724319845438004, 0.004723818972706795, -0.1056491956114769, 0.3192738890647888, -0.7404919862747192, -0.14628545939922333, -0.14557869732379913, -0.23158425092697144, 0.09426063299179077, -0.003484365763142705, 0.7207297682762146, 0.023961251601576805, 0.13438010215759277, 0.0014033615589141846, 0.005917105358093977, 0.0629812553524971, -0.04915716126561165, 0.11301012337207794, 0.1270992010831833, -0.21736130118370056, 0.2816113829612732, 0.10746036469936371, 0.2729402184486389, -0.3693888485431671], [0.13340233266353607, 0.04560055211186409, -0.23179592192173004, -0.08107727020978928, 0.06930330395698547, 0.00653085159137845, -0.0777999758720398, 0.13103854656219482, 0.03810364380478859, -0.001652466831728816, 0.14352616667747498, 0.5242202281951904, 0.29268959164619446, 0.24851706624031067, 0.1768939048051834, 0.0038245911709964275, 0.13107925653457642, 0.039074528962373734, -0.03804069384932518, -0.41141557693481445, 0.05310988798737526, -0.013492895290255547, -0.019652975723147392, -0.013847804628312588], [0.14157727360725403, -0.001836159499362111, -0.08504052460193634, -0.567311704158783, -0.017995063215494156, -0.20911891758441925, -0.4412040710449219, -0.13018964231014252, -0.3064316213130951, 0.009521232917904854, 0.1851879507303238, 0.04666011035442352, -0.04247210547327995, -0.03802650794386864, 0.11207231879234314, -0.0691266879439354, -0.0877053514122963, -0.1368637979030609, 0.15281987190246582, -0.1419280767440796, 0.1682593673467636, 0.27351289987564087, 0.34388211369514465, 0.028503844514489174], [0.057217542082071304, -0.012068827636539936, -0.492902010679245, -0.03601206839084625, -0.14534446597099304, -0.002205743221566081, -0.008631524629890919, -0.2762623131275177, 0.032567210495471954, -0.0015899547142907977, 0.10214920341968536, 0.03378705680370331, 0.07541307806968689, 1.9547646045684814, 0.359852135181427, 0.0016358947614207864, 0.005540053825825453, 0.05877751484513283, 0.07844196259975433, 0.16520415246486664, 0.13768409192562103, -0.1062309518456459, -0.0638190284371376, -0.27360060811042786], [0.15453790128231049, 0.14642643928527832, -0.26233795285224915, 0.1133270114660263, -0.02166484296321869, -0.26373234391212463, -0.22032566368579865, -0.1941581666469574, 0.08453258126974106, 0.001328274724073708, 0.17979109287261963, 0.22341856360435486, 0.06942136585712433, 0.16367289423942566, 0.17672210931777954, 0.360623300075531, 0.2040989249944687, 0.036451179534196854, -0.07699845731258392, -0.3838513195514679, 0.19336237013339996, 0.2636399567127228, 0.08303061872720718, -0.32939597964286804], [0.13039667904376984, -0.027933156117796898, -0.15485987067222595, 0.11032114923000336, 0.037630271166563034, -0.10905805230140686, 0.32121244072914124, 0.14562170207500458, 0.010540206916630268, -0.0027947446797043085, 0.03147641941905022, 0.3456134796142578, 0.18880386650562286, -0.0991869866847992, 0.2402648627758026, 0.0845274031162262, 0.24217796325683594, -0.19713883101940155, 0.02404281310737133, -0.253372460603714, 0.08390481024980545, 0.2898068428039551, -0.0681760236620903, 0.19164007902145386], [0.0735427662730217, -0.03173365443944931, -0.16961884498596191, -0.20863664150238037, 0.010066499002277851, 0.19473639130592346, 0.08839753270149231, -0.13015946745872498, 0.024759747087955475, 0.0027701633516699076, 0.010969824157655239, 0.2807404398918152, -0.05094272643327713, -0.042800772935152054, -0.14947451651096344, 0.14025424420833588, 0.628817617893219, 0.29718396067619324, -0.19609980285167694, -0.45924630761146545, -0.20858091115951538, 0.056481823325157166, -0.16457055509090424, -0.1333695948123932], [0.25815460085868835, -0.03362317755818367, -0.24507611989974976, -0.4243607223033905, 0.096317820250988, 0.1292622834444046, -0.5352445244789124, -0.23456943035125732, 0.10760225355625153, 0.00021629391994792968, -0.013438485562801361, 0.20373308658599854, 0.2661128342151642, 0.25737157464027405, -0.13605988025665283, 0.021653736010193825, 0.17358480393886566, 0.36653828620910645, -0.00838114321231842, -0.12448733299970627, -0.09866168349981308, -0.10043498873710632, 0.037751197814941406, -0.04643241688609123], [0.3495903015136719, -0.17834532260894775, 0.5446385145187378, -0.25083014369010925, 0.034407008439302444, 0.0674155205488205, 0.33890190720558167, 0.7023302912712097, 0.3518741726875305, 0.008547861129045486, -0.5378344655036926, 0.22483155131340027, -0.052635613828897476, -0.25338801741600037, -0.19570358097553253, 0.2321697324514389, -0.05247332155704498, -0.028923382982611656, 0.06582815200090408, -0.15391837060451508, 0.023767825216054916, -0.1809006929397583, 0.20944508910179138, -0.011484364978969097], [0.013568325899541378, 0.16827388107776642, -0.31408271193504333, -0.1489115208387375, 0.156991109251976, -0.07397935539484024, -0.1358078420162201, 0.06208306550979614, -0.14260569214820862, -0.0032042949460446835, 0.15742607414722443, 0.41579216718673706, 0.2813301384449005, 0.1432056427001953, 0.21970294415950775, -0.08761989325284958, 0.04735986888408661, -0.05057268962264061, 0.04277295619249344, -0.5208828449249268, -0.05762818828225136, 0.16502532362937927, -0.13239315152168274, -0.01846243068575859], [-0.05919362232089043, 0.0355563648045063, -0.11686688661575317, -0.04718897491693497, 0.1273534744977951, -0.1612347662448883, 0.3543648421764374, -0.11472702026367188, -0.13832704722881317, 0.0004372551047708839, 0.0183453056961298, 0.19149795174598694, -0.011306297965347767, 0.021669326350092888, 0.02490321174263954, 0.2923213839530945, 0.12835578620433807, 0.1772083342075348, -0.14541757106781006, -0.34318262338638306, -0.10225316137075424, -0.07795290648937225, -0.4044048488140106, -0.04349076375365257], [-0.16091930866241455, 0.11138580739498138, 0.042536165565252304, -0.3521850109100342, 0.2728992998600006, -0.038471464067697525, -0.3000961244106293, -0.2038198709487915, -0.22465212643146515, 0.002858848311007023, 0.010225983336567879, 0.11028274148702621, 0.07209757715463638, -0.03378354385495186, -0.2129983752965927, -0.1959235817193985, 0.012015014886856079, 0.0876324400305748, -0.12601590156555176, -0.05037766322493553, 0.09593667834997177, -0.19422948360443115, 0.014428644441068172, 0.015416719950735569], [-0.2841249704360962, -0.1614839732646942, -0.2364475429058075, 0.41750282049179077, 0.049569226801395416, 0.24247419834136963, -0.13003967702388763, -0.025592196732759476, 0.5128886699676514, 0.006890480872243643, 0.16058620810508728, -0.0876355841755867, 0.27210965752601624, 0.030431225895881653, 0.025008220225572586, 0.20815761387348175, 0.21800123155117035, 0.026516759768128395, 0.08319868892431259, 0.20696240663528442, 0.5377375483512878, 0.6196907758712769, -0.4068634510040283, -0.1841842234134674], [-0.2606613337993622, -0.08256921917200089, -0.06150230020284653, -0.018170379102230072, -0.13365253806114197, 0.06992596387863159, 0.16648244857788086, 0.11234357953071594, -0.21934790909290314, -0.004909053444862366, 0.4935605823993683, 0.20002539455890656, -0.015795059502124786, -0.08631579577922821, -0.3463554084300995, -0.011035473085939884, 0.06456627696752548, -0.15297751128673553, -0.008364422246813774, -0.28596267104148865, -0.007779658772051334, 0.05493127927184105, -0.3173007667064667, -0.3222479820251465]], "rec.bias_ih_l0": [0.29884329438209534, 0.4726549983024597, -0.9305787086486816, 0.2787930965423584, -0.9679187536239624, 0.3583703935146332, 0.03512723743915558, 0.3838391602039337, 0.3066037595272064, 0.004446390550583601, -1.0393832921981812, 0.47336345911026, 0.16682982444763184, -0.8076358437538147, -1.1414345502853394, 0.23828664422035217, -0.9820963740348816, -1.104763150215149, 0.15543344616889954, -0.08546797931194305, -0.5981683135032654, -0.15602551400661469, 0.23642273247241974, -0.1266235113143921, 0.22900152206420898, 0.12203940004110336, 1.0281782150268555, -0.01213439553976059, 1.0317792892456055, 0.060101207345724106, 0.042370472103357315, -0.12552042305469513, -0.07465913891792297, 0.007985325530171394, 1.2962231636047363, 0.3981302082538605, 0.28065383434295654, 0.8914865255355835, 0.9628322720527649, 0.08183909207582474, 1.0203204154968262, 1.037729024887085, 0.40535521507263184, 0.5444134473800659, 0.4955892562866211, 0.4947270452976227, 0.026457423344254494, 0.20701320469379425, 0.27835574746131897, 0.06589601933956146, -0.024470139294862747, -0.3098672330379486, 0.3502826690673828, 0.018911048769950867, -0.40786367654800415, -0.41662123799324036, 0.2842906713485718, -0.0028103746008127928, 0.027001092210412025, 0.3617592751979828, 0.27344730496406555, 0.15759138762950897, 0.14164918661117554, 0.19018076360225677, 0.14132128655910492, 0.051667023450136185, 0.06234951317310333, -0.3036642074584961, 0.1816246062517166, -0.23303481936454773, -0.37467506527900696, -0.03239596635103226, -0.015270225703716278, -0.12019093334674835, -0.06763900071382523, 0.30415213108062744, 0.10940106958150864, 0.07419868558645248, 0.42092442512512207, 0.5212166905403137, 0.3913806676864624, 0.00446027796715498, 0.03223668783903122, 0.6678968071937561, 0.24301289021968842, -0.21416741609573364, 0.1843273788690567, 0.26670271158218384, 0.22820203006267548, 0.17890846729278564, 0.07171803712844849, 0.6522972583770752, 0.15910737216472626, 0.25981298089027405, -0.1770947128534317, 0.11898771673440933], "rec.bias_hh_l0": [0.29884329438209534, 0.4726549983024597, -1.0043123960494995, 0.2787930965423584, -0.9343907237052917, 0.35692164301872253, 0.04274509847164154, 0.38383838534355164, 0.3066037595272064, 0.004446390550583601, -1.020675778388977, 0.47130268812179565, 0.1668313592672348, -0.7413535118103027, -1.152199625968933, 0.2382841408252716, -1.019622564315796, -1.0328161716461182, 0.15547999739646912, -0.14216062426567078, -0.5886340737342834, -0.1559605449438095, 0.23645660281181335, -0.12634095549583435, 0.23004230856895447, 0.12472710013389587, 1.079168438911438, -0.012188708409667015, 1.1045283079147339, 0.07528604567050934, 0.07930821180343628, -0.1385670155286789, -0.0746300145983696, 0.007985325530171394, 1.2676209211349487, 0.3447343409061432, 0.2912534177303314, 0.9629936218261719, 0.9664441347122192, 0.08128245174884796, 1.029921531677246, 1.0399723052978516, 0.40503963828086853, 0.6006444692611694, 0.5093445777893066, 0.4938162863254547, 0.03421177715063095, 0.20656666159629822, 0.2966167628765106, 0.05686994642019272, 0.21357274055480957, -0.2880725562572479, 0.15138962864875793, -0.12935397028923035, -0.27227145433425903, -0.1323319524526596, 0.1198604628443718, -0.0028103722725063562, 0.12255946546792984, 0.4100949466228485, 0.20817771553993225, 0.116729736328125, 0.0457378625869751, 0.18628333508968353, 0.2635782063007355, 0.018164364621043205, 0.03112170100212097, -0.30380740761756897, 0.24577109515666962, -0.32234880328178406, -0.2331543266773224, 0.004228304140269756, -0.016314446926116943, -0.1411944329738617, -0.048587098717689514, 0.30415207147598267, 0.16430608928203583, 0.09358246624469757, 0.42091095447540283, 0.5212166905403137, 0.3913806676864624, 0.00446027796715498, 0.02866930328309536, 0.6649765372276306, 0.24587655067443848, -0.30893829464912415, 0.20032911002635956, 0.26681721210479736, 0.22989745438098907, 0.17898614704608917, 0.07065325975418091, 0.6506137251853943, 0.15795935690402985, 0.27510467171669006, -0.16536149382591248, 0.11917662620544434], "lin.weight": [[-0.025777200236916542, -0.7576339244842529, 0.022821007296442986, -0.11403763294219971, -0.13571417331695557, 1.0230010747909546, 0.024660777300596237, -0.3936159014701843, 0.13640128076076508, 0.030036794021725655, 0.14124168455600739, -0.14922568202018738, 0.039936792105436325, 0.20822863280773163, 0.029623042792081833, -0.0024617190938442945, 0.188181072473526, 0.07805686444044113, -0.2876083552837372, -0.04698902368545532, -0.10716473311185837, -0.03410524129867554, -0.01446540281176567, 0.1830005794763565]], "lin.bias": [-0.020011968910694122]}}