{"model_data": {"model": "SimpleRNN", "input_size": 2, "skip": 1, "output_size": 1, "unit_type": "LSTM", "num_layers": 1, "hidden_size": 24, "bias_fl": true}, "state_dict": {"rec.weight_ih_l0": [[-0.006317811086773872, 0.03921235352754593], [0.22224067151546478, -0.08724626898765564], [0.004391722846776247, -0.017569145187735558], [-0.07120393216609955, 0.09772348403930664], [0.0036361406091600657, 0.20239581167697906], [0.10028132796287537, 0.04158317297697067], [0.10103236883878708, 0.02979966625571251], [0.09986046701669693, 0.15186607837677002], [-0.006274601444602013, -0.16731074452400208], [0.18858863413333893, 0.1881123036146164], [0.040850680321455, 0.029956549406051636], [0.06057511642575264, 0.2452288269996643], [-0.022063855081796646, 0.09920042753219604], [-0.08904397487640381, 0.09630826860666275], [-0.13784916698932648, -0.17395728826522827], [-0.020288698375225067, 0.006614784710109234], [-0.04711436852812767, 0.0987083688378334], [-0.22132600843906403, -0.1658305525779724], [0.0491841658949852, 0.915708601474762], [-0.05261904001235962, 0.14738748967647552], [-0.12249068170785904, 0.06768734753131866], [0.04483339563012123, 0.12504009902477264], [0.019651420414447784, -0.002404120983555913], [0.1178034171462059, 0.03314230591058731], [0.014305612072348595, 0.15931060910224915], [-0.09008611738681793, 0.35068953037261963], [-0.07608357816934586, -0.13014806807041168], [-0.17975740134716034, -0.0832488089799881], [-0.04494846239686012, 0.0575869157910347], [-0.12102054804563522, 0.1944183111190796], [0.17418213188648224, 0.10819260776042938], [0.014750317670404911, -0.1198420450091362], [0.17424608767032623, 0.18781854212284088], [-0.16667483747005463, 0.021699316799640656], [0.0812511295080185, 0.04789090156555176], [-0.09527669847011566, 0.14453080296516418], [0.032859910279512405, 0.09395119547843933], [-0.04395034536719322, -0.05720115453004837], [-0.12044918537139893, 0.07449573278427124], [-0.020427759736776352, 0.006298186723142862], [-0.07394357025623322, 0.009201179258525372], [0.2657923102378845, 0.21674761176109314], [-0.14386309683322906, 0.09261602908372879], [-0.08130202442407608, 0.05249936133623123], [-0.2316405326128006, -0.005539997480809689], [0.10766292363405228, 0.20792199671268463], [0.04125281795859337, 0.01696544513106346], [0.12972120940685272, 0.14540283381938934], [0.4718492031097412, -0.21798144280910492], [0.05910855159163475, 0.009411565959453583], [-0.5153834819793701, -0.4424583613872528], [0.6015830039978027, 0.1451130211353302], [-0.6561423540115356, -0.1336217075586319], [-0.728421688079834, 0.09994430094957352], [-0.2732877731323242, 0.09944165498018265], [-1.055320143699646, 0.010147209279239178], [0.39964884519577026, 0.00806012749671936], [0.7915279865264893, -0.12161009758710861], [-0.008465724997222424, -0.02675246074795723], [1.2490122318267822, 0.15838228166103363], [0.18657419085502625, -0.11765696853399277], [-1.066475749015808, -0.08162830770015717], [-0.31981441378593445, 0.057871535420417786], [0.05098414048552513, -0.03227386623620987], [-0.6021469831466675, 0.09482637047767639], [0.13543035089969635, 0.009114163927733898], [-1.5615055561065674, -0.23515792191028595], [0.20536181330680847, 0.05753422901034355], [-0.48384130001068115, 0.009399308823049068], [-0.4502585828304291, 0.1420581340789795], [0.14841380715370178, 0.04535806551575661], [-0.21682573854923248, -0.007358514238148928], [0.08425811678171158, 0.1128215342760086], [0.1259736269712448, 0.4450988173484802], [-0.013205106370151043, 0.028503810986876488], [-0.021210607141256332, 0.1607380509376526], [-0.14166569709777832, 0.02861645817756653], [-0.02259199693799019, 0.1427830159664154], [0.15721239149570465, 0.08842399716377258], [0.08277805894613266, 0.14059703052043915], [-0.002219158923253417, 0.1897217482328415], [0.17336152493953705, 0.19940321147441864], [0.03814418241381645, 0.07202812284231186], [0.056583255529403687, 0.24219821393489838], [-0.04529913514852524, 0.07851250469684601], [-0.07251168042421341, 0.0991414338350296], [-0.0785684734582901, 0.14469294250011444], [-0.01736440882086754, 0.007010649889707565], [-0.09329559653997421, 0.03799494728446007], [-0.0636691302061081, 0.21533513069152832], [-0.09006045013666153, -0.005820410791784525], [0.06438473612070084, -0.07771673053503036], [-0.19831086695194244, 0.08898008614778519], [0.055704180151224136, 0.4555409848690033], [-0.0038826996460556984, -0.012289229780435562], [0.13313248753547668, 0.12484414130449295]], "rec.weight_hh_l0": [[0.1309279054403305, 0.041109953075647354, 0.01842690072953701, -0.0032712421379983425, 0.08186903595924377, 0.10769037902355194, 0.01161525771021843, 0.043907150626182556, -0.030142808333039284, -0.001500749378465116, 0.005805762019008398, -0.03400040045380592, -0.012564269825816154, -0.021207408979535103, -0.06532993912696838, 0.007975101470947266, 0.014778470620512962, -0.09348002076148987, 0.046468764543533325, -0.06217389926314354, -0.07310052216053009, 0.012724334374070168, -0.010695262812077999, -0.012223703786730766], [-0.8005379438400269, -0.25433018803596497, -0.40150800347328186, 0.3049437403678894, -0.3772871792316437, -1.0447216033935547, -0.2669706642627716, -0.27091315388679504, 0.3237040936946869, 0.25952842831611633, -0.10994569957256317, 0.07512255758047104, 0.4033626914024353, 0.22606505453586578, 1.0133541822433472, -0.09872138500213623, -0.08220003545284271, 1.0994250774383545, -0.0017589399358257651, 0.42396169900894165, 0.0794442743062973, -0.3903540074825287, 0.07518907636404037, -0.0761513039469719], [0.16632772982120514, 0.0693766176700592, 0.13976545631885529, -0.06708456575870514, 0.01645275205373764, 0.14001673460006714, -0.023495443165302277, 0.020635999739170074, -0.07035857439041138, 0.008326366543769836, 0.02673308365046978, 0.03176030516624451, -0.04875877872109413, -0.05260847508907318, -0.09907513111829758, -0.007389056030660868, -0.01854984275996685, -0.10405554622411728, 0.002170786028727889, -0.19004681706428528, 0.0658506527543068, 0.05332981050014496, 0.04693622514605522, 0.0018631484126672149], [0.17270120978355408, 0.07706784456968307, 0.04084610566496849, -0.0844266414642334, 0.007876958698034286, 0.15033581852912903, -0.03705388680100441, 0.0428595170378685, -0.08414719253778458, -0.06413967907428741, 0.011233266443014145, -0.030299972742795944, -0.0841536745429039, 0.01421082392334938, -0.09454952925443649, -0.0040749479085206985, 0.009344694204628468, -0.1849718987941742, 0.014413672499358654, -0.06791715323925018, 0.07562144845724106, 0.07259154319763184, 0.03823956474661827, 0.01056904997676611], [0.30296388268470764, 0.21347276866436005, -0.02242421545088291, -0.024951525032520294, 0.11564669758081436, 0.2915898561477661, -0.045911386609077454, -0.028290603309869766, -0.08405491709709167, -0.04117312282323837, 0.039215657860040665, -0.049719881266355515, -0.10342571884393692, -0.09244855493307114, -0.1878536492586136, 0.003896148409694433, -0.07754164189100266, -0.31621578335762024, 0.08896279335021973, -0.17499828338623047, 0.09294261038303375, -0.007937133312225342, 0.0886240154504776, 0.02998984605073929], [0.1557188183069229, 0.08678465336561203, -0.0003216999757569283, 0.09033337980508804, 0.001799320918507874, 0.14650392532348633, -0.022594567388296127, -0.14157594740390778, -0.04582635685801506, 0.045695506036281586, 0.04011453688144684, 0.04322643205523491, 0.019151508808135986, -0.0482754223048687, -0.15008042752742767, 0.01755639910697937, -0.05944864824414253, -0.1306246668100357, -0.007870458997786045, -0.09090203046798706, -0.08966406434774399, -0.06949597597122192, 0.020389102399349213, -0.051507141441106796], [0.08350039273500443, 0.07242567837238312, 0.05427394434809685, 0.01583525724709034, 0.0879858061671257, 0.04042310640215874, -0.0366508848965168, -0.0502583347260952, 0.0016421395121142268, 0.01554076187312603, 0.054999105632305145, 0.04357612133026123, 0.046141523867845535, -0.03900362178683281, -0.023763133212924004, 0.003042164957150817, 0.005236177705228329, -0.016332032158970833, 0.05753157660365105, -0.09693778306245804, 0.001871494110673666, -0.03883017972111702, 0.03146132826805115, -0.026693759486079216], [0.30487605929374695, 0.1771039366722107, -0.01045648567378521, -0.050255756825208664, -0.017903879284858704, 0.2677958607673645, -0.08507975935935974, -0.007084568031132221, -0.09999249130487442, -0.0165339857339859, 0.04005579277873039, 0.009692816995084286, -0.07731608301401138, -0.06238995119929314, -0.20341157913208008, 0.00696440739557147, -0.038469430059194565, -0.23292969167232513, -0.10509813576936722, -0.16943931579589844, 0.06621270626783371, -0.025183236226439476, 0.09581046551465988, -0.023303676396608353], [-0.6801063418388367, -0.21722650527954102, -0.24266692996025085, 0.0859837606549263, -0.16281762719154358, -0.5275560617446899, 0.12430162727832794, 0.10149567574262619, -0.06138145923614502, -0.0793372094631195, -0.16642987728118896, 0.00405492726713419, 0.08302947878837585, 0.052958130836486816, 0.6638511419296265, -0.11302008479833603, 0.024313190951943398, 0.7189133167266846, -0.0606796070933342, 0.04445389285683632, 0.05567311495542526, 0.006312577985227108, -0.0702308714389801, 0.2123437374830246], [0.24725133180618286, 0.25457921624183655, -0.04746633768081665, 0.03186611458659172, -0.06328946352005005, 0.18257583677768707, -0.1178879663348198, -0.07386291772127151, -0.1049991250038147, -0.02279285155236721, 0.08907996863126755, 0.002617555670440197, 0.015413664281368256, -0.07708784192800522, -0.0952683761715889, 0.031571805477142334, -0.04171090945601463, -0.21819660067558289, -0.07112108916044235, -0.1386287957429886, 0.009043319150805473, -0.1427294909954071, 0.08524151146411896, -0.022804195061326027], [0.01283086184412241, 0.04635974392294884, -0.01744510605931282, 0.021467158570885658, 0.0314345620572567, 0.024741973727941513, -0.08069466799497604, -0.00856734998524189, -0.034709203988313675, -0.0022896411828696728, 0.012580671347677708, 0.028232993558049202, 0.056662511080503464, 0.008380514569580555, 0.07040248811244965, 0.0038843729998916388, 0.010076139122247696, 0.011235509999096394, -0.025577286258339882, -0.003249342553317547, 0.027414029464125633, -0.07661239057779312, 0.017491264268755913, -0.009875929914414883], [0.2390512079000473, 0.15261757373809814, -0.11122629046440125, -0.05074424669146538, 0.06635953485965729, 0.2260047048330307, -0.05534789338707924, -0.002979577984660864, -0.11094634979963303, -0.035612545907497406, -0.00042402237886562943, -0.025860337540507317, -0.10950835794210434, -0.05395711213350296, -0.19297753274440765, 0.00023385437089018524, -0.03245393559336662, -0.22414752840995789, 0.03809375315904617, -0.08715631812810898, 0.04865182563662529, 0.025652559474110603, 0.06630799174308777, -0.008545159362256527], [0.21303242444992065, 0.1309850960969925, 0.04573426768183708, -0.01482213381677866, 0.11849024146795273, 0.1674395501613617, -0.06217764690518379, 0.005029443185776472, -0.05987443029880524, -0.02765738219022751, 0.06093331053853035, -0.01939001865684986, -0.021100370213389397, -0.06276411563158035, -0.09734462946653366, 0.014664522372186184, -0.013086462393403053, -0.18473687767982483, 0.10028713941574097, -0.11330008506774902, 0.03597738593816757, -0.05044284462928772, 0.06093720346689224, -0.002387666841968894], [0.28098902106285095, 0.08081228286027908, 0.13667654991149902, -0.015915779396891594, -0.015957508236169815, 0.24028615653514862, -0.0677952691912651, -0.00609063683077693, 0.0458563007414341, -0.033808063715696335, 0.13866309821605682, -0.04662604629993439, 0.026149103417992592, -0.010399239137768745, -0.05276253819465637, 0.030323976650834084, -0.006017069332301617, -0.2822820246219635, 0.03159679099917412, -0.1288696676492691, 0.013641159050166607, -0.15643812716007233, 0.02728450484573841, -0.03393572196364403], [-0.09518685191869736, -0.3834230303764343, 0.0026026275008916855, -0.13242365419864655, -0.03888941556215286, -0.004850410390645266, 0.16742900013923645, -0.05178547278046608, 0.059591419994831085, 0.11437949538230896, 0.007227650843560696, 0.14797310531139374, -0.15565036237239838, 0.08748228847980499, -0.12602759897708893, -0.008753269910812378, 0.04496678709983826, 0.04497455433011055, 0.0009337037918157876, 0.008983679115772247, 0.0014801197685301304, 0.19139179587364197, -0.030754324048757553, 0.0236049871891737], [0.017673926427960396, -0.0012589438119903207, 0.0015033433446660638, -0.0246929619461298, 0.02047382853925228, 0.022976092994213104, 0.005031116306781769, -0.0017724903300404549, -0.00096256093820557, -0.0005004451377317309, -0.005053333938121796, -2.0666784621425904e-06, -0.01716729626059532, -0.007008836604654789, -0.016452504321932793, -0.010983403772115707, -0.005477508995682001, -0.017105963081121445, 0.013899403624236584, -0.0199940986931324, 0.02489546500146389, 0.02874842658638954, 0.004638443700969219, 0.012226682156324387], [0.05836516246199608, 0.10199368745088577, 0.03163228556513786, -0.04038812965154648, 0.006942983251065016, 0.062163978815078735, -0.02839691936969757, 0.01930931769311428, -0.01356399618089199, -0.07457399368286133, 0.06901784986257553, -0.0380048044025898, -0.026780683547258377, -0.01964595727622509, 0.035779524594545364, 0.012344160117208958, 0.0010363886831328273, -0.10969290882349014, -0.005441753659397364, 0.05967291072010994, 0.09841953963041306, -0.09644005447626114, 0.04349277541041374, 0.017073022201657295], [-0.19604679942131042, -0.24433866143226624, -0.19983014464378357, -0.14456675946712494, 0.0019061919301748276, -0.2545875012874603, 0.31901198625564575, 0.10452712327241898, 0.29835954308509827, 0.0298469215631485, -0.2540515661239624, -0.14434252679347992, -0.29736441373825073, 0.0634785071015358, -0.13329310715198517, -0.04973170533776283, -0.09629260748624802, 0.06953136622905731, 0.12347627431154251, 0.11482453346252441, -0.06542381644248962, 0.23074792325496674, -0.10960019379854202, 0.22625106573104858], [0.14754453301429749, 0.439923495054245, -0.9304385185241699, 0.11489918828010559, 0.6276190280914307, 0.2825457453727722, -0.17764730751514435, 0.038889411836862564, -0.18696379661560059, -0.12996089458465576, -0.054835233837366104, -0.14421533048152924, 0.048236895352602005, 0.07865175604820251, -0.1261812448501587, 0.024161767214536667, 0.018071940168738365, -0.07276729494333267, 0.0371423065662384, 0.0159931443631649, -0.003290805034339428, 0.12422451376914978, 0.03334581479430199, -0.032099246978759766], [0.13874508440494537, 0.04086625203490257, -0.039427585899829865, -0.13192972540855408, 0.09293776005506516, 0.1852954477071762, -0.02098243497312069, 0.06098996847867966, -0.07158572971820831, 0.006399086210876703, -0.038542091846466064, 0.0961608737707138, -0.1671922504901886, 0.0003529081877786666, -0.15063226222991943, -0.03648759052157402, 0.001632668892852962, -0.11118175834417343, -0.095649354159832, -0.09695643931627274, 0.13441674411296844, 0.19986046850681305, 0.047282371670007706, 0.0612812414765358], [0.042156703770160675, -0.05268969014286995, -0.01886647567152977, -0.08222882449626923, 0.02840031124651432, 0.09537042677402496, -0.0006842271541245282, -0.02716461755335331, 0.033070389181375504, 0.024031929671764374, 0.02434631809592247, -0.020570287480950356, -0.04411693662405014, -0.0026590204797685146, 0.02030288055539131, -0.0012291016755625606, -0.008098874241113663, -0.07463876157999039, -0.03966749459505081, -0.026603849604725838, 0.08896420150995255, 0.038733888417482376, 0.012072115205228329, 0.006877343636006117], [0.09684638679027557, 0.07023148983716965, 0.10966809839010239, 0.05307403579354286, -0.0012509366497397423, 0.09493467211723328, -0.015758125111460686, 0.06415198743343353, -0.025564812123775482, -0.049111440777778625, 0.048788368701934814, 0.0404643788933754, -0.006530533544719219, -0.09461579471826553, 0.0134139908477664, 0.00534465815871954, -0.03611668944358826, -0.07111867517232895, 0.023244239389896393, -0.09903662651777267, 0.03988470137119293, -0.12013749778270721, 0.05717814713716507, -0.019981401041150093], [0.028580982238054276, 0.03636224567890167, 0.03184567019343376, -0.02434646524488926, -0.01594291441142559, 0.026267698034644127, -0.016331547871232033, 0.019355740398168564, 0.014659716747701168, 0.006070165894925594, 0.018819648772478104, 0.011740615591406822, -0.016558248549699783, -0.006912892684340477, 9.94578585959971e-05, -3.2208241464104503e-05, -0.0018273477908223867, 0.0028282557614147663, -0.022557292133569717, -0.0034812320955097675, 0.03302720934152603, -0.01160795334726572, 0.02159246988594532, -0.01772882230579853], [-0.008469559252262115, -0.000662625883705914, 0.14891745150089264, 0.014288737438619137, -0.050077885389328, -0.07615310698747635, -0.05789791792631149, -0.12669216096401215, -0.03161264583468437, 0.09038387984037399, 0.055062174797058105, 0.08002346754074097, 0.05419238284230232, -0.08024418354034424, 0.09723538160324097, 0.011691114865243435, 0.0076019433327019215, 0.10967720299959183, -0.06314290314912796, 0.11732438951730728, 0.004227048717439175, -0.1540638953447342, 0.035401586443185806, -0.08829422295093536], [0.26034700870513916, 0.11898448318243027, 0.05548964813351631, 0.029989033937454224, 0.2064739316701889, 0.3522365093231201, 0.029445739462971687, 0.08708221465349197, -0.08467485755681992, -0.009468031115829945, 0.019304297864437103, -0.04397444799542427, -0.08828609436750412, -0.06466737389564514, -0.16971543431282043, 0.008531743660569191, 0.046909451484680176, -0.22857457399368286, 0.09700112789869308, -0.15024852752685547, -0.08346570283174515, 0.09444040060043335, -0.024739986285567284, 0.013698064722120762], [1.1846020221710205, 0.16156183183193207, 0.3114207088947296, -0.5333400368690491, 0.367096483707428, 1.0063244104385376, 0.047954708337783813, 0.1925421953201294, -0.20022951066493988, 0.006406234111636877, -0.21227605640888214, -0.1286075860261917, -0.4581882655620575, -0.27057862281799316, -1.0569531917572021, -0.11970943212509155, -0.04056726023554802, -0.8247406482696533, 0.12579050660133362, -0.436401903629303, 0.1484997719526291, 0.34877684712409973, 0.09908121824264526, 0.04614998400211334], [0.19231005012989044, -0.019491495564579964, 0.3330528736114502, -0.16867773234844208, -0.10486198216676712, 0.17684347927570343, 0.03335946053266525, 0.02620069682598114, -0.09544836729764938, 0.0554744116961956, 0.004987186286598444, 0.11126105487346649, -0.08441862463951111, -0.02811109833419323, -0.16735626757144928, -0.027214622125029564, 0.004881211090832949, -0.03816603869199753, -0.20016570389270782, -0.1733005940914154, 0.09757570177316666, 0.18041498959064484, 0.0645514503121376, -0.018613185733556747], [0.07862547039985657, -0.12258559465408325, 0.19203689694404602, -0.2682088613510132, 0.028674360364675522, 0.12105873227119446, 0.08490023016929626, 0.035728562623262405, -0.030912652611732483, -0.052766118198633194, -0.06382966786623001, 0.013365144841372967, -0.11931964755058289, -0.013436334207654, -0.09594818949699402, -0.036134377121925354, 0.010715749114751816, -0.13378280401229858, 0.10563940554857254, 0.021562913432717323, 0.051657386124134064, 0.27394577860832214, 0.005162263289093971, 0.048754896968603134], [0.02487592026591301, 0.06392905861139297, 0.07184787094593048, -0.04056050628423691, 0.1858772337436676, 0.04793886840343475, -0.030713750049471855, 0.01648559421300888, -0.06990759074687958, -0.16192208230495453, 0.06214913725852966, -0.14165787398815155, -0.06395159661769867, -0.08690974116325378, 0.10940534621477127, 0.01893090456724167, -0.03451269865036011, 0.05170149356126785, 0.5782416462898254, -0.05674520134925842, 0.03879470005631447, -0.024431858211755753, 0.00868075992912054, 0.05425543710589409], [0.21283431351184845, 0.0428001843392849, -0.022269397974014282, 0.044436756521463394, -0.07546904683113098, 0.3152676820755005, -0.03421866521239281, -0.17633788287639618, -0.06264115869998932, 0.04718538373708725, -0.03205648437142372, 0.0018735360354185104, 0.03351656720042229, -0.05503475293517113, -0.27652040123939514, 0.032580770552158356, -0.049035243690013885, -0.1297197937965393, 0.019076814875006676, 0.07221092283725739, -0.12137820571660995, -0.07213807851076126, 0.05641268193721771, -0.14923354983329773], [0.15570718050003052, 0.1294894814491272, 0.07188112288713455, 0.08050476014614105, 0.09055221825838089, 0.09340369701385498, -0.04843901842832565, -0.02204127423465252, 0.01268671452999115, 0.03308563679456711, 0.12013616412878036, 0.08049400895833969, 0.09922608733177185, -0.0347481369972229, -0.06544672697782516, 0.024668944999575615, 0.045361027121543884, -0.004777111113071442, 0.021322155371308327, -0.09671829640865326, -0.08730434626340866, -0.14542219042778015, 0.03754662349820137, -0.09733977913856506], [0.015219333581626415, -0.1779346913099289, -0.11744348704814911, 0.03674852475523949, -0.1585986465215683, -0.005884096957743168, 0.02680155262351036, -0.06481242179870605, 0.07704077661037445, 0.07877156138420105, -0.04505211487412453, 0.10350064933300018, 0.002245732583105564, 0.09295320510864258, -0.033731020987033844, -0.007704161573201418, 0.02329857647418976, 0.07031966745853424, -0.2773335576057434, 0.045278556644916534, -0.034929078072309494, 0.07723015546798706, -0.0379905141890049, 0.032784659415483475], [0.6084058880805969, 0.15464508533477783, 0.24514657258987427, -0.05200015380978584, 0.297743022441864, 0.8266377449035645, -0.33519628643989563, -0.07993733882904053, 0.012189478613436222, 0.3125361204147339, 0.06808757781982422, 0.10307945311069489, -0.09533755481243134, -0.2432011514902115, -0.5021234154701233, 0.012956613674759865, -0.09790271520614624, -0.5792098641395569, -0.3720640242099762, -0.16703428328037262, 0.04431866481900215, -0.039342183619737625, 0.20310670137405396, -0.3428169786930084], [-0.14591942727565765, -0.025490539148449898, -0.06309081614017487, -0.05282506346702576, 0.18501371145248413, 0.006880961358547211, -0.03531209006905556, 0.07027149945497513, -0.02298438549041748, -0.020747777074575424, -0.04106052219867706, 0.005838663317263126, -0.11331523954868317, -0.00594831770285964, 0.08718812465667725, -0.005160575732588768, 0.026073995977640152, 0.14431659877300262, 0.21856379508972168, 0.04483576864004135, -0.01821145974099636, 0.10711943358182907, -0.014737471006810665, 0.033543337136507034], [0.026289625093340874, 0.08369739353656769, -0.008771548978984356, 0.045329559594392776, 0.03540604189038277, 0.03404991328716278, -0.12194432318210602, -0.015440176241099834, -0.054068673402071, -0.0068170009180903435, 0.029622728005051613, 0.04228989779949188, 0.08697539567947388, -0.0005686762160621583, 0.09883338212966919, 0.007290010806173086, 0.008671695366501808, 0.02380688674747944, -0.0394221767783165, -0.011560208164155483, 0.0274544358253479, -0.14275428652763367, 0.02894749864935875, -0.03117457777261734], [-0.08752449601888657, -0.11872582137584686, -0.24334363639354706, -0.21444088220596313, -0.19912971556186676, -0.06118040159344673, 0.03151984140276909, -0.06611199676990509, -0.038667771965265274, -0.005937466397881508, -0.13065855205059052, 0.06335920840501785, -0.03638811409473419, 0.08852802217006683, -0.059081923216581345, -0.024778779596090317, -0.01465219259262085, 0.014918483793735504, -0.06541003286838531, 0.14011389017105103, -0.02220315858721733, 0.21632854640483856, -0.034127600491046906, 0.04434699937701225], [0.20076726377010345, 0.010750492103397846, 0.005227720830589533, -0.01673004776239395, -0.1417934000492096, 0.10342766344547272, 0.021883275359869003, -0.08745527267456055, -0.03518708050251007, 0.0017887648427858949, 0.029540447518229485, 0.03813304379582405, -0.026013080030679703, -0.017231056466698647, -0.17629693448543549, 0.004701447207480669, -0.06371233612298965, -0.16107122600078583, -0.1031259223818779, 0.004766200669109821, -0.0073511735536158085, -0.07809639722108841, 0.04622979089617729, -0.031290724873542786], [0.006095943506807089, -0.22610735893249512, -0.021048087626695633, -0.01635024882853031, -0.11384382098913193, -0.04744415357708931, 0.10840160399675369, 0.07091783732175827, 0.15756545960903168, 0.04836619645357132, -0.006678653880953789, 0.03373422101140022, 0.05382385477423668, 0.07715247571468353, 0.07876288145780563, 0.003214783500880003, -0.015850897878408432, 0.17814527451992035, 0.0028006448410451412, 0.09899844974279404, -0.061249297112226486, -0.09061751514673233, -0.033882614225149155, -0.021383989602327347], [0.27468958497047424, -0.3070562779903412, -0.022863373160362244, -0.160691499710083, 0.18001165986061096, 0.38219207525253296, 0.2576240003108978, 0.021611031144857407, 0.03495645523071289, 0.102512426674366, 0.019376203417778015, 0.11678212136030197, -0.4083041548728943, -0.04815949127078056, -0.47514694929122925, -0.020492324605584145, 0.013816706836223602, -0.32053494453430176, 0.14651775360107422, -0.08130288124084473, 0.010703356936573982, 0.3185412287712097, -0.05880894139409065, 0.08392249792814255], [0.018835721537470818, -0.003333625616505742, -0.00034948400571011007, -0.026360440999269485, 0.020557451993227005, 0.023663731291890144, 0.007775260601192713, -0.0057099307887256145, -0.0008130889618769288, 0.0024954399559646845, -0.007645200937986374, 0.0024514931719750166, -0.01848280057311058, -0.008210289292037487, -0.019868839532136917, -0.013111995533108711, -0.007638850715011358, -0.018313191831111908, 0.014330388978123665, -0.02078031562268734, 0.0273458082228899, 0.03361479565501213, 0.004954739008098841, 0.013431700877845287], [-0.00995494145900011, -0.027863509953022003, -0.027301626279950142, 0.02459278143942356, 0.0301264226436615, 0.03941487893462181, 0.07007768750190735, 0.023720938712358475, 0.005102347116917372, -0.05462053045630455, -0.004205798264592886, -0.02019517682492733, -0.04103315994143486, -0.023231398314237595, -0.0715390294790268, 0.004736023023724556, -0.01218040194362402, -0.029793893918395042, 0.006301617715507746, 0.18373316526412964, 0.0506909042596817, -0.05594099313020706, 0.03304571285843849, -0.010290511883795261], [0.5202137231826782, 0.4163690507411957, 0.29161882400512695, 0.1178073137998581, -0.013313313014805317, 0.508361279964447, -0.19173747301101685, -0.04249256104230881, -0.10707169026136398, 0.0710899829864502, 0.09450782090425491, 0.07315079122781754, -0.004053942393511534, -0.15142270922660828, -0.2368621677160263, 0.04639234021306038, -0.058873411267995834, -0.08515194803476334, -0.18142002820968628, -0.22698239982128143, -0.01797119341790676, -0.2430919110774994, 0.1573997139930725, -0.20493370294570923], [0.07211098819971085, 0.24430595338344574, -0.1933019608259201, -0.3038054406642914, 0.04513542726635933, -0.009359963238239288, -0.09747371077537537, -0.17083825170993805, -0.17225125432014465, 0.02632005512714386, -0.06393653154373169, 0.19066299498081207, 0.08152750879526138, 0.07703713327646255, -0.05295354127883911, -0.00519998325034976, -0.175966277718544, -0.0912436842918396, -0.07665634900331497, -0.05634379759430885, -0.021570060402154922, -0.014005262404680252, 0.044991303235292435, 0.07189182937145233], [0.057525068521499634, -0.048628609627485275, -0.06153959408402443, -0.11740133911371231, 0.2772526443004608, 0.10555407404899597, -0.06576228141784668, 0.08650629222393036, -0.07388745993375778, 0.04268945753574371, -0.021264266222715378, 0.194370299577713, -0.05712878704071045, 0.07781901210546494, 0.007137447129935026, -0.035113703459501266, 0.07809842377901077, 0.02245073765516281, 0.01209745742380619, -0.2308705747127533, 0.143246591091156, 0.20375855267047882, 0.014462069608271122, 0.05243821442127228], [-0.04925774782896042, -0.1783018261194229, -0.023713167756795883, -0.15710169076919556, 0.047819338738918304, 0.021640991792082787, 0.07713446021080017, -0.02994537353515625, 0.061717115342617035, 0.06538014113903046, -0.019592422991991043, -0.02786695398390293, -0.04736317694187164, -0.010451937094330788, 0.04144741967320442, -0.019342655315995216, -0.0045658801682293415, 0.016080813482403755, -0.030375618487596512, 0.025609705597162247, 0.10448836535215378, 0.11428123712539673, -0.023932110518217087, 0.02596251852810383], [0.14863871037960052, 0.019780373200774193, 0.051585469394922256, 0.09323480725288391, 0.12232004106044769, 0.1327802985906601, 0.019772227853536606, 0.04264063015580177, -0.06371693313121796, -0.0057374257594347, -1.79330072569428e-05, 0.08639124780893326, -0.020666304975748062, -0.1409653127193451, -0.11581584066152573, -0.014188899658620358, -0.06784616410732269, -0.09119720011949539, 0.012826968915760517, -0.19172342121601105, 0.04615207761526108, -0.04466370493173599, 0.06467138230800629, -0.03601490333676338], [0.05937454476952553, 0.06381673365831375, 0.014762605540454388, 0.0021058160346001387, -0.014821732416749, 0.049080513417720795, -0.011574381031095982, 0.013667070306837559, 0.017479097470641136, 0.016307687386870384, 0.01202999334782362, 0.022327277809381485, -0.03491472080349922, -0.002613380318507552, -0.03821912780404091, -0.002598271705210209, -0.011798419989645481, -0.00853033922612667, -0.04077094420790672, -0.013977843336760998, 0.042570143938064575, -0.019045663997530937, 0.028206979855895042, -0.02239847183227539], [0.09153372794389725, 0.07334401458501816, 0.12868447601795197, 0.038614895194768906, -0.021158024668693542, -0.03270196169614792, -0.04901916906237602, -0.1381136178970337, -0.030028292909264565, 0.11836966872215271, 0.05864479020237923, 0.10676906257867813, 0.056627821177244186, -0.045427802950143814, 0.002671141643077135, 0.009309692308306694, 0.0025255479849874973, 0.12143029272556305, -0.05077062547206879, 0.04920071363449097, 0.007922387681901455, -0.14756789803504944, 0.06973396986722946, -0.13794748485088348], [0.25467634201049805, 0.3953486979007721, 0.03322513774037361, -0.1356179416179657, 0.14171013236045837, 0.27629876136779785, -0.08944106847047806, 0.057245079427957535, -0.10244619101285934, -0.14849673211574554, -0.18448224663734436, -0.17003729939460754, -0.0715685561299324, -0.2945118546485901, -0.3301677405834198, -0.014694429002702236, -0.08737058937549591, -0.1610773652791977, -0.022509412840008736, 0.16330444812774658, -0.1113656535744667, -0.18055036664009094, -0.047744836658239365, -0.01266606617718935], [-0.39479926228523254, 0.48170205950737, -0.06880171597003937, 0.18057242035865784, -0.2063857913017273, 0.32269972562789917, 0.22343392670154572, -0.42807385325431824, -0.45014655590057373, 0.16300664842128754, 0.05174223706126213, 0.4478759169578552, 0.16081218421459198, 0.12983034551143646, 0.23361749947071075, 0.07544669508934021, 0.18861834704875946, -0.1843363493680954, -0.03304000571370125, 0.0941702350974083, -0.08488316088914871, -0.228004589676857, -0.108577199280262, -0.11331100761890411], [0.20055358111858368, 0.2561301589012146, 0.06355959922075272, 0.0854252427816391, -0.24474050104618073, -0.10996424406766891, -0.1024654284119606, -0.022711612284183502, -0.14340995252132416, 0.09905416518449783, 0.006404288113117218, -0.07145915925502777, 0.04923822730779648, 0.09771645814180374, -0.118609219789505, -0.04620387777686119, 0.1831120401620865, 0.3058926463127136, 0.11266801506280899, 0.07922684401273727, 0.08408636599779129, -0.16564010083675385, 0.12578225135803223, -0.32228076457977295], [-0.24244606494903564, 0.1218218207359314, 0.2426949441432953, 0.14652754366397858, 0.3850621283054352, 0.025480056181550026, 0.05012673884630203, -0.04757456108927727, -0.12464166432619095, -0.16214215755462646, -0.08279465138912201, -0.00924156978726387, -0.2055361419916153, -0.09258131682872772, 0.43252432346343994, -0.04021405056118965, 0.06749392300844193, 0.13597789406776428, -0.06582274287939072, -0.14557898044586182, 0.17769542336463928, -0.05204569175839424, 0.001756023382768035, 0.18428628146648407], [-0.020487172529101372, 0.6021410226821899, 0.13143585622310638, -0.3034137785434723, 0.7248475551605225, 0.017449870705604553, -0.3491852581501007, 0.8503774404525757, -0.25448670983314514, -0.5137132406234741, 0.22930781543254852, -0.42694753408432007, 0.018838677555322647, 0.161366805434227, 0.11464203894138336, 0.07033851742744446, 0.09646094590425491, 0.08640401810407639, 0.14902757108211517, 0.11968030035495758, 0.18201421201229095, 0.006172096356749535, 0.06450022011995316, -0.2456648349761963], [0.07038687914609909, -0.17000959813594818, 0.3219413757324219, -0.16697348654270172, 0.02590278722345829, 0.2060726135969162, -0.21976083517074585, 0.18295593559741974, -0.26614558696746826, 0.08602450788021088, 0.002251255791634321, -0.16511587798595428, -0.03740004450082779, -0.013670439831912518, -0.05621187388896942, 0.052894290536642075, 0.1153835654258728, -0.021839458495378494, 0.1499699354171753, 0.32488662004470825, -0.025922605767846107, 0.04261145368218422, 0.12709270417690277, -0.19654284417629242], [0.009656492620706558, -0.5237425565719604, 0.07532982528209686, 0.29287490248680115, -0.09089270234107971, 0.003034145338460803, 0.16377197206020355, -0.135206937789917, -0.1002010703086853, 0.20541490614414215, -0.08971624821424484, 0.07983476668596268, -0.2019978016614914, -0.09107261151075363, -0.20805169641971588, -0.017666565254330635, 0.09699109196662903, -0.11033397912979126, -0.008980410173535347, -0.10199564695358276, -0.12085229158401489, -0.12975816428661346, 0.013846343383193016, 0.06482074409723282], [0.19232898950576782, 0.6828734874725342, 0.15992717444896698, -0.023704227060079575, -0.05252080410718918, -0.05981621891260147, 0.06436783820390701, -0.03092465177178383, -0.10918702185153961, -0.26649901270866394, 0.06247489154338837, -0.23530171811580658, -0.08042801916599274, 0.43907397985458374, -0.2217947095632553, 0.03150693699717522, -0.12345368415117264, 0.36452823877334595, -0.3295316696166992, -0.12574876844882965, -0.16055895388126373, -0.33709603548049927, 0.063831627368927, -0.06672269105911255], [-0.2113814502954483, -0.11310236901044846, -0.0003686662530526519, -0.08442897349596024, 0.02840973064303398, -0.08785521984100342, 0.010562443174421787, -0.01805225946009159, 0.05029059946537018, -0.19295178353786469, -0.00565533759072423, 0.1376984715461731, 0.0653240904211998, -0.23257191479206085, 0.001469757524318993, -0.05476558953523636, 0.29402199387550354, -0.10510587692260742, 0.5848879814147949, 0.16801387071609497, 0.15842479467391968, 0.06078615412116051, -0.10431848466396332, 0.17094606161117554], [-0.07571342587471008, -0.5467077493667603, 0.07526729255914688, -0.2872603237628937, 0.5165804028511047, -0.1604565531015396, 0.15705110132694244, -0.2587163746356964, 0.2025274932384491, -0.5624679923057556, 0.0330958217382431, 0.1971009224653244, -0.05726335942745209, 0.0609578900039196, 0.08425164222717285, -0.025916332378983498, -0.15792444348335266, 0.055204447358846664, -0.14919893443584442, 0.009126722812652588, 0.19991634786128998, 0.11669598519802094, 0.09359938651323318, -0.1384643167257309], [-0.0305468887090683, 0.016682378947734833, 0.16626572608947754, 0.06839155405759811, 0.06673812121152878, 0.004103163722902536, -0.17870298027992249, 0.003222076687961817, 0.029829896986484528, 0.029862921684980392, 0.01588967815041542, -0.01810458116233349, 0.21682457625865936, -0.0308290533721447, 0.2092517763376236, -0.006032472942024469, 0.007677085231989622, 0.02034868113696575, 0.04463546723127365, -0.08717036247253418, 0.100589819252491, -0.22815567255020142, 0.07874028384685516, -0.09838874638080597], [-0.11106877774000168, -0.6082515716552734, 0.16997234523296356, 0.07194014638662338, -0.08544715493917465, 0.31361475586891174, -0.015041700564324856, 0.25598767399787903, -0.07699062675237656, 0.09259475022554398, 0.04689168930053711, -0.021158961579203606, -0.19759447872638702, 0.031822118908166885, 0.31219345331192017, -0.03610118478536606, 0.10966616868972778, 0.31721171736717224, 0.040644098073244095, -0.09846068918704987, 0.34149256348609924, 0.5309222340583801, -0.017676474526524544, 0.2076764553785324], [-0.021116100251674652, 0.17169104516506195, -0.19083765149116516, 0.3674902319908142, 0.032634101808071136, -0.28812435269355774, -0.22719882428646088, -0.2257779985666275, -0.03960277512669563, 0.16522999107837677, 0.10267756879329681, 0.30774345993995667, 0.2766552269458771, 0.1898718923330307, 0.19600197672843933, 0.0210417453199625, -0.07606081664562225, -0.10202332586050034, -0.16193106770515442, -0.3934662938117981, -0.13911421597003937, -0.03592405840754509, -0.061964891850948334, 0.043084174394607544], [0.10480132699012756, 0.45125913619995117, -0.19530710577964783, 0.23134036362171173, -0.08627486974000931, -0.30562087893486023, -0.3146599233150482, -0.19291788339614868, -0.1817954182624817, 0.3310571312904358, 0.04028736427426338, 0.2417842298746109, -0.2651306688785553, -0.39972981810569763, 0.09050507843494415, 0.013793308287858963, -0.1428813338279724, 0.4206366240978241, -0.40763285756111145, -0.17324860394001007, -0.20543016493320465, 0.0242538470774889, -0.0020669891964644194, 0.04826539754867554], [-0.22424590587615967, -0.035009343177080154, 0.07461650669574738, -0.06742992252111435, -0.11861972510814667, -0.2404143065214157, -0.039241403341293335, -0.09165217727422714, -0.2463017851114273, -0.027916479855775833, 0.17634569108486176, 0.06437662243843079, 0.17577968537807465, 0.21732796728610992, 0.288911908864975, -0.026568938046693802, 0.10125306993722916, 0.18768346309661865, 0.048190757632255554, -0.06610455363988876, 0.41698765754699707, 0.015016683377325535, 0.03302256017923355, -0.00851675309240818], [-0.013332897797226906, 0.08312690258026123, -0.027527259662747383, 0.05432254448533058, -0.0075890785083174706, 0.006928363814949989, -0.09214170277118683, -0.050508301705121994, -0.021771937608718872, -0.04843473806977272, 0.014314936473965645, 0.023028837516903877, 0.08171197026968002, -0.014651897363364697, 0.11587097495794296, 0.01762394979596138, -0.0598730742931366, 0.01169366855174303, 0.0151226706802845, -0.008772015571594238, -0.010919393971562386, -0.13017912209033966, 0.04419231042265892, -0.030667275190353394], [-0.013010906986892223, -0.16296984255313873, 0.024781037122011185, 0.09389925748109818, 0.2040853649377823, -0.10453785210847855, -0.09269997477531433, -0.04817516729235649, -0.4948200583457947, 0.14798614382743835, 0.006419134791940451, -0.03688773512840271, 0.03313077241182327, -0.0589577853679657, -0.07766010612249374, -0.008387225680053234, -0.027926038950681686, 0.25090131163597107, -0.27185529470443726, -0.07355795055627823, -0.003373796585947275, -0.19403666257858276, 0.09289991855621338, -0.22186484932899475], [-0.191402867436409, 0.021293187513947487, -0.028361529111862183, 0.05218834802508354, 0.023472733795642853, -0.0036260331980884075, -0.12408232688903809, -0.005724530201405287, -0.4198593199253082, -0.0720556303858757, 0.19678086042404175, 0.06387165188789368, 0.04146651551127434, 0.03324253857135773, 0.1312103271484375, 0.019480887800455093, 0.015184628777205944, 0.24997466802597046, 0.09353464096784592, -0.04413209483027458, 0.16772402822971344, 0.00023249788500834256, -0.06691765785217285, 0.012935136444866657], [-0.3176456391811371, 1.0332574844360352, 0.40200385451316833, -0.326103538274765, 0.48422732949256897, 0.04990309104323387, -0.11285282671451569, 1.1897563934326172, -0.3192913830280304, -0.8021748661994934, 0.029938241466879845, -1.0927176475524902, 0.12805387377738953, 1.2021784782409668, 0.16488301753997803, 0.04185056686401367, 0.24287211894989014, 0.06922667473554611, 0.6746782064437866, -0.0434674508869648, 0.20012256503105164, -0.21971890330314636, 0.032087136059999466, -0.44313138723373413], [-0.18941514194011688, -0.19576051831245422, -0.22705984115600586, -0.04619812220335007, -0.6760677099227905, -0.10462308675050735, -0.05232977494597435, 0.021413622424006462, 0.10967210680246353, -0.012475180439651012, 0.011992582120001316, 0.18940213322639465, 0.009686811827123165, 0.008170880377292633, 0.07038909941911697, -0.005226838868111372, -0.15106746554374695, 0.045607052743434906, -0.8379871249198914, 0.4224224388599396, 0.023386307060718536, 0.2935001850128174, -0.027056582272052765, 0.2622080445289612], [0.012729039415717125, -0.09483852982521057, 0.05741225183010101, -0.116375632584095, -0.09843531250953674, 0.033430472016334534, 0.02950233221054077, -0.024866197258234024, 0.01792335882782936, 0.30133309960365295, 0.0631091520190239, -0.24664545059204102, -0.07432544976472855, 0.055350955575704575, -0.06007532775402069, 0.012356896884739399, 0.016301417723298073, 0.08984153717756271, -0.09191013872623444, -0.10867580026388168, -0.016461117193102837, 0.12904910743236542, -0.15823772549629211, 0.1603790521621704], [-0.04568326100707054, -0.6846832036972046, -0.06087545305490494, -0.1756434589624405, -0.013812287710607052, 0.0641627237200737, 0.1638300120830536, -0.02642453834414482, -0.2015679031610489, 0.10538429021835327, 0.22666385769844055, -0.19377173483371735, 0.00700948154553771, -0.01327051967382431, -0.27738314867019653, 0.05307918041944504, 0.08147276937961578, 0.025416405871510506, -0.06263349205255508, -0.06380783766508102, 0.007133407983928919, 0.07610771805047989, 0.026302799582481384, -0.047312114387750626], [0.14407207071781158, 0.14990465342998505, -0.035234082490205765, -0.022427242249250412, -0.1554836630821228, 0.05816927179694176, -0.03690338507294655, 0.04089679569005966, 0.04412338137626648, -0.07099730521440506, 0.028906049206852913, 0.023700576275587082, -0.0406557098031044, 0.014627033844590187, -0.01701962947845459, 0.013882534578442574, -0.06633314490318298, 0.11537758260965347, -0.08700248599052429, -0.0031669260933995247, 0.07367487251758575, -0.04101095348596573, 0.07069189846515656, -0.03725920245051384], [-0.1369340568780899, -0.23586051166057587, 0.05441397428512573, -0.01435801386833191, 0.07719293981790543, 0.13059335947036743, 0.015575505793094635, 0.06882715225219727, -0.09459874778985977, -0.18414071202278137, 0.1176876574754715, -0.28790318965911865, -0.08639901876449585, -0.052873414009809494, -0.12182292342185974, 0.039371833205223083, -0.0023952594492584467, -0.22663027048110962, -0.09054294228553772, -0.19804510474205017, -0.02586461417376995, 0.1587521731853485, -0.025414951145648956, 0.1397836059331894], [0.44248321652412415, 0.18670299649238586, 0.09443008154630661, -0.06998589634895325, 0.15300524234771729, 0.38863617181777954, -0.03472360596060753, -0.009894655086100101, -0.0896858498454094, -0.04064057022333145, 0.06104668974876404, 0.02171769179403782, -0.13666723668575287, -0.13867440819740295, -0.35819098353385925, 0.0005724976654164493, 0.013917324133217335, -0.26882311701774597, -0.04136376827955246, -0.18364185094833374, 0.007741645444184542, 0.048615939915180206, 0.05164840444922447, -0.06572277098894119], [0.3044055998325348, 0.2904880940914154, -0.004921101965010166, -0.05381089448928833, 0.10032741725444794, 0.3031599819660187, -0.04251295328140259, -0.22157533466815948, -0.09156794100999832, -0.16210982203483582, -0.010406354442238808, 0.10975614935159683, -0.14113552868366241, -0.13055738806724548, -0.21491239964962006, -0.04710156098008156, -0.13575637340545654, -0.040877606719732285, 0.24084866046905518, -0.21646973490715027, 0.08173960447311401, 0.0207514725625515, 0.11516392976045609, -0.0916597843170166], [0.26887020468711853, 0.1454591155052185, 0.15754057466983795, -0.12702612578868866, -0.04752001166343689, 0.2443690299987793, -0.06468964368104935, 0.04033892601728439, -0.1015181839466095, -0.010954037308692932, 0.032325103878974915, 0.04196872189640999, -0.11087170988321304, -0.058516308665275574, -0.16978584229946136, -0.008795750327408314, -0.037882786244153976, -0.21258732676506042, -0.12687984108924866, -0.15600502490997314, 0.0984698012471199, 0.03228364884853363, 0.08677982538938522, -0.0016043358482420444], [0.21275079250335693, 0.14245717227458954, 0.0048229205422103405, -0.11271335929632187, 0.07489771395921707, 0.1902759075164795, -0.048050396144390106, 0.04510021582245827, -0.09560961276292801, -0.07162930816411972, -0.005154619459062815, -0.026036804541945457, -0.1345965713262558, -0.0009594115545041859, -0.13522426784038544, -0.009343041107058525, -0.03512569144368172, -0.23648904263973236, -0.07407940179109573, -0.12346233427524567, 0.08299856632947922, 0.09952077269554138, 0.05808856338262558, 0.028274275362491608], [0.2628467381000519, 0.12400367856025696, 0.15549340844154358, -0.109641432762146, 0.3768763840198517, 0.2409171164035797, -0.05246039479970932, 0.06567882746458054, -0.07148212939500809, -0.07607781141996384, 0.043077778071165085, -0.0334724485874176, -0.14328113198280334, -0.138388991355896, -0.1224948838353157, -0.011291591450572014, -0.09758789092302322, -0.2734970450401306, 0.233687162399292, -0.18894647061824799, 0.16197802126407623, 0.16290992498397827, 0.05970759689807892, 0.10962926596403122], [0.3795206844806671, 0.19398997724056244, 0.10460551828145981, -0.051053594797849655, 0.10493507236242294, 0.3998428285121918, -0.048020750284194946, 0.037331871688365936, -0.09402552992105484, 0.03914371132850647, 0.07626418769359589, -0.05938946455717087, -0.05937518924474716, -0.07072434574365616, -0.2746541500091553, 0.02299187146127224, -0.007378656882792711, -0.30895689129829407, -0.01231108047068119, -0.18947578966617584, -0.050173938274383545, 0.0017107053427025676, 0.03616738319396973, -0.06380421668291092], [0.12807662785053253, 0.13981415331363678, 0.10080825537443161, 0.04201203212141991, 0.1755828857421875, 0.11132342368364334, -0.06600882112979889, -0.14498835802078247, -0.010504119098186493, -0.036024365574121475, 0.09031225740909576, 0.0587284229695797, 0.0861462727189064, -0.10017011314630508, -0.0391433984041214, 0.008238385431468487, -0.015302274376153946, 0.004180741962045431, 0.12149734795093536, -0.13746678829193115, 0.0016945963725447655, -0.07007432729005814, 0.03277329355478287, -0.051387857645750046], [0.31370532512664795, 0.1727302074432373, 0.005173065699636936, -0.057186879217624664, -0.05314573273062706, 0.27493181824684143, -0.08609311282634735, 0.0012028327910229564, -0.09638356417417526, -0.03337481617927551, 0.04564225673675537, 0.0012285177363082767, -0.07566996663808823, -0.03595256805419922, -0.1999153047800064, 0.008894543163478374, -0.0337669812142849, -0.24041259288787842, -0.13155244290828705, -0.1739761382341385, 0.07561809569597244, -0.02430741675198078, 0.09398303925991058, -0.022296223789453506], [0.25186365842819214, 0.09107346832752228, 0.0838487297296524, -0.16740918159484863, -0.15571020543575287, 0.22466503083705902, -0.07961184531450272, -0.08833843469619751, -0.22883100807666779, -0.012183088809251785, -0.026598144322633743, 0.07111308723688126, -0.01026879157871008, -0.12907999753952026, -0.1776125133037567, -0.005367294419556856, -0.03398283198475838, -0.15151704847812653, -0.07699885219335556, -0.029359351843595505, 0.08538677543401718, 0.04845719411969185, 0.06690223515033722, -0.1180337592959404], [0.25456172227859497, 0.2550789713859558, -0.05486257001757622, 0.015864074230194092, -0.125663161277771, 0.18400825560092926, -0.11578118801116943, -0.09150508046150208, -0.10953686386346817, -0.005551573820412159, 0.08534218370914459, 0.013227148912847042, -0.07675854116678238, -0.04965074732899666, -0.11866151541471481, 0.03176083415746689, -0.03314065933227539, -0.2220587581396103, -0.18123877048492432, -0.137545645236969, 0.007982763461768627, -0.13492755591869354, 0.07518913596868515, -0.025773214176297188], [0.05221806839108467, 0.09261134266853333, -0.0059386664070189, 0.0498405322432518, 0.06987350434064865, 0.08837471157312393, -0.08705313503742218, -0.02136852778494358, -0.05003692954778671, -0.019579347223043442, 0.038885414600372314, 0.02948119305074215, 0.044509805738925934, -0.01282057911157608, 0.04713335260748863, 0.006446563173085451, 0.005371245089918375, -0.020158180966973305, 0.029018372297286987, -0.04253634065389633, 0.03017827495932579, -0.11474241316318512, 0.0274518933147192, -0.023846084251999855], [0.2568577229976654, 0.15392231941223145, -0.11273621767759323, -0.04710301384329796, 0.051195915788412094, 0.23356343805789948, -0.062153737992048264, 0.004825684241950512, -0.11840358376502991, -0.03982894867658615, 0.008302592672407627, -0.034666918218135834, -0.08098999410867691, -0.022909896448254585, -0.1904572695493698, 0.0047603449784219265, -0.028788041323423386, -0.24450524151325226, 0.022477131336927414, -0.0754578709602356, 0.04557863995432854, 0.009550792165100574, 0.06689588725566864, -0.01597457379102707], [0.23668523132801056, 0.11080098897218704, 0.10793782025575638, -0.09081438928842545, 0.11209013313055038, 0.09860439598560333, -0.02953733131289482, 0.052167512476444244, -0.07634596526622772, 0.008391737937927246, 0.06496946513652802, -0.025993701070547104, -0.00431170966476202, -0.08936935663223267, -0.1538276970386505, 0.0011271607363596559, -0.022910557687282562, -0.20309366285800934, 0.06019490584731102, -0.1703159362077713, 0.048042163252830505, -0.04496104270219803, 0.06661592423915863, -0.01642211712896824], [0.2889643907546997, 0.10579445213079453, 0.13965238630771637, -0.032082367688417435, 0.05223274603486061, 0.28960421681404114, -0.06641768664121628, 0.02271461673080921, 0.04012012854218483, -0.09483766555786133, 0.12516841292381287, -0.06776554137468338, -0.01672663725912571, -0.018269497901201248, -0.0822327509522438, 0.02317282371222973, -0.016691138967871666, -0.32142290472984314, 0.07379753142595291, -0.1523062288761139, 0.045102063566446304, -0.11924055963754654, 0.034009985625743866, -0.014249110594391823], [0.3645077645778656, 0.027137812227010727, 0.0022160408552736044, -0.1443793624639511, 0.10121022164821625, 0.359868586063385, 0.09598372131586075, 0.01749035343527794, -0.05600496754050255, -0.037981387227773666, 0.040384601801633835, -0.012442023493349552, -0.23812612891197205, -0.08711320906877518, -0.39130306243896484, -0.005622743628919125, 0.002473666565492749, -0.4010651409626007, 0.06276911497116089, -0.04422220215201378, 0.020836280658841133, 0.17307038605213165, -0.0034947602543979883, 0.0008363195811398327], [0.019727952778339386, -0.0005967170582152903, 0.0010386434150859714, -0.024846574291586876, 0.023365851491689682, 0.02496231161057949, 0.00600891187787056, -0.0076429592445492744, -0.001378108630888164, -0.0019182257819920778, -0.005274737253785133, -0.00017897564976010472, -0.018087076023221016, -0.006664729211479425, -0.01859702356159687, -0.011334794573485851, -0.005800594575703144, -0.0185347069054842, 0.010830116458237171, -0.023590965196490288, 0.02565164677798748, 0.02922581508755684, 0.0050349850207567215, 0.011718901805579662], [0.07564587146043777, 0.06660383939743042, 0.10318031162023544, -0.06946521997451782, 0.10670551657676697, 0.10515225678682327, -0.03170189633965492, -0.004258602857589722, -0.0005720913759432733, -0.12059546262025833, 0.06731763482093811, 0.002755159279331565, -0.12906278669834137, -0.01446630246937275, 0.021262643858790398, 0.006754100322723389, 0.006289308425039053, -0.12298037856817245, 0.07688242197036743, 0.08462460339069366, 0.09937635809183121, -0.041210729628801346, 0.02036719024181366, 0.013064837083220482], [0.38992297649383545, 0.19663502275943756, 0.02478216402232647, -0.02058376558125019, -0.010510002262890339, 0.373511403799057, -0.03969825804233551, 0.07078557461500168, -0.06457272917032242, 0.08913163840770721, 0.05715836212038994, -0.057390935719013214, -0.1092236265540123, -0.07308455556631088, -0.29698607325553894, 0.013580472208559513, 0.016245055943727493, -0.33148905634880066, -0.09112700074911118, -0.11673860996961594, -0.04497234895825386, 0.016361743211746216, 0.019251497462391853, -0.02216316945850849], [0.20280802249908447, -0.051933735609054565, 0.23909923434257507, -0.37617722153663635, -0.32723182439804077, 0.3828284740447998, -0.0589841790497303, -0.09510631859302521, -0.21713605523109436, -0.305357426404953, 0.003794431919232011, 0.2715911865234375, -0.20321345329284668, -0.021507924422621727, -0.26849043369293213, -0.012579690665006638, 0.030284041538834572, 0.03604919835925102, -0.30425041913986206, -0.23185822367668152, 0.06151961535215378, 0.14066296815872192, 0.0734112486243248, -0.13792364299297333], [0.15418346226215363, 0.0005909223109483719, 0.13841578364372253, -0.1328493058681488, 0.2734302282333374, 0.17462360858917236, -0.039369311183691025, -0.11022283136844635, -0.11835412681102753, -0.010865834541618824, 0.0355210043489933, 0.25921133160591125, -0.16749252378940582, -0.09254977107048035, -0.11126039177179337, -0.04728620871901512, -0.04874255135655403, -0.05707360804080963, -0.0818575918674469, -0.12040337920188904, 0.1854424923658371, 0.2578684985637665, 0.08084596693515778, 0.06811577081680298], [0.10128043591976166, -0.04306928813457489, -0.004505638033151627, -0.13905657827854156, 0.07126103341579437, 0.16216327250003815, 0.019537169486284256, -0.008514277637004852, 0.020663606002926826, 0.03891916200518608, 0.026324883103370667, -0.0572076253592968, -0.11132045835256577, 0.003971392288804054, -0.019838593900203705, -0.01273074559867382, 0.002577833365648985, -0.13289928436279297, -0.050841525197029114, -0.06850071996450424, 0.16128283739089966, 0.08569333702325821, 0.017753301188349724, 0.026639556512236595], [0.07998541742563248, 0.028561560437083244, -0.03821346536278725, 0.029214320704340935, 0.14646805822849274, 0.03760230541229248, -0.0393640473484993, -0.12163258343935013, -0.10813742130994797, 0.04512112960219383, -0.0466560423374176, 0.13879002630710602, 0.009981238283216953, -0.06099946051836014, 0.00025408357032574713, -0.060169827193021774, 0.00815643835812807, -0.0006365982699207962, -0.25427043437957764, 0.04049023613333702, 0.16314908862113953, -0.06059713289141655, 0.12212662398815155, -0.06583409011363983], [0.024884989485144615, 0.04609418287873268, 0.0652596578001976, -0.028668981045484543, 0.03033152036368847, 0.038954898715019226, -0.030672337859869003, -0.04676222801208496, 0.00815938413143158, -0.01622401550412178, 0.024125836789608, 0.08835656195878983, 0.0124742416664958, -0.03290005773305893, 0.022520143538713455, -0.0035700039006769657, -0.013054762035608292, 0.02678106352686882, 0.0850582867860794, -0.03149363026022911, 0.032792992889881134, -0.011328418739140034, 0.028672583401203156, -0.04819641634821892], [0.0920686349272728, 0.08175935596227646, 0.15386301279067993, 0.017953168600797653, -0.07799209654331207, 0.07891835272312164, -0.0792853906750679, -0.14606478810310364, -0.07512468099594116, 0.061124544590711594, 0.08864379674196243, 0.06270886212587357, 0.0754609927535057, -0.0805567279458046, 0.0673903152346611, 0.020562198013067245, 0.030543044209480286, 0.06312517821788788, -0.13154222071170807, 0.07149538397789001, 0.0034733975771814585, -0.1820434182882309, 0.07058732956647873, -0.12309782207012177]], "rec.bias_ih_l0": [0.12061057239770889, -0.9756816029548645, 0.10002943128347397, 0.19262827932834625, 0.36276453733444214, 0.18336591124534607, 0.07457428425550461, 0.35967257618904114, -0.8599603176116943, 0.2780919075012207, 0.07822250574827194, 0.3104259669780731, 0.19427195191383362, 0.3989465832710266, -0.07309046387672424, 0.018279293552041054, 0.14293862879276276, -0.2707173526287079, 0.16165362298488617, 0.21415267884731293, 0.21806350350379944, 0.17715823650360107, 0.05657561495900154, 0.04237423837184906, 0.3205733299255371, 1.2213828563690186, 0.1374838948249817, 0.12421653419733047, -0.0033453498035669327, 0.2875390648841858, 0.1457495540380478, -0.025999225676059723, 0.8560481071472168, -0.11572211235761642, 0.0461907759308815, -0.06742339581251144, 0.15578730404376984, -0.07170043885707855, 0.2904449701309204, 0.019180165603756905, 0.07149987667798996, 0.7039695978164673, 0.061900120228528976, 0.05172941833734512, 0.06553148478269577, 0.2250487208366394, 0.09256108850240707, 0.15143060684204102, 0.04866833612322807, 0.1328376680612564, 0.11782831698656082, 0.02352665551006794, -0.19189375638961792, 0.3081206679344177, -0.05290641263127327, -0.18011300265789032, 0.11111622303724289, 0.19658437371253967, 0.13671301305294037, 0.08660081773996353, -0.09743445366621017, -0.12799333035945892, 0.1396179497241974, 0.005898991134017706, -0.000705766724422574, -0.15515616536140442, 0.03326985239982605, -0.18424277007579803, 0.2194429337978363, 0.01054344978183508, 0.10977072268724442, 0.03226077929139137, 0.44123178720474243, 0.3915618062019348, 0.23820090293884277, 0.22636403143405914, 0.31328725814819336, 0.501386284828186, 0.13003620505332947, 0.3688068091869354, 0.25729477405548096, 0.28002697229385376, 0.11448005586862564, 0.3231457769870758, 0.20444472134113312, 0.44025537371635437, 0.4082733392715454, 0.020055783912539482, 0.1484804004430771, 0.45708295702934265, 0.12795759737491608, 0.15060442686080933, 0.2704591751098633, 0.15360863506793976, 0.056887853890657425, 0.15534603595733643], "rec.bias_hh_l0": [0.12059489637613297, -0.9627795219421387, 0.10002943873405457, 0.19262650609016418, 0.3627643287181854, 0.18309570848941803, 0.07473933696746826, 0.35967451333999634, -0.8262137174606323, 0.2780919075012207, 0.07822253555059433, 0.3104259669780731, 0.19427010416984558, 0.3937095105648041, -0.11776546388864517, 0.01827928051352501, 0.14129722118377686, -0.26959794759750366, 0.16226895153522491, 0.21415267884731293, 0.21806348860263824, 0.17726273834705353, 0.05657319352030754, 0.042419157922267914, 0.32282307744026184, 1.2554996013641357, 0.13748404383659363, 0.12247773259878159, -0.00693397456780076, 0.29674485325813293, 0.14587460458278656, -0.01982966437935829, 0.8994731903076172, -0.11572207510471344, 0.04619084671139717, -0.06735382974147797, 0.15582378208637238, -0.07524973899126053, 0.35025855898857117, 0.01918015442788601, 0.0666310042142868, 0.7041030526161194, 0.06328411400318146, 0.05179251730442047, 0.06553152203559875, 0.22892320156097412, 0.09256243705749512, 0.15144109725952148, 0.04600906744599342, 0.19619308412075043, 0.15431009232997894, 0.006479015573859215, -0.0898512601852417, 0.21702004969120026, -0.047441139817237854, -0.136480450630188, -0.1930874139070511, 0.15375250577926636, 0.136712908744812, 0.16275697946548462, -0.0525432787835598, 0.06842700392007828, 0.002313869772478938, 0.005865718703716993, -0.032715510576963425, -0.20411698520183563, 0.17862044274806976, -0.21502085030078888, 0.22602590918540955, 0.11096946150064468, 0.11136150360107422, -0.12872987985610962, 0.43236255645751953, 0.3923089802265167, 0.2382008582353592, 0.22635604441165924, 0.31323930621147156, 0.5051456689834595, 0.13021887838840485, 0.36880698800086975, 0.270311564207077, 0.2800270915031433, 0.11448008567094803, 0.32314568758010864, 0.20229992270469666, 0.4401313066482544, 0.36836478114128113, 0.020055780187249184, 0.14886391162872314, 0.4508415162563324, 0.1507873237133026, 0.16037558019161224, 0.2704593241214752, 0.15629692375659943, 0.056880608201026917, 0.15539097785949707], "lin.weight": [[-0.13679926097393036, -0.27958056330680847, 0.09181993454694748, -0.18222565948963165, 0.00994682777673006, 0.24120116233825684, 0.22385536134243011, 0.10244472324848175, -0.5787811279296875, -0.44187554717063904, -0.024188073351979256, -0.012810420244932175, 0.10119931399822235, 0.6581755876541138, 0.06939850002527237, -0.022647401317954063, 0.5442898273468018, -0.33325397968292236, 0.7403964996337891, 0.25204595923423767, 0.23249852657318115, 0.08940927684307098, -0.16079340875148773, 0.1583859920501709]], "lin.bias": [-0.10281069576740265]}}