{"model_data": {"model": "SimpleRNN", "input_size": 2, "skip": 1, "output_size": 1, "unit_type": "LSTM", "num_layers": 1, "hidden_size": 24, "bias_fl": true}, "state_dict": {"rec.weight_ih_l0": [[-0.15570542216300964, 0.11640610545873642], [-0.05454515293240547, 0.0797884538769722], [0.12722423672676086, 0.12352953106164932], [-0.21174471080303192, -0.48384174704551697], [0.26115894317626953, -0.11073099076747894], [-0.059928495436906815, -0.588567852973938], [0.007286628242582083, 0.2318972945213318], [0.019713379442691803, 0.14567826688289642], [0.00014730726252309978, 0.04419490322470665], [0.08913189172744751, 0.035812828689813614], [-0.12444591522216797, 0.10804819315671921], [-0.0489741675555706, 0.060139793902635574], [-0.08017484843730927, 0.2417154461145401], [0.038867902010679245, 0.10921569168567657], [-0.0015488449716940522, -0.020442837849259377], [0.027430212125182152, -0.03569396212697029], [0.09804543852806091, 0.05383694916963577], [-0.04045174643397331, -0.03340703248977661], [0.2119031399488449, -0.2969023883342743], [0.010096902027726173, 0.016209229826927185], [0.06483043730258942, 0.3158968389034271], [0.0015062197344377637, 0.09917750209569931], [-0.02504820004105568, 0.14034244418144226], [-0.021230408921837807, -0.2911789119243622], [-0.06234880909323692, 0.08748286962509155], [-0.0848134383559227, 0.20686131715774536], [0.40132850408554077, 0.048186756670475006], [-0.07358169555664062, -0.3468885123729706], [0.06297792494297028, 0.5944533944129944], [-0.11241581290960312, 0.34459421038627625], [-0.3437712788581848, 0.0541725791990757], [-0.22051431238651276, 0.196745365858078], [0.015629591420292854, 0.12781406939029694], [0.06707026064395905, -0.025576714426279068], [0.07396773248910904, 0.07863746583461761], [-0.036123089492321014, -0.02080496959388256], [0.0471058189868927, 0.17760597169399261], [0.09171182662248611, 0.020925983786582947], [-0.13343557715415955, -0.07952070236206055], [0.04227028787136078, -0.0530785471200943], [0.06622770428657532, 0.00033492871443741024], [-0.03931158035993576, -0.05938960239291191], [0.2451346516609192, 0.1883675456047058], [-0.01849929243326187, 0.0487176738679409], [0.04891879856586456, 0.23444733023643494], [0.011033687740564346, 0.07415729761123657], [-0.13363929092884064, 0.07054493576288223], [0.24722670018672943, -0.318754643201828], [-0.4019922614097595, 0.1206376850605011], [-0.3386169672012329, -0.11875663697719574], [-1.0759505033493042, 0.03484493866562843], [0.051918625831604004, -0.36301514506340027], [0.008439541794359684, 0.13895942270755768], [0.32550135254859924, -0.08488035947084427], [-1.6971304416656494, -0.417389839887619], [0.5850894451141357, -0.18792973458766937], [-0.03890154883265495, 0.05847984924912453], [-0.0472324900329113, -0.6438981294631958], [-0.08720161765813828, 0.2778608500957489], [-0.4489913284778595, 0.0848194882273674], [-1.302905797958374, -0.24568010866641998], [0.606013298034668, -0.16972216963768005], [-0.4615212082862854, -0.12670093774795532], [-0.08381304889917374, 0.030014490708708763], [-0.47687840461730957, 0.041890569031238556], [0.19323493540287018, 0.1579551249742508], [0.394968181848526, -0.014295815490186214], [-0.03535626083612442, 0.12479617446660995], [-0.9365644454956055, -0.38857054710388184], [-0.17796199023723602, 0.403133749961853], [1.1137714385986328, 0.3124445378780365], [0.4900587201118469, 0.12804992496967316], [-0.19630643725395203, 0.13189198076725006], [-0.20513415336608887, -0.052082791924476624], [0.09850741922855377, 0.17113038897514343], [0.005017202813178301, 0.3257928192615509], [0.15694324672222137, 0.2833598554134369], [0.0286963302642107, 0.10903492569923401], [0.06327369064092636, 0.0976075753569603], [-0.12418743222951889, 0.16001471877098083], [0.011073253117501736, 0.19543102383613586], [0.16121138632297516, 0.012920082546770573], [-0.1271798014640808, 0.15616536140441895], [-0.029917389154434204, 0.07030140608549118], [0.1801413744688034, -0.01889888569712639], [0.16406118869781494, 0.021010762080550194], [-0.14276795089244843, -0.06789196282625198], [0.022209692746400833, -0.035475198179483414], [0.12084528058767319, 0.05376754701137543], [-0.04721001163125038, -0.03871750459074974], [0.0898621454834938, 0.06876867264509201], [0.0867994874715805, 0.07635381817817688], [-0.04522674158215523, 0.4484231173992157], [0.05725229158997536, 0.12943103909492493], [-0.16124317049980164, 0.014157419092953205], [-0.10434168577194214, -0.21100392937660217]], "rec.weight_hh_l0": [[-0.1258387267589569, 0.07429894059896469, 0.06710569560527802, -0.08249328285455704, 0.13586215674877167, 0.15300454199314117, 0.14707635343074799, -0.19134902954101562, 0.0982416495680809, -0.09328439086675644, -0.18296769261360168, -0.13253556191921234, 0.2072715312242508, -0.06589679419994354, -0.008762307465076447, 0.004327442031353712, 0.03983783721923828, 0.003949197009205818, 0.04329787567257881, -0.12936660647392273, 0.1232205331325531, 0.002693877322599292, -0.09432430565357208, -0.06471260637044907], [0.06707653403282166, 0.04990621283650398, 0.030575403943657875, -0.032663822174072266, 0.018947018310427666, 0.020497819408774376, -0.02661009132862091, 0.028572212904691696, 0.05098815634846687, -0.03833184763789177, 0.056247055530548096, 0.011649446561932564, -0.05599002167582512, -0.03766844421625137, 0.010054701007902622, 0.016964662820100784, -0.012781412340700626, -0.016993854194879532, 0.06706118583679199, -0.04771788790822029, 0.005256835836917162, 0.0365411601960659, 0.018944833427667618, -0.010549594648182392], [0.2243545651435852, 0.10137923061847687, -0.15058578550815582, -0.07237359881401062, 0.17935942113399506, 0.01886065863072872, -0.13438808917999268, 0.12227579206228256, 0.1806328445672989, 0.149824321269989, -0.21479389071464539, 0.06553005427122116, -0.1683245450258255, -0.09957601130008698, 0.15806442499160767, 0.05459044873714447, -0.12857837975025177, -0.05270840972661972, 0.04043282940983772, -0.11908411234617233, 0.15794293582439423, -0.041025131940841675, -0.08380557596683502, -0.0918804332613945], [-0.11318451911211014, 0.04132736474275589, 0.21998293697834015, -0.19024568796157837, -0.8731132745742798, -0.04575363174080849, -0.08497250825166702, 0.12273823469877243, 0.021844293922185898, 0.09888960421085358, 0.15832769870758057, 0.2585187554359436, 0.10193200409412384, 0.09550180286169052, 0.02328084036707878, -0.009319139644503593, -0.06031889468431473, 0.05468708276748657, 0.09196792542934418, 0.010866167023777962, -0.19136586785316467, -0.040419381111860275, -0.16485168039798737, 0.060883358120918274], [0.5858355164527893, -0.6161817312240601, 0.028217829763889313, 1.0528572797775269, -0.19528287649154663, -1.00762939453125, -0.6251997351646423, 0.9171181321144104, -0.8892515301704407, 0.36235085129737854, -0.11426876485347748, 0.24267472326755524, 0.01212769653648138, -0.06313229352235794, -0.09238889068365097, 0.011055532842874527, -0.3027188777923584, -0.047920484095811844, -0.3034438192844391, 0.8805611729621887, 0.0032313107512891293, 0.1240980476140976, -0.23091870546340942, 0.6671119928359985], [-0.04191235452890396, -0.25735998153686523, 0.15253642201423645, 0.3765922784805298, -0.06679152697324753, 0.12076415121555328, 0.30296579003334045, 0.03672119602560997, -0.6433928608894348, -0.2160087525844574, -0.20081298053264618, -0.07761407643556595, -0.18311133980751038, -0.21343570947647095, -0.16437676548957825, 0.008298292756080627, -0.026704352349042892, -0.009403625503182411, -0.1988479644060135, 0.2736683189868927, 0.1519307643175125, 0.0927591398358345, -0.24725455045700073, 0.34142830967903137], [-0.2085142284631729, 0.17117269337177277, 0.05682418495416641, -0.2810837924480438, 0.203176811337471, 0.2905356287956238, 0.008882034569978714, -0.2842412292957306, 0.3092145025730133, -0.14044858515262604, 0.04103436693549156, -0.1235511526465416, 0.013044251129031181, 0.08932581543922424, -0.06839503347873688, -0.0013572064926847816, 0.10306942462921143, -0.0025204403791576624, 0.013609481044113636, -0.2964765727519989, -0.03763963282108307, 0.001903089345432818, 0.0857982411980629, -0.20365595817565918], [-0.025528714060783386, 0.08524972200393677, -0.032191988080739975, -0.17352576553821564, 0.08780644088983536, 0.1685815453529358, 0.0451592281460762, -0.07740809768438339, 0.18193168938159943, 0.02850428782403469, -0.014932039193809032, 0.017547128722071648, -0.0036574893165379763, 0.057743173092603683, 0.007858393713831902, 0.026421278715133667, -0.0437171570956707, 0.007014698814600706, 0.0007408679812215269, -0.18406762182712555, 0.011317090131342411, -0.05468503758311272, 0.08186573535203934, -0.11966218054294586], [-0.03722948580980301, 0.05768120661377907, 0.002665778622031212, -0.08157119899988174, 0.05792049691081047, 0.032972753047943115, 0.0010809917002916336, -0.02890416420996189, 0.0914926677942276, 0.002655305666849017, 0.029572969302535057, -0.007476343773305416, -0.01349458284676075, 0.024052336812019348, 0.011070214211940765, -0.002422608667984605, 0.02681935951113701, 0.0010351797100156546, 0.010997075587511063, -0.06701068580150604, 0.003301682649180293, -0.0023872475139796734, 0.02547391876578331, -0.06404343992471695], [-0.09071735292673111, 0.0976070985198021, -0.017499499022960663, -0.15385979413986206, 0.0662081316113472, 0.10915488004684448, 0.005391804035753012, -0.10434045642614365, 0.15459683537483215, 0.003655524691566825, 0.022783823311328888, -0.051979053765535355, -0.06363391876220703, 0.03520883619785309, 0.007076735142618418, -0.006208352278918028, 0.003766754176467657, -0.0034167743287980556, 0.06364079564809799, -0.14858371019363403, -0.07859637588262558, -0.004629941191524267, 0.049769677221775055, -0.10481952875852585], [-0.1724948287010193, 0.14985211193561554, 0.042837392538785934, -0.18787477910518646, 0.15637700259685516, 0.21086730062961578, 0.07472998648881912, -0.20075680315494537, 0.21367426216602325, 0.02049477957189083, 0.08413175493478775, -0.10799264162778854, 0.09622515738010406, 0.01786629483103752, -0.00019570776203181595, -0.01462111808359623, 0.02177455462515354, 0.007371095009148121, 0.1046617403626442, -0.23553742468357086, 0.02605755440890789, 0.00022469971736427397, -0.001491775270551443, -0.16263897716999054], [-0.009344854392111301, 0.12375863641500473, 0.022295817732810974, -0.18376895785331726, 0.07442761212587357, 0.0996355190873146, -0.022394826635718346, -0.1444626748561859, 0.12186657637357712, 0.03312574699521065, 0.04688159003853798, 0.0034270472824573517, -0.05669976398348808, -0.031756408512592316, 0.06273040920495987, -0.013571939431130886, 0.04679960384964943, -0.010324719361960888, 0.061311569064855576, -0.15201395750045776, 0.00418885238468647, -0.009817514568567276, 0.015619953162968159, -0.1147535890340805], [-0.48737645149230957, 0.04983963444828987, 0.288181334733963, -0.33142736554145813, 0.05226185917854309, 0.24337103962898254, -0.5124867558479309, -0.2731247544288635, 0.06747032701969147, -0.49353814125061035, -0.02367374859750271, -0.1277877241373062, -0.21282534301280975, 0.04943084716796875, -0.31935635209083557, 0.06905803084373474, 0.02875911444425583, -0.018535355105996132, -0.21279512345790863, -0.20373722910881042, -0.13589227199554443, 0.05066755786538124, -0.057375404983758926, 0.00045593309914693236], [-0.02155296690762043, 0.06300468742847443, -0.03442131355404854, -0.06890781223773956, 0.1811653971672058, 0.07852168381214142, 0.062272973358631134, -0.08570907264947891, 0.12661755084991455, -0.022110149264335632, -0.056727755814790726, -0.031812090426683426, 0.02737371064722538, 0.01965867355465889, 0.026272062212228775, -0.0034122709184885025, 0.023650629445910454, 0.011105380021035671, 0.002917991019785404, -0.11558962613344193, 0.05841994285583496, -0.04199451580643654, 0.07721325755119324, -0.09795074909925461], [-0.05844135582447052, 0.0792381688952446, -0.01923336461186409, -0.13842326402664185, 0.04772386699914932, 0.05527618154883385, -0.05761130154132843, -0.05037588253617287, 0.11204643547534943, 0.056816600263118744, 0.034335047006607056, -0.05974247306585312, -0.016671687364578247, 0.015808435156941414, 0.021187838166952133, -0.01485794223845005, 0.018783176317811012, -0.015325172804296017, 0.11572858691215515, -0.13703040778636932, 0.04147803410887718, 0.0258526261895895, -0.046998362988233566, -0.061099711805582047], [-0.05658291280269623, 0.023644501343369484, -0.0039277407340705395, -0.05001022666692734, 0.007101038470864296, 0.028283296152949333, 0.01818600483238697, -0.014434502460062504, 0.035978663712739944, 0.021620851010084152, 0.02639704756438732, -0.022601349279284477, -0.03122912347316742, 0.02900141477584839, -0.002094537252560258, -0.012607215903699398, 0.015333486720919609, 0.0030381011310964823, -0.006340166088193655, -0.0355711467564106, -0.027966098859906197, -0.009915795177221298, -0.006032915785908699, -0.03753194585442543], [0.040940336883068085, 0.052682068198919296, -0.05768336355686188, -0.09917744249105453, 0.08215309679508209, 0.07633741199970245, -0.03379112482070923, 0.004617530386894941, 0.10087690502405167, 0.07378233224153519, 0.0028517942409962416, -0.0002004874259000644, -0.0552946999669075, 0.03446296975016594, 0.014168873429298401, 0.00933272484689951, -0.006457674782723188, -0.0002491003542672843, 0.0064841448329389095, -0.08696067333221436, -0.008481860160827637, -0.021762030199170113, 0.06758421659469604, -0.07083588093519211], [0.019288644194602966, 0.03371892124414444, 0.017574511468410492, -0.05093902722001076, 0.003036610782146454, 0.006373437587171793, 0.02181861363351345, -0.03168632462620735, 0.03153711557388306, 0.013291376642882824, -0.0330401286482811, -0.024454724043607712, 0.04357609152793884, -0.021705379709601402, 0.02265106700360775, -0.0027175783179700375, 0.01383988093584776, -0.011926989071071148, 0.026348352432250977, -0.03243718668818474, 0.005446156952530146, 0.0012230126885697246, -0.006866287440061569, -0.015229114331305027], [0.11190143972635269, -0.1434309035539627, 0.05526578426361084, 0.5420131087303162, 0.15669456124305725, -0.2794909179210663, -0.007604621350765228, 0.34313616156578064, -0.4694438874721527, -0.04583520442247391, 0.023098934441804886, 0.2937326729297638, 0.19840236008167267, -0.19919142127037048, -0.20217503607273102, -0.003451670752838254, -0.11528626084327698, 0.08540394902229309, -0.09901118278503418, 0.7918469309806824, 0.038730114698410034, 0.06462371349334717, -0.1639080047607422, 0.43989986181259155], [-0.03829250857234001, 0.05653241276741028, 0.006857667583972216, -0.0954848974943161, 0.039685603231191635, 0.05881722271442413, -0.003621830139309168, -0.05537133663892746, 0.09280495345592499, 0.025891372933983803, 0.036451276391744614, -0.01831941492855549, -0.007068770006299019, 0.039463408291339874, 0.01227868814021349, -0.005534750875085592, 0.036928679794073105, -0.0033765528351068497, 0.01952304318547249, -0.12645184993743896, -0.01675889827311039, -0.008282345719635487, 0.043992627412080765, -0.079734206199646], [-0.13355056941509247, 0.09668253362178802, 0.0007922935765236616, -0.17571355402469635, 0.2529650926589966, 0.2784309983253479, -0.006583262234926224, -0.16744008660316467, 0.21469610929489136, -0.1744576096534729, 0.005331891588866711, -0.0691521167755127, 0.14308269321918488, 0.06441984325647354, -0.11853107064962387, 0.03427645564079285, 0.07793435454368591, 0.021959850564599037, -0.06635505706071854, -0.17811018228530884, 0.06451775878667831, -0.002619432518258691, 0.0820908471941948, -0.13027364015579224], [0.015683142468333244, 0.017800521105527878, -0.016465982422232628, -0.013680377043783665, 0.07260441780090332, -0.03244314715266228, 0.004575659520924091, -0.04662786424160004, 0.06370123475790024, -0.03256239369511604, -0.04367271438241005, -0.0002150197105947882, 0.07802209258079529, 0.013743327930569649, 0.033328842371702194, 0.01170994620770216, 0.02813594415783882, 0.009011565707623959, -0.017913922667503357, -0.029149184003472328, 0.05520284175872803, -0.022040339186787605, 0.019500505179166794, -0.025690415874123573], [-0.0703447088599205, 0.12908287346363068, 0.024925153702497482, -0.20371802151203156, 0.1104234978556633, 0.184627965092659, 0.0791928842663765, -0.13728025555610657, 0.20123986899852753, -0.028047071769833565, 0.018192021176218987, -0.015896644443273544, 0.011448425240814686, 0.0045284549705684185, 0.016076302155852318, -0.004305918235331774, 0.0647587701678276, -0.004360808990895748, 0.025224752724170685, -0.1781315803527832, 0.028337322175502777, 0.012133054435253143, 0.036511313170194626, -0.13690994679927826], [0.047873008996248245, 0.08377555012702942, -0.10087084025144577, -0.08901320397853851, 0.29178205132484436, 0.443753182888031, 0.22654563188552856, 0.04200024530291557, 0.23656268417835236, 0.15407688915729523, -0.22455158829689026, -0.1156521886587143, -0.06846313178539276, -0.042109571397304535, 0.07947060465812683, 0.03410185128450394, -0.011831410229206085, 0.007360865827649832, 0.04779135808348656, -0.30258721113204956, 0.01806800812482834, -0.105379618704319, 0.12040389329195023, -0.12164609879255295], [-0.0904785618185997, 0.01627161167562008, 0.1388145089149475, 0.00911419466137886, 0.125697061419487, 0.0706683099269867, 0.028935600072145462, -0.15951716899871826, 0.04340841621160507, -0.051263242959976196, 0.015766624361276627, -0.024633806198835373, 0.07052307575941086, -0.00265516503714025, -0.016883429139852524, 0.036625634878873825, -0.04609973356127739, 0.004311495926231146, 0.08934135735034943, -0.06529392302036285, -0.20931780338287354, 0.037224311381578445, 0.09969274699687958, -0.02949581854045391], [0.08417970687150955, 0.15540353953838348, 0.04368852078914642, -0.18754838407039642, 0.09198623150587082, 0.135782852768898, -0.006994266528636217, -0.06674239039421082, 0.1916273683309555, -0.10060956329107285, 0.08579634875059128, -0.028278253972530365, -0.050733212381601334, -0.021942932158708572, -0.009034691378474236, 0.03647981956601143, 0.019314967095851898, -0.01175318006426096, 0.13817098736763, -0.18619748950004578, 0.023897582665085793, 0.028435958549380302, 0.10593850910663605, -0.09231334924697876], [0.12232589721679688, 0.003320930292829871, -0.05516446381807327, 0.12847045063972473, 0.01823762245476246, -0.02876916155219078, -0.10184677690267563, 0.12304235994815826, -0.018836721777915955, -0.13568811118602753, -0.19002608954906464, 0.05144679546356201, -0.13176360726356506, -0.08203192055225372, 0.047926079481840134, 0.03623916581273079, -0.09023527055978775, -0.04539477825164795, -0.0485042929649353, 0.03262181580066681, 0.0623919777572155, 0.003579731099307537, 0.03673459216952324, 0.020944083109498024], [-0.16180041432380676, 0.1965198516845703, 0.10335440933704376, -0.3842727243900299, -0.7480124831199646, 0.31589382886886597, 0.05810227617621422, -0.1161736249923706, 0.27489688992500305, 0.026488514617085457, 0.08992227911949158, 0.2095215916633606, 0.1359584480524063, 0.16166026890277863, 0.1019539162516594, 0.031595710664987564, -0.008027632720768452, 0.02844158560037613, 0.027276141569018364, -0.2527952194213867, -0.06927605718374252, -0.1353897601366043, -0.02540881745517254, -0.17022931575775146], [-0.2093978226184845, 0.6521016955375671, -0.00433103134855628, -0.7619606852531433, 0.13952405750751495, 0.9585860371589661, 0.21452906727790833, -0.7984147667884827, 1.2349817752838135, -0.08877052366733551, 0.04754279926419258, -0.16380687057971954, -0.21444076299667358, 0.36287060379981995, 0.14378011226654053, 0.003404306247830391, 0.2719099819660187, 0.013356752693653107, 0.32414424419403076, -0.8448066711425781, -0.019915897399187088, -0.11903227120637894, 0.5006879568099976, -1.1358004808425903], [-0.04820258542895317, 0.3489357531070709, 0.15172235667705536, -0.5455293655395508, 0.39304855465888977, 0.7091119289398193, 0.0235296543687582, -0.39141976833343506, 0.5400620102882385, -0.05111641064286232, 0.0901537537574768, -0.12382086366415024, -0.22057601809501648, -0.00900826882570982, 0.01873805746436119, -0.019257469102740288, 0.20369000732898712, -0.06272029131650925, -0.041733548045158386, -0.5348696708679199, 0.026028772816061974, 0.05825372412800789, 0.1697540581226349, -0.40810543298721313], [-0.21160712838172913, 0.0971670001745224, 0.20653288066387177, -0.0010404398199170828, -0.2573472261428833, -0.13813640177249908, -0.1456526815891266, -0.17820875346660614, 0.021844973787665367, -0.37526577711105347, 0.2760368585586548, 0.046431370079517365, 0.08858925104141235, -0.08010569959878922, 0.09983543306589127, 0.01692444272339344, 0.09884179383516312, -0.08858271688222885, -0.038887009024620056, 0.030101817101240158, -0.057426996529102325, 0.21939608454704285, -0.08233490586280823, 0.13641850650310516], [-0.14032675325870514, 0.026869939640164375, 0.0627412274479866, -0.13880258798599243, -0.22002458572387695, 0.038540326058864594, 0.06573231518268585, -0.1300230622291565, 0.09775747358798981, -0.18786969780921936, 0.06006750836968422, 0.05761053413152695, -0.007185384165495634, -0.01070688758045435, -0.08957470208406448, 0.06928770244121552, -0.08063502609729767, 0.02826036512851715, -0.045996226370334625, -0.149150550365448, 0.028766177594661713, -0.002283575711771846, -0.07565014809370041, -0.010965855792164803], [-0.08397863805294037, 0.13785001635551453, 0.005905029829591513, -0.2043948471546173, 0.1418527364730835, 0.08996596932411194, -0.005572746507823467, -0.08675111830234528, 0.22567522525787354, -0.004026918672025204, 0.0702420100569725, -0.016329236328601837, -0.02455870807170868, 0.05828309804201126, 0.027152547612786293, -0.0036061154678463936, 0.06225335970520973, 0.00040301558328792453, 0.023752275854349136, -0.16151507198810577, -0.005458729341626167, -0.0019508961122483015, 0.06806845963001251, -0.15505173802375793], [-0.13120855391025543, 0.0780671164393425, 0.023153861984610558, -0.11309510469436646, -0.122420534491539, 0.05271314084529877, -0.07347855716943741, -0.20667092502117157, 0.08954983949661255, -0.15255196392536163, -0.03387448191642761, -0.010762947611510754, -0.1808614283800125, -0.04584513232111931, 0.020021973177790642, -0.0023474846966564655, -0.049164216965436935, -0.02275952138006687, 0.050682906061410904, -0.0600762739777565, -0.19436924159526825, 0.044873688369989395, -0.053866710513830185, -0.02095794305205345], [-0.20026931166648865, -0.006973272189497948, 0.006868364289402962, 0.028684750199317932, 0.014449987560510635, 0.06118675321340561, -0.1320199817419052, -0.13347850739955902, 0.010209266096353531, -0.06943093240261078, 0.18760192394256592, 0.037439629435539246, 0.10917472094297409, 0.08667803555727005, -0.051684122532606125, 0.009362764656543732, -0.10644037276506424, 0.006530037149786949, 0.08455587178468704, -0.06345491111278534, 0.007732894271612167, 0.0458260141313076, 0.03832259774208069, 0.017181770876049995], [-0.03211662545800209, 0.07733368128538132, 0.039494406431913376, -0.044411130249500275, -0.11540554463863373, 0.016420243307948112, 0.1209200844168663, -0.15034162998199463, -0.017402255907654762, -0.10657116025686264, 0.08781815320253372, 0.08576232939958572, -0.10504224896430969, -0.08146165311336517, 0.05982867255806923, -0.05992390960454941, 0.1393846571445465, 0.008438863791525364, -0.05631410703063011, -0.011040625162422657, 0.01928180642426014, 0.031016431748867035, 0.0007250360795296729, -0.000478604924865067], [-0.07556790113449097, -0.001055686385370791, -0.1967267245054245, -0.10288193076848984, 0.05645827576518059, 0.04430968314409256, 0.1392410844564438, -0.0704759880900383, 0.032579004764556885, -0.04206244274973869, 0.061270590871572495, -0.11824335157871246, -0.38894912600517273, 0.12082769721746445, -0.009309916757047176, 0.058902084827423096, -0.08476944267749786, -0.05698409676551819, -0.027484843507409096, 0.018579937517642975, -0.47663840651512146, 0.009152489714324474, 0.0917184054851532, 0.11252530664205551], [0.012554782442748547, -0.05764848738908768, -0.033583804965019226, 0.08218277245759964, 0.16090436279773712, -0.10670900344848633, -0.05164328217506409, 0.049517568200826645, -0.06655198335647583, 0.0051796468906104565, -0.09193988144397736, -0.002255686791613698, -0.12365027517080307, 0.07289533317089081, -0.03384256735444069, 0.011953037232160568, -0.0523664653301239, 0.03251546993851662, -0.06240689009428024, 0.012249105609953403, -0.014924082905054092, -0.08119965344667435, 0.11819223314523697, 0.0027163904160261154], [-0.060265056788921356, 0.08271247893571854, 0.04731049761176109, -0.13163678348064423, -0.029040442779660225, 0.006823699921369553, -0.09126134216785431, -0.08259317278862, 0.08981475979089737, 0.11827609688043594, 0.049769170582294464, -0.06407595425844193, 0.06892555952072144, 0.048620760440826416, 0.007930529303848743, -0.0020840733777731657, 0.02192704565823078, -0.01983584463596344, 0.22021235525608063, -0.1215858906507492, -0.011936995200812817, 0.013527441769838333, -0.025893481448292732, -0.052469685673713684], [-0.07014384120702744, -0.0017501725815236568, -0.010513775050640106, -0.013892109505832195, -0.02089649997651577, 0.0019835378043353558, 0.0199767854064703, 0.012135892175137997, -0.0019169086590409279, 0.015420092269778252, 0.02719535306096077, -0.008492198772728443, -0.03410138934850693, 0.030757123604416847, -0.009980692528188229, -0.014457199722528458, 0.005184510722756386, 0.0075067561119794846, -0.017417140305042267, 0.001609503640793264, -0.034470491111278534, -0.006776501890271902, -0.0048349094577133656, -0.013346091844141483], [0.013711334206163883, 0.025665385648608208, -0.03205455467104912, -0.06797408312559128, 0.04160289093852043, 0.021786421537399292, -0.08544985204935074, 0.060624800622463226, 0.0317884162068367, 0.13014943897724152, 0.039431601762771606, 0.04243570938706398, -0.11321382224559784, 0.07599511742591858, 0.0009329530294053257, 0.010043468326330185, -0.038846708834171295, 0.0021430752240121365, -0.02593311108648777, -0.03190162405371666, -0.08446541428565979, -0.03157225251197815, 0.09025710076093674, -0.07355619966983795], [0.007214808836579323, 0.04319160804152489, 0.02690212056040764, -0.07160933315753937, -0.003608428407460451, 0.016787612810730934, 0.04232436418533325, -0.04323912411928177, 0.04162207618355751, 0.028996337205171585, -0.03592532128095627, -0.03622820973396301, 0.06739357113838196, -0.010785137303173542, 0.021499736234545708, -0.0047470638528466225, 0.013449830003082752, -0.015557583421468735, 0.033462148159742355, -0.0441720075905323, -0.024364305660128593, -0.002869107061997056, 0.012199642136693, -0.025201009586453438], [0.08404293656349182, 0.47130221128463745, -0.11626219004392624, -0.38328999280929565, 0.11207497864961624, 0.5445131063461304, -0.13941562175750732, -0.19736745953559875, 0.5914753675460815, -0.14391154050827026, 0.06832270324230194, 0.22762097418308258, 0.39589574933052063, 0.0720144584774971, 0.3508383333683014, 0.05014349892735481, 0.2127668410539627, -0.1243613213300705, 0.157868891954422, -0.605573832988739, -0.2130908966064453, -0.05191093310713768, 0.28838467597961426, -0.5575121641159058], [-0.07017949968576431, 0.13771472871303558, 0.04016273841261864, -0.2077876329421997, 0.10155640542507172, 0.17271769046783447, 0.02522258087992668, -0.13500742614269257, 0.2170683890581131, 0.03368672356009483, 0.05924797058105469, -0.04494814947247505, -0.003095311811193824, 0.05283503979444504, 0.02223782055079937, -0.012113221921026707, 0.08892616629600525, -0.013121990486979485, 0.03937208652496338, -0.29449498653411865, -0.019976351410150528, -0.011101458221673965, 0.07725963741540909, -0.1755903959274292], [-0.08650614321231842, -0.045734893530607224, -0.11159937083721161, 0.09003511816263199, 0.13469873368740082, 0.07293181866407394, -0.061712559312582016, 0.04193602502346039, -0.07822639495134354, -0.05706121399998665, 0.1655340939760208, 0.05769673362374306, 0.1938050240278244, 0.06495771557092667, -0.13549579679965973, 0.0711066797375679, 0.025486674159765244, -0.013103685341775417, -0.19794884324073792, 0.011546580120921135, 0.08678238093852997, 0.04783995449542999, 0.12699580192565918, 0.02478467859327793], [-0.025406789034605026, 0.020765332505106926, -0.02336410991847515, -0.022384466603398323, 0.05535370483994484, -0.04216989874839783, 0.011958975344896317, -0.04687338322401047, 0.05965309590101242, -0.03984971344470978, -0.03995059058070183, -0.020879797637462616, 0.1173301711678505, 0.02592143788933754, 0.03879836946725845, 0.0038994515780359507, 0.03897445276379585, 0.010629836469888687, -0.03970534726977348, -0.025781085714697838, 0.032309405505657196, -0.02430640161037445, 0.007762591820210218, -0.021569641306996346], [0.188780277967453, 0.0564897395670414, 0.04039032757282257, -0.03535442426800728, -0.1977744698524475, 0.02676251344382763, 0.07386893033981323, 0.0007411119877360761, 0.06343332678079605, 0.04991406574845314, -0.14235283434391022, 0.14409054815769196, -0.012663465924561024, -0.16428875923156738, 0.24814234673976898, -0.0039709508419036865, 0.0833948627114296, -0.052139680832624435, -0.03389112278819084, 0.0026028782594949007, 0.04857868701219559, 0.03034755401313305, 0.01629822887480259, -0.03840543329715729], [-0.03844118118286133, -0.1042838990688324, -0.33618247509002686, 0.27689242362976074, 0.616060733795166, -0.12066572159528732, -0.10589728504419327, -0.054103948175907135, -0.25738051533699036, 0.3157210052013397, -0.01310607511550188, 0.012090695090591908, -0.4210243821144104, 0.2988974452018738, 0.005131542682647705, 0.013849626295268536, -0.14945083856582642, 0.018270343542099, -0.07910275459289551, 0.2619699537754059, -0.10343025624752045, -0.11142493784427643, 0.23301920294761658, -0.37092286348342896], [0.03215973079204559, 0.09732776135206223, -0.286630243062973, 0.08006416261196136, -0.22364619374275208, -0.1749582439661026, 0.09798315167427063, 0.30453288555145264, 0.057601768523454666, 0.01643650233745575, -0.5988380908966064, -0.04182008281350136, -0.014638405293226242, -0.13973800837993622, 0.15406234562397003, -0.08011255413293839, 0.11564607918262482, -0.04911825433373451, -0.12236351519823074, 0.0724094957113266, 0.39422059059143066, 0.030668456107378006, -0.15913809835910797, -0.02239958941936493], [0.09834830462932587, 0.11680054664611816, 0.09015502780675888, -0.2865678071975708, -0.1579209417104721, 0.15346971154212952, 0.015482180751860142, 0.056064363569021225, 0.3477764129638672, -0.08043351024389267, 0.15681101381778717, -0.018705973401665688, -0.05131211876869202, -0.06863229721784592, 0.04106300696730614, 0.032256945967674255, 0.10434135049581528, -0.01129145547747612, 0.1268550008535385, 0.001600092276930809, -0.07766213268041611, 0.08994457125663757, 0.09586641937494278, -0.1442534178495407], [-0.22352121770381927, 0.0026601660065352917, -0.4533017873764038, -0.22811485826969147, -0.22993169724941254, -0.006254285108298063, -0.20745454728603363, 0.2505319118499756, 0.08642974495887756, -0.16647517681121826, -0.35057395696640015, -0.3289479911327362, -0.2923206686973572, 0.15501302480697632, -0.22093082964420319, 0.14076514542102814, 0.09160296618938446, 0.023107273504137993, -0.001544914790429175, -0.11353658884763718, -0.27260109782218933, -0.17563916742801666, 0.2922089695930481, 0.1503627747297287], [-0.13552668690681458, -0.22079774737358093, -0.08626546710729599, 0.46523532271385193, 0.42882096767425537, -0.46053236722946167, 0.0008654805133119226, 0.016330555081367493, -0.16657982766628265, -0.08764946460723877, -0.1406821757555008, -0.21459603309631348, -0.03635615110397339, 0.03469521179795265, -0.09668967127799988, -0.031732525676488876, -0.08376391977071762, -0.022008564323186874, -0.05449087917804718, 0.2835296392440796, -0.068663090467453, 0.007706556003540754, 0.05506445840001106, 0.16728493571281433], [0.23001311719417572, -0.052638858556747437, 0.22610348463058472, -0.13779622316360474, 0.47247761487960815, -0.2097652554512024, -0.5365079045295715, -0.14616617560386658, -0.26144757866859436, 0.047351934015750885, -0.06627210229635239, 0.16638603806495667, -0.441071480512619, 0.2196633219718933, 0.0385771207511425, 0.053284842520952225, -0.06900954991579056, -0.03604961931705475, 0.02706817165017128, 0.14687296748161316, -0.27434927225112915, -0.125780388712883, -0.024133794009685516, 0.0743052214384079], [-0.07348113507032394, 0.0041134837083518505, -0.0532638318836689, 0.21084342896938324, 0.14395278692245483, 0.4031185805797577, -0.09726576507091522, 0.014324008487164974, 0.1727684587240219, 0.21181811392307281, -0.04843604564666748, -0.12266698479652405, -0.23299147188663483, 0.30559492111206055, -0.1501074880361557, -0.0028841730672866106, 0.08260355144739151, -0.020634427666664124, 0.321052610874176, -0.07386902719736099, 0.27477413415908813, -0.05829622596502304, 0.274567574262619, -0.3768269717693329], [0.41407161951065063, -0.20459911227226257, -0.03813304379582405, 0.3374968469142914, 1.0739474296569824, 0.36072108149528503, 0.1063840314745903, 0.14449867606163025, -0.1432652473449707, 0.6710916757583618, -0.24083559215068817, -0.23066049814224243, -0.21399755775928497, 0.09444808959960938, 0.0925205796957016, 0.11867554485797882, -0.30879533290863037, -0.0990016832947731, -0.19287802278995514, -0.12801243364810944, 1.0367480516433716, -0.12124335765838623, -0.8621565699577332, -0.5946054458618164], [0.003275120398029685, -0.046686720103025436, -0.034075576812028885, 0.17733749747276306, 0.3184150457382202, -0.06311992555856705, -0.5789613127708435, -0.1792786866426468, 0.14895421266555786, -0.18853230774402618, 0.18426859378814697, 0.10308481752872467, 0.04813183844089508, -0.04067442566156387, 0.29235389828681946, 0.0762450322508812, 0.00736211659386754, -0.09745805710554123, 0.366323322057724, 0.21081985533237457, -0.06670329719781876, -0.03937564417719841, 0.3073365390300751, -0.06775637716054916], [-0.06042509153485298, 0.1125173270702362, 0.0153654795140028, -0.15822389721870422, 0.12148208171129227, 0.05181802809238434, -0.008731089532375336, -0.03287160024046898, 0.17533943057060242, -0.00020107986347284168, 0.054700300097465515, -0.0033283568918704987, -0.02078900672495365, 0.04123843461275101, 0.024965781718492508, -0.003548061242327094, 0.05019265413284302, -0.0031485985964536667, 0.01698501966893673, -0.09248016029596329, 0.013433463871479034, 0.003934481646865606, 0.05103437229990959, -0.12256736308336258], [0.12292138487100601, 0.21819253265857697, -0.5906623005867004, 0.25517362356185913, 0.1905285269021988, 0.10826990753412247, -0.3199996054172516, 0.17576612532138824, -0.014777706004679203, -0.14377935230731964, -0.1855887621641159, -0.1709114909172058, 0.00865109357982874, -0.0027991642709821463, 0.3658530116081238, -0.12434644252061844, -0.11085199564695358, 0.023368168622255325, 0.13048681616783142, -0.10582802444696426, -0.03953707590699196, -0.17451059818267822, 0.11161904036998749, -0.2312159240245819], [0.1627061516046524, 0.04108439385890961, 0.2778084874153137, -0.28625258803367615, -0.2469022125005722, -0.08187882602214813, -0.6717607975006104, -0.055826615542173386, -0.3606956899166107, 0.3119688332080841, 0.40473371744155884, 0.18500420451164246, 0.07401733100414276, 0.351924329996109, -0.256794810295105, 0.1218063086271286, -0.26810652017593384, -0.1119169145822525, -0.18121984601020813, 0.03730545938014984, -0.29642271995544434, 0.04712485894560814, 0.28249409794807434, 0.18499529361724854], [0.17195643484592438, -0.38248804211616516, -0.18412695825099945, -0.03206569328904152, -0.08485835790634155, -0.44699686765670776, -0.3223530948162079, -0.1852187216281891, -0.01456433068960905, 0.09566909074783325, -0.21085987985134125, 0.01126892026513815, -0.4907588064670563, 0.17073313891887665, -0.018973834812641144, 0.04059853032231331, -0.021708985790610313, -0.011243097484111786, -0.2883615493774414, -0.10184712707996368, -0.04256388545036316, -0.12233034521341324, 0.010921988636255264, 0.1805216670036316], [-0.17754647135734558, -0.06829311698675156, 0.43702226877212524, 0.3598008453845978, 0.811606764793396, -0.1073303371667862, 2.052236318588257, 0.005150156561285257, -0.3471885621547699, 0.37286117672920227, 0.11293786764144897, 0.10602278262376785, 0.3174307346343994, 0.12009304016828537, 0.026040077209472656, 0.05420277267694473, 0.04629911482334137, -0.09323889017105103, -0.12184392660856247, 0.03610454499721527, 1.1208128929138184, -0.1271807700395584, -0.5562061071395874, -0.3844001591205597], [-0.13189806044101715, -0.1969333291053772, -0.23691871762275696, -0.1522085815668106, 0.22214259207248688, -0.14915354549884796, -0.3359655737876892, -0.05289553478360176, -0.263563871383667, -0.018967630341649055, -0.04629460349678993, -0.2030264437198639, 0.01602606102824211, -0.045107290148735046, -0.2232075333595276, 0.002848005620762706, -0.19728296995162964, 0.0025794212706387043, 0.13157203793525696, -0.25906267762184143, -0.20721335709095, -0.07419988512992859, 0.2787182331085205, 0.19566036760807037], [0.0772881880402565, 0.07228881120681763, -0.250874400138855, 0.0810314491391182, -0.12818892300128937, -0.3050662577152252, 0.14159677922725677, -0.04956046864390373, 0.0753583163022995, 0.20570731163024902, 0.030168309807777405, 0.1031527891755104, -0.11093887686729431, 0.1187719851732254, 0.08280398696660995, 0.01966058649122715, -0.14989838004112244, -0.04003389552235603, -0.21606135368347168, -0.011667950078845024, -0.0013329596258699894, 0.07147984206676483, -0.21101513504981995, 0.13778230547904968], [0.07009800523519516, -0.1489850878715515, -0.056257739663124084, 0.00047887867549434304, 0.19075362384319305, -0.027234025299549103, -0.19272921979427338, 0.05217462778091431, 0.005675614345818758, -0.12437412887811661, -0.13926923274993896, -0.07114245742559433, -0.02051117643713951, -0.12288016080856323, 0.005567991174757481, 0.010781328193843365, -0.04035339504480362, -0.008949236012995243, -0.02014550007879734, -0.12597878277301788, 0.02791532687842846, -0.021851256489753723, -0.003972016274929047, 0.10824151337146759], [-0.03772298991680145, -0.15612725913524628, 0.13389645516872406, -0.09371931850910187, 0.11380907148122787, -0.02030482329428196, 0.22453510761260986, -0.07842093706130981, -0.11820266395807266, 0.1643984019756317, 0.2979767620563507, 0.06130003184080124, -0.10145208239555359, 0.12104392796754837, -0.16223974525928497, -0.006313435733318329, 0.14755219221115112, -0.017505163326859474, -0.21115688979625702, -0.009669121354818344, 0.13217702507972717, 0.15475578606128693, -0.21300780773162842, -0.3052839934825897], [-0.07802549004554749, -0.13545989990234375, 0.09643364697694778, -0.025393469259142876, 0.08985365927219391, -0.05488264560699463, 0.13908831775188446, -0.07558982074260712, -0.07219871133565903, 0.09116973727941513, -0.011923752725124359, 0.015631210058927536, -0.025170454755425453, 0.09325534850358963, -0.03837001323699951, -0.020915856584906578, 0.027721025049686432, 0.06789940595626831, -0.006384178064763546, 0.04872419312596321, 0.03254394605755806, -0.018680380657315254, 0.0864492729306221, 0.06949350982904434], [0.14868247509002686, 0.21797116100788116, 0.3595297932624817, 0.05322124809026718, 0.028373239561915398, 0.08938030153512955, 0.03661459684371948, -0.01174225751310587, -0.14139534533023834, 0.008516622707247734, 0.322888046503067, 0.05233271047472954, 0.7679920792579651, 0.17154446244239807, 0.3037378489971161, 0.05953076109290123, 0.049758270382881165, -0.1273636370897293, 0.10179577767848969, 0.05407712608575821, 0.07890863716602325, -0.049521271139383316, -0.20758838951587677, 0.14428603649139404], [0.009122558869421482, -0.11734239757061005, 0.02143590711057186, -0.005523348227143288, -0.3019696772098541, -0.24950960278511047, -0.34337589144706726, -0.026625633239746094, -0.15141010284423828, -0.03216124325990677, 0.0024611277040094137, 0.18141962587833405, -0.12262856960296631, -0.00539545388892293, 0.12365356832742691, 0.00172160635702312, -0.054144490510225296, 0.006801212672144175, -0.055916715413331985, 0.2623943090438843, -0.17621468007564545, 0.06745810806751251, -0.026227546855807304, 0.19485606253147125], [-0.19712397456169128, 0.048413973301649094, -0.46615874767303467, 0.5222396850585938, 1.1350241899490356, -0.003709993790835142, -0.08718535304069519, 0.2809121906757355, -0.027715595439076424, -0.20492206513881683, 0.005908596329391003, 0.12131229043006897, 0.034924909472465515, 0.19145585596561432, -0.03408244252204895, 0.04435530677437782, 0.11369577050209045, 0.10994613915681839, 0.06883090734481812, 0.14087849855422974, 0.18425898253917694, -0.2683309316635132, -0.13613039255142212, -0.5101057887077332], [-0.03400406613945961, 0.11457367986440659, 0.058365244418382645, -0.1745302528142929, -0.6970080137252808, 0.19214536249637604, -0.11756297200918198, 0.0757211297750473, 0.03974470868706703, -0.043450355529785156, 0.22830736637115479, -0.09607955813407898, 0.04611781984567642, -0.025555036962032318, 0.114402174949646, 0.04396615922451019, -0.06841428577899933, -0.0009899819269776344, 0.13903342187404633, 0.05908823013305664, -0.0028419611044228077, 0.011105168610811234, -0.025821486487984657, -0.008617924526333809], [0.461452454328537, 0.040133990347385406, -0.19127653539180756, -0.14783135056495667, -0.3020758032798767, 0.08602076768875122, -0.09441670030355453, -0.2367405891418457, 0.11007901281118393, 0.11823701858520508, -0.13096275925636292, 0.1110597550868988, 0.04515523836016655, -0.009078708477318287, 0.3368525207042694, 0.060243770480155945, 0.18789979815483093, -0.09806618094444275, 0.19182047247886658, 0.08717238903045654, -0.020232660695910454, -0.22165970504283905, -0.17938964068889618, -0.06111340969800949], [0.02531352825462818, -0.021687468513846397, 0.08114057779312134, 0.025222549214959145, -0.360919713973999, -0.16476185619831085, 0.05458565801382065, -0.019077608361840248, -0.026273589581251144, -0.23906275629997253, -0.030709218233823776, 0.05532030388712883, 0.12023153901100159, -0.2766563594341278, 0.1864885687828064, -0.07722244411706924, 0.1567668914794922, -0.004398831166327, -0.12599900364875793, 0.18202093243598938, 0.13336840271949768, 0.0758073553442955, -0.21089677512645721, 0.06414248794317245], [-0.06432578712701797, 0.0961388424038887, 0.22967733442783356, -0.08254411071538925, 0.2504367232322693, 0.1257731169462204, 0.14971719682216644, -0.16819459199905396, 0.08982060104608536, -0.10857212543487549, -0.21654726564884186, -0.05242118611931801, 0.1282077580690384, -0.11714652925729752, 0.004985741339623928, 0.031705938279628754, 0.05625097081065178, -0.0010728449560701847, 0.07417983561754227, -0.13797274231910706, 0.221856489777565, -0.012591615319252014, -0.04189052805304527, -0.13010302186012268], [0.023672934621572495, 0.08955074846744537, 0.04410121962428093, -0.06750758737325668, -0.16455122828483582, -0.002074003219604492, 0.2277844101190567, -0.13969750702381134, 0.0405958853662014, -0.065101258456707, 0.12292248010635376, 0.1243734359741211, -0.17929476499557495, -0.0005263892817310989, 0.11323995888233185, 0.05071442574262619, 0.005764469038695097, -0.028612934052944183, -0.032866016030311584, -0.15336622297763824, -0.10557223111391068, -0.012731464579701424, -0.09511207044124603, 0.03358462452888489], [0.10504963994026184, 0.1739899069070816, -0.04676041379570961, -0.22584983706474304, 0.22323596477508545, 0.18326206505298615, -0.034260343760252, -0.059465594589710236, 0.28685253858566284, 0.07200318574905396, -0.10584301501512527, -0.014700887724757195, -0.07263024896383286, -0.03971968591213226, 0.08708207309246063, 0.032837044447660446, -0.009616894647479057, -0.03420452028512955, 0.0675109252333641, -0.23979373276233673, 0.09945496171712875, -0.029296938329935074, 0.07893787324428558, -0.17251822352409363], [-0.031365666538476944, 0.23461562395095825, -0.01859302632510662, -0.37565359473228455, 0.08358168601989746, 0.3826305568218231, 0.04062396660447121, -0.1743278056383133, 0.3332175314426422, -0.08218447864055634, 0.052130527794361115, 0.024012381210923195, 0.10456912219524384, 0.022399181500077248, 0.010443008504807949, 0.015570087358355522, 0.0806698203086853, -0.015007601119577885, -0.0033219207543879747, -0.33510303497314453, 0.057675134390592575, -0.011953355744481087, 0.059216830879449844, -0.279489666223526], [-0.09815007448196411, 0.08956597000360489, -0.09351957589387894, -0.13335323333740234, 0.5021137595176697, 0.2915584444999695, 0.05996101349592209, -0.274938702583313, 0.309081494808197, -0.06818324327468872, -0.018274521455168724, -0.13986611366271973, 0.06432376056909561, 0.12460735440254211, -0.042927347123622894, 0.04626934602856636, 0.03326921910047531, 0.019871186465024948, 0.009974961169064045, -0.31199029088020325, 0.02494089864194393, -0.05348185449838638, 0.2627485394477844, -0.27682480216026306], [-0.19783081114292145, 0.07833198457956314, -0.04407525435090065, -0.15838786959648132, 0.08907504379749298, 0.40241581201553345, 0.03180411085486412, -0.11542575806379318, 0.1902737021446228, -0.06488954275846481, 0.09808069467544556, -0.08169709146022797, -0.16335727274417877, 0.14866824448108673, -0.12591038644313812, 0.020727962255477905, 0.011241059750318527, 0.011967441998422146, -0.08438713848590851, -0.2721354365348816, -0.20403903722763062, 0.00549593660980463, 0.040244415402412415, -0.1625199019908905], [-0.6665239334106445, 0.04504748061299324, 0.06279610842466354, -0.18205685913562775, 0.08162825554609299, 0.2644180953502655, -0.21476969122886658, -0.10487905144691467, 0.18350781500339508, -0.041950397193431854, 0.45037609338760376, -0.0016453335992991924, -0.3400256037712097, 0.46219995617866516, -0.2893940508365631, -0.0168448556214571, -0.010786560364067554, 0.030676648020744324, -0.06406772881746292, -0.17067712545394897, -0.3962182104587555, -0.00519967544823885, 0.3162500262260437, -0.23585015535354614], [-0.06311287730932236, 0.1432635486125946, -0.021623963490128517, -0.2511953115463257, -0.012203560210764408, 0.10194727778434753, -0.011691199615597725, -0.1599152833223343, 0.15375278890132904, 0.028281837701797485, 0.03859693557024002, 0.014804529026150703, -0.11260059475898743, 0.16890108585357666, 0.010126966051757336, 0.03060494363307953, -0.040123067796230316, -0.023085540160536766, 0.01992509886622429, -0.22102294862270355, -0.11612813919782639, 0.0032838010229170322, 0.030030444264411926, -0.16002245247364044], [-0.051287878304719925, 0.19134944677352905, 0.002021480118855834, -0.3120594024658203, 0.13470232486724854, 0.2571679651737213, 0.1319999247789383, -0.1862834393978119, 0.3231804370880127, -0.022742468863725662, 0.05330723896622658, -0.008988641202449799, 0.047715265303850174, 0.038914505392313004, 0.06820610165596008, 0.010291959159076214, 0.08584162592887878, -0.0019488722318783402, 0.04133289307355881, -0.2778898775577545, 0.012979877181351185, -0.014382794499397278, 0.058144330978393555, -0.2280082106590271], [-0.10301835089921951, 0.11367452889680862, -0.011293226853013039, -0.1802626997232437, 0.045969974249601364, 0.11514047533273697, -0.1401427835226059, -0.060834333300590515, 0.17098461091518402, 0.02975459210574627, 0.0883338674902916, -0.015230854973196983, -0.37366142868995667, 0.03943455591797829, 0.026848506182432175, -0.016871629282832146, 0.019220581278204918, -0.0076273721642792225, 0.09440004825592041, -0.15384960174560547, -0.13214562833309174, 0.007835468277335167, 0.08647443354129791, -0.14969880878925323], [-0.07953281700611115, 0.1301625519990921, 0.011545684188604355, -0.15464918315410614, 0.1445978730916977, 0.17932721972465515, 0.20035462081432343, -0.312065064907074, 0.19021743535995483, -0.013827832415699959, 0.016275782138109207, -0.20236477255821228, 0.060602810233831406, -0.05151311680674553, 0.054861389100551605, -0.016021879389882088, 0.09238988161087036, 0.010937491431832314, 0.11845888197422028, -0.23432447016239166, 0.12472467124462128, 0.028247233480215073, -0.02088170312345028, -0.11778964102268219], [0.05949103459715843, 0.12496546655893326, 0.0011067900341004133, -0.18609994649887085, 0.06631596386432648, 0.09262911975383759, -0.08247126638889313, -0.16607420146465302, 0.11750572919845581, 0.010526125319302082, 0.00704063568264246, -0.018076570704579353, 0.024667838588356972, -0.09488096088171005, 0.08831087499856949, -0.02332487888634205, 0.06775891780853271, -0.0034590717405080795, 0.08608414977788925, -0.15831702947616577, 0.08481746166944504, -0.026472831144928932, 0.010233411565423012, -0.1160302460193634], [-0.22777259349822998, 0.12033871561288834, 0.06004616245627403, -0.247081458568573, 0.10007713735103607, 0.3812725245952606, 0.2377137392759323, -0.053211506456136703, 0.08952592313289642, -0.29956740140914917, -0.2955769896507263, -0.17488351464271545, 0.7916710376739502, -0.026925355195999146, -0.18598972260951996, 0.02495599538087845, 0.06655872613191605, -0.04286099597811699, -0.11999131739139557, -0.22051477432250977, -0.05530254542827606, 0.004023619461804628, -0.0301548819988966, -0.10602196305990219], [-0.02607143111526966, -0.016825485974550247, -0.006594769190996885, 0.03211040049791336, 0.35277846455574036, -0.1461534947156906, -0.0736432820558548, 0.04759468883275986, 0.005256899632513523, 0.03919772058725357, -0.1570841372013092, 0.0020463159307837486, -0.15448106825351715, 0.08765631169080734, 0.018295448273420334, -0.005441010929644108, -0.003253706032410264, 0.018900370225310326, -0.035875797271728516, -0.09658753126859665, 0.15794147551059723, -0.06540007144212723, 0.15538156032562256, -0.059417400509119034], [-0.03083556331694126, 0.1222095936536789, 0.06725818663835526, -0.18381141126155853, 0.05966421961784363, 0.0898524597287178, 0.003673258237540722, -0.06530596315860748, 0.14815886318683624, 0.13628335297107697, -0.03821887820959091, -0.011260449886322021, 0.07839201390743256, -0.008146146312355995, 0.08390206843614578, -0.004951059818267822, 0.04045715183019638, -0.04075070843100548, 0.1494380533695221, -0.17962364852428436, 0.10458492487668991, 0.005859117489308119, 0.006801509764045477, -0.09837911278009415], [-0.0495029017329216, 0.023992836475372314, -0.004819846712052822, -0.05084192007780075, 0.007398270070552826, 0.027484750375151634, 0.027640575543045998, -0.02246987447142601, 0.03633065149188042, 0.01642916165292263, 0.015883799642324448, -0.02855491451919079, -0.005570724606513977, 0.026988666504621506, -0.0016964462120085955, -0.011876281350851059, 0.01739760860800743, 0.004236431326717138, -0.006191685795783997, -0.0358676016330719, -0.02601609192788601, -0.011372378095984459, -0.006668184418231249, -0.034969113767147064], [0.03976481780409813, 0.03253934904932976, -0.06220913305878639, -0.03181995078921318, 0.08812303841114044, -0.007260521408170462, -0.0391201488673687, 0.07214396446943283, 0.029178155586123466, 0.15194213390350342, 0.0001577683724462986, 0.045510921627283096, -0.1282493621110916, 0.07748845219612122, 0.023321401327848434, 0.0061509255319833755, -0.03726489841938019, 0.004821856506168842, 0.011778322048485279, -0.03654007986187935, -0.00028707587625831366, -0.028689533472061157, 0.06324347108602524, -0.08028659224510193], [0.02894657850265503, 0.03676037862896919, 0.024565167725086212, -0.0539269782602787, 0.0006604557856917381, 0.005690965335816145, 0.024659598246216774, -0.030418427661061287, 0.033027298748493195, 0.02109791710972786, -0.03195072337985039, -0.019382687285542488, 0.038647811859846115, -0.023503055796027184, 0.028059545904397964, -0.0008222011383622885, 0.01341980043798685, -0.01521877758204937, 0.02792186476290226, -0.03388572856783867, -5.817072815261781e-05, 0.0009806426241993904, -0.0005368163110688329, -0.01532374694943428], [0.0554937869310379, 0.1306009441614151, -0.06719283759593964, -0.14608566462993622, 0.06482613831758499, 0.2062695026397705, 0.05734660476446152, 0.007991866208612919, 0.2577477693557739, 0.08548104763031006, 0.023897862061858177, 0.10544953495264053, 0.2721201777458191, 0.022529246285557747, 0.10830661654472351, -0.02847878634929657, 0.09226719290018082, -0.006282666232436895, 0.12701308727264404, -0.05474376678466797, 0.014740983955562115, 0.011840074323117733, 0.045919887721538544, -0.2118580937385559], [-0.08526492118835449, 0.21416354179382324, -0.015183118171989918, -0.20334355533123016, 0.10893448442220688, 0.37366658449172974, 0.05703257769346237, -0.1912432461977005, 0.34032392501831055, -0.054276466369628906, 0.013646814972162247, -0.04647580161690712, 0.12512774765491486, 0.005500763654708862, 0.02107398584485054, -0.005952201783657074, 0.05418694019317627, 0.004870071075856686, 0.04966491088271141, -0.32069969177246094, 0.004332639276981354, -0.053600288927555084, 0.06473881006240845, -0.34542807936668396], [-0.15814433991909027, 0.03958132490515709, 0.02362813800573349, -0.10229486972093582, 0.2934039235115051, 0.188589408993721, 0.06519534438848495, -0.15974268317222595, 0.13460223376750946, -0.34725791215896606, -0.06760295480489731, -0.0029645301401615143, 0.44009703397750854, 0.04042280465364456, -0.14616061747074127, 0.06028839945793152, 0.1126941367983818, 0.04229123145341873, -0.15227541327476501, -0.09302125126123428, 0.19513843953609467, 0.015140324831008911, 0.0704861581325531, -0.05174904316663742], [0.01803208887577057, 0.03678090125322342, -0.04014510288834572, -0.020077217370271683, 0.10959386080503464, -0.018579553812742233, -0.03862697258591652, -0.07428677380084991, 0.06936997920274734, -0.0237069521099329, -0.02971034124493599, -0.01092084776610136, -0.018772752955555916, 0.03453928232192993, 0.01698884926736355, 0.016721300780773163, 0.028200307860970497, 0.011757668107748032, -0.017084643244743347, -0.03778768330812454, 0.04778619855642319, -0.04009401053190231, 0.03215315565466881, -0.0386761873960495], [-0.014626537449657917, 0.16767501831054688, 0.26439929008483887, -0.30510976910591125, -0.24806009232997894, 0.11378692835569382, 0.19265536963939667, -0.07384593784809113, 0.1476776897907257, 0.00637134350836277, -0.028383271768689156, 0.08019398152828217, 0.2704712450504303, -0.137870654463768, 0.11755462735891342, 7.168325828388333e-05, 0.06136266514658928, -0.03509879112243652, 0.09554801136255264, -0.12230336666107178, 0.17833030223846436, 0.09116595983505249, -0.09867948293685913, -0.08848463743925095], [-0.09372668713331223, -0.05567305535078049, -0.1677493453025818, 0.06471264362335205, 0.5920440554618835, 0.09708552062511444, 0.11968699842691422, -0.03148564323782921, 0.2466597706079483, -0.008915920741856098, -0.07488429546356201, -0.041058942675590515, -0.3071455657482147, 0.13333074748516083, 0.09948928654193878, 0.02095550112426281, -0.01493848767131567, 0.0007791833486407995, -0.06049659848213196, -0.11715098470449448, -0.10707145184278488, -0.0952681228518486, 0.11716436594724655, -0.3028019666671753]], "rec.bias_ih_l0": [0.09881385415792465, 0.0688682496547699, 0.27874955534935, 0.14192785322666168, -0.8591557145118713, -0.6673320531845093, 0.3676568567752838, 0.2060328871011734, 0.08829375356435776, 0.175974041223526, 0.21828559041023254, 0.191632941365242, 0.038383860141038895, 0.15301035344600677, 0.11771069467067719, 0.03940151631832123, 0.11930514127016068, 0.03492124751210213, -0.8521957993507385, 0.11859871447086334, 0.25614508986473083, 0.07603801041841507, 0.2295716255903244, -0.00763680087402463, 0.018156735226511955, 0.22580985724925995, -0.020948413759469986, 0.4525107443332672, 1.0714454650878906, 0.7242115139961243, -0.05849175900220871, 0.126012921333313, 0.26122307777404785, 0.07935424149036407, -0.015243005007505417, -0.0277155339717865, -0.08241831511259079, 0.0005795668112114072, 0.08914539963006973, -0.0025573172606527805, 0.07188822329044342, 0.04658664017915726, 0.7145527601242065, 0.19661319255828857, -0.08624451607465744, 0.06987074017524719, 0.015122422017157078, 0.05570410192012787, 0.10634899139404297, 0.02649996243417263, 0.01811906136572361, -0.12894302606582642, 0.1414024531841278, -0.0330902598798275, 0.16668379306793213, -0.27917999029159546, 0.12432892620563507, 0.1543784737586975, 0.2364976555109024, 0.1389371007680893, 0.17120836675167084, 0.05685242637991905, 0.2895326614379883, 0.06039952114224434, 0.1265331655740738, -0.06709934771060944, 0.209640234708786, 0.018740259110927582, -0.22906146943569183, -0.1605205237865448, 0.09609124809503555, -0.27458080649375916, 0.11650718748569489, 0.22812481224536896, 0.34516802430152893, 0.41614240407943726, 0.3764488101005554, 0.2944719195365906, 0.23282630741596222, 0.4071405529975891, 0.359245240688324, 0.18601031601428986, 0.1782386153936386, 0.20798803865909576, 0.1505928486585617, 0.161045104265213, 0.1602051854133606, 0.039611782878637314, 0.12908223271369934, 0.037399135529994965, 0.2284337282180786, 0.2591952085494995, 0.15920916199684143, 0.07944837957620621, 0.23599158227443695, 0.3654305040836334], "rec.bias_hh_l0": [0.11028925329446793, 0.06681400537490845, 0.28888097405433655, 0.13713084161281586, -0.6501374840736389, -0.6795785427093506, 0.3677568733692169, 0.21072839200496674, 0.08824887871742249, 0.17573097348213196, 0.21832381188869476, 0.1821380853652954, 0.009899239055812359, 0.15038616955280304, 0.11820852756500244, 0.03940151631832123, 0.11865897476673126, 0.035112399607896805, -0.6773790717124939, 0.11835093051195145, 0.2561834454536438, 0.0761767104268074, 0.23381946980953217, -0.025937678292393684, 0.036790136247873306, 0.26505979895591736, -0.0091066500172019, 0.31039461493492126, 1.0871672630310059, 0.699012041091919, -0.04602527245879173, 0.18674029409885406, 0.26202791929244995, 0.0646151751279831, -0.014977267012000084, 2.4696522814338095e-05, -0.09176623076200485, 0.020525388419628143, 0.09478255361318588, -0.002557288622483611, 0.0782436802983284, 0.04653756320476532, 0.851487934589386, 0.1931609809398651, -0.10004068911075592, 0.07099627703428268, 0.01260222028940916, 0.0886307880282402, 0.029175767675042152, 0.04093434661626816, -0.12160234898328781, -0.21185481548309326, 0.2598629593849182, -0.19618460536003113, 0.20076876878738403, -0.3694850206375122, 0.12502288818359375, -0.02795560657978058, 0.1712791472673416, 0.15712223947048187, 0.15361623466014862, 0.2643532454967499, 0.25276413559913635, -0.01860577054321766, -0.0017985122976824641, 0.029491176828742027, -0.010566377080976963, 0.014368101954460144, 0.0237401332706213, -0.018555689603090286, 0.07997696101665497, -0.2668221592903137, 0.12118694931268692, 0.09218870848417282, 0.3479824960231781, 0.3994355797767639, 0.36057665944099426, 0.25776612758636475, 0.22819042205810547, 0.27269303798675537, 0.3706427812576294, 0.18958459794521332, 0.1756184995174408, 0.1927003115415573, 0.13471969962120056, 0.21002058684825897, 0.15990769863128662, 0.03961186483502388, 0.12632131576538086, 0.037476904690265656, 0.12752795219421387, 0.3169315457344055, 0.1618918925523758, 0.08627643436193466, 0.23646199703216553, 0.27917057275772095], "lin.weight": [[0.2362760603427887, 0.2767677903175354, 0.7893592715263367, 0.13547416031360626, 0.05023324862122536, 0.18781988322734833, 0.07930229604244232, -0.25210997462272644, -0.058140870183706284, -0.022563334554433823, 0.3428773880004883, 0.38875243067741394, 0.737328290939331, -0.14464087784290314, 0.3717162013053894, 0.011046567931771278, 0.11977722495794296, -0.11437341570854187, -0.5905779600143433, 0.2257097065448761, 0.123907670378685, -0.019658125936985016, -0.33710336685180664, -0.2740255296230316]], "lin.bias": [-0.08453663438558578]}}