{"model_data": {"model": "SimpleRNN", "input_size": 2, "skip": 1, "output_size": 1, "unit_type": "LSTM", "num_layers": 1, "hidden_size": 24, "bias_fl": true}, "state_dict": {"rec.weight_ih_l0": [[0.049063052982091904, 0.13631096482276917], [0.026819998398423195, -0.07418004423379898], [0.037735715508461, -0.5056605935096741], [-0.056284643709659576, 0.06585261225700378], [1.1600544894463383e-05, 2.0526586013147607e-05], [0.10010288655757904, 0.22031843662261963], [-0.04545055329799652, 0.1409493386745453], [0.05558951944112778, 0.179085835814476], [0.06623774021863937, -0.3530489504337311], [0.022093286737799644, -0.07292652130126953], [0.0263126939535141, 0.19275568425655365], [0.03126754239201546, 0.18326397240161896], [0.0994020402431488, 0.01787925697863102], [0.03374806419014931, 0.12833069264888763], [0.03650405630469322, 0.22907960414886475], [-0.12038270384073257, -0.08409400284290314], [-0.031498584896326065, -0.19133391976356506], [-0.01492687314748764, 0.12330273538827896], [0.03642682358622551, 0.331920862197876], [0.002120350254699588, 0.35007959604263306], [-0.028950806707143784, 0.09239239245653152], [-0.07490772008895874, 0.08691563457250595], [0.02617213875055313, 0.10404615104198456], [0.10786134004592896, 0.07415417581796646], [0.07406720519065857, 0.14770574867725372], [0.07904534041881561, 0.010528570041060448], [-0.0921323224902153, 0.5342334508895874], [-0.161354199051857, 0.052135225385427475], [1.6932997823460028e-05, 1.508059722254984e-05], [-0.043733492493629456, 0.020626794546842575], [0.10891279578208923, 0.003760467516258359], [0.0649523213505745, 0.17300422489643097], [-0.03463194519281387, 0.28562939167022705], [-0.17544662952423096, 0.05056554451584816], [-0.038258809596300125, 0.04255307838320732], [-0.01902071386575699, 0.08982326090335846], [0.14117708802223206, 0.14128324389457703], [-0.09874707460403442, -0.21651001274585724], [0.041967473924160004, 0.12339925020933151], [-0.25306937098503113, 0.0915314331650734], [0.21967659890651703, 0.29461514949798584], [-0.06469408422708511, -0.06235082820057869], [0.006821441929787397, 0.26659902930259705], [-0.0286696944385767, 0.04233532398939133], [0.033919576555490494, -0.035047803074121475], [-0.10017219930887222, 0.1061757430434227], [0.009347058832645416, -0.15476392209529877], [0.1337665617465973, -0.010588180273771286], [0.16216403245925903, 0.20024804770946503], [-0.08564438670873642, -0.030703598633408546], [0.07074573636054993, 0.05472623556852341], [0.26634326577186584, -0.029367461800575256], [0.0005738404579460621, 0.0038709610234946012], [-0.9185197353363037, 0.0025558765046298504], [0.6653201580047607, -0.05202626809477806], [-0.14669227600097656, -0.27234289050102234], [0.24991239607334137, -0.09508034586906433], [0.2397177368402481, -0.08809163421392441], [0.5805826783180237, 0.04901491850614548], [0.5538350343704224, 0.04623455926775932], [0.2241976112127304, -0.016825467348098755], [-0.9046876430511475, -0.07122540473937988], [-0.408243864774704, 0.0676497370004654], [-0.2994869649410248, -0.020709002390503883], [-0.5674297213554382, -0.0012197757605463266], [-0.4203461706638336, 0.046554189175367355], [1.2233606576919556, -0.1478567272424698], [-0.735634446144104, -0.06479410082101822], [-0.2642870247364044, -0.022908298298716545], [0.15862691402435303, -0.3459566533565521], [0.47711026668548584, -0.0757344663143158], [0.28929048776626587, -0.43963849544525146], [0.1725728064775467, -0.014838820323348045], [-0.02543848380446434, 0.08115743100643158], [-0.08315978944301605, 0.38772639632225037], [-0.23468273878097534, 0.06230577453970909], [1.497560788266128e-05, 2.05468968488276e-05], [-0.113372802734375, 0.23829159140586853], [-0.030191166326403618, 0.1617814600467682], [0.043636076152324677, 0.12195230275392532], [-0.26593977212905884, 0.4081450402736664], [0.007592747453600168, -0.0035416095051914454], [0.05667689070105553, 0.20700538158416748], [0.01797417551279068, 0.17622902989387512], [0.11028395593166351, -0.04529905691742897], [0.09059663116931915, 0.10584673285484314], [0.16518455743789673, 0.4190692901611328], [-0.21947945654392242, 0.08727461844682693], [0.019248057156801224, 0.2053631842136383], [-0.02649073302745819, 0.13195393979549408], [-0.16911464929580688, 0.43620142340660095], [-0.03591501712799072, 0.33731383085250854], [-0.01086454652249813, 0.12972603738307953], [-0.19539085030555725, -0.09490402787923813], [0.05352788418531418, 0.11896279454231262], [0.1788615733385086, 0.15508218109607697]], "rec.weight_hh_l0": [[0.0981232076883316, 0.04517817497253418, 0.05002576857805252, -0.05195680633187294, 0.0006377268582582474, 0.01965317316353321, 0.004164758138358593, -0.11392294615507126, -0.07476826757192612, 0.0452830009162426, -0.02977551892399788, -0.004447548184543848, 0.02492981031537056, -0.003529214533045888, 0.029823094606399536, 0.0075009968131780624, -0.02888745442032814, 0.010798046365380287, -0.0073830559849739075, 0.014943812042474747, 0.014398557133972645, -0.00869027990847826, -0.0007067383266985416, 0.005513465031981468], [0.06721898913383484, 0.06115783005952835, 0.02988264709711075, -0.07761900871992111, -0.00035064888652414083, 0.026500873267650604, 0.0014866060810163617, -0.07280600070953369, -0.043742161244153976, 0.130879208445549, -0.035310711711645126, -0.08380730450153351, 0.02934948354959488, 0.010490046814084053, 0.034466907382011414, -0.028142262250185013, 0.011628963053226471, 0.008944288827478886, -0.06499441713094711, 0.035614218562841415, 0.013775287196040154, 0.028825417160987854, 0.0018407247262075543, 0.11691928654909134], [-0.612078070640564, -1.0513876676559448, -0.3406231105327606, 0.025911757722496986, 0.00032691910746507347, 0.034747615456581116, -0.05461275205016136, 0.8702439069747925, 0.6525689363479614, -0.5174163579940796, -0.09472902864217758, 0.02437075786292553, -0.3256029486656189, 0.1498415768146515, 0.26434648036956787, -0.18741309642791748, -0.005778494291007519, -0.16646656394004822, -0.3685743510723114, 0.06771425157785416, -0.04290768504142761, 0.23941491544246674, -0.17314451932907104, -0.21231989562511444], [0.07924935966730118, 0.0824945792555809, 0.08968203514814377, -0.014405298978090286, 7.100417860783637e-05, 0.014909818768501282, -0.030148440971970558, -0.09645087271928787, -0.10718044638633728, 0.07054688781499863, -0.02869102545082569, -0.018644986674189568, 0.03953459486365318, -0.01733357645571232, 0.016690529882907867, -0.013397732749581337, 0.026882212609052658, 0.002894554752856493, -0.058732155710458755, 0.028631599619984627, 0.02246597781777382, -0.05121303349733353, 0.0003021059383172542, 0.016922958195209503], [5.1117269322276115e-05, 5.0986014684895054e-05, 3.149301483063027e-05, -2.9128505047992803e-05, -9.723166272124217e-08, 4.5133187995816115e-06, 4.482156327867415e-06, -5.3789008234161884e-05, -4.471813008422032e-05, 2.137731462426018e-05, -3.013884270330891e-05, 3.552681846485939e-06, 2.6815960154635832e-05, 2.55539362115087e-05, 3.718083098647185e-05, 1.8379620087216608e-05, -2.3493503249483183e-05, 9.710227459436283e-06, 2.2133475795271806e-05, 5.54231974092545e-06, 1.8237575005741746e-08, -3.0224704460124485e-05, 1.4701083273394033e-05, 4.8940401029540226e-05], [0.18234413862228394, 0.18797986209392548, 0.032472163438797, -0.28131726384162903, -0.0007954041357152164, -0.11468100547790527, -0.09067250788211823, -0.1672242283821106, -0.12073851376771927, 0.31649118661880493, -0.04950479418039322, -0.0693342462182045, 0.22210955619812012, -0.6516227126121521, -0.06480111181735992, -0.09224680066108704, -0.11525387316942215, 0.04351130872964859, -0.3800584673881531, 0.037519101053476334, -0.1273198127746582, -0.3872756361961365, 0.057874470949172974, -0.06715665012598038], [0.15490944683551788, 0.17968235909938812, 0.0663854330778122, -0.06304802745580673, 0.00046426139306277037, 0.024788791313767433, -0.020383452996611595, -0.17159917950630188, -0.14970137178897858, 0.0692838728427887, -0.02333262749016285, -0.006199466064572334, 0.09604008495807648, -0.04816436767578125, -0.034100957214832306, 0.036162421107292175, -0.08298411220312119, 0.02000301517546177, 0.016575675457715988, -0.07499657571315765, -0.018477225676178932, 0.05424309894442558, 0.0017257618019357324, -0.038149505853652954], [0.11209798604249954, 0.04200204461812973, 0.048304419964551926, -0.05154397338628769, 0.0005678479210473597, 0.021097173914313316, 0.0085389893501997, -0.12912176549434662, -0.07269579917192459, 0.05338190868496895, -0.039645977318286896, -0.011509913019835949, 0.024608444422483444, -0.005970177240669727, 0.02529742196202278, 0.004007074516266584, -0.018897099420428276, 0.015484945848584175, -0.01328875683248043, 0.02507365122437477, 0.017624814063310623, -0.008764104917645454, -0.003792213276028633, 0.00840007420629263], [-0.4343200623989105, -1.070148229598999, -0.3624614179134369, 0.20817232131958008, 0.00206930935382843, 0.002393224509432912, 0.14396484196186066, 0.509940505027771, 0.07567485421895981, -0.39382579922676086, 0.03007165528833866, 0.11481443047523499, -0.5026866793632507, 0.15201421082019806, -0.0380566380918026, 0.12814970314502716, -0.21197018027305603, 0.0877433493733406, -0.402586430311203, 0.0023635171819478273, -0.009341736324131489, 0.3029860556125641, -0.13642586767673492, 0.049251120537519455], [0.07553566992282867, 0.03301290422677994, 0.018375135958194733, -0.022358238697052002, -0.0006224602111615241, 0.033211395144462585, -0.02387774921953678, -0.09637481719255447, -0.009899602271616459, -0.042391154915094376, -0.024726226925849915, -0.00013773156388197094, 0.040887780487537384, -0.07832764089107513, -0.09617944061756134, 0.0660150945186615, -0.05239851772785187, 0.010302511043846607, -0.010061393491923809, -0.010092481039464474, -0.043407078832387924, -0.0364653579890728, -0.008723470382392406, 0.15602439641952515], [0.2221612185239792, 0.21261511743068695, 0.1563527137041092, -0.12352102249860764, -0.0003808706533163786, 0.027293462306261063, 0.01207700464874506, -0.2561381757259369, -0.21876317262649536, 0.09802654385566711, -0.03979066014289856, -0.004719160031527281, 0.04801538214087486, -0.013194357976317406, 0.023733103647828102, 0.004668105859309435, -0.024871278554201126, -0.0039580506272614, 0.08798643946647644, 0.021182816475629807, -0.013344042003154755, -0.21546588838100433, 0.0023691130336374044, 0.004506017547100782], [0.17375846207141876, 0.1751500517129898, 0.07848548144102097, -0.04349919781088829, -0.00026419819914735854, -0.024599840864539146, -0.00634651118889451, -0.20586587488651276, -0.1266804039478302, 0.04559371992945671, -0.0486832931637764, 0.021756930276751518, 0.12119897454977036, -0.09187178313732147, 0.006555061787366867, 0.03891122713685036, -0.09762509167194366, 0.02327853813767433, 0.08076044172048569, -0.021230757236480713, -0.046222031116485596, -0.09974312037229538, -0.007292155642062426, 0.05781019851565361], [0.034389428794384, -0.00481049157679081, -0.0052500031888484955, 0.006548942998051643, 3.497542274999432e-05, -0.0044860513880848885, 0.054805535823106766, -0.024930568411946297, 0.0032709159422665834, 0.10716912895441055, -0.09217562526464462, 0.024124199524521828, 0.04949585348367691, -0.053140945732593536, 0.04264548420906067, -0.028147073462605476, 0.048547789454460144, -0.0009487055358476937, -0.018142707645893097, -0.005419417284429073, 0.04280899837613106, 0.07416645437479019, 0.03244030103087425, 0.08037631213665009], [0.2030859887599945, 0.2263690084218979, 0.14344801008701324, -0.13145017623901367, 4.8627378419041634e-05, -0.04766422510147095, -0.01717998832464218, -0.22141654789447784, -0.20595212280750275, 0.14865955710411072, 0.006749685388058424, 0.02007216401398182, 0.12166777998209, -0.02314402163028717, 0.0036619531456381083, 0.002785980701446533, -7.754292892059311e-05, -0.0076228859834373, 0.09696510434150696, -0.06276526302099228, -0.00977352261543274, -0.15646140277385712, 0.03150518238544464, -0.018583985045552254], [0.16534075140953064, 0.19077494740486145, 0.0706261619925499, -0.110501728951931, -0.00015496321429964155, -0.060515228658914566, -0.007856838405132294, -0.18109868466854095, -0.16600638628005981, 0.14320769906044006, 0.022754013538360596, 0.008582686074078083, 0.13582880795001984, -0.10721813887357712, -0.018416907638311386, -0.025607125833630562, -0.03450515866279602, -0.0022721728309988976, 0.00948910228908062, -0.028764929622411728, -0.02101493813097477, -0.1403195559978485, 0.014034394174814224, -0.09799681603908539], [-0.05569400638341904, -0.18016186356544495, -0.03543577715754509, 0.03432958200573921, 0.0005793141899630427, 0.06743960082530975, -0.0029301017057150602, 0.061889756470918655, 0.08333183079957962, -0.16059759259223938, 0.005748470313847065, 0.03646220266819, -0.05103001743555069, 0.049426909536123276, 0.09547527879476547, 0.09855873882770538, -0.017176691442728043, 0.025037329643964767, -0.002873312449082732, 0.07495266944169998, 0.05211089551448822, 0.09843901544809341, -0.08330667018890381, 0.06410495191812515], [-0.4847562909126282, -0.720522403717041, -0.4181075096130371, 0.28225207328796387, -0.002822354668751359, -0.05869704484939575, -0.03701240196824074, 0.6530139446258545, 0.16388516128063202, -0.22425013780593872, -0.06581196933984756, 0.049883823841810226, -0.12629833817481995, -0.004281287547200918, 0.035206809639930725, -0.08571676164865494, 0.2552798092365265, 0.03066522628068924, -0.08200323581695557, -0.02545813098549843, 0.17664410173892975, 0.01833294704556465, -0.15697960555553436, -0.08555634319782257], [0.27769380807876587, 0.28119534254074097, 0.16260182857513428, -0.15989577770233154, -0.0002501706767361611, 0.015560065396130085, -0.006522657349705696, -0.30214738845825195, -0.2683587372303009, 0.1766790896654129, -0.0365150049328804, -0.031832024455070496, 0.12098434567451477, -0.039859555661678314, -0.029820449650287628, 0.029687082394957542, -0.022056106477975845, 0.014285441488027573, -0.023234881460666656, 0.00944435503333807, -0.005652652587741613, -0.056106243282556534, 0.017002560198307037, 0.07330408692359924], [0.23049606382846832, 0.261864572763443, 0.13864140212535858, -0.13052023947238922, 0.0004648755711968988, 0.010478528216481209, -0.00016461593622807413, -0.2602839171886444, -0.230075865983963, 0.15994448959827423, -0.05616359785199165, 0.0025095315650105476, 0.19050294160842896, -0.127370685338974, 0.011569199152290821, -0.020974664017558098, -0.0589718297123909, 0.012432231567800045, 0.10291124135255814, 0.02443714253604412, -0.022281255573034286, -0.18693846464157104, 0.03056059032678604, -0.12990379333496094], [0.23841053247451782, 0.2437177449464798, 0.12350212782621384, -0.15699519217014313, 0.0003411094076000154, -0.03471197187900543, -0.009729665704071522, -0.2599378228187561, -0.2519032657146454, 0.1544855684041977, 0.005160282365977764, 0.03823276236653328, 0.17520517110824585, -0.12613368034362793, 0.003711978904902935, 0.00840232614427805, -0.0415700227022171, 0.024087712168693542, -0.018652021884918213, 0.0506167933344841, -0.023807501420378685, -0.22267991304397583, 0.010454278439283371, -0.1118750050663948], [0.09944578260183334, 0.10092930495738983, 0.04681781306862831, -0.05738174170255661, -0.0001924393291119486, -0.010744989849627018, 0.01143550593405962, -0.10574106872081757, -0.10700587183237076, 0.08813927322626114, 0.005400222726166248, 0.005689573939889669, 0.042927466332912445, -0.07124078273773193, -0.03527208790183067, 0.03582307696342468, -0.06933103501796722, 0.020092042163014412, -0.1364133059978485, 0.017449602484703064, -0.02587164007127285, -0.06462551653385162, 0.01289521623402834, 0.003999094478785992], [0.1019815057516098, 0.08267515152692795, 0.07492811232805252, -0.07799961417913437, 4.3923952034674585e-05, -0.0969075933098793, -0.06102098152041435, -0.11318564414978027, -0.10525859892368317, 0.048068586736917496, -0.12267342209815979, 0.006370749324560165, 0.09327971935272217, -0.09550599008798599, -0.08160287886857986, 0.002231289865449071, -0.0345677025616169, 0.036538366228342056, -0.010629367083311081, -0.08545996993780136, 0.001300957053899765, -0.06015782803297043, 0.05708390474319458, -0.011781827546656132], [0.19984817504882812, 0.2073391228914261, 0.11345219612121582, -0.058734577149152756, -0.00016852436237968504, -0.016259701922535896, -0.04398467019200325, -0.21151764690876007, -0.1803225725889206, 0.12806133925914764, -0.05624398589134216, -0.02725301869213581, 0.13856643438339233, -0.04446505382657051, -0.03637773171067238, 0.022696319967508316, -0.02083868905901909, 0.02395048551261425, -0.06501579284667969, -0.004246994853019714, 0.025242596864700317, -0.0018746528076007962, 0.02153516747057438, 0.07715437561273575], [0.09728651493787766, 0.023236550390720367, 0.01678188517689705, -0.10022137314081192, 0.0012362260604277253, -0.04745597764849663, 0.03235846757888794, -0.1022566556930542, -0.11472981423139572, 0.07179185748100281, -0.007545228116214275, -0.022626327350735664, 0.16873091459274292, -0.06713467836380005, -0.08687927573919296, -0.011865568347275257, -0.11691287159919739, -0.002715734764933586, 0.055680591613054276, -0.13737884163856506, 0.013914324343204498, 0.09026706218719482, 0.019323552027344704, 0.006977061275392771], [0.18460795283317566, 0.1590510755777359, 0.11156219989061356, -0.10829741507768631, 0.001054383348673582, 0.026447679847478867, 0.01116786990314722, -0.21136009693145752, -0.16230042278766632, 0.0844329297542572, -0.031070608645677567, -0.0030765184201300144, 0.06696296483278275, -0.0019265604205429554, 0.04219230264425278, 0.01828821375966072, -0.0645800232887268, 0.009330128319561481, 0.002911599585786462, 0.014889854937791824, 0.01804669201374054, 0.0012639841297641397, 0.003976334817707539, 0.02717965841293335], [0.19473212957382202, 0.2531813681125641, 0.08956985175609589, -0.11973270773887634, -0.0005586014594882727, 0.06800234317779541, 0.008415435440838337, -0.22189728915691376, -0.11132054775953293, 0.2296537309885025, -0.05795152485370636, -0.13546085357666016, 0.08062119781970978, -0.016567161306738853, 0.05864850804209709, -0.054353103041648865, 0.016942108049988747, 0.01407769788056612, -0.06886599212884903, 0.06995151191949844, 0.0077290404587984085, -0.0041670408099889755, 0.0038866838440299034, 0.16323912143707275], [0.5818490386009216, 0.9536347389221191, 0.45329537987709045, -0.37794309854507446, -0.000703384808730334, 0.36156925559043884, -0.15120530128479004, -1.1154059171676636, 0.165495365858078, 0.4574646055698395, -0.7792608141899109, -0.4720316529273987, 0.2633909583091736, -0.006496385205537081, 0.19385682046413422, -0.013704693876206875, 0.028718553483486176, 0.1412188857793808, 0.3600876033306122, 0.28707653284072876, 0.09734753519296646, -0.34035050868988037, 0.13194411993026733, 0.4015108644962311], [0.044622696936130524, 0.060245297849178314, 0.08922915160655975, 0.04820379242300987, -0.0003065472701564431, 0.019960453733801842, -0.07275260984897614, -0.07535972446203232, -0.10795177519321442, 0.054708998650312424, -0.02572932466864586, -0.022627418860793114, 0.04549942538142204, -0.011772587895393372, 0.00931696966290474, -0.01596064120531082, 0.081082783639431, 0.0016281231073662639, -0.1496230810880661, 0.06341760605573654, 0.043579064309597015, -0.08048897981643677, -0.0018308048602193594, 0.035681478679180145], [4.4921231165062636e-05, 4.5023367420071736e-05, 2.9093345801811665e-05, -2.4172804842237383e-05, -9.041060877734708e-08, 6.051643595128553e-06, 5.9611174947349355e-06, -4.7187200834741816e-05, -3.822638973360881e-05, 1.751828494889196e-05, -2.659405072336085e-05, 4.225115389999701e-06, 2.320450403203722e-05, 2.5468660169281065e-05, 3.775242657866329e-05, 1.8412849385640584e-05, -2.239037348772399e-05, 8.608282769273501e-06, 2.463302189426031e-05, 6.092801868362585e-06, -1.0409220294604893e-06, -2.539760862418916e-05, 1.2829176739614923e-05, 4.957142300554551e-05], [0.05367410182952881, 0.18813849985599518, 0.294674813747406, -0.19275197386741638, -0.0001884068624349311, 0.008715501055121422, 0.0070740231312811375, -0.07477495074272156, -0.08929503709077835, 0.16356973350048065, 0.13417433202266693, 0.06771498918533325, -0.002208026824519038, -0.07113563269376755, -0.20313669741153717, 0.0337226539850235, 0.023139556869864464, 0.00707030575722456, -0.15841703116893768, 0.08844852447509766, -0.03175458684563637, 0.36758363246917725, -0.005512343253940344, -0.03765392675995827], [0.030693184584379196, 0.03539218381047249, -0.06919537484645844, 0.013290162198245525, 0.0006590356351807714, 0.07466979324817657, -0.019371600821614265, -0.025516465306282043, 0.0027595891151577234, -0.01982879638671875, -0.01084224134683609, 0.01932087354362011, 0.09390384703874588, -0.0900254100561142, 0.010077171958982944, 0.004761132877320051, -0.14322972297668457, -0.044731754809617996, -0.033494334667921066, -0.133699432015419, -0.05902743712067604, 0.08323439210653305, 0.016161255538463593, -0.023251257836818695], [0.2146221250295639, 0.1396942436695099, 0.13234516978263855, -0.10528642684221268, 0.000979146221652627, 0.038958869874477386, 0.027097005397081375, -0.2506091296672821, -0.17104433476924896, 0.10929189622402191, -0.060262665152549744, -0.018977511674165726, 0.06945692002773285, -0.0067872353829443455, 0.017412900924682617, 0.01752656139433384, -0.03448231890797615, 0.017550377175211906, -0.008090419694781303, 0.03454650938510895, 0.024961773306131363, 0.01992284320294857, 0.0008946947054937482, 0.05576668307185173], [0.7070902585983276, 0.6731364727020264, 0.5553204417228699, -0.18163299560546875, -0.001820785808376968, 0.0062001668848097324, -0.031963128596544266, -0.9027156829833984, -0.5814388394355774, 0.1395910680294037, -0.07492523640394211, 0.010335555300116539, 0.04415388032793999, -0.0005333999870344996, -0.1832694411277771, 0.07390433549880981, -0.1792948842048645, 0.016448883339762688, 0.11577189713716507, -0.08891978114843369, -0.04602836072444916, -0.19827620685100555, -0.023378919810056686, 0.1365949958562851], [0.14599847793579102, 0.3010936975479126, 0.14460527896881104, -0.04368583858013153, -0.000808587356004864, 0.05915915220975876, -0.10440827161073685, -0.23132175207138062, -0.0914488434791565, -0.17369376122951508, -0.18064278364181519, 0.055833302438259125, -0.027199886739253998, 0.02902299538254738, 0.006617062725126743, 0.22268889844417572, 0.01140983123332262, 0.04842198267579079, 0.0026954608038067818, 0.030146582052111626, 0.02127154730260372, -0.07677073031663895, -0.036465879529714584, 0.23858687281608582], [0.07014735043048859, 0.019962962716817856, -0.009898080490529537, -0.0919443666934967, -0.0014075374929234385, 0.043534934520721436, 0.0335986390709877, -0.03885155916213989, -0.07168301194906235, -0.03741798177361488, -0.0990789607167244, -0.02337152510881424, -0.1133904755115509, -0.06122937798500061, -0.13121460378170013, -0.014416494406759739, -5.588307976722717e-05, -0.03626518324017525, 0.07331189513206482, 0.01880977302789688, -0.01436485443264246, -0.006474878638982773, 0.009377215057611465, -0.0025898620951920748], [-0.020312238484621048, -0.026206281036138535, -0.049977146089076996, 0.17464974522590637, -0.0004842447815462947, -0.032435253262519836, 0.013474036008119583, -0.07156689465045929, 0.13878601789474487, -0.23173220455646515, -0.09361126273870468, 0.18740688264369965, 0.019595572724938393, -0.046923987567424774, 0.06319139897823334, 0.15911690890789032, -0.10611620545387268, 0.01629343256354332, 0.0918484628200531, 0.0055645788088440895, -0.04037342965602875, -0.012769414111971855, -0.016412844881415367, 0.06227171793580055], [0.1730130910873413, 0.13629701733589172, 0.036565594375133514, -0.055053599178791046, 0.0005274273571558297, -0.07659583538770676, 0.03204833343625069, -0.1893465369939804, -0.06498318165540695, 0.2218112051486969, -0.12381333112716675, -0.011110398918390274, 0.1354033499956131, -0.2584681212902069, 0.046548403799533844, -0.05936366319656372, 0.033515844494104385, 0.04089457541704178, 0.00268004322424531, -0.026599647477269173, 0.01704362966120243, -0.013961615972220898, 0.05880870297551155, 0.04632827267050743], [0.13601279258728027, 0.1735782027244568, 0.2498502880334854, -0.08664640039205551, 0.000612668925896287, 0.11519435048103333, -0.09642179310321808, -0.16012604534626007, -0.16840074956417084, 0.12342014908790588, 0.09303873777389526, 0.06605014204978943, 0.031451426446437836, 0.07886768132448196, 0.035542286932468414, 0.08278674632310867, 0.06675541400909424, -0.005240038502961397, 0.04079142212867737, 0.02629793807864189, 0.11968382447957993, 0.3414449989795685, -0.04033853858709335, 0.03903809189796448], [0.04200590401887894, 0.008193977177143097, 0.006031055469065905, -0.012339068576693535, 0.00017482628754805773, -0.08154488354921341, -0.06023569032549858, -0.05668134614825249, -0.0253993421792984, 0.07702238857746124, -0.022380782291293144, -0.09077583998441696, 0.06345944851636887, -0.004869841504842043, -0.03611598536372185, -0.03152509778738022, -0.01135071087628603, 0.015581585466861725, 0.012819793075323105, -0.025990178808569908, 0.006532649975270033, 0.15214014053344727, -0.007400253787636757, -0.02856229431927204], [0.01790807954967022, 0.012790374457836151, 0.12015347182750702, 0.07334677129983902, 0.0002072086208499968, 0.036170002073049545, -0.03262036293745041, -0.09955380111932755, -0.03583699092268944, -0.2543962001800537, -0.0348237045109272, 0.10999183356761932, -0.04830830171704292, 0.09098192304372787, 0.08746768534183502, 0.17461423575878143, 0.003305155551061034, 0.04956688731908798, 0.13710905611515045, 0.0772632360458374, 0.045081064105033875, -0.05738964304327965, -0.041519977152347565, -0.0030417651869356632], [0.4789043664932251, 0.7977466583251953, 0.3491554260253906, -0.04739963263273239, 0.0002689282991923392, -0.21815572679042816, 0.12646132707595825, -0.831400454044342, -0.2979907691478729, 0.3103402256965637, -0.16124390065670013, -0.025078514590859413, -0.01792461983859539, 0.039910148829221725, -0.0855773463845253, 0.06831499934196472, 0.07294721901416779, 0.03362422436475754, -0.012801162898540497, 0.12519143521785736, 0.04085641726851463, -0.06902933865785599, 0.12182195484638214, 0.17902259528636932], [-0.17650693655014038, -0.21552538871765137, -0.1251058429479599, 0.10248430073261261, 0.00019749984494410455, -0.042555101215839386, -0.015040270984172821, 0.1888732761144638, 0.18603511154651642, -0.09836702793836594, -0.036004677414894104, -0.019868412986397743, -0.06757082790136337, 0.0627603828907013, 0.06415493041276932, -0.017585085704922676, -0.0078094215132296085, 0.013609624467790127, 0.01801321655511856, -0.0006801287527196109, 0.011068408377468586, 0.08929993957281113, 0.0007385550998151302, -0.02628243714570999], [0.09907706826925278, 0.07212458550930023, 0.27785271406173706, -0.0370347760617733, 0.002224283991381526, 0.2316947728395462, 0.05045030638575554, -0.11096236854791641, -0.1255379468202591, 0.14138436317443848, -0.014085227623581886, 0.01338485348969698, 0.04113612323999405, -0.010734071023762226, -0.05929094925522804, 0.03358341380953789, -0.02428266406059265, 0.004017863422632217, 0.30327245593070984, -0.0016206930158659816, 0.03702447563409805, 0.22363360226154327, 0.007276157848536968, -0.11202946305274963], [0.03810543566942215, -0.005577316042035818, 0.06147810444235802, 0.016085607931017876, 0.00020637961279135197, -0.003896711627021432, 0.013407792896032333, -0.04784557968378067, -0.026240050792694092, -0.012727836146950722, 0.011857916601002216, 0.05852516368031502, 0.033864475786685944, -0.01761038601398468, -0.03336701542139053, 0.12888804078102112, 0.0906386747956276, 0.05115615576505661, -0.12056724727153778, 0.20467209815979004, 0.04942697286605835, 0.2313556969165802, -0.04337748885154724, 0.04359158128499985], [0.05190844088792801, 0.02639198489487171, -0.032717492431402206, -0.021235806867480278, -0.0006165492231957614, -0.1015106737613678, 0.01767859421670437, -0.042491648346185684, -0.045346084982156754, 0.12271617352962494, -0.01566201262176037, -0.042613591998815536, 0.06020428240299225, -0.13722047209739685, -0.13368429243564606, 0.03982017561793327, -0.1481013149023056, 0.027933185920119286, -0.0943513959646225, -0.047771479934453964, -0.12285913527011871, -0.1194145530462265, 0.05388209968805313, 0.07638703286647797], [0.22042150795459747, 0.21860483288764954, 0.17766253650188446, -0.17780129611492157, -7.298835407709703e-05, -0.04317440837621689, -0.1060575321316719, -0.2412167191505432, -0.22113053500652313, 0.13997294008731842, -0.19250690937042236, 0.06274322420358658, 0.18168877065181732, -0.10084326565265656, -0.04562969133257866, 0.021944697946310043, -0.07965508103370667, 0.03476165607571602, -0.1283232420682907, -0.019978737458586693, 0.04339881241321564, -0.10644226521253586, 0.07838964462280273, 0.030010240152478218], [-0.09744054824113846, -0.13897229731082916, -0.216610386967659, 0.13904915750026703, 2.680276907085499e-07, -0.07375843077898026, -0.03899964317679405, 0.09361624717712402, 0.17712752521038055, -0.026946227997541428, -0.028696143999695778, -0.08187608420848846, 0.005544563755393028, 0.029300183057785034, 0.004443041048943996, 0.03371072933077812, -0.025662856176495552, 0.06055542454123497, 0.020673958584666252, 0.03435545414686203, -0.02218165621161461, 0.23594404757022858, -0.050030797719955444, 0.09641063213348389], [0.13433347642421722, 0.06973914057016373, 0.015699580311775208, -0.13665150105953217, 0.0010344914626330137, 0.060505207628011703, 0.033310405910015106, -0.14399804174900055, -0.167949378490448, 0.10639510303735733, 0.013686645776033401, -0.008209439925849438, 0.1949286311864853, -0.002443334087729454, 0.05249428376555443, 0.0027421959675848484, -0.08802719414234161, -0.024144520983099937, -0.11825583130121231, -0.04215129464864731, 0.0685020461678505, 0.1335330605506897, -0.03647395595908165, 0.051975421607494354], [0.1596924364566803, 0.12194526940584183, 0.09419595450162888, -0.10703115165233612, 0.0015412578359246254, -0.015521412715315819, 0.03308739513158798, -0.154882550239563, -0.15506184101104736, 0.024731602519750595, 0.005225286819040775, 0.03491196781396866, 0.043000973761081696, -0.027890531346201897, 0.05667319893836975, 0.005695352330803871, -0.09652195870876312, -0.0056000049225986, 0.060777876526117325, -0.004299831110984087, -0.007406739983707666, -0.013566342182457447, 0.01269103679805994, -0.046144068241119385], [0.19510971009731293, 0.40342703461647034, 0.2252776324748993, -0.07069967687129974, 0.0008243885240517557, -0.05399113893508911, 0.027102170512080193, -0.26714518666267395, -0.2672923505306244, -0.0741744413971901, 0.17519396543502808, 0.10440883040428162, 0.12217633426189423, 0.011393314227461815, -0.06390808522701263, 0.06497637182474136, 0.00244531175121665, -0.032461270689964294, 0.11132773756980896, -0.06028309464454651, -0.018233031034469604, -0.04727578163146973, -0.0235100369900465, -0.12869499623775482], [0.079475536942482, 0.0025782822631299496, 0.534855306148529, -0.05599893629550934, -0.0008826400153338909, -0.06927303224802017, -0.1432037651538849, 0.012958008795976639, 0.10257643461227417, -0.0017863239627331495, -0.25091788172721863, 0.010787067003548145, -0.2707495391368866, 0.0820171907544136, 0.1214216873049736, 0.09011455625295639, 0.24199683964252472, -0.04907248914241791, -0.28923481702804565, 0.2108934074640274, 0.16484345495700836, 0.02070237323641777, 0.15534356236457825, -0.018204407766461372], [-0.19527840614318848, 0.08106642961502075, 0.29629045724868774, 0.21366232633590698, 0.000906419416423887, 0.1997755765914917, 0.09404259920120239, 0.12518566846847534, -0.0068663423880934715, -0.2506525218486786, -0.05199316516518593, 0.18065965175628662, -0.1594916135072708, -0.007434691768139601, 0.030360165983438492, 0.018182681873440742, 0.4111507534980774, 0.01799054443836212, -0.014198475517332554, 0.008179008960723877, 0.10560768097639084, -0.012446519918739796, 0.0013739672722294927, -0.07422813773155212], [6.602305802516639e-05, -0.00022057967726141214, -0.00138764304574579, -0.0001938070054166019, 4.770723171532154e-05, 0.00018000388809014112, 0.0013695635134354234, -0.0001841316552599892, 8.717606397112831e-05, -0.0010681101121008396, 0.00035248391213826835, 7.657168316654861e-05, -0.0005416786298155785, 0.0013274417724460363, -6.168679828988388e-05, 0.000152713677380234, -0.0011119636474177241, -6.506264617200941e-05, 0.0011609225766733289, 7.955792534630746e-05, 0.0010158618679270148, 0.004138348624110222, 0.0002669517998583615, -0.0025187665596604347], [0.0848093330860138, 0.22371211647987366, -0.2814704477787018, -0.29088732600212097, -0.0016339488793164492, 0.34446901082992554, -0.2703459858894348, 0.1447530835866928, 0.10376086086034775, 0.1380658596754074, -0.9079028367996216, -0.6662372946739197, 0.024866990745067596, 0.8126741051673889, 0.6854453682899475, -0.08987890928983688, -0.20047816634178162, 0.4259028732776642, -1.4947621822357178, 0.8686727285385132, 0.03978937491774559, -0.1127857193350792, 0.3201594650745392, 0.11030992865562439], [-0.030020475387573242, 0.14376747608184814, 0.07535664737224579, -0.11661361902952194, 0.0011802640510722995, -0.2224443107843399, -0.1450776606798172, -0.040998425334692, -0.18765723705291748, -0.12051123380661011, -0.0888313427567482, -0.1468193233013153, -0.21125474572181702, 0.15168531239032745, -0.1272386908531189, 0.18013451993465424, 0.014093267731368542, 0.24705441296100616, -0.017881155014038086, 0.28117018938064575, 0.23819828033447266, 0.028810234740376472, -0.1362665444612503, -0.20428746938705444], [-0.1712689995765686, -0.12187165021896362, -0.1016174852848053, 0.052782852202653885, -0.0017202940071001649, -0.0031722132116556168, -0.05948768928647041, 0.19743585586547852, 0.11629153788089752, -0.02596198208630085, 0.00013172089529689401, -0.0437343530356884, -0.07554331421852112, 0.05960190296173096, -0.014231715351343155, 0.004439836367964745, 0.026752451434731483, 0.02200847677886486, -0.04385308176279068, 0.006446393672376871, 0.018156476318836212, 0.0025587966665625572, -0.013379109092056751, 0.04202519357204437], [-0.07471621036529541, -0.02365817315876484, -0.539704442024231, 0.12417642027139664, -0.0007271162467077374, -0.021367549896240234, 0.08441517502069473, 0.20402295887470245, 0.24206499755382538, 0.1203949898481369, 0.2800448536872864, -0.07031521201133728, 0.0651889219880104, -0.044655296951532364, -0.1665363311767578, -0.018047209829092026, -0.11074589192867279, -0.14227859675884247, 0.027092618867754936, -0.06980353593826294, -0.02442404255270958, 0.13309097290039062, 0.05694444477558136, 0.031386204063892365], [0.05767980217933655, 0.32054758071899414, -0.9939613342285156, 0.06411616504192352, -0.0014948679599910975, -0.03898017108440399, -0.11636807024478912, -0.2303994745016098, 0.003943372517824173, -0.106020987033844, -0.2542203962802887, -0.1846867799758911, -0.017310669645667076, 0.08948555588722229, 0.07426311820745468, 0.0617995522916317, -0.03478502854704857, 0.09047248214483261, -0.17454279959201813, 0.06565132737159729, 0.029601125046610832, -0.022509992122650146, -0.09539348632097244, 0.0358101911842823], [0.08589759469032288, -0.018082423135638237, 0.4158584475517273, -0.13552910089492798, -0.0001904630771605298, 0.09023088961839676, 0.03971496969461441, 0.22559854388237, -0.7784333229064941, -0.04236847162246704, -0.04991772025823593, 0.23219819366931915, 0.036997973918914795, 0.236906960606575, 0.03700461611151695, 0.14671094715595245, 0.014757073484361172, -0.16728782653808594, -0.08181413263082504, 0.1528463512659073, -0.012967071495950222, -0.0497184656560421, 0.08255459368228912, -0.1797236204147339], [-0.21092642843723297, 0.015946097671985626, 0.8735256195068359, 0.07872898876667023, -0.00027249642880633473, -0.034415215253829956, -0.24368822574615479, 0.06383780390024185, -0.2560542821884155, -0.19196617603302002, -0.14472168684005737, 0.0020005046389997005, 0.144283726811409, 0.08542617410421371, 0.058335211127996445, 0.28975340723991394, -0.12093812972307205, 0.2613596022129059, -0.14650796353816986, 0.08628258854150772, -0.07477885484695435, -0.03777718544006348, 0.05004744976758957, -0.26390087604522705], [0.047860756516456604, 0.23519007861614227, -0.13025686144828796, 0.04274337738752365, 0.0002379924844717607, -0.02442094311118126, 0.1066877543926239, -0.12292741984128952, -0.3207463324069977, -0.030984804034233093, 0.26860493421554565, -0.033839207142591476, 0.17295031249523163, -0.17777332663536072, -0.09371127188205719, -0.1307477205991745, -0.009346728213131428, -0.04883210361003876, -0.07043897360563278, -0.13736692070960999, -0.05962873622775078, 0.11268007010221481, -0.06301644444465637, 0.004602514207363129], [-0.004171089269220829, -0.09303677082061768, -0.4322721064090729, 0.018412292003631592, 5.103309376863763e-05, -0.04847376048564911, -0.09472180902957916, -0.02351624332368374, -0.03180873394012451, 0.1282188892364502, -0.32424643635749817, -0.42757174372673035, 0.0758654996752739, 0.25438427925109863, -0.018972216174006462, 0.049463216215372086, -0.17993256449699402, 0.30638259649276733, 0.11923735588788986, -0.05242733284831047, 0.06686444580554962, 0.04368296265602112, -0.3459486663341522, 0.11860700696706772], [0.11262597888708115, 0.04849444329738617, -0.12115763127803802, -0.09151490777730942, -2.4436432795482688e-05, 0.18214337527751923, 0.0009419004782103002, -0.05456089973449707, 0.42144060134887695, -0.21298132836818695, -0.6293235421180725, -0.2769225537776947, -0.10616734623908997, 0.4723128378391266, 0.4185883700847626, 0.01398665551096201, -0.2176077514886856, 0.19407233595848083, -0.5210111141204834, -0.020826425403356552, -0.17791195213794708, -0.10477613657712936, -0.02380312792956829, 0.14195182919502258], [0.056632060557603836, -0.1800645887851715, 0.3125634789466858, -0.09925813972949982, 0.0013617657823488116, -0.0862540602684021, 0.053502317517995834, -0.05091870203614235, -0.12302594631910324, -0.16452887654304504, 0.01787114329636097, 0.03197800740599632, 0.03409690782427788, -0.030228212475776672, 0.14749497175216675, 0.06557177007198334, -0.010160856880247593, 0.05917435511946678, -0.10218801349401474, 0.03458214923739433, 0.06313130259513855, 0.11044776439666748, 0.03449428081512451, 0.05018654838204384], [-0.03832854703068733, 0.08492461591959, 0.08298425376415253, 0.34273219108581543, 0.0004395650466904044, 0.4234880805015564, 0.3048294484615326, -0.03536196053028107, 0.13034911453723907, 0.08313211053609848, 0.07911891490221024, 0.062088705599308014, 0.22450733184814453, 0.02776087448000908, 0.09482034295797348, -0.3492871820926666, 0.039201393723487854, -0.2154173105955124, -0.08119931817054749, -0.2658548057079315, -0.4763743579387665, 0.048588547855615616, 0.1925046145915985, 0.09011465311050415], [0.018606001511216164, -0.11849673837423325, -0.21671649813652039, 0.060890618711709976, 0.0002910019247792661, -0.5435051321983337, -0.1398027092218399, -0.1183612197637558, 0.046888869255781174, 0.02646113932132721, -0.21297909319400787, -0.02771168015897274, -0.10357891768217087, -0.1388976126909256, 0.10920628905296326, 0.06543745845556259, 0.033639296889305115, -1.2026779651641846, 0.019381104037165642, 0.22880971431732178, -0.03782879188656807, 0.06249380111694336, -0.6105236411094666, 0.11590992659330368], [0.05811053141951561, 0.20019198954105377, 0.7927960157394409, 0.2748125493526459, 0.0004358690057415515, -0.12936893105506897, 0.19486495852470398, -0.13433994352817535, -0.31210219860076904, -0.3086523115634918, 0.6175011396408081, 0.8107235431671143, 0.06524538993835449, -0.15588350594043732, 0.0006756550865247846, 0.3090699017047882, 0.3003152906894684, -0.41332417726516724, 0.19058828055858612, -0.08786249160766602, -0.05059128254652023, 0.23028145730495453, 0.0021332965698093176, -0.08809857070446014], [-0.07337726652622223, 0.032599080353975296, -0.4205993711948395, 0.025086667388677597, -0.002995949937030673, -0.3749403655529022, -0.1377749890089035, -0.15999357402324677, 0.1711227148771286, 0.28065183758735657, -0.10608097165822983, -0.23492315411567688, -0.04908455163240433, 0.24664320051670074, 0.5730107426643372, -0.05409148335456848, -0.03687351942062378, 0.21802569925785065, -0.8579692840576172, 0.8237797021865845, 0.14336371421813965, -0.02006888948380947, -0.2353575974702835, 0.21345295011997223], [-0.040792856365442276, -0.1525282859802246, -0.182515487074852, 0.12418930232524872, -0.0003547117521520704, -0.10285287350416183, -0.24964044988155365, -0.11756855994462967, 0.1696489304304123, -0.07788696140050888, 0.05530213564634323, -0.04812851920723915, 0.16800525784492493, 0.20583583414554596, -0.009341349825263023, -0.11044904589653015, 0.26064854860305786, -0.26016467809677124, -0.16226962208747864, -0.03286490961909294, -0.0904695987701416, 0.1571504771709442, 0.05710601061582565, -0.04886115342378616], [-0.057788800448179245, -0.07333361357450485, 0.22870098054409027, 0.04135453328490257, -0.000743095763027668, 0.0103098563849926, -0.013285728171467781, 0.04801475256681442, -0.12993223965168, 0.10300292074680328, 0.0509912371635437, 0.12578102946281433, -0.23877471685409546, 0.09312710165977478, -0.1488928347826004, 0.18548402190208435, 0.057635560631752014, -0.003918963484466076, 0.006796686444431543, -0.044081538915634155, -0.11962965875864029, 0.0772009938955307, 0.09773634374141693, 0.39962252974510193], [-0.2278796136379242, 0.1144464910030365, 0.34745872020721436, -0.1053636446595192, 0.0012724174885079265, -0.3791782259941101, -0.2561071217060089, -0.025906411930918694, -0.018486149609088898, 0.0015762189868837595, -0.15071819722652435, -0.007828067988157272, -0.031099697574973106, 0.15472957491874695, -0.10476436465978622, 0.10420026630163193, -0.010268514975905418, 0.6358994841575623, -0.0632147490978241, -0.27978771924972534, 0.10595910996198654, -0.08159879595041275, -0.44428932666778564, -0.14278265833854675], [0.03613659739494324, 0.12541833519935608, -0.06771054863929749, 0.004374333191663027, 0.0006974783609621227, -0.039916448295116425, -0.033868324011564255, -0.08631521463394165, 0.27584728598594666, -0.0548512265086174, -0.2649647295475006, 0.03761854022741318, -0.12411268800497055, -0.003378237597644329, 0.04416552558541298, 0.06237633526325226, -0.018919987604022026, 0.05662938207387924, -0.055882737040519714, 0.06795793771743774, 0.09762867540121078, -0.03363059461116791, -0.16626249253749847, -0.015238496474921703], [0.2563329339027405, 0.2905195653438568, 0.10475200414657593, -0.15377214550971985, 0.00021210666454862803, -0.008242384530603886, -0.01764640025794506, -0.27510735392570496, -0.1293569952249527, 0.18604907393455505, -0.023330729454755783, -0.04352835193276405, 0.10403142124414444, -0.06864271312952042, 0.005784169305115938, 0.023476291447877884, -0.08469396084547043, 0.11915366351604462, -0.11872322857379913, 0.020911958068609238, 0.003407975658774376, -0.10595589131116867, -0.03489604964852333, 0.10859236121177673], [0.3274328112602234, 0.40591707825660706, 0.2215738445520401, -0.16715866327285767, -0.00018991441174875945, 0.03520777449011803, -0.07332740724086761, -0.406568706035614, -0.23833870887756348, 0.2214551866054535, -0.13326947391033173, -0.11468378454446793, 0.08253748714923859, -0.012164300307631493, 0.05599328503012657, 0.01721678115427494, 0.013521832413971424, 0.017882179468870163, -0.07393160462379456, 0.0970715656876564, 0.010242797434329987, -0.09748917818069458, 0.03204140067100525, 0.10996516048908234], [0.3060021996498108, 0.3317660093307495, 0.5231033563613892, -0.11709518730640411, 0.00083640351658687, 0.09096045047044754, -0.03163043409585953, -0.406130850315094, -0.19120492041110992, 0.11613135039806366, -0.12179602682590485, -0.04629857465624809, 0.10957247763872147, -0.09335318952798843, 0.0763322040438652, 0.02595037966966629, -0.03786017373204231, 0.009193988516926765, 0.11050538718700409, 0.09319949150085449, -0.029843103140592575, -0.1166704073548317, 0.06318455189466476, -0.025006750598549843], [0.08383218199014664, 0.0964682549238205, 0.12872175872325897, -0.046275194734334946, -9.74274462350877e-06, -0.03614871948957443, -0.08083143830299377, -0.11301324516534805, -0.13876065611839294, 0.07477524876594543, -0.1693047732114792, -0.060214344412088394, 0.027226891368627548, 0.008449475280940533, 0.020558197051286697, 0.00906845461577177, 0.052466150373220444, -0.01601330377161503, -0.08828763663768768, 0.03530026599764824, 0.05360325053334236, -0.07152784615755081, 0.07889318466186523, 0.02236892469227314], [5.1167517085559666e-05, 5.1069499022560194e-05, 3.148565883748233e-05, -2.8674867280642502e-05, -1.0019682150641529e-07, 5.416804015112575e-06, 6.663629392278381e-06, -5.376679473556578e-05, -4.465104211703874e-05, 2.1561030735028908e-05, -2.3273698388948105e-05, 5.64896527066594e-06, 2.5530089260428213e-05, 2.2157573766889982e-05, 3.9294081943808123e-05, 1.8690358047024347e-05, -2.343547748751007e-05, 9.38620087254094e-06, 1.8771697796182707e-05, 8.005335075722542e-06, -1.052037873705558e-06, -2.9893337341491133e-05, 1.1179371540492866e-05, 5.059318209532648e-05], [0.20784227550029755, 0.2724294364452362, 0.14448007941246033, -0.2932838499546051, 7.762021414237097e-05, 0.19486470520496368, -0.052592549473047256, -0.19196805357933044, -0.20359601080417633, 0.22627562284469604, -0.07921287417411804, -0.04266289249062538, 0.09174082428216934, 0.06996474415063858, 0.13990172743797302, -0.02808067575097084, -0.019752243533730507, -0.013945996761322021, -0.01853194460272789, 0.19526642560958862, -0.021612178534269333, -0.22529564797878265, 0.16323569416999817, -0.039603617042303085], [0.20478016138076782, 0.23080097138881683, 0.10474485158920288, -0.10484261065721512, 0.00019660040561575443, 0.03337487950921059, -0.026531195268034935, -0.22498668730258942, -0.20246116816997528, 0.10338413715362549, -0.036111243069171906, -0.0107332868501544, 0.11889344453811646, -0.03895244747400284, -0.013386433944106102, 0.034988339990377426, -0.06975673139095306, 0.011904176324605942, 0.01599850319325924, -0.05559264495968819, -0.009626961313188076, 0.02514047920703888, 0.016588278114795685, -0.0218755304813385], [0.3438199460506439, 0.36839720606803894, 0.22505304217338562, -0.15607929229736328, 0.00027783180121332407, 0.07023805379867554, -0.03164316713809967, -0.4440130293369293, -0.24572741985321045, 0.16948427259922028, -0.087313711643219, -0.058682866394519806, 0.08643411099910736, -0.04870026558637619, 0.036701545119285583, 0.021793249994516373, -0.03292059525847435, 0.04948176071047783, -0.03665433079004288, 0.006975369993597269, 0.01597277820110321, -0.1030690148472786, -0.011957242153584957, 0.10565146058797836], [0.28443095088005066, 0.19620569050312042, 0.19774632155895233, -0.15293078124523163, 0.0005616675480268896, 0.1440233588218689, -0.07203061133623123, -0.28517550230026245, -0.5331656336784363, 0.11188892275094986, -0.13195720314979553, -0.017875222489237785, 0.07431565970182419, -0.1063017025589943, 0.041490908712148666, 0.03816233575344086, 0.04816907271742821, -0.010374804027378559, -0.07016438245773315, 0.055711109191179276, 0.03360508754849434, -0.10704736411571503, 0.12593340873718262, -0.2013726830482483], [0.09502565115690231, 0.15860390663146973, 0.1672326922416687, 0.014355744235217571, -2.6067504222737625e-05, -0.090543232858181, 0.012669557705521584, -0.2183396816253662, -0.13893362879753113, -0.08258681744337082, -0.053942784667015076, 0.06044556945562363, 0.06629467010498047, -0.04280530661344528, 0.024622952565550804, 0.07121982425451279, 0.04155446216464043, 0.056643348187208176, 0.1523570865392685, -0.07722709327936172, 0.041961669921875, -0.07833508402109146, -0.05249624699354172, 0.1695067137479782], [0.24300643801689148, 0.2207084596157074, 0.16092438995838165, -0.12820211052894592, -0.00044072041055187583, 0.028920361772179604, 0.024669472128152847, -0.2804878354072571, -0.23278585076332092, 0.12340913712978363, -0.047189027070999146, -0.006444983649998903, 0.054211944341659546, -0.09325622767210007, -0.015194304287433624, 0.0025400067679584026, -0.0472160242497921, -0.015024627558887005, 0.12931638956069946, -0.037169404327869415, -0.05250576138496399, -0.19375096261501312, -0.025101205334067345, 0.04130903631448746], [0.21349339187145233, 0.2201339453458786, 0.11958742141723633, -0.05153990909457207, -0.00026641832664608955, -0.04045162349939346, -0.001430538366548717, -0.25954875349998474, -0.1977957934141159, 0.05470985919237137, -0.03907733038067818, 0.024478372186422348, 0.1101066842675209, -0.09508805721998215, 0.00043537732562981546, 0.046950213611125946, -0.06760157644748688, 0.019715437665581703, 0.10706019401550293, -0.045371390879154205, -0.03892485424876213, -0.08646661788225174, -0.008344377391040325, 0.06624484807252884], [0.15050247311592102, 0.10982874780893326, 0.039814192801713943, -0.10224724560976028, -0.0003054112894460559, 0.01912163384258747, 0.0074016377329826355, -0.13783733546733856, -0.05704743042588234, 0.2835390269756317, -0.1563187688589096, -0.12589606642723083, 0.16994158923625946, -0.08189503848552704, 0.011930545791983604, -0.03907546401023865, -0.005202062427997589, 0.12637104094028473, -0.023244308307766914, 0.05433965101838112, -0.026988402009010315, -0.05137638747692108, -0.0317683145403862, 0.14711891114711761], [0.16497410833835602, 0.19167833030223846, 0.1488126665353775, -0.08085722476243973, 0.00010408071102574468, -0.2112659513950348, -0.018026672303676605, -0.18386386334896088, -0.16067878901958466, 0.11403422057628632, -0.01954367570579052, 0.02385818213224411, 0.10218451917171478, -0.07605470716953278, -0.03234144672751427, -0.013486026786267757, 0.04790806770324707, -0.02119481936097145, 0.35157233476638794, -0.17300717532634735, -0.018712982535362244, -0.1640673726797104, 0.07124464213848114, -0.0170894842594862], [0.0005412976606748998, -0.03321794047951698, 0.03206678479909897, -0.05874981731176376, -0.0002183518372476101, -0.2680469751358032, -0.0007654652581550181, 0.008605114184319973, -0.031144559383392334, 0.056426674127578735, 0.16706040501594543, 0.017760952934622765, 0.13320569694042206, -0.20611916482448578, -0.07175806164741516, -0.08146996051073074, -0.0491885282099247, -0.03446090966463089, 0.09623104333877563, -0.015841593965888023, -0.052111733704805374, -0.10462598502635956, 0.01621062308549881, -0.21437180042266846], [0.07218945771455765, 0.04922449216246605, 0.09081654250621796, 0.029198171570897102, 0.0004169291933067143, 0.11607535183429718, -0.013419551774859428, -0.11322428286075592, -0.08892868459224701, -0.12425179034471512, -0.0458637960255146, 0.05250082165002823, -0.06020795553922653, 0.08697886019945145, 0.10404164344072342, 0.11828313022851944, 0.015525966882705688, 0.04637927561998367, 0.026767566800117493, 0.11231358349323273, 0.05266859754920006, -0.011983145028352737, -0.07225856184959412, 0.011123228818178177], [0.18172277510166168, 0.18897385895252228, 0.037145718932151794, -0.023439006879925728, -0.000933390692807734, -0.04209021106362343, 0.0862806886434555, -0.21516281366348267, -0.1437409222126007, 0.2005915492773056, 0.020012782886624336, -0.05055682733654976, -0.04718255624175072, -0.031117429956793785, -0.026736997067928314, 0.03362637758255005, -0.025813961401581764, 0.03866669535636902, -0.029364807531237602, 0.10126767307519913, -0.05405040085315704, -0.16533511877059937, -0.009250979870557785, -0.05429913476109505], [0.28846409916877747, 0.292441725730896, 0.16802451014518738, -0.16579851508140564, -0.00024242505605798215, 0.011708026751875877, -0.006246568635106087, -0.3137282431125641, -0.2790110409259796, 0.18359307944774628, -0.03538130596280098, -0.03150467947125435, 0.129037007689476, -0.03614400699734688, -0.029426293447613716, 0.029109612107276917, -0.02308623120188713, 0.011739927344024181, -0.0330062136054039, 0.013357388786971569, -0.005377252586185932, -0.06617104262113571, 0.02498054876923561, 0.06968538463115692], [0.1300509124994278, 0.1745457798242569, 0.16308142244815826, -0.2074238657951355, 0.0003713748883455992, 0.2846948802471161, 0.03814604878425598, -0.1478014886379242, -0.15762242674827576, 0.10207190364599228, -0.030478879809379578, 0.04832873493432999, 0.1210913360118866, -0.04574974253773689, 0.18771718442440033, 0.027548853307962418, -0.07292645424604416, 0.056090813130140305, -0.12076620012521744, 0.376321017742157, 0.09533002227544785, -0.11666973680257797, -0.04586350545287132, -0.14956171810626984], [0.14300371706485748, 0.1164812296628952, 0.14388908445835114, -0.10107944905757904, 4.563549009617418e-05, -0.10167133063077927, -0.008710816502571106, -0.15772126615047455, -0.19640173017978668, 0.10418321192264557, 0.04050298035144806, 0.04846834018826485, 0.13607659935951233, -0.1959957629442215, -0.06954089552164078, 0.028119418770074844, -0.015029294416308403, 0.026074346154928207, -0.09003330022096634, 0.01166482362896204, 0.007902839221060276, -0.17521832883358002, 0.020826948806643486, -0.1684691607952118], [0.1473042070865631, 0.14983971416950226, 0.06759942322969437, -0.09168024361133575, -0.00016493281873408705, -0.004750675056129694, 0.011809565126895905, -0.15864209830760956, -0.15027232468128204, 0.11580164730548859, -0.05578957498073578, -0.005182812921702862, 0.0721825510263443, -0.08199483156204224, -0.04996304586529732, 0.03407485783100128, -0.07708518952131271, 0.022299597039818764, -0.09907503426074982, -0.011315222829580307, -0.03725958243012428, -0.0854431688785553, 0.015362825244665146, 0.0064238617196679115], [0.1521604210138321, 0.1288168877363205, 0.10638786107301712, -0.10969893634319305, -0.0006037268904037774, -0.10731296986341476, -0.09481533616781235, -0.1580955535173416, -0.09598056226968765, 0.15411873161792755, -0.28064456582069397, -0.10751935839653015, 0.0849604383111, 0.02620573341846466, -0.0006609915290027857, 0.04995575547218323, 0.019970975816249847, 0.08487476408481598, -0.021640894934535027, 0.019096508622169495, 0.036371540278196335, -0.04218710586428642, 0.07387915998697281, 0.15275856852531433], [0.19765013456344604, 0.20596808195114136, 0.10553925484418869, -0.04886428266763687, -0.00010548962018219754, -0.04402190074324608, -0.04235827922821045, -0.2008686661720276, -0.17759819328784943, 0.13441190123558044, -0.05636553093791008, -0.023264536634087563, 0.14902356266975403, -0.06559900939464569, -0.03756404668092728, 0.019597128033638, -0.030901513993740082, 0.03769942373037338, -0.0710778534412384, 0.03276124224066734, 0.02317035011947155, -0.020958008244633675, 0.013265623711049557, 0.05937197431921959], [0.22685913741588593, 0.17101524770259857, 0.13829182088375092, -0.12710721790790558, 0.0008003959665074944, 0.1249937191605568, 0.011117671616375446, -0.24980710446834564, -0.23109634220600128, 0.13413077592849731, 0.091336689889431, 0.008562135510146618, 0.12198931723833084, -0.11713939160108566, -0.03720264881849289, 0.01041276566684246, -0.017046665772795677, -0.038164786994457245, 0.01055736094713211, -0.04055021330714226, -0.007656287867575884, 0.0058818357065320015, -0.028918946161866188, 0.01277150772511959]], "rec.bias_ih_l0": [0.1300850510597229, 0.12019453197717667, -1.0874154567718506, 0.10767068713903427, 5.410873927758075e-05, 0.17117522656917572, 0.18524158000946045, 0.14491377770900726, -0.555784285068512, 0.11936474591493607, 0.30261170864105225, 0.25066062808036804, 0.04563570022583008, 0.2400597333908081, 0.19327986240386963, -0.06339918822050095, -0.6763036251068115, 0.3293672204017639, 0.29526931047439575, 0.2825866639614105, 0.12110509723424911, 0.12731145322322845, 0.25772443413734436, 0.12614548206329346, 0.24936267733573914, 0.28430137038230896, 1.3894129991531372, 0.11150463670492172, 4.767413338413462e-05, 0.11677246540784836, 0.027865983545780182, 0.28074362874031067, 0.9724927544593811, 0.382261723279953, 0.1599847376346588, 0.12839096784591675, 0.23069964349269867, 0.17017890512943268, 0.07377077639102936, 0.13636796176433563, 0.9763206839561462, -0.20123730599880219, 0.10847651958465576, 0.07052109390497208, 0.05405829846858978, 0.25505444407463074, -0.12446437031030655, 0.16761338710784912, 0.11376229673624039, -0.08829407393932343, -0.04659181460738182, 0.006364809349179268, 0.00013023041537962854, -0.06568643450737, -0.07215970009565353, -0.11866721510887146, -0.17924056947231293, 0.10492875427007675, -0.47159522771835327, -0.0809856578707695, -0.10735662281513214, 0.026137853041291237, 0.29075610637664795, -0.007503716740757227, 0.08930093795061111, 0.17522981762886047, -0.08947697281837463, 0.05326643958687782, 0.22426234185695648, -0.03517771512269974, -0.05736887454986572, 0.1390206515789032, 0.4243403375148773, 0.46721121668815613, 0.40179622173309326, 0.12442046403884888, 5.413417238742113e-05, 0.12272564321756363, 0.2426718771457672, 0.48836225271224976, 0.23840531706809998, 0.23748353123664856, 0.3268609941005707, 0.30446311831474304, 0.14474394917488098, 0.19795356690883636, 0.0007459137123078108, 0.1282472163438797, 0.230646014213562, 0.34074872732162476, 0.190382182598114, 0.19478288292884827, 0.1748199760913849, 0.15449558198451996, 0.2641158401966095, 0.2814721167087555], "rec.bias_hh_l0": [0.1303253024816513, 0.12018304318189621, -0.9290772080421448, 0.11057979613542557, 5.410874291555956e-05, 0.17115315794944763, 0.1852414906024933, 0.14492793381214142, -0.5814045667648315, 0.11172778904438019, 0.30242741107940674, 0.2673551142215729, 0.050023023039102554, 0.2400597631931305, 0.1932801902294159, -0.06339793652296066, -0.6298627257347107, 0.32936719059944153, 0.29529517889022827, 0.28258657455444336, 0.12110454589128494, 0.12741050124168396, 0.26317164301872253, 0.12603949010372162, 0.2636486291885376, 0.28809621930122375, 1.4263761043548584, 0.09597869962453842, 4.7674126108177006e-05, 0.09485024213790894, 0.02786887437105179, 0.28119584918022156, 0.9351525902748108, 0.36707818508148193, 0.17459532618522644, 0.13287121057510376, 0.21909789741039276, 0.1702226996421814, 0.0740596130490303, 0.13592565059661865, 0.8303269743919373, -0.2012372612953186, 0.10409571975469589, 0.06678282469511032, 0.05397332087159157, 0.2570886015892029, -0.11423657834529877, 0.16753964126110077, 0.14542651176452637, -0.09783022105693817, 0.19499903917312622, -0.17821796238422394, 0.00013023026986047626, 0.09478668868541718, -0.13687251508235931, -0.13749650120735168, -0.021778762340545654, 0.25624677538871765, -0.33449220657348633, -0.29134225845336914, -0.06631302833557129, 0.05916987359523773, 0.1462092101573944, -0.01968185231089592, -0.08502804487943649, 0.09327641129493713, -0.13980117440223694, 0.26351863145828247, 0.21346747875213623, -0.05739126354455948, -0.007167239207774401, 0.24580305814743042, 0.32920894026756287, 0.4676077365875244, 0.4525225758552551, 0.13653124868869781, 5.413417238742113e-05, 0.12856873869895935, 0.2426718920469284, 0.48787277936935425, 0.20980685949325562, 0.26243990659713745, 0.3268566429615021, 0.3050875663757324, 0.15716895461082458, 0.1979537308216095, 9.726741154736374e-06, 0.12779280543327332, 0.2474440634250641, 0.3407486379146576, 0.18925423920154572, 0.19337564706802368, 0.17481981217861176, 0.16242554783821106, 0.2675000727176666, 0.28147584199905396], "lin.weight": [[-0.24591155350208282, 0.13430646061897278, 0.23284390568733215, -0.3036094307899475, 0.00028762538568116724, -0.6352149248123169, -0.6422015428543091, 0.09564384073019028, -0.28930288553237915, -0.1596042364835739, -0.19187304377555847, -0.28527069091796875, -0.2724442780017853, 0.08913693577051163, -0.13849680125713348, 0.3369772732257843, 0.6957598924636841, 0.6197956800460815, -0.014378934167325497, 0.3071892261505127, 0.528502881526947, -0.06477712839841843, -0.645474910736084, -0.23175451159477234]], "lin.bias": [-0.07814089953899384]}}