{"model_data": {"model": "SimpleRNN", "input_size": 2, "skip": 1, "output_size": 1, "unit_type": "LSTM", "num_layers": 1, "hidden_size": 24, "bias_fl": true}, "state_dict": {"rec.weight_ih_l0": [[0.035534340888261795, 0.18810294568538666], [-0.01861276850104332, 0.18387934565544128], [0.047597430646419525, 0.09942303597927094], [0.1419028788805008, 0.3574860394001007], [0.08964076638221741, -0.6682432293891907], [0.046679142862558365, 0.050213299691677094], [0.03934571519494057, -0.000899958424270153], [-0.1284947395324707, 0.1450379639863968], [-0.021580854430794716, 0.09362688660621643], [0.1016291007399559, 0.09075073897838593], [-0.06725817918777466, 0.3263397812843323], [0.07487386465072632, 0.04699432849884033], [-0.007258704863488674, 0.08222085982561111], [-0.007596888579428196, 0.049790289252996445], [-0.028355708345770836, -0.6526792049407959], [0.05182862654328346, 0.07971833646297455], [0.016559813171625137, 0.09627431631088257], [0.021626893430948257, 0.03804873302578926], [0.04900385066866875, 0.006130770314484835], [0.14909136295318604, -0.3161114752292633], [-0.07876282930374146, 0.0976356640458107], [-0.18100014328956604, -0.14729119837284088], [0.030026216059923172, 0.23201799392700195], [0.05914220213890076, 0.1499968022108078], [-0.13952389359474182, 0.15095718204975128], [-0.040311019867658615, 0.021549401804804802], [0.12343328446149826, 0.09781856834888458], [-0.02561786212027073, -0.01791536994278431], [0.029703248292207718, 0.5536765456199646], [0.1160057783126831, 0.0401889905333519], [0.06968361884355545, 0.047183189541101456], [-0.3044017553329468, 0.3189908564090729], [-0.03869074583053589, 0.02827945351600647], [-0.014061488211154938, 0.014011743478477001], [0.17401176691055298, -0.011899418197572231], [0.12181390821933746, -0.010063639841973782], [-0.0611763633787632, 0.19989356398582458], [-0.04183878377079964, 0.129830464720726], [0.05079811438918114, 0.7067307233810425], [0.02102026529610157, 0.043269846588373184], [-0.054921820759773254, -0.0056665996089577675], [0.028968380764126778, 0.12643054127693176], [0.07880903780460358, 0.05203353613615036], [0.1443665772676468, 0.3643694221973419], [-0.13749225437641144, 0.055064138025045395], [0.1333385556936264, 0.1909860372543335], [-0.0419347882270813, 0.035945046693086624], [0.11441314965486526, 0.12876740097999573], [-0.1502627730369568, 0.3420904278755188], [-0.2384328842163086, 0.05006624385714531], [-0.17546790838241577, 0.06473744660615921], [-1.7940956354141235, -0.17958682775497437], [-0.021971572190523148, 0.03081677295267582], [0.17539429664611816, -0.23163112998008728], [0.28044241666793823, -0.019337158650159836], [0.2367822676897049, 0.26576948165893555], [-0.4068460762500763, -0.013414114713668823], [-0.6532079577445984, -0.17199987173080444], [0.6681504249572754, -0.04532742127776146], [-0.6268752813339233, 0.18273219466209412], [0.44294875860214233, 0.041819993406534195], [-0.019434478133916855, 0.14541594684123993], [0.4214516580104828, -0.04188834875822067], [0.4529377222061157, 0.05966431647539139], [-0.06438086181879044, 0.03749603033065796], [-0.042326074093580246, -0.14793811738491058], [-0.024928858503699303, -0.5125905871391296], [-0.49927955865859985, -0.015432990156114101], [0.3551545739173889, -0.2319491058588028], [-0.08143191039562225, 0.046257100999355316], [0.5229339003562927, 0.056698840111494064], [0.6830663084983826, 0.04452446848154068], [0.004886704031378031, 0.211176797747612], [-0.052535731345415115, 0.26037561893463135], [0.12364963442087173, 0.10066376626491547], [0.18415457010269165, 0.2991151809692383], [-0.0863013043999672, 0.1367993950843811], [0.14014537632465363, 0.039846599102020264], [0.0888364240527153, 0.019377700984477997], [-0.24196036159992218, 0.20394062995910645], [-0.01443726010620594, 0.08990458399057388], [-0.07534736394882202, 0.1521931141614914], [-0.03206393122673035, 0.22343097627162933], [0.09318596124649048, 0.08454643934965134], [-0.164027139544487, 0.040367547422647476], [-0.06372631341218948, 0.15458710491657257], [0.15357384085655212, 0.470761239528656], [0.003702855668962002, 0.11090747267007828], [0.014138080179691315, 0.10643281787633896], [0.06378166377544403, 0.03754522651433945], [0.058694638311862946, -0.01640230417251587], [0.12697353959083557, 0.40979036688804626], [-0.03341805189847946, 0.13894760608673096], [0.12280233949422836, 0.15953543782234192], [0.03254878520965576, 0.21010537445545197], [0.09496331214904785, 0.11909502744674683]], "rec.weight_hh_l0": [[0.0015237629413604736, -0.016079161316156387, 0.02658465877175331, -0.05501164123415947, -0.15409700572490692, -0.010460153222084045, 0.2592615783214569, 0.0746137946844101, 0.03584069758653641, 0.17601314187049866, 0.04203091934323311, 0.010376561433076859, 0.025643164291977882, 0.2581676244735718, -0.07792208343744278, -0.017358409240841866, 0.0524919293820858, -0.27526116371154785, -0.04071329906582832, -0.1257118582725525, -0.08327952027320862, 0.23844105005264282, -0.03771208971738815, 0.1011061742901802], [0.03443397954106331, -0.0595519058406353, 0.044888563454151154, -0.019292546436190605, -0.09588919579982758, -0.03451932966709137, 0.19848404824733734, 0.032474443316459656, -0.0021129364613443613, 0.14949998259544373, 0.14581048488616943, -0.02632879465818405, 0.04011274501681328, 0.20093029737472534, -0.0717054158449173, 0.022925252094864845, 0.004915998317301273, -0.19410765171051025, -0.13039299845695496, -0.1280243992805481, -0.09842272847890854, 0.19160011410713196, 0.05801645666360855, 0.07383129745721817], [0.01959073729813099, -0.05365198478102684, -0.04854582995176315, -0.055357739329338074, 0.002762704389169812, 0.009032635018229485, 0.04318580776453018, 0.029836267232894897, 0.07142404466867447, 0.06946851313114166, 0.11333373188972473, 0.023676924407482147, 0.005168852396309376, 0.06322046369314194, 0.01840708591043949, -0.026215577498078346, 0.06420434266328812, -0.059663575142621994, 0.01086770836263895, -0.005811988841742277, -0.031211579218506813, 0.02627262845635414, 0.07397669553756714, 0.017195886000990868], [-0.09466832876205444, -0.14272697269916534, 0.11363283544778824, -0.07552945613861084, -0.12161970883607864, -0.3284526765346527, 0.22093869745731354, 0.33440321683883667, 0.03111182525753975, 0.06700293719768524, 0.13553623855113983, 0.03829782083630562, 0.17937754094600677, 0.23164868354797363, 0.033689968287944794, -0.10756741464138031, 0.09392986446619034, -0.2493116408586502, -0.47603195905685425, -0.11843390017747879, -0.1523621529340744, 0.20242467522621155, 0.1628658026456833, -0.02522093802690506], [0.015324855223298073, 0.20215612649917603, 0.08901413530111313, 0.07182995975017548, 0.09504077583551407, 0.024434367194771767, -0.34465664625167847, 0.027377359569072723, -0.02793281339108944, -0.4451529383659363, -0.17744754254817963, -0.06741710007190704, 0.02577804960310459, -0.3623697757720947, 0.0608685240149498, 0.01822659745812416, 0.1024722307920456, 0.4111836552619934, 0.2340390384197235, 0.2303261011838913, 0.09108041226863861, -0.630395770072937, 0.1441233903169632, -0.20666979253292084], [-0.053873758763074875, -0.02068025805056095, -0.11565368622541428, 0.08942194283008575, -0.014477220363914967, 0.1165907084941864, 0.1175793781876564, -0.0008284965297207236, 0.031089259311556816, 0.12034761160612106, -0.0520910918712616, 0.026017269119620323, 0.036967236548662186, 0.1412728875875473, 0.020385509356856346, -0.07802333682775497, 0.06316880136728287, -0.11485268175601959, 0.008158705197274685, -0.0738312155008316, -0.1011408269405365, 0.07954608649015427, -0.09523695707321167, 0.018947787582874298], [0.010457906872034073, 0.036878980696201324, 0.049801990389823914, 0.044037237763404846, -0.05505169555544853, 0.0011322348145768046, 0.10717491805553436, -0.010544385761022568, 0.004616930149495602, 0.054054439067840576, -0.01845422014594078, -0.03068028949201107, -0.0028562741354107857, 0.08590614795684814, -0.02513425424695015, -0.026255574077367783, 3.508596637402661e-05, -0.08200962096452713, 0.006255475804209709, -0.020101049914956093, 0.01652035117149353, 0.09214398264884949, -0.02890278398990631, 0.04748975485563278], [0.04090646654367447, -0.06097705289721489, 0.05746619775891304, -0.043880876153707504, -0.058938682079315186, 0.09644980728626251, 0.05768514424562454, 0.05754970759153366, 0.04781472682952881, 0.08575049042701721, 0.10276535153388977, 0.015010356903076172, -0.08871836215257645, 0.07690617442131042, -0.04504614323377609, -0.02974451333284378, 0.002439407166093588, -0.052254609763622284, 0.14715442061424255, -0.016731033101677895, -0.13030073046684265, 0.03709474578499794, 0.14473699033260345, 0.03594312071800232], [0.02956053614616394, 0.0013753032544627786, 0.013891098089516163, -0.02479063719511032, -0.036274757236242294, 0.0036229693796485662, 0.10747270286083221, -0.015923073515295982, 0.0206945538520813, 0.10013023763895035, -0.026657482609152794, 0.019599955528974533, 0.024392670020461082, 0.1275453269481659, -0.05528241768479347, -0.024426106363534927, -0.01208449900150299, -0.12651687860488892, -0.02755780518054962, -0.04297833517193794, -0.02879042737185955, 0.12324235588312149, -0.007692890241742134, 0.058249086141586304], [-0.03862440213561058, 0.005420571658760309, 0.04840958118438721, -0.05561342462897301, -0.15909984707832336, 0.0102424006909132, 0.18967336416244507, 0.019795509055256844, -0.02942620776593685, 0.13463440537452698, 0.10805139690637589, -0.07256342470645905, 0.0320611298084259, 0.1271769106388092, -0.01665760949254036, -0.035234518349170685, -0.01718958467245102, -0.17622193694114685, -0.09201229363679886, -0.08501561731100082, 0.0017794689629226923, 0.14713060855865479, 0.04126286506652832, 0.10133138298988342], [-0.0024159380700439215, -0.060773514211177826, 0.06430813670158386, -0.05769585818052292, -0.02752334624528885, -0.18696671724319458, 0.1446136087179184, 0.13334399461746216, 0.10126807540655136, 0.0888034775853157, 0.1491161733865738, 0.09209204465150833, 0.12111099064350128, 0.19174571335315704, -0.021207109093666077, 0.003298380644991994, 0.09045497328042984, -0.1951523870229721, -0.28735917806625366, -0.10512548685073853, -0.19840192794799805, 0.17133402824401855, -0.03560355678200722, -0.007398223504424095], [0.015479031950235367, -0.01309322752058506, -0.005223458632826805, -0.2064628154039383, -0.14238423109054565, 0.04391350969672203, 0.17470164597034454, 0.08273746073246002, 0.025449037551879883, 0.14526094496250153, 0.07196994125843048, 0.03592221811413765, -0.025823991745710373, 0.17444288730621338, -0.16438986361026764, 0.053704358637332916, 0.01634584367275238, -0.17975595593452454, 0.13434304296970367, -0.0733671486377716, 0.01900859922170639, 0.15873683989048004, -0.0647001639008522, 0.12668001651763916], [0.10663741827011108, 0.04109189286828041, 0.059558164328336716, -0.01976681686937809, 0.058336880058050156, -0.015772972255945206, -0.005625468213111162, -0.032779254019260406, -0.020804794505238533, 0.024340108036994934, -0.06540454924106598, -0.021089669317007065, -0.011658577248454094, 0.0622696653008461, -0.1128476932644844, 0.03302877023816109, -0.06107832491397858, -0.007860098034143448, -0.042507853358983994, 0.024326952174305916, -0.03611067682504654, -0.006350622046738863, -0.015118657611310482, 0.10471050441265106], [-0.014106182381510735, -0.0112581392750144, 0.009158939123153687, -0.019239019602537155, -0.0350329615175724, 0.007505596149712801, 0.10709671676158905, 0.027406787499785423, 0.024803848937153816, 0.07371903210878372, 0.026944415643811226, -0.0007002446218393743, 0.016319332644343376, 0.09764304012060165, -0.006228388287127018, -0.018293073400855064, 0.015278997831046581, -0.09968770295381546, 0.0188304353505373, -0.03672168403863907, -0.040748659521341324, 0.11384306102991104, -0.0017425318947061896, 0.034636519849300385], [0.07668115198612213, -0.1554310917854309, -0.08297901600599289, 0.4655468165874481, 0.6583583950996399, 0.037289246916770935, -0.5906625986099243, 0.2897714674472809, -0.18262656033039093, -0.8900569081306458, -0.43255987763404846, 0.1226523369550705, -0.27806010842323303, -0.23036421835422516, -0.009088512510061264, -0.003349951934069395, 0.07419342547655106, 0.5976128578186035, -0.04639939218759537, 0.06766267120838165, 0.14634138345718384, -0.6752888560295105, 0.10075856745243073, -0.40756601095199585], [-0.024925129488110542, -0.013527946546673775, -0.03974073752760887, 0.09712010622024536, -0.12935662269592285, 0.001502995379269123, 0.17414690554141998, 0.02252477966248989, 0.021923011168837547, 0.10188547521829605, 0.05144305154681206, -0.03148829564452171, -0.03217032551765442, 0.16255557537078857, -0.06044356897473335, 0.03039577603340149, 0.044514235109090805, -0.17709891498088837, 0.004865088500082493, -0.11073976755142212, -0.05228043720126152, 0.13643047213554382, -0.05199046432971954, 0.03397605940699577], [-0.016717426478862762, -0.01572253741323948, -0.01116711925715208, -0.007228880189359188, -0.0497964546084404, 0.03228180855512619, 0.11455877870321274, 0.035303328186273575, 0.017092259600758553, 0.039801668375730515, -0.11848944425582886, -0.020477164536714554, 0.009951172396540642, 0.1161288470029831, -0.02350744791328907, -0.013255142606794834, 0.013767631724476814, -0.11010688543319702, -0.05429454520344734, -0.09138277173042297, -0.1218695193529129, 0.09618318825960159, -0.050045695155858994, 0.01675155572593212], [-0.015140770003199577, -0.014286629855632782, -0.0015443428419530392, -0.017207937315106392, -0.05749388784170151, 0.020244475454092026, 0.10669376701116562, 0.011165973730385303, 0.014241340570151806, 0.07475390285253525, 0.035471003502607346, 0.003667824901640415, 0.00995231419801712, 0.09956140071153641, -0.009721259586513042, -0.02363170124590397, 0.00980827584862709, -0.10000278800725937, -0.022893719375133514, -0.04110243543982506, -0.04369895160198212, 0.0654868483543396, 0.004652929492294788, 0.014824912883341312], [-0.03673993796110153, -0.031254950910806656, 0.014149191789329052, -0.027876397594809532, -0.10467200726270676, -0.03664219751954079, 0.11415351182222366, 0.06848341971635818, -0.009658283554017544, 0.03817201778292656, -0.019503848627209663, -0.028134431689977646, 0.059013426303863525, 0.09190648049116135, -0.036989327520132065, -0.049263451248407364, -0.006614192388951778, -0.09213759005069733, -0.04045632854104042, -0.04250097647309303, 0.018530214205384254, 0.1002010852098465, 0.0050145359709858894, 0.04134088754653931], [0.13511154055595398, 0.13715144991874695, 0.005909140221774578, -0.010246729478240013, 0.23620986938476562, 0.08976816385984421, -0.3330279290676117, -0.007432167883962393, 0.019533218815922737, -0.06334665417671204, -0.0723261907696724, 0.1418970227241516, -0.024310605600476265, -0.2027902901172638, -0.010261199437081814, -0.011291703209280968, 0.16074196994304657, 0.28193631768226624, -0.03638594597578049, -0.1746094524860382, -0.1354387104511261, -0.3074043393135071, 0.17151270806789398, -0.1816824972629547], [0.045414529740810394, 0.06857337802648544, 0.06668586283922195, 0.08967401087284088, -0.03283759579062462, -0.015059424564242363, 0.10831935703754425, 0.00732124550268054, 0.030744122341275215, 0.10110986232757568, -0.04382368177175522, 0.021947404369711876, -0.014751029200851917, 0.10859314352273941, -0.04673142358660698, -0.019666973501443863, 0.04142789542675018, -0.11048216372728348, 0.08885931223630905, -0.03911178931593895, -0.06652960926294327, 0.10725025832653046, -0.09545327723026276, 0.02806094102561474], [0.02456853538751602, 0.010408940725028515, -0.0007294340757653117, -0.0033009774051606655, -0.039946168661117554, -0.11791824549436569, -0.06727565079927444, -0.042258452624082565, 0.025627974420785904, -0.009301736950874329, -0.044573765248060226, -0.022902125492691994, -0.0416637547314167, -0.1292056143283844, -0.10435237735509872, 0.031072240322828293, -0.03194573521614075, 0.10006397217512131, 0.17340072989463806, 0.016464604064822197, 0.05738497152924538, 0.11356424540281296, 0.027788186445832253, 0.03648168593645096], [-0.18661798536777496, -0.3194372355937958, -0.01607702672481537, 0.04469719156622887, -0.21205946803092957, -0.3689841032028198, 0.1878027617931366, 0.4079945385456085, 0.13558721542358398, 0.0020255574490875006, -0.02570745348930359, 0.009835468605160713, 0.21266315877437592, 0.16539867222309113, 0.18226364254951477, -0.21795248985290527, 0.18398849666118622, -0.2204131782054901, -0.38592153787612915, -0.16700340807437897, -0.31266286969184875, 0.14338834583759308, 0.2329644411802292, -0.19355596601963043], [0.033819835633039474, -0.014116495847702026, 0.012783817015588284, -0.024790672585368156, -0.07120952755212784, -0.027997154742479324, 0.12993301451206207, 0.008498400449752808, 0.041261784732341766, 0.1270730048418045, 0.017390677705407143, -0.027252666652202606, 0.015928402543067932, 0.13681790232658386, -0.0585518479347229, 0.0045839338563382626, 0.011556713841855526, -0.14498163759708405, -0.03328839689493179, -0.08853732794523239, -0.054135505110025406, 0.16088908910751343, -0.05871318280696869, 0.06862464547157288], [0.1177549734711647, 0.10535860061645508, 0.013234861195087433, 0.036734286695718765, 0.14366145431995392, 0.21077343821525574, -0.12978623807430267, -0.11004886031150818, -0.02163291722536087, 0.004833913873881102, 0.10651413351297379, 0.07158645242452621, -0.1447000950574875, -0.045227959752082825, 0.0317329466342926, 0.06133011728525162, 0.04414138197898865, 0.07816668599843979, 0.008043776266276836, 0.05336657166481018, -0.12030737847089767, -0.1211443766951561, -0.04071575403213501, -0.006325500085949898], [0.05797906965017319, 0.083441361784935, -0.005850221961736679, -0.02964654564857483, 0.11298419535160065, 0.11336539685726166, -0.07471144944429398, -0.06883367896080017, -0.0754421055316925, -0.0027914729434996843, 0.1869855523109436, -0.05316049978137016, -0.07727540284395218, -0.033809006214141846, 0.053486939519643784, 0.05143454298377037, -0.09048692137002945, 0.09808430820703506, -0.05596562474966049, -0.027725031599402428, -0.1887287050485611, -0.11143519729375839, 0.13323292136192322, -0.01739400066435337], [0.0024489553179591894, -0.05292728543281555, -0.11739189922809601, -0.11689157783985138, -0.03337809816002846, 0.0566837303340435, 0.0704098641872406, 0.05273319035768509, 0.07275522500276566, 0.09547271579504013, 0.13550330698490143, 0.03553250804543495, -0.010685496032238007, 0.08407102525234222, 0.023876499384641647, -0.034915704280138016, 0.09597748517990112, -0.08547098934650421, 0.09934934973716736, -0.0074845110066235065, 0.001401199260726571, 0.04225359857082367, 0.07201660424470901, 0.0515470989048481], [0.058804821223020554, 0.16255125403404236, 0.16007350385189056, -0.19213011860847473, -0.147127166390419, -0.07208579778671265, 0.10250207036733627, 0.21814078092575073, -0.04164297133684158, -0.028364399448037148, 0.1782323122024536, 0.0557163804769516, 0.008212427608668804, 0.04219115152955055, -0.09545255452394485, -0.0570712648332119, 0.17215599119663239, -0.03322339057922363, 0.697162926197052, 0.18452170491218567, -0.14715439081192017, 0.01534363254904747, 0.4046303331851959, -0.01175661664456129], [0.03726811334490776, -0.08896773308515549, 0.10572437942028046, -0.12880554795265198, -0.40374234318733215, -0.024379393085837364, 0.6418593525886536, 0.024113446474075317, 0.13399533927440643, 0.4765136241912842, 0.2210340052843094, -0.07428042590618134, -0.04409163445234299, 0.44081494212150574, -0.14313535392284393, -0.021664883941411972, 0.06318143010139465, -0.5679901242256165, -0.11591485142707825, -0.14976520836353302, 0.0033048298209905624, 0.3256511092185974, -0.08971331268548965, 0.34680017828941345], [-0.10824012011289597, -0.034755557775497437, -0.21046774089336395, 0.17270395159721375, 0.07707955688238144, 0.23324693739414215, 0.12469085305929184, -0.05756207928061485, 0.007151396945118904, 0.12407355010509491, -0.10033832490444183, 0.004760504234582186, 0.05334298685193062, 0.1648145169019699, 0.16273654997348785, -0.18026573956012726, 0.07116126269102097, -0.12273178994655609, 0.060739390552043915, -0.0954597219824791, -0.15705345571041107, 0.0632057711482048, -0.06357728689908981, -0.0066488380543887615], [0.0009961581090465188, 0.06809740513563156, 0.07488930970430374, 0.17470990121364594, -0.14159800112247467, 0.005917323753237724, 0.19938893616199493, -0.026010489091277122, 0.017685431987047195, 0.20741350948810577, -0.07736419141292572, -0.06863458454608917, -0.003222714178264141, 0.1312502771615982, -0.03411607816815376, -0.07232265174388885, 0.017187535762786865, -0.17173586785793304, 0.051145657896995544, -0.04095885157585144, 0.008568818680942059, 0.15019966661930084, -0.06539242714643478, 0.07832641899585724], [0.08507464081048965, -0.041821036487817764, 0.05922527238726616, -0.08748173713684082, -0.05887226760387421, 0.10779227316379547, 0.08038249611854553, 0.07268578559160233, 0.06930259615182877, 0.12847891449928284, 0.0897836685180664, 0.07067365944385529, -0.14108772575855255, 0.11772172898054123, -0.042844485491514206, -0.017217865213751793, 0.024273782968521118, -0.08309783041477203, 0.1754995733499527, -0.07616302371025085, -0.27359738945961, 0.029840728268027306, 0.017901865765452385, 0.03811311349272728], [0.05934135243296623, -0.00619625486433506, -0.0043807984329760075, -0.11569992452859879, 0.010295446962118149, 0.03710487484931946, 0.019928108900785446, -0.06185007095336914, -0.02781420201063156, 0.045792605727910995, -0.00692796939983964, 0.034833356738090515, 0.01156929973512888, 0.051178112626075745, -0.04561648145318031, 0.0004334373224992305, -0.051416728645563126, -0.04212343692779541, 0.020452799275517464, 0.0055470592342317104, 0.04376610741019249, 0.03907773271203041, 0.06545357406139374, 0.07156213372945786], [0.02081438899040222, 0.15472467243671417, 0.08715430647134781, -0.05695613846182823, -0.2617872655391693, 0.10386773943901062, 0.2191849946975708, -0.21479709446430206, -0.09377826750278473, -0.0005666679935529828, 0.018837617710232735, -0.1882525235414505, -0.06771312654018402, -0.010697881691157818, 0.030693233013153076, -0.05688547343015671, -0.09852569550275803, -0.13245251774787903, -0.1274721324443817, -0.029320167377591133, 0.04879816249012947, 0.07333514839410782, -0.0378476046025753, 0.13920368254184723], [-0.06537578254938126, -0.03733554482460022, -0.10423033684492111, -0.3538282513618469, -0.14089758694171906, 0.07759180665016174, 0.1228029802441597, 0.10545161366462708, 0.04803953692317009, 0.11308541893959045, 0.3616091310977936, 0.07109618186950684, 0.08296092599630356, 0.08083802461624146, -0.015483603812754154, 0.0979008749127388, 0.11018470674753189, -0.08962571620941162, 0.1553070843219757, -0.042660754173994064, -0.07361721247434616, 0.06306037306785583, -0.16161254048347473, 0.07043296098709106], [0.035707853734493256, -0.039145372807979584, -0.05895289033651352, -0.33735740184783936, 0.06746836006641388, 0.08762193471193314, -0.08658600598573685, 0.08758879452943802, -0.0016560702351853251, -0.0737004205584526, 0.009850308299064636, 0.05017119646072388, -0.0418972373008728, -0.04901839420199394, -0.04132138565182686, 0.04264065623283386, -0.020908640697598457, 0.08113669604063034, 0.1524609923362732, 0.05090770497918129, -0.011801982298493385, -0.11631916463375092, 0.04148915782570839, 0.031706325709819794], [0.1977614015340805, 0.10462407767772675, 0.06650788336992264, -0.08439012616872787, 0.1079561859369278, -0.027646386995911598, 0.05316824093461037, -0.12114257365465164, 0.03247853368520737, 0.12054488807916641, 0.07332276552915573, 0.012706151232123375, -0.08745676279067993, 0.12947092950344086, -0.24247872829437256, 0.15250732004642487, -0.06641434878110886, -0.08153733611106873, -0.0497087724506855, 0.023724321275949478, 0.019063061103224754, 0.060422688722610474, -0.10342720150947571, 0.22818315029144287], [-0.02087441273033619, 0.0029981303960084915, 0.030095349997282028, -0.04111100733280182, -0.014044960029423237, 0.021930145099759102, 0.1677274852991104, 0.034395765513181686, 0.029680250212550163, 0.09531794488430023, -0.010500536300241947, 0.006853652652353048, 0.03611504286527634, 0.163014218211174, 0.02279059588909149, -0.050871510058641434, 0.026172228157520294, -0.14750507473945618, 0.013562795706093311, -0.05370216444134712, -0.12057723850011826, 0.16647280752658844, -0.04191567376255989, 0.0570373497903347], [-0.18714505434036255, -0.06620457023382187, -0.10805460810661316, 0.005496270954608917, -0.7106565833091736, 0.3114708960056305, 0.8661170601844788, 0.10970085114240646, 0.15211419761180878, 0.9563654065132141, 0.34450918436050415, 0.0979481115937233, -0.33312225341796875, 0.5548914670944214, 0.09544157981872559, -0.047022875398397446, -0.038018599152565, -0.7539961338043213, -0.060903631150722504, -0.369537353515625, -0.023849090561270714, 0.41964495182037354, -0.3530850410461426, 0.4543622136116028], [-0.04600602388381958, 0.03302038088440895, -0.11193203181028366, 0.14272992312908173, -0.07951903343200684, 0.03429568558931351, 0.0641012117266655, -0.019872721284627914, -0.057416319847106934, 0.038681186735630035, 0.032588083297014236, -0.03231390193104744, -0.07121635228395462, 0.031771861016750336, -0.026532137766480446, 0.12381242960691452, -0.01633608713746071, -0.061402998864650726, -0.026988372206687927, -0.1494557112455368, -0.05427221208810806, 0.003792670788243413, -0.08164727687835693, -0.009755133651196957], [-0.029318921267986298, -0.035603802651166916, -0.07561395317316055, -0.007754286751151085, -0.04164754971861839, 0.13888856768608093, 0.05918009951710701, -0.020399335771799088, 0.06747287511825562, -0.018117278814315796, -0.03338877484202385, 0.01666891761124134, -0.05095958337187767, 0.05485547333955765, -0.006088190246373415, -0.013861309736967087, 0.038548801094293594, -0.04741354286670685, 0.06493618339300156, -0.05816148594021797, -0.09322395920753479, 0.028255362063646317, -0.00861919205635786, -0.027147987857460976], [-0.027610840275883675, -0.03559870272874832, -0.0035846438258886337, -0.04430416598916054, -0.09976080060005188, 0.034367263317108154, 0.19215191900730133, 0.020963937044143677, 0.03159783408045769, 0.1293613612651825, 0.03130931407213211, 0.010970988310873508, 0.0229216106235981, 0.17760561406612396, -0.0016002599149942398, -0.05528922751545906, 0.01228474359959364, -0.18424277007579803, -0.09042807668447495, -0.08861418068408966, -0.13280047476291656, 0.1251058429479599, 0.039643287658691406, 0.004300529137253761], [-0.05654492229223251, -0.06769311428070068, 0.04268534481525421, -0.07359495759010315, -0.20216688513755798, -0.07458411902189255, 0.2447870671749115, 0.1151781752705574, -0.0007688303594477475, 0.08530081063508987, -0.012276868335902691, -0.050515905022621155, 0.12905895709991455, 0.21169787645339966, -0.09780406206846237, -0.09081300348043442, -0.028463732451200485, -0.21447689831256866, -0.15339702367782593, -0.09662563353776932, 0.01981578953564167, 0.2293260097503662, 0.019916875287890434, 0.09686083346605301], [0.12867023050785065, -0.12658707797527313, 0.09844500571489334, -0.12527115643024445, -0.2695949971675873, -0.05262821540236473, 0.4207918643951416, -0.21056579053401947, 0.16525022685527802, 0.21035566926002502, 0.06628718227148056, -0.05188870057463646, -0.28254956007003784, 0.40604665875434875, -0.14110428094863892, -0.3289697468280792, 0.030628938227891922, -0.1507256180047989, 0.0685182735323906, 0.005017906427383423, -0.04777758568525314, 0.1628689169883728, 0.11308841407299042, 0.346821665763855], [0.05461572855710983, 0.033098556101322174, 0.08615557849407196, 0.03894452378153801, -0.04824308305978775, -0.00905518140643835, 0.08591892570257187, 0.022478586062788963, 0.08876924961805344, 0.07169673591852188, 0.03347739577293396, 0.08448754251003265, 0.00524787837639451, 0.08258411288261414, -0.033934757113456726, 0.01539794635027647, 0.10961481928825378, -0.08957270532846451, 0.1961025595664978, -0.04569380730390549, -0.05095742642879486, 0.07598048448562622, -0.04852915555238724, 0.0012121801264584064], [-0.004812383558601141, 0.006089400965720415, -0.08275637775659561, -0.04382811114192009, -0.11415564268827438, 0.10701701045036316, 0.30740049481391907, -0.0655418261885643, 0.0298326313495636, 0.24363747239112854, 0.1361442357301712, -0.026271183043718338, 0.038422826677560806, 0.2827843427658081, -0.11278872936964035, -0.0019560549408197403, -0.0350617840886116, -0.31188082695007324, -0.055004801601171494, -0.15226154029369354, 0.023753058165311813, 0.24060258269309998, -0.04642091318964958, 0.13894876837730408], [-0.03515264391899109, 0.02378123439848423, 0.14433909952640533, 0.01056019775569439, -0.04915039613842964, 0.04750065505504608, 0.042572490870952606, -0.0014769613044336438, 0.02927590161561966, 0.1723892092704773, -0.045152448117733, 0.016806766390800476, 0.13037467002868652, 0.06468884646892548, -0.00546050351113081, -0.014113040640950203, 0.022993560880422592, -0.05042212828993797, 0.1078249141573906, 0.04970793426036835, -0.23407970368862152, 0.1192707046866417, -0.13303154706954956, -0.03097936324775219], [0.07631094753742218, 0.03512510284781456, -0.00975382886826992, -0.06285560876131058, 0.030797356739640236, -0.009034245274960995, -0.03231724351644516, -0.03450651466846466, 0.043513085693120956, 0.04962781071662903, -0.11074842512607574, -0.008461905643343925, 0.04421690106391907, 0.04118812456727028, -0.05633934959769249, 0.07164210081100464, -0.009429319761693478, -0.03509601578116417, 0.018781602382659912, -0.02392083778977394, -0.038013309240341187, 0.07004892081022263, -0.14059384167194366, 0.061122793704271317], [-0.7728679180145264, 0.8153017163276672, -0.024293648079037666, 0.08320236951112747, 0.3114933669567108, -0.18374669551849365, -0.21986693143844604, -0.18647265434265137, 0.01250272523611784, -0.32052841782569885, -0.09868944436311722, -0.1886167973279953, -0.03440556675195694, 0.04664863646030426, -0.723582923412323, -0.08656206727027893, 0.16138458251953125, -0.17501378059387207, 0.07893487811088562, 0.030540592968463898, 0.0029306828510016203, -0.06927118450403214, 0.49871933460235596, 0.09039539843797684], [0.20585495233535767, -0.6329169869422913, 0.047773364931344986, -0.03433777391910553, 0.2705939710140228, 0.07086542248725891, 0.0985439121723175, -0.17038924992084503, -0.22858774662017822, -0.037793029099702835, -0.16123980283737183, -0.3564063608646393, -0.026588700711727142, -0.08193118870258331, -0.0721006989479065, 0.09295234084129333, -0.02531888522207737, -0.2920812964439392, 0.03073815070092678, 0.14543691277503967, 0.13892295956611633, -0.18499939143657684, -0.6583049297332764, 0.2802155613899231], [0.2311416119337082, 0.1404772698879242, 0.1017812117934227, 0.13179966807365417, -0.113075390458107, -0.09154552966356277, -0.006957684643566608, 0.057117853313684464, -0.1042134165763855, -0.012163718231022358, -0.11097616702318192, -0.08245499432086945, 0.09761149436235428, -0.08880622684955597, -0.1957881599664688, 0.17297306656837463, 0.14043280482292175, 0.041467051953077316, -0.10885166376829147, 0.1535015106201172, -0.09202998876571655, 0.1186906024813652, 0.07582589983940125, 0.1252797394990921], [-0.5576766729354858, 0.12069515138864517, -0.15696220099925995, 0.5221791863441467, -0.23913294076919556, 0.21471907198429108, 0.12225357443094254, 0.3507029116153717, -0.009648215025663376, 0.6023040413856506, -0.010240532457828522, 0.4088996350765228, 0.06381580233573914, 0.23668719828128815, 1.4888046979904175, -0.21955519914627075, -0.051351748406887054, -0.14429157972335815, 0.06822972744703293, -0.016993504017591476, 0.10288870334625244, -0.6722835302352905, 0.16417783498764038, -0.20361943542957306], [0.17790727317333221, -0.08714017271995544, -0.06525302678346634, 0.013017522171139717, 0.3476339280605316, -0.08598775416612625, -0.033291950821876526, -0.03771122917532921, 0.05097737908363342, -0.07769142091274261, -0.01838766224682331, 0.05275898054242134, -0.1887526512145996, 0.12150708585977554, 0.18648767471313477, 0.12188833206892014, -0.0691458210349083, 0.15565988421440125, 0.014913779683411121, -0.12337461858987808, -0.012886124663054943, 0.07369085401296616, -0.04806484282016754, 0.0264135729521513], [-0.15553945302963257, 0.2151051163673401, 0.03809088468551636, -0.11051438748836517, 0.18270209431648254, 0.20047041773796082, 0.0291881263256073, -0.4158821702003479, 0.045069120824337006, 0.05944730341434479, -0.004157545045018196, -0.12213406711816788, -0.2932640314102173, 0.07712533324956894, 0.4077373147010803, 0.07173339277505875, 0.0655076652765274, -0.0030601113103330135, 0.07524260133504868, -0.11229041963815689, -0.15176904201507568, -0.07364897429943085, 0.06401805579662323, -0.1254148781299591], [-0.03642020374536514, 0.07584556937217712, 0.1206979975104332, 0.09213649481534958, -0.1589016318321228, -0.051678791642189026, 0.06825938820838928, 0.05436338856816292, -0.06071127951145172, 0.05147654563188553, -0.10908611118793488, -0.12172441929578781, 0.05740111321210861, 0.1180197224020958, 0.003049274906516075, -0.10876426100730896, 0.006647390313446522, -0.07214618474245071, -0.01394643634557724, -0.033970579504966736, 0.07245343923568726, 0.09132768958806992, -0.03454719856381416, 0.05926091596484184], [-0.049915507435798645, -0.209739089012146, 0.3356274664402008, -0.11851104348897934, -0.6058254241943359, -0.08871302753686905, 0.16443344950675964, 0.09360919892787933, 0.11386930197477341, 0.19592371582984924, -0.0027295020408928394, 0.01700546033680439, -0.07512650638818741, 0.010594572871923447, 0.1480657160282135, 0.1377161145210266, -0.003958132117986679, -0.21459287405014038, 0.07430831342935562, 0.028665877878665924, -0.1583467423915863, 0.021250484511256218, -0.1480489820241928, 0.05307089537382126], [0.06884976476430893, -0.1540970802307129, 0.06258969008922577, -0.06765910983085632, -0.011198208667337894, 0.03941973298788071, -0.03217492625117302, -0.11460168659687042, -0.020150817930698395, -0.00459258072078228, 0.09187790751457214, 0.22278271615505219, 0.13703908026218414, 0.02351660653948784, 0.10829439014196396, -0.12960077822208405, 0.2667733132839203, -0.08488399535417557, -0.012952703982591629, 0.2136448621749878, 0.08795671910047531, -0.04595375061035156, 0.15328015387058258, -0.04011455550789833], [-0.2803223729133606, 0.06387744098901749, -0.10333968698978424, -0.09407214820384979, -0.22715237736701965, 0.2582850754261017, 5.211848474573344e-05, -0.27408692240715027, 0.041283149272203445, -0.08641524612903595, -0.11922872066497803, 0.027542436495423317, -0.17903341352939606, 0.10339733958244324, 0.5312848091125488, -0.07827822864055634, 0.18587788939476013, -0.17567123472690582, -0.029613325372338295, -0.029413852840662003, -0.054480891674757004, 0.10022112727165222, 0.11605165898799896, 0.13474944233894348], [0.34862563014030457, 0.07804015278816223, 0.06069963797926903, -1.0403519868850708, 0.06808910518884659, -0.016117198392748833, 0.07739181816577911, -0.19190652668476105, -0.001467906404286623, -0.16136908531188965, 0.4660440683364868, 0.06024935096502304, -0.2678315043449402, 0.09412894397974014, -0.5529653429985046, 0.19378380477428436, -0.0034414581023156643, 0.2255617082118988, 0.14665307104587555, -0.012245425954461098, 0.0050366888754069805, 0.18127833306789398, -0.016098003834486008, 0.21529008448123932], [-0.736052393913269, 0.11397496610879898, 0.02144475467503071, -0.34560105204582214, 0.2341780960559845, 0.03281528130173683, -0.05162451043725014, 0.0400271862745285, -0.01962408982217312, -0.1984739750623703, 0.23150168359279633, -0.44288748502731323, -0.009660689160227776, -0.03106151521205902, 0.1959332376718521, 0.10195597261190414, 0.21756549179553986, -0.480649471282959, -0.048776790499687195, 0.054413434118032455, 0.033361487090587616, -0.27584555745124817, -0.25680598616600037, 0.4033750891685486], [-0.09198940545320511, -0.07837561517953873, -0.14722955226898193, -0.06772944331169128, 0.28067833185195923, 0.1428796797990799, -0.008340643718838692, -0.13432198762893677, 0.09727466851472855, -0.2228063941001892, -0.08744106441736221, 0.07004129141569138, 0.1822984516620636, 0.012627918273210526, 0.05001963675022125, -0.09789606183767319, 0.08901549875736237, -0.04377802461385727, -0.08189758658409119, -0.3561853766441345, -0.05646781995892525, 0.15581317245960236, -0.014470728114247322, 0.07593119144439697], [-0.04686048626899719, 0.06846324354410172, 0.048874061554670334, -0.2249002456665039, 0.14679233729839325, 0.0506686307489872, 0.208384171128273, 0.046575114130973816, -0.04370792210102081, 0.06740088015794754, -0.04343992844223976, 0.05825364962220192, 0.03461582586169243, 0.10894950479269028, 0.10504522919654846, 0.006192709784954786, 0.032165542244911194, -0.12930136919021606, -0.03357823193073273, -0.013827458024024963, -0.13113580644130707, 0.055747296661138535, -0.06746672838926315, 0.07877516001462936], [0.046187106519937515, 0.10134310275316238, 0.03605587035417557, -0.2603602111339569, 0.17974543571472168, -0.1633480191230774, -0.09582455456256866, 0.027079615741968155, -0.0597756952047348, -0.05049717053771019, 0.1254976987838745, -0.1118818148970604, 0.0030187643133103848, 0.024787841364741325, 0.37570884823799133, 0.15194256603717804, -0.06718771904706955, 0.1255360096693039, 0.05425330996513367, -0.13102999329566956, 0.06483256071805954, 0.22394530475139618, 0.014501179568469524, -0.07757850736379623], [0.10093726217746735, 0.18342500925064087, 0.11071790754795074, -0.01465141586959362, -0.116904616355896, -0.1719592958688736, -0.2177533507347107, -0.27120864391326904, 0.2325747013092041, 0.058874063193798065, 0.23956191539764404, 0.24706286191940308, -0.17493565380573273, 0.21230868995189667, -0.49285367131233215, -0.1667042374610901, -0.17684218287467957, 0.27335628867149353, 0.10146912932395935, -0.7410885095596313, -0.10379090160131454, 0.11770641058683395, -0.18103325366973877, -0.24411624670028687], [0.017875181511044502, -0.019517408683896065, -0.0629272311925888, 0.06969965249300003, -0.1955491006374359, -0.12564940750598907, -0.10456673800945282, 0.14838075637817383, 0.08683062344789505, 0.021419348195195198, 0.30867937207221985, 0.14623385667800903, 0.07641202211380005, -0.05936843901872635, 0.21342401206493378, -0.11206959933042526, 0.09409894049167633, 0.12071416527032852, 0.11163731664419174, 0.1155279353260994, -0.05112381651997566, -0.13808099925518036, -0.2697831690311432, -0.1418086737394333], [0.015522436238825321, 0.01725269854068756, -0.001503707841038704, 0.1380663365125656, 0.04875561222434044, -0.07416531443595886, -0.1407570093870163, 0.008495433256030083, -0.026530252769589424, -0.03816714137792587, -0.1415667086839676, -0.06244538724422455, 0.02163689397275448, -0.14013923704624176, 0.012653343379497528, 0.020117467269301414, -0.02046215534210205, 0.12167858332395554, 0.1344481259584427, 0.04984888806939125, 0.20849257707595825, -0.0725378692150116, 0.047356829047203064, 0.0484115406870842], [-0.07510028779506683, 0.024365313351154327, -0.008726262487471104, -0.06163882836699486, -0.21235890686511993, 0.03469580039381981, 0.07903888076543808, -0.04975757747888565, 0.029553284868597984, 0.1008652001619339, 0.028733866289258003, -0.23932890594005585, -0.11796047538518906, -0.1533793956041336, -0.11454462260007858, 0.06680064648389816, -0.007294303271919489, 0.12855565547943115, 0.15266121923923492, -0.062080156058073044, 0.009309115819633007, 0.020028483122587204, -0.04796673730015755, 0.06318212300539017], [-0.081216000020504, -0.3696156442165375, -0.1555488556623459, 0.018713541328907013, 0.062263552099466324, 0.10541145503520966, -0.0378781333565712, 0.29332810640335083, -0.16946756839752197, -0.12154227495193481, 0.04516670107841492, -0.31847286224365234, 0.15379977226257324, -0.00423892168328166, 0.2724260687828064, 0.4157019257545471, -0.1896313577890396, -0.07955886423587799, -0.030402669683098793, 0.33620473742485046, 0.1302652209997177, 0.03898025304079056, -0.38126733899116516, 0.13439026474952698], [-0.01228611171245575, -0.06784366816282272, 0.018730653449892998, -0.037045739591121674, 0.06297662854194641, -0.06888172775506973, -0.018955232575535774, 0.07349332422018051, 0.050153642892837524, 0.10898789763450623, 0.06715361028909683, -0.18397562205791473, -0.06457547843456268, -0.027851242572069168, -0.3558589518070221, 0.09989409893751144, -0.13323238492012024, 0.10756959021091461, -0.011990683153271675, 0.09433267265558243, 0.19820114970207214, 0.012188727036118507, -0.1379835158586502, 0.2775411307811737], [0.13170792162418365, 0.011477402411401272, 0.07875603437423706, 0.07546123117208481, -0.27400580048561096, -0.16565978527069092, 0.1484035849571228, 0.35651978850364685, -0.081052765250206, -0.030831241980195045, 0.003970468882471323, -0.027467887848615646, -0.04565902799367905, 0.09232302010059357, -0.1318020075559616, 0.3077133595943451, -0.03663104400038719, -0.10422215610742569, -0.033521100878715515, -0.17089617252349854, -0.029389584437012672, 0.33526334166526794, 0.022683067247271538, 0.0059058088809251785], [0.07604265213012695, 0.4234960675239563, 0.11220719665288925, -2.093007802963257, -0.016861075535416603, -0.17767027020454407, 0.1242578998208046, 0.09394935518503189, -0.15939073264598846, -0.4080159664154053, 1.1338320970535278, 0.1833036243915558, 0.10801924765110016, -0.1405087262392044, -0.3932379484176636, 0.5069008469581604, 0.02908818982541561, 0.034219205379486084, 0.1859869360923767, 0.1640925109386444, 0.21743620932102203, 0.16556839644908905, 0.43143168091773987, 0.5981248617172241], [0.4810212254524231, -0.05775696784257889, -0.0259707048535347, -0.03343522176146507, -0.2203010618686676, -0.0069725289940834045, 0.06723692268133163, -0.21939656138420105, 0.22120586037635803, 0.021366989240050316, 0.045053236186504364, -0.012912699952721596, -0.09778118133544922, -0.07826581597328186, -0.5161577463150024, -0.052387211471796036, -0.1298082023859024, 0.27313077449798584, 0.08602678775787354, 0.10436896979808807, -0.06840723752975464, 0.282979279756546, -0.16376623511314392, -0.19072313606739044], [0.01391587220132351, -0.010162443853914738, 0.0343746617436409, -0.04255969077348709, -0.14099201560020447, 0.006276122760027647, 0.26589182019233704, 0.0442732498049736, 0.04838763549923897, 0.2011425942182541, 0.06993211060762405, 0.01322559267282486, 0.00945032387971878, 0.2754651606082916, -0.09258969128131866, -0.004129566252231598, 0.04336337372660637, -0.2915416359901428, -0.06752666085958481, -0.1297151744365692, -0.0936230719089508, 0.25535348057746887, -0.04908158630132675, 0.1100803017616272], [0.09480928629636765, -0.13215233385562897, 0.04326419532299042, -0.055260658264160156, -0.043099600821733475, -0.03793799504637718, 0.1479697823524475, 0.025423165410757065, -0.020831942558288574, 0.08730901777744293, 0.42908892035484314, 0.0018391563789919019, 0.07245869934558868, 0.1737135648727417, -0.05594097822904587, 0.09210654348134995, 0.018203219398856163, -0.13402746617794037, -0.15527482330799103, -0.11884387582540512, -0.15569812059402466, 0.1447450965642929, 0.21747662127017975, 0.07462077587842941], [0.014016970992088318, -0.1115533858537674, -0.05905405804514885, -0.08275283128023148, -0.05279051512479782, 0.02573912777006626, 0.09840882569551468, 0.02920966036617756, 0.058199673891067505, 0.11361613869667053, 0.17979109287261963, -0.03380117937922478, 0.016379645094275475, 0.11248473078012466, -0.003359683323651552, -0.004129642620682716, 0.0691002905368805, -0.11401216685771942, 0.013570256531238556, -0.05045554041862488, -0.01389965508133173, 0.0759955495595932, 0.13647128641605377, 0.052468739449977875], [-0.17523513734340668, -0.16639471054077148, 0.07696093618869781, -0.0026668126229196787, -0.1941596120595932, -0.36174407601356506, 0.21735374629497528, 0.4109511077404022, 0.029272491112351418, 0.11562833935022354, 0.029677491635084152, 0.041332222521305084, 0.2003844529390335, 0.2275877594947815, 0.06544467806816101, -0.16653016209602356, 0.16047656536102295, -0.24715875089168549, -0.33539384603500366, -0.09248662739992142, -0.11873184144496918, 0.1894712746143341, 0.1760951578617096, -0.033048249781131744], [-0.1586509495973587, 0.09434963017702103, 0.015203407034277916, -0.18541103601455688, -0.19092296063899994, -0.04085518792271614, 0.18697819113731384, 0.03445611521601677, -0.030094828456640244, 0.19073687493801117, -0.013453502207994461, -0.04317505657672882, 0.06185199320316315, 0.17461872100830078, -0.02394707314670086, -0.09566634148359299, -0.04682769998908043, -0.2238033264875412, -0.049112625420093536, -0.13376910984516144, -0.11660343408584595, 0.13827039301395416, -0.004257780034095049, 0.04114317148923874], [-0.036686010658741, -0.07065863907337189, -0.06534911692142487, 0.07681165635585785, -0.03930291160941124, 0.12831228971481323, 0.21107347309589386, -0.02452613040804863, 0.029238035902380943, 0.18907183408737183, -0.01604793220758438, -0.07411325722932816, 0.04276518523693085, 0.20212793350219727, 0.005286875646561384, -0.1213354766368866, 0.03707507997751236, -0.1879737377166748, -0.0023119456600397825, -0.1035376787185669, -0.1241336464881897, 0.14206624031066895, 0.008620921522378922, 0.06276071071624756], [-0.03474272042512894, 0.11714949458837509, 0.007138983346521854, -0.0800958052277565, -0.23073093593120575, 0.04931676760315895, 0.3142048120498657, 0.021592412143945694, 0.06075841188430786, 0.28546956181526184, 0.05869687348604202, 0.012127871625125408, 0.0028768021147698164, 0.21877644956111908, -0.04398907348513603, -0.06690436601638794, 0.016411656513810158, -0.2230018675327301, -0.001259246957488358, -0.15231098234653473, -0.07816297560930252, 0.2544754147529602, -0.011172348633408546, 0.10501544177532196], [0.04338022321462631, 0.025588931515812874, 0.05710253119468689, 0.11315478384494781, -0.034442197531461716, 0.057056669145822525, 0.12658311426639557, 0.011885766871273518, 0.06184801086783409, 0.21966689825057983, 0.0873584970831871, 0.06300253421068192, -0.038490403443574905, 0.16064892709255219, -0.07097190618515015, 0.004135277587920427, -0.04571874812245369, -0.14939846098423004, -0.05165557563304901, -0.105896957218647, -0.18303492665290833, 0.12509016692638397, -0.11974494159221649, 0.025580624118447304], [0.013366923667490482, -0.016936998814344406, 0.025235768407583237, -0.05513543263077736, -0.040829867124557495, 0.006306935101747513, 0.11696867644786835, -0.05494888499379158, 0.037682875990867615, 0.11367902159690857, -0.08901053667068481, -0.023948626592755318, -0.001610169536434114, 0.14399847388267517, -0.07922937721014023, -0.02816617675125599, -0.007938840426504612, -0.14672279357910156, -0.010523137636482716, -0.046830613166093826, -0.019358566030859947, 0.1391097903251648, -0.04614781215786934, 0.07155352830886841], [-0.1019284799695015, 0.013940255157649517, 0.032116882503032684, -0.19726407527923584, -0.18035882711410522, 0.08041439950466156, 0.2620392441749573, 0.004932973068207502, 0.0770457535982132, 0.25690725445747375, 0.2950400114059448, -0.004838003311306238, 0.003668656339868903, 0.22958174347877502, -0.01390824094414711, -0.04539388418197632, 0.023983396589756012, -0.2720903158187866, -0.07135580480098724, -0.09740784764289856, -0.11885790526866913, 0.1948801726102829, 0.18119750916957855, 0.05179896578192711], [-0.0392417348921299, -0.037440165877342224, 0.07490072399377823, -0.0014931188197806478, -0.1064557358622551, -0.13832026720046997, 0.189337357878685, 0.06893520802259445, 0.09963337332010269, 0.21189382672309875, 0.14107783138751984, -0.033850666135549545, 0.07513341307640076, 0.18193522095680237, -0.06156989559531212, -0.029955552890896797, 0.06540457159280777, -0.20833690464496613, -0.0671394020318985, -0.08653554320335388, -0.15253406763076782, 0.18811511993408203, -0.1660667210817337, 0.04413297772407532], [0.014033778570592403, -0.024055786430835724, 0.004495959263294935, -0.2010219693183899, -0.14115597307682037, 0.03022049553692341, 0.1998060792684555, 0.07219918817281723, 0.03930298984050751, 0.16239765286445618, 0.04223614186048508, 0.019083574414253235, -0.01351086888462305, 0.20186114311218262, -0.15719248354434967, 0.035669319331645966, 0.016858432441949844, -0.20906683802604675, 0.09378407150506973, -0.0851413905620575, -0.009188651107251644, 0.18968750536441803, -0.09196187555789948, 0.1274949312210083], [0.09815852344036102, 0.12978431582450867, 0.02547949180006981, 0.11437035351991653, -0.01097617857158184, 7.759479922242463e-05, 0.06657145917415619, -0.08412767201662064, 0.01961796171963215, 0.11952707916498184, 0.025731436908245087, -0.002973131136968732, -0.03939471021294594, 0.10536523163318634, -0.1988012045621872, 0.07733672857284546, -0.08068887144327164, -0.07661399990320206, -0.040876757353544235, -0.0191788412630558, 0.01180542353540659, 0.07462983578443527, -0.13177192211151123, 0.10876533389091492], [-0.039857830852270126, -0.08711807429790497, 0.021338235586881638, -0.08770578354597092, -0.10883080214262009, 0.021321618929505348, 0.2562081515789032, 0.0345243401825428, 0.03287030756473541, 0.1876988708972931, 0.051411792635917664, -0.019719157367944717, 0.014908199198544025, 0.2583470642566681, -0.01432497613132, -0.0704006627202034, 0.03897891566157341, -0.2536458671092987, -0.01836765930056572, -0.09345360845327377, -0.05825486779212952, 0.2526285648345947, 0.004639469087123871, 0.09711262583732605], [0.007928425446152687, -0.14147189259529114, -0.08141104876995087, 0.15101325511932373, 0.03498721122741699, 0.2508959174156189, 0.20720799267292023, -0.10895425826311111, 0.009228955954313278, 0.11342193186283112, 0.23800627887248993, -0.09404562413692474, -0.047723714262247086, 0.2737028896808624, -0.014600938186049461, 0.05815707519650459, 0.029766269028186798, -0.2663594186306, -0.16337347030639648, -0.3298647701740265, -0.08896587044000626, 0.14434649050235748, -0.16208188235759735, 0.11648061871528625], [-0.0037076391745358706, -0.014810202643275261, -0.012026313692331314, 0.08688830584287643, -0.12093529850244522, 0.012377718463540077, 0.19999434053897858, 0.006708616856485605, 0.035659898072481155, 0.13979166746139526, 0.08901059627532959, -0.015342224389314651, -0.02886168286204338, 0.1931617707014084, -0.0865008533000946, 0.036258306354284286, 0.04023304581642151, -0.20744919776916504, -0.022443247959017754, -0.11055874824523926, -0.06944701820611954, 0.16078753769397736, -0.010883900336921215, 0.04488355666399002], [-0.0001691101206233725, -0.011862050741910934, -0.016258452087640762, -0.01370448712259531, -0.04649315029382706, 0.03625921159982681, 0.11371803283691406, 0.034306079149246216, -0.0025353156961500645, 0.03666964918375015, -0.13805121183395386, -0.01918134093284607, 0.027924446389079094, 0.11799111217260361, -0.019829154014587402, -0.014632273465394974, 0.009502312168478966, -0.11139129847288132, -0.07197220623493195, -0.09473755955696106, -0.1335505247116089, 0.09611395746469498, -0.057897258549928665, 0.017376195639371872], [0.18296769261360168, -0.09929243475198746, -0.05985378101468086, 0.09741535037755966, -0.22109059989452362, 0.08661393076181412, 0.2944459021091461, 0.08943744748830795, -0.0464242659509182, 0.24381056427955627, 0.03070913814008236, 0.12927348911762238, 0.06381647288799286, 0.20039387047290802, 0.07555260509252548, -0.0278517697006464, 0.02590719237923622, -0.15578274428844452, -0.01345939189195633, -0.10932241380214691, 0.008296915329992771, 0.24794155359268188, -0.11279897391796112, 0.09944558888673782], [-0.05551080405712128, -0.001476298552006483, -0.003741335356608033, 0.06814783066511154, -0.1718352884054184, -0.015707775950431824, 0.20410403609275818, 0.1081114336848259, -0.03956230729818344, 0.11444877833127975, 0.050460074096918106, -0.006106849759817123, 0.08346153795719147, 0.15476225316524506, -0.0506305918097496, -0.038513071835041046, -0.030316313728690147, -0.16770094633102417, -0.03831004351377487, -0.11419698596000671, 0.09386444836854935, 0.18317146599292755, 0.032718487083911896, 0.10021652281284332], [-0.09691822528839111, -0.18290485441684723, 0.040576230734586716, -0.0355231799185276, -0.026882575824856758, 0.013743876479566097, 0.007968463934957981, 0.029810244217514992, 0.04858222231268883, 0.019366126507520676, -0.11945031583309174, 0.025110170245170593, -0.011328253895044327, 0.24222427606582642, 0.059494033455848694, -0.03516557812690735, 0.01742854341864586, -0.1613137125968933, -0.0667036846280098, -0.30949854850769043, -0.07401163130998611, 0.051903098821640015, 0.06881958246231079, 0.04386438429355621], [0.03143195062875748, -0.022631630301475525, 0.08045924454927444, 0.11649776995182037, -0.06677902489900589, -0.024638377130031586, 0.16310879588127136, 0.018535489216446877, 0.06105702370405197, 0.14465560019016266, -0.01946639083325863, -0.020616726949810982, -0.0031943977810442448, 0.17134298384189606, -0.0696452409029007, 0.001217746757902205, 0.07252354919910431, -0.1758924424648285, 0.027926797047257423, -0.08130582422018051, -0.1062002032995224, 0.15915417671203613, -0.04244784265756607, 0.03544682264328003], [-0.08644577115774155, 0.08679309487342834, -0.014249603264033794, 0.17829743027687073, 0.15724705159664154, -0.08124750107526779, 0.1758188158273697, -0.21544916927814484, 0.20524705946445465, 0.09101726114749908, -0.07940555363893509, -0.1529064178466797, 0.05424540489912033, 0.20300547778606415, -0.2516512870788574, -0.08327603340148926, 0.05616648122668266, -0.20185980200767517, -0.030173424631357193, -0.042578183114528656, -0.09534056484699249, 0.2545616030693054, 0.0026329325046390295, 0.08475097268819809], [-0.1980452537536621, -0.3080735504627228, 0.07195143401622772, 0.3770042955875397, -0.13429081439971924, -0.2764682471752167, 0.05036378279328346, 0.24004924297332764, 0.17885465919971466, 0.16090171039104462, -0.3738865256309509, -0.16315332055091858, 0.027743879705667496, 0.05177691578865051, 0.0480833500623703, -0.28199121356010437, 0.10254959017038345, -0.23476538062095642, -0.1348693072795868, -0.06429466605186462, -0.1850280612707138, 0.12175863981246948, -0.36608389019966125, -0.10952398926019669], [0.09693802893161774, 0.008097195997834206, -0.00012673423043452203, -0.061512432992458344, -0.09996108710765839, 0.008873102255165577, 0.1494555026292801, 0.007835205644369125, 0.023021109402179718, 0.17461059987545013, -0.005343039520084858, 0.003596002934500575, 0.005459674168378115, 0.14979122579097748, -0.0757443904876709, 0.024226179346442223, 0.01077802199870348, -0.13989195227622986, 0.05020255595445633, -0.09173882752656937, -0.024520082399249077, 0.17647182941436768, -0.09126944094896317, 0.09537077695131302]], "rec.bias_ih_l0": [0.33919137716293335, 0.27077963948249817, 0.07606250047683716, 0.2856837213039398, -0.7224777340888977, 0.13999387621879578, 0.12404574453830719, 0.11261598765850067, 0.1576535552740097, 0.2063135951757431, 0.24007979035377502, 0.24285493791103363, 0.0007107428391464055, 0.12258432060480118, -1.3368432521820068, 0.24158883094787598, 0.13968521356582642, 0.1294175535440445, 0.11811856925487518, -1.282289743423462, 0.14319993555545807, -0.20225471258163452, 0.19635890424251556, 0.2522740364074707, -0.12900522351264954, -0.16390028595924377, 0.11611097306013107, 0.12009897828102112, 1.0141369104385376, 0.16824933886528015, 0.2639370560646057, 0.15708200633525848, 0.05782479792833328, 0.2627390921115875, 0.1540086269378662, -0.10937415063381195, 0.1311206966638565, 0.20443154871463776, 1.234208583831787, 0.10686515271663666, 0.06963217258453369, 0.24247007071971893, 0.2831277549266815, 1.6976147890090942, 0.13521818816661835, 0.5870323777198792, 0.20720763504505157, 0.023407356813549995, -0.022901378571987152, 0.0024472863879054785, 0.04618457704782486, 0.09266489744186401, 0.0024570452515035868, 0.16739673912525177, 0.19574694335460663, -0.37669065594673157, 0.14152644574642181, 0.2010606825351715, 0.06293149292469025, -0.020031355321407318, 0.19411592185497284, 0.1995057314634323, 0.09573627263307571, -0.2339169830083847, 0.16441760957241058, -0.14178495109081268, -0.009078934788703918, 0.051910825073719025, -0.024121921509504318, -0.07418109476566315, -0.11268187314271927, 0.0009456535917706788, 0.358254611492157, 0.2350916862487793, 0.1383330076932907, 0.2965855598449707, 0.2848653793334961, 0.23628804087638855, 0.31277939677238464, 0.2079470157623291, 0.17838077247142792, 0.3221285343170166, 0.2894866168498993, 0.2733968198299408, 0.10265851020812988, 0.3133418560028076, 0.26241394877433777, 0.2737346887588501, 0.13823454082012177, 0.36185505986213684, 0.22396838665008545, 0.20274697244167328, 0.2167734056711197, 0.3025469481945038, 0.1760539710521698, 0.297518253326416], "rec.bias_hh_l0": [0.3391913175582886, 0.27063924074172974, 0.07603802531957626, 0.284958153963089, -0.6206546425819397, 0.14021587371826172, 0.07683733850717545, 0.11261510848999023, 0.15765485167503357, 0.20582126080989838, 0.23644700646400452, 0.24291980266571045, 0.001558144693262875, 0.12608647346496582, -1.161745548248291, 0.24158889055252075, 0.13968519866466522, 0.12929430603981018, 0.11811859905719757, -1.3816100358963013, 0.14319992065429688, -0.2008233368396759, 0.19632624089717865, 0.23262634873390198, -0.12900477647781372, -0.1644517332315445, 0.11615201830863953, 0.12074915319681168, 0.883607029914856, 0.16720972955226898, 0.29576611518859863, 0.15705345571041107, 0.057858582586050034, 0.09024204313755035, 0.14829976856708527, -0.10906858742237091, 0.13090428709983826, 0.20435698330402374, 1.190913438796997, 0.10680940002202988, 0.06963212043046951, 0.23452645540237427, 0.28312742710113525, 1.5412052869796753, 0.13521833717823029, 0.6126418709754944, 0.1625158190727234, 0.09063057601451874, 0.09084096550941467, -0.006621906999498606, -0.00737810879945755, 0.24130533635616302, -0.03909009322524071, 0.13466642796993256, 0.19674725830554962, -0.3954608142375946, 0.07627084106206894, 0.2775929570198059, 0.11002224683761597, -0.1388811618089676, -0.07037734240293503, 0.1500391662120819, -0.05086763575673103, -0.1483605057001114, 0.13054895401000977, -0.14144010841846466, -0.019953181967139244, -0.1525031477212906, -0.060364704579114914, -0.05356307700276375, -0.05638408660888672, 0.1437041014432907, 0.3582545518875122, 0.23513911664485931, 0.1383461207151413, 0.2973945438861847, 0.30966916680336, 0.23633337020874023, 0.25872865319252014, 0.20794713497161865, 0.17838484048843384, 0.378027081489563, 0.3063816726207733, 0.27338457107543945, 0.10359347611665726, 0.31394073367118835, 0.29489487409591675, 0.27373456954956055, 0.1382344514131546, 0.3492668867111206, 0.22396551072597504, 0.23862166702747345, 0.21677349507808685, 0.2829171121120453, 0.184726282954216, 0.2986487150192261], "lin.weight": [[0.4622310698032379, 0.4525418281555176, 0.24306273460388184, 0.03687550127506256, -0.16052547097206116, -0.12124329805374146, -0.13564549386501312, -0.37836775183677673, 0.3349108397960663, 0.2832493484020233, -0.08818510174751282, 0.8364371657371521, -0.2729073166847229, 0.16734261810779572, -0.4985488951206207, -0.7094283103942871, 0.1065150648355484, 0.33311307430267334, 0.07797461748123169, 0.4308360815048218, -0.19368156790733337, 0.15229766070842743, 0.5376275777816772, -0.44664451479911804]], "lin.bias": [0.1481100618839264]}}