{
  "in_shape": [
    null,
    2
  ],
  "layers": [
    {
      "type": "unknown",
      "activation": "",
      "shape": [
        [
          null,
          2
        ]
      ],
      "weights": []
    },
    {
      "type": "dense",
      "activation": "elu",
      "shape": [
        null,
        8
      ],
      "weights": [
        [
          [
            2.0032453536987305,
            -0.09849150478839874,
            1.3529694080352783,
            -0.28117114305496216,
            -1.2831077575683594,
            1.6350748538970947,
            1.4840004444122314,
            -1.3242353200912476
          ],
          [
            0.07647722959518433,
            0.748514711856842,
            0.04854985326528549,
            0.8746614456176758,
            0.5093371272087097,
            -0.23426276445388794,
            0.08541616052389145,
            -0.17553851008415222
          ]
        ],
        [
          0.1316509246826172,
          0.2503914535045624,
          0.13859465718269348,
          -0.19994182884693146,
          0.35792502760887146,
          0.5826164484024048,
          0.004011961165815592,
          0.13259969651699066
        ]
      ]
    },
    {
      "type": "dense",
      "activation": "elu",
      "shape": [
        null,
        8
      ],
      "weights": [
        [
          [
            0.49200573563575745,
            1.0296955108642578,
            0.9740942120552063,
            1.258033037185669,
            -0.6716387867927551,
            0.7576943635940552,
            0.0588725246489048,
            -1.6675368547439575
          ],
          [
            0.08269694447517395,
            -0.38567018508911133,
            0.4981597363948822,
            0.006222726311534643,
            0.9669876098632812,
            -0.03640257567167282,
            0.6208937168121338,
            0.69838947057724
          ],
          [
            1.254675269126892,
            0.4294969141483307,
            0.36330646276474,
            0.5207891464233398,
            0.10696979612112045,
            0.7853265404701233,
            -0.07550188899040222,
            -0.3265139162540436
          ],
          [
            0.42120465636253357,
            -0.09438877552747726,
            -0.15725326538085938,
            -0.06953872740268707,
            -0.0004753587127197534,
            -0.11056661605834961,
            0.8911572694778442,
            0.16796354949474335
          ],
          [
            -0.6612138748168945,
            -0.14595595002174377,
            -0.28787165880203247,
            -0.37536489963531494,
            0.4709930419921875,
            0.44488638639450073,
            0.327653706073761,
            0.6314459443092346
          ],
          [
            -0.002765202894806862,
            0.15517129004001617,
            -0.23693397641181946,
            -1.0915563106536865,
            -0.18441911041736603,
            -0.7216571569442749,
            -0.621515691280365,
            -0.5272332429885864
          ],
          [
            1.2296757698059082,
            1.6248929500579834,
            1.4940377473831177,
            0.8435178995132446,
            -1.0940442085266113,
            1.0576688051223755,
            0.7807821035385132,
            -0.5960274934768677
          ],
          [
            -0.25738421082496643,
            -0.34443631768226624,
            -0.3000473380088806,
            -0.19512970745563507,
            -0.7869406342506409,
            -0.6510961651802063,
            -1.498697280883789,
            -0.09979214519262314
          ]
        ],
        [
          0.013165115378797054,
          -0.40601181983947754,
          0.3801351487636566,
          0.08838245272636414,
          0.2995629906654358,
          0.4174123704433441,
          0.11197461187839508,
          0.240878164768219
        ]
      ]
    },
    {
      "type": "dense",
      "activation": "elu",
      "shape": [
        null,
        8
      ],
      "weights": [
        [
          [
            -0.9501746296882629,
            0.4110284149646759,
            0.7340861558914185,
            -0.13079382479190826,
            0.7719106078147888,
            -1.1114511489868164,
            -0.8610587120056152,
            0.7951880693435669
          ],
          [
            -0.978460431098938,
            0.5407196283340454,
            0.29428744316101074,
            -0.22889430820941925,
            0.04611729830503464,
            0.1837482750415802,
            0.11646492779254913,
            2.0363399982452393
          ],
          [
            -1.439934253692627,
            -0.12274046987295151,
            1.3489069938659668,
            -0.023538412526249886,
            -0.07164054363965988,
            -0.33001235127449036,
            -0.40637606382369995,
            0.30724892020225525
          ],
          [
            -0.361660361289978,
            0.24241909384727478,
            0.6194448471069336,
            0.5622841119766235,
            -0.18784402310848236,
            -0.4223794937133789,
            0.03328390046954155,
            -1.9623695611953735
          ],
          [
            -0.4498418867588043,
            0.030143240466713905,
            -0.3914959132671356,
            0.7817056775093079,
            0.3326578140258789,
            0.9071831107139587,
            0.7294141054153442,
            0.019736088812351227
          ],
          [
            0.31673315167427063,
            1.5387530326843262,
            0.5919180512428284,
            -0.37509584426879883,
            0.03464075177907944,
            -0.08607480674982071,
            -0.31609803438186646,
            0.28317996859550476
          ],
          [
            -0.03215647116303444,
            0.23183366656303406,
            0.38928186893463135,
            -0.17177556455135345,
            0.9656980037689209,
            0.7555763721466064,
            0.96567702293396,
            0.33067333698272705
          ],
          [
            0.24057604372501373,
            -0.2503906786441803,
            -0.31029409170150757,
            -0.1747090220451355,
            0.40817585587501526,
            0.8247946500778198,
            -0.0018448650371283293,
            -0.4976499378681183
          ]
        ],
        [
          0.9487245082855225,
          0.3599870800971985,
          0.1468234658241272,
          0.35691046714782715,
          0.07927698642015457,
          0.35750168561935425,
          0.30273380875587463,
          0.03369475156068802
        ]
      ]
    },
    {
      "type": "dense",
      "activation": "elu",
      "shape": [
        null,
        8
      ],
      "weights": [
        [
          [
            -0.3515741229057312,
            -2.2154550552368164,
            -0.4429415762424469,
            1.0682224035263062,
            -0.24784646928310394,
            -0.6791681051254272,
            0.22971177101135254,
            -1.4718111753463745
          ],
          [
            0.17169782519340515,
            -0.13410326838493347,
            -1.4761148691177368,
            0.22870203852653503,
            -0.3873671591281891,
            0.753402829170227,
            -1.4196985960006714,
            -1.0624992847442627
          ],
          [
            -0.8002694845199585,
            -0.31493109464645386,
            -1.7640880346298218,
            0.40873080492019653,
            -0.560387909412384,
            -1.2857329845428467,
            -0.16525258123874664,
            -0.8959223628044128
          ],
          [
            -0.1116005927324295,
            0.11669258028268814,
            -0.2064126431941986,
            0.4363263249397278,
            0.10228894650936127,
            0.23081162571907043,
            0.39526399970054626,
            0.7307451367378235
          ],
          [
            0.9823508262634277,
            0.32750463485717773,
            0.27915143966674805,
            -0.5721344947814941,
            -0.09392111003398895,
            -0.1554831713438034,
            0.3313707411289215,
            0.04870513454079628
          ],
          [
            0.8217285871505737,
            -0.16805538535118103,
            0.6185880303382874,
            0.23357410728931427,
            0.6912526488304138,
            -0.079037606716156,
            -0.11171820759773254,
            0.5374484658241272
          ],
          [
            0.8261367082595825,
            1.1641584634780884,
            0.6642006039619446,
            0.24163025617599487,
            0.2898769676685333,
            -0.043079979717731476,
            -0.1753316968679428,
            0.2592555284500122
          ],
          [
            0.7464784979820251,
            0.6935049295425415,
            -0.2431793212890625,
            -0.5229489207267761,
            0.9009464979171753,
            -1.541609525680542,
            0.46774694323539734,
            0.20820467174053192
          ]
        ],
        [
          0.3115353286266327,
          0.19968371093273163,
          0.11198298633098602,
          0.29080915451049805,
          0.2253401279449463,
          -0.01809934340417385,
          -0.2407531440258026,
          0.18841063976287842
        ]
      ]
    },
    {
      "type": "dense",
      "activation": "elu",
      "shape": [
        null,
        8
      ],
      "weights": [
        [
          [
            0.800467312335968,
            -0.3120541572570801,
            0.4829061031341553,
            -0.5155398845672607,
            -1.3063900470733643,
            -0.2603727877140045,
            -0.06854020059108734,
            -0.38118746876716614
          ],
          [
            0.47510337829589844,
            0.4880611300468445,
            0.8840028643608093,
            -0.09640353173017502,
            -0.06463593244552612,
            -0.08856958150863647,
            -0.08139858394861221,
            -0.9728794693946838
          ],
          [
            1.6007953882217407,
            -0.6702535152435303,
            0.5052375793457031,
            0.5700132250785828,
            -0.27500981092453003,
            0.43364882469177246,
            -0.02880483865737915,
            -0.22705116868019104
          ],
          [
            -0.4936896562576294,
            1.3089593648910522,
            -1.205427885055542,
            -0.4091957211494446,
            -1.0556997060775757,
            -1.7949352264404297,
            0.29548946022987366,
            -0.11035403609275818
          ],
          [
            0.5104631781578064,
            -0.49385395646095276,
            0.1495232880115509,
            0.30344370007514954,
            -1.0401288270950317,
            -0.4963371157646179,
            0.18725496530532837,
            -0.6557078957557678
          ],
          [
            -0.6030703186988831,
            0.3402642011642456,
            -0.48915407061576843,
            0.37207216024398804,
            -0.27204078435897827,
            -0.11739825457334518,
            -1.2266439199447632,
            0.25778689980506897
          ],
          [
            -0.35247278213500977,
            0.20779597759246826,
            -0.2450350821018219,
            0.6730226278305054,
            -0.6336948871612549,
            -0.12765945494174957,
            -0.09758222103118896,
            -0.2842318117618561
          ],
          [
            1.1470085382461548,
            0.7158176302909851,
            0.765690267086029,
            0.46110862493515015,
            -0.24325229227542877,
            -0.6091524362564087,
            0.040769435465335846,
            0.09019861370325089
          ]
        ],
        [
          0.373443067073822,
          -0.13366560637950897,
          0.21111463010311127,
          -0.05156237259507179,
          0.05691039562225342,
          -0.08157245069742203,
          0.3882357180118561,
          -0.11908064782619476
        ]
      ]
    },
    {
      "type": "dense",
      "activation": "",
      "shape": [
        null,
        2
      ],
      "weights": [
        [
          [
            -0.052789222449064255,
            1.3684821128845215
          ],
          [
            -0.46012982726097107,
            -0.5012641549110413
          ],
          [
            0.0489451102912426,
            1.1553947925567627
          ],
          [
            -0.47082823514938354,
            -1.477685570716858
          ],
          [
            -0.08739880472421646,
            -1.0095986127853394
          ],
          [
            0.6241611838340759,
            -0.6121514439582825
          ],
          [
            -0.21747757494449615,
            -2.1140756607055664
          ],
          [
            0.060817524790763855,
            -1.129210114479065
          ]
        ],
        [
          -0.0172961987555027,
          0.7634619474411011
        ]
      ]
    }
  ]
}
