{"model_data": {"model": "SimpleRNN", "input_size": 2, "skip": 1, "output_size": 1, "unit_type": "LSTM", "num_layers": 1, "hidden_size": 40, "bias_fl": true}, "state_dict": {"rec.weight_ih_l0": [[0.00892512034624815, -0.07342208921909332], [0.013303186744451523, 0.008260538801550865], [0.010992862284183502, 0.0523514449596405], [0.0010010353289544582, 0.07462085783481598], [-0.008530328050255775, 0.1723315417766571], [0.0005996923428028822, 0.16673129796981812], [-0.10039506107568741, -0.10834860056638718], [-0.003252254333347082, -0.008258778601884842], [-0.0002838461077772081, 0.009794339537620544], [-0.0001879227493191138, 0.008427247405052185], [-0.02310159243643284, 0.10640821605920792], [0.002065421547740698, -0.1042322963476181], [-0.018450669944286346, -0.42183858156204224], [-0.04330737143754959, -0.45479223132133484], [0.08981486409902573, 0.4086124002933502], [0.002486645942553878, 0.20729056000709534], [-0.08631257712841034, -0.2135392278432846], [0.002707359381020069, 0.16055886447429657], [0.019697578623890877, 0.05308627709746361], [0.01569131761789322, 0.0529499314725399], [-0.012601866386830807, -0.044294144958257675], [3.652925443020649e-05, 0.0007101756636984646], [-0.11705256253480911, -0.27812135219573975], [-0.01600995846092701, 0.10313799232244492], [-0.011339372955262661, 0.05144091695547104], [-0.010170144028961658, 0.02749476581811905], [0.03287599980831146, 0.0021481397561728954], [0.07858198136091232, -0.48041093349456787], [-0.06656504422426224, 0.07396534085273743], [-0.005797095596790314, -0.18589280545711517], [0.005338121205568314, 0.16328665614128113], [0.00031032608239911497, 0.1444339156150818], [0.018396560102701187, 0.17774277925491333], [-0.01686440408229828, 0.09692145884037018], [1.581324227117875e-07, -5.043137889515492e-07], [-0.035055503249168396, 0.0437815859913826], [0.03025105595588684, -0.07241061329841614], [0.03580646216869354, 0.0713229849934578], [1.967055851537225e-07, -1.2202702919239528e-06], [-0.0002655940188560635, 0.009585671126842499], [0.006847679615020752, 0.07194655388593674], [0.03891715034842491, 0.044743698090314865], [0.029697062447667122, 0.02010130137205124], [-0.0018621874041855335, 0.19156242907047272], [0.007125698961317539, 0.01301790401339531], [-0.007718987762928009, -0.10989382863044739], [-0.09229286760091782, 0.3546128273010254], [0.004977329634130001, 0.1908065229654312], [-0.0003784366708714515, 0.011758447624742985], [-0.00026190810604020953, 0.009984261356294155], [0.04734355956315994, 0.4893287718296051], [-0.01116233877837658, 0.3188087046146393], [0.03137622028589249, 0.49029621481895447], [0.08951208740472794, 0.27103105187416077], [0.012707808054983616, 0.23050327599048615], [0.03318113461136818, -0.013548548333346844], [0.009671361185610294, 0.2199164479970932], [-0.04967016726732254, -0.04123174399137497], [0.04043194651603699, 0.13206008076667786], [-0.021948745474219322, 0.1153944656252861], [-0.012057790532708168, 0.18449364602565765], [8.454023372905795e-06, 0.0007993128383532166], [0.01605314202606678, 0.46570318937301636], [-0.060913123190402985, 0.02745690383017063], [-0.03837454319000244, -0.06399278342723846], [-0.01992427557706833, 0.1166166365146637], [0.05657532438635826, 0.11884129047393799], [0.0009193918667733669, 0.6788418889045715], [-0.06282469630241394, 0.24696405231952667], [0.03511112555861473, 0.1591210514307022], [-0.05561931058764458, 0.3357754051685333], [0.0334944874048233, 0.0241618100553751], [0.026797639206051826, 0.06540410220623016], [-0.03368590772151947, 0.048446279019117355], [6.004871977438597e-08, 2.2236967822664155e-07], [-0.06476527452468872, -0.12922973930835724], [0.037619661539793015, 0.11498209089040756], [0.05146658048033714, 0.1191663146018982], [1.890689134143031e-07, -1.1135100521642016e-06], [-0.0003463401226326823, 0.011549110524356365], [-0.24906064569950104, -0.7021702527999878], [0.2425079494714737, 0.15166796743869781], [-0.06170785054564476, 0.08066505193710327], [0.16356706619262695, 0.051734331995248795], [-0.0705733373761177, 0.018364571034908295], [-1.7069801092147827, -0.08740043640136719], [-0.16670039296150208, 0.05245037004351616], [0.05470346659421921, 0.05808969587087631], [0.00024943985044956207, -0.02193927764892578], [-0.00037517340388149023, -0.020421667024493217], [-3.1453328132629395, 0.3068273067474365], [0.06283681839704514, 0.030589040368795395], [-0.04976940155029297, 0.056280843913555145], [0.22027283906936646, -0.003934663720428944], [-0.46046018600463867, -0.08169124275445938], [-1.1778491735458374, 0.12835222482681274], [-0.1185290738940239, 0.019452525302767754], [1.0835530757904053, -0.3713310658931732], [0.04105572775006294, 0.08492640405893326], [-0.18961986899375916, -0.04653870314359665], [-0.051798202097415924, -0.1047394722700119], [0.004430306144058704, 0.0019342771265655756], [0.04183753579854965, -0.23225408792495728], [-0.02383439429104328, -0.018838604912161827], [-0.16057628393173218, -0.05755173787474632], [-0.0186492707580328, -0.0032582408748567104], [0.02335776388645172, -0.14782194793224335], [0.18768472969532013, -0.2074986845254898], [0.49255678057670593, -0.37702232599258423], [-0.01955782249569893, -0.031223071739077568], [-0.24429120123386383, -0.4057975709438324], [0.30792003870010376, 0.4171181917190552], [0.13426221907138824, 0.026262279599905014], [0.0795866847038269, -0.6699336171150208], [0.00020453435718081892, 0.0001477119658375159], [0.05767221376299858, -0.24189023673534393], [0.12072203308343887, -0.005566088482737541], [0.1528540998697281, 0.16792769730091095], [-5.7685563660925254e-05, -7.818150334060192e-05], [-6.523927731905133e-05, 0.021340224891901016], [-0.03299197927117348, 0.015949731692671776], [0.009397969581186771, 0.08265954256057739], [0.047857608646154404, 0.01437070406973362], [0.016270872205495834, 0.1976298689842224], [-0.013086642138659954, 0.2207164317369461], [-0.0010507272090762854, 0.16975456476211548], [-0.07003528624773026, 0.15241678059101105], [0.01972712203860283, 0.16818419098854065], [0.00047815919970162213, 0.009873148053884506], [0.0004277325060684234, 0.008476476185023785], [-0.01681540533900261, 0.2308751493692398], [-0.026496848091483116, 0.23320455849170685], [0.029042495414614677, 0.2832757234573364], [0.028989644721150398, 0.13501720130443573], [0.04059445858001709, -0.15422457456588745], [-0.024982057511806488, 0.27571654319763184], [-0.004824392963200808, 0.0767584964632988], [0.025910532101988792, 0.1825137883424759], [0.04200102761387825, 0.2240234762430191], [0.00737020093947649, 0.14201617240905762], [-0.004518601112067699, 0.09290876239538193], [4.517418710747734e-05, 0.0007109628641046584], [0.0436021089553833, 0.17561282217502594], [-0.022751163691282272, 0.11921785026788712], [-0.07330907881259918, 0.0651535615324974], [-0.010042446665465832, 0.17182384431362152], [0.018814869225025177, 0.10116378217935562], [0.11584611237049103, -0.04734060913324356], [-0.041050367057323456, 0.20138224959373474], [-0.0009025501203723252, 0.12727540731430054], [0.004392290487885475, 0.1453786939382553], [0.02125844731926918, 0.14802975952625275], [0.03906384855508804, 0.1523040235042572], [0.023887837305665016, 0.07570253312587738], [1.6242151446022035e-07, -4.979664822712948e-07], [-0.001922336407005787, 0.11045683920383453], [0.022839395329356194, 0.015919039025902748], [0.03405201435089111, 0.1535019874572754], [1.9343430324170185e-07, -1.2226651051605586e-06], [0.0004921304062008858, 0.009647290222346783]], "rec.weight_hh_l0": [[-0.06153426691889763, 0.03712882474064827, 0.09611506760120392, -0.015901336446404457, 0.16205333173274994, 0.009080089628696442, -0.07240435481071472, -0.001435931771993637, -0.011035601608455181, -0.010101979598402977, -0.031150661408901215, 0.049844712018966675, -0.013443493284285069, 0.10007838159799576, -0.08720123767852783, 0.23830895125865936, 0.01291781198233366, 0.01944313943386078, -0.0924917608499527, 0.1219150498509407, 0.06109632924199104, 0.0015277134953066707, 0.04353281855583191, -0.07119811326265335, -0.02536485530436039, 0.0560699999332428, 0.019977349787950516, 0.22904959321022034, 0.07992887496948242, 0.029030509293079376, -0.10866693407297134, -0.17916373908519745, -0.13666707277297974, 0.245535209774971, -0.00012051811791025102, 0.020460424944758415, -0.04339585080742836, 0.055278487503528595, 2.782129195111338e-05, 0.011322000995278358], [-0.004542200360447168, -0.03932788223028183, 0.023938503116369247, -0.05093333125114441, -0.006783755961805582, 0.027485130354762077, -0.0008989090565592051, -0.030148904770612717, 0.005399629008024931, 0.0051139118149876595, -0.07536256313323975, -0.0683780238032341, 0.007038570940494537, 0.00040464638732373714, -0.039103224873542786, -0.09925849735736847, -0.0880672037601471, 0.1165505051612854, 0.029531067237257957, 0.06606855243444443, 0.03295927867293358, -0.0017293449491262436, 0.004854964092373848, 0.007253268733620644, -0.07167986780405045, -0.023487970232963562, -0.05565975606441498, 0.06639399379491806, -0.06792949885129929, -0.015071827918291092, -0.07279980927705765, 0.09618975222110748, -0.08614535629749298, -0.10178609937429428, -0.00012782766134478152, 0.004565269686281681, -0.03706978261470795, 0.03706103190779686, 7.302914309548214e-05, -0.005291330628097057], [0.036159489303827286, -0.04847584292292595, -0.008671174757182598, -0.06485825777053833, -0.0015954800182953477, 0.029765337705612183, -0.07462841272354126, -0.09425696730613708, -0.0022692696657031775, -0.0019489949336275458, 0.005405954550951719, -0.13088122010231018, 0.06727540493011475, -0.042491886764764786, 0.11638974398374557, -0.10240631550550461, -0.030399221926927567, -0.017785465344786644, 0.12614619731903076, -0.09585417807102203, -0.08689796179533005, 5.392390085035004e-05, -0.06016378477215767, 0.010164030827581882, 0.08048268407583237, -0.10010813921689987, 0.01627158932387829, -0.07428386807441711, -0.0407027006149292, 0.057569388300180435, 0.058434199541807175, 0.02404758706688881, 0.07165193557739258, -0.07913663983345032, 2.339200727874413e-05, 0.06950541585683823, 0.041582271456718445, -0.04713202267885208, 9.270984264730942e-06, 0.002220893744379282], [-0.015971170738339424, -0.04210556671023369, -0.019640741869807243, -0.06700203567743301, 0.017259150743484497, 0.018200553953647614, -0.0096503384411335, -0.1109006479382515, -0.004427419975399971, -0.003884988371282816, 0.011586510576307774, -0.1151382327079773, 0.07521877437829971, -0.006150818895548582, 0.00218542804941535, 0.0010062837973237038, -0.016367444768548012, -0.07235714793205261, 0.11633390933275223, -0.08628644794225693, -0.05256839096546173, -0.00023880365188233554, -0.06338001042604446, 0.01328380685299635, 0.012509755790233612, -0.0910385251045227, -0.008908470161259174, -0.04055036976933479, 0.006936025805771351, 0.001143743167631328, 0.031638965010643005, -0.012422211468219757, 0.07337769865989685, -0.05426313728094101, 2.8112483050790615e-05, 0.02529190294444561, 0.07853113114833832, 0.030443668365478516, -1.892396539915353e-05, 0.00413931580260396], [-0.08193343132734299, -0.06868347525596619, -0.03170670568943024, -0.16381655633449554, -0.04778345674276352, -0.005870842840522528, -0.007819710299372673, -0.14631293714046478, -0.005556545685976744, -0.004767559468746185, 0.021613268181681633, -0.17899063229560852, 0.15270642936229706, -0.1307179033756256, 0.036477230489254, -0.030415799468755722, -0.018672484904527664, -0.030726859346032143, 0.18939940631389618, -0.16400770843029022, -0.04102226719260216, -0.0006854612147435546, -0.13573101162910461, -0.04293639212846756, 0.0682060495018959, -0.17198966443538666, 0.09580102562904358, -0.17397591471672058, -0.08376721292734146, 0.07964388281106949, 0.05829011648893356, 0.11372590065002441, 0.04776006191968918, -0.2669498324394226, -4.27574705099687e-05, 0.12374385446310043, 0.07143430411815643, -0.08765542507171631, 1.2065054761478677e-05, 0.005486324429512024], [-0.06293167918920517, -0.07042272388935089, -0.1172163337469101, -0.23228925466537476, -0.10234420001506805, 0.009942308068275452, -0.0624951533973217, -0.23626579344272614, -0.007177814841270447, -0.0058815572410821915, 0.007099743001163006, -0.22892078757286072, 0.19969239830970764, -0.024363603442907333, -0.07619433104991913, -0.06558546423912048, 0.07859290391206741, -0.09659269452095032, 0.2615010142326355, -0.22399747371673584, -0.04014558345079422, -0.0005868368316441774, -0.15776893496513367, -0.004025002010166645, 0.10796099156141281, -0.250013530254364, 0.04518008232116699, -0.1735142469406128, -0.021534718573093414, 0.02523675002157688, 0.14234118163585663, 0.055375874042510986, 0.22053541243076324, -0.17069850862026215, 1.7290061805397272e-05, 0.11104752868413925, 0.029418202117085457, -0.02575448900461197, -8.151548172463663e-06, 0.007182208355516195], [0.25730615854263306, 0.014735069125890732, 0.09351219981908798, 0.31768280267715454, 0.13052578270435333, 0.1567162424325943, 0.20909732580184937, 0.2612794041633606, 0.0014645910123363137, 0.0010286452015861869, -0.0929662212729454, 0.3892861604690552, -0.30374518036842346, 0.11190356314182281, -0.026255806908011436, 0.2919410467147827, -0.03790406510233879, 0.07133395224809647, -0.14399275183677673, 0.2571401298046112, 0.0011333223665133119, 4.290396464057267e-05, 0.258836954832077, 0.1047147586941719, -0.10822747647762299, 0.31087613105773926, -0.08473332226276398, 0.20038646459579468, -0.0027648373506963253, 0.052084702998399734, 0.07671597599983215, -0.27660036087036133, -0.09681233763694763, 0.24941574037075043, -0.0001538178330520168, -0.09069866687059402, -0.014348750934004784, 0.1116476058959961, 0.00013134365144651383, -0.0015420977724716067], [0.019092340022325516, -0.0035079247318208218, 0.023102788254618645, 0.04155915603041649, 0.034374065697193146, 0.035939157009124756, 0.08508974313735962, -0.07022123038768768, -0.0033258390612900257, -0.0030432704370468855, 0.04005247727036476, 0.05063086748123169, -0.04616224393248558, 0.027616724371910095, 0.02870475873351097, 0.022075463086366653, -0.01543550007045269, 0.04179514944553375, -0.04542969539761543, 0.10890739411115646, 0.02908390574157238, 0.00014670596283394843, -0.057829469442367554, 0.05794334411621094, -0.07113566249608994, 0.05944179370999336, 0.031279150396585464, 0.07057180255651474, -0.02214900031685829, -0.018467718735337257, -0.02812657505273819, -0.026470879092812538, -0.03043895773589611, 0.1740240901708603, 3.3104683097917587e-05, 0.0008825203985907137, 0.010195594280958176, 0.10713502019643784, -1.5070410881889984e-05, 0.003114108694717288], [2.7665031666401774e-05, -0.003984245005995035, -0.0026100061368197203, -0.007670121733099222, 0.007882846519351006, -0.00374542991630733, 0.0010033599101006985, -0.0104957465082407, -0.0014915330102667212, -0.0013254281366243958, 0.0030928500927984715, -0.009994320571422577, 0.009644977748394012, -1.174707904283423e-05, 0.0033453144133090973, -0.0010946611873805523, 1.085609255824238e-05, -0.008243098855018616, 0.010736474767327309, -0.009156900458037853, -0.0038628065958619118, 0.00018962153990287334, -0.008532597683370113, 3.510861279210076e-05, 0.00395202124491334, -0.009211082011461258, 0.002372979884967208, -0.0067422157153487206, 0.005022576078772545, 0.0016185619169846177, 0.00396172609180212, -0.0008189613581635058, 0.0062871151603758335, -0.006812949199229479, 4.04725642511039e-06, 0.002410010900348425, 0.00043525215005502105, 0.0017231919337064028, 2.2940830604056828e-06, 0.0014788459520787], [0.0003297499206382781, -0.0037242663092911243, -0.002362597268074751, -0.006568732671439648, 0.0069019668735563755, -0.0033899385016411543, 0.000722532975487411, -0.00908488966524601, -0.0012806516606360674, -0.0011416022898629308, 0.002610347932204604, -0.008640855550765991, 0.00844833254814148, 0.0003993408172391355, 0.003085023257881403, -0.0014854979235678911, 2.5300081688328646e-05, -0.007579515688121319, 0.009396816603839397, -0.007900222204625607, -0.0031775785610079765, 0.00016709188639651984, -0.007313802372664213, 0.0001234897499671206, 0.003470460418611765, -0.008024785667657852, 0.001795803545974195, -0.005796290934085846, 0.004251102916896343, 0.0011708308011293411, 0.00331088132224977, -0.00048671563854441047, 0.0049099610187113285, -0.005835037212818861, 3.520402515277965e-06, 0.002330455696210265, -7.664200529688969e-05, 0.0016201072139665484, 2.719092890401953e-06, 0.0012678056955337524], [-0.4294835329055786, 0.5008675456047058, 0.05983474478125572, -0.14103442430496216, -0.08915767818689346, -0.21500930190086365, -0.6259884834289551, 0.20081761479377747, 0.007401980459690094, 0.006647468078881502, -0.032619815319776535, 0.02964469976723194, -0.10953366011381149, -0.08226160705089569, 0.04118627682328224, -0.055901166051626205, 0.07028491795063019, -6.404217856470495e-05, -0.024972235783934593, -0.46182045340538025, 0.14611686766147614, 0.001072613405995071, -0.026128746569156647, -0.427913099527359, 0.1319379359483719, -0.0971282422542572, 0.254825621843338, -0.7397909760475159, -0.8441063761711121, -0.1609673947095871, 0.09587381035089493, 0.05652426555752754, 0.04884275794029236, -0.14911769330501556, 0.00025091436691582203, 0.6068474054336548, 0.01719546504318714, -0.23882943391799927, -7.990307494765148e-05, -0.007364492863416672], [-0.1379174292087555, 0.09065239131450653, 0.2654859721660614, 0.4188278019428253, 0.2936658561229706, -0.019521398469805717, 0.2423703670501709, 0.07318010181188583, 0.0022525480017066, 0.0020810833666473627, 0.015369421802461147, -0.029842831194400787, -0.30419355630874634, -0.020677795633673668, -0.07534314692020416, 0.32180798053741455, -0.14655297994613647, 0.17874407768249512, -0.5133441090583801, 0.45621028542518616, -0.09521233290433884, -0.0008282852359116077, 0.21633896231651306, -0.014652279205620289, -0.39174842834472656, 0.45138078927993774, -0.11970092356204987, 0.3154565691947937, -0.015321853570640087, 0.12113916128873825, -0.33531758189201355, -0.013230741955339909, -0.2975721061229706, 0.19627559185028076, -3.175717938574962e-05, -0.21994076669216156, 0.23488079011440277, -0.04259081557393074, -2.1166164515307173e-05, -0.0032680623698979616], [0.17139564454555511, 0.15716202557086945, 0.056135885417461395, 0.5749083757400513, -0.052172619849443436, -0.059310317039489746, 0.2611083686351776, 0.12122703343629837, 0.005128389224410057, 0.0043486193753778934, -0.00771242193877697, 0.11333013325929642, -0.028899898752570152, 0.09212274849414825, 0.03781465068459511, -0.1020398959517479, -0.0017827663104981184, -0.09180226176977158, -0.5691528916358948, 0.5060290694236755, 0.11337872594594955, -0.001883979537524283, 0.22206035256385803, 0.0836019217967987, -0.09890738874673843, 0.40231144428253174, 0.12729322910308838, 0.39480385184288025, 0.031062301248311996, -0.14091236889362335, -0.08054802566766739, 0.14794814586639404, -0.15717841684818268, 0.1913290172815323, -0.00011929639003938064, 0.0389750599861145, 0.03767840191721916, -0.04783990606665611, -1.3491016034095082e-05, -0.005725771654397249], [0.02883942238986492, 0.23046325147151947, 0.01788259856402874, 0.27921825647354126, 0.10895339399576187, -0.029321692883968353, 0.16008935868740082, 0.3037354350090027, 0.004186650738120079, 0.003262573154643178, 0.16910570859909058, 0.33352217078208923, -0.1915527731180191, -0.381819486618042, -0.11551923304796219, 0.05088292434811592, -0.10038477927446365, -0.09170527756214142, -0.4335843324661255, 0.2262537181377411, 0.20903846621513367, 0.002504089381545782, 0.16558659076690674, 0.10965753346681595, 0.09274948388338089, 0.23072698712348938, -0.06971359252929688, 0.15430274605751038, 0.08356735110282898, -0.051484718918800354, -0.14486020803451538, 0.031272999942302704, -0.09144273400306702, 0.21764400601387024, 0.00013877546007279307, 0.025057895109057426, 0.04137376695871353, -0.11834044754505157, -7.810661918483675e-05, -0.0037520083133131266], [-0.5866776704788208, 0.05175669118762016, 0.1020331159234047, -0.3764553368091583, 0.028064090758562088, 0.14631474018096924, 0.008225638419389725, -0.17090162634849548, -0.0011565618915483356, 0.0004493683227337897, -0.1155484989285469, -0.2055399864912033, 0.14891935884952545, 0.04129525646567345, 0.1475794017314911, 0.27795588970184326, 0.36979061365127563, 0.5809434056282043, 0.17676742374897003, -0.13843049108982086, 0.020352935418486595, -0.0013445249060168862, -0.04888879507780075, -0.040255703032016754, -0.20359906554222107, -0.20263566076755524, -0.11893003433942795, -0.12236808985471725, -0.27733689546585083, -0.13674864172935486, -0.14057780802249908, 0.4094120264053345, 0.34408673644065857, -0.5021165013313293, 0.0002987862390000373, -0.048822056502103806, 0.14159123599529266, -0.018435094505548477, -0.00013750437938142568, 0.0019898880273103714], [-0.1124606654047966, -0.043252263218164444, -0.08229022473096848, -0.25336968898773193, -0.1288195550441742, -0.0011956376256421208, -0.061672110110521317, -0.2553066611289978, -0.010114826261997223, -0.008348791860044003, 0.0021052255760878325, -0.24504895508289337, 0.2074418067932129, -0.06093868985772133, -0.07655297219753265, -0.016306014731526375, 0.038395415991544724, -0.06278739869594574, 0.28369981050491333, -0.2514793574810028, -0.04803913086652756, -0.00037052552215754986, -0.1846923679113388, -0.029406724497675896, 0.1560627818107605, -0.27722999453544617, 0.08369676023721695, -0.2225354015827179, -0.09461063146591187, 0.03957748040556908, 0.15888677537441254, 0.04434124380350113, 0.2326134741306305, -0.23209843039512634, 1.2067853276676033e-05, 0.19248299300670624, 0.023234035819768906, -0.024043433368206024, 2.753260196186602e-05, 0.01012427732348442], [0.03454725816845894, 0.06395923346281052, 0.04430142790079117, 0.10818808525800705, 0.06313106417655945, 0.015276171267032623, 0.1264551877975464, 0.2158404141664505, 0.002931284485384822, 0.0024492903612554073, 0.05635396018624306, 0.33919233083724976, -0.1558174192905426, -0.08036036044359207, 0.2064843624830246, 0.041769854724407196, -0.1552095264196396, -0.03859290853142738, -0.2908068001270294, 0.007739686872810125, 0.4279690384864807, 0.0009053010726347566, 0.02272854559123516, 0.008844397030770779, -0.18924464285373688, 0.2832117974758148, -0.3608304560184479, 0.09537265449762344, -0.07833250612020493, -0.06792470067739487, -0.02914906106889248, -0.04053664579987526, -0.03982320427894592, -0.10266014188528061, 0.0001801624894142151, -0.051595304161310196, -0.029191359877586365, -0.1372542828321457, -5.97755606577266e-05, -0.0027605551294982433], [-0.07537007331848145, -0.04514428973197937, -0.07496888935565948, -0.22245776653289795, -0.09064195305109024, -0.018644893541932106, -0.08052058517932892, -0.22300851345062256, -0.0077391089871525764, -0.006324722897261381, -0.00409148633480072, -0.20162473618984222, 0.19933068752288818, -0.03519277274608612, -0.12485671788454056, -0.07493595778942108, 0.06393329054117203, -0.05569664388895035, 0.25114256143569946, -0.25902411341667175, -0.02915625087916851, -0.0003713192418217659, -0.16543203592300415, -0.04111343249678612, 0.11970000714063644, -0.250414103269577, 0.07004796713590622, -0.18402378261089325, -0.06327424198389053, 0.020249268040060997, 0.1631293147802353, 0.041518718004226685, 0.18663188815116882, -0.17585432529449463, 1.0882512469834182e-05, 0.15077738463878632, 0.025869011878967285, -0.044131457805633545, -1.7106252926168963e-05, 0.007807531394064426], [-0.008230344392359257, -0.012735405005514622, 0.0008203085162676871, -0.005971494596451521, -0.00275219464674592, -0.006493496708571911, 0.013037421740591526, -0.06904572248458862, -0.0034089258406311274, -0.0032035578042268753, -0.00807702261954546, -0.07744687050580978, 0.04180096089839935, 0.005937895737588406, 0.002211794024333358, -0.016709407791495323, 0.009556835517287254, 0.0014578712871298194, 0.08208812773227692, -0.033335063606500626, -0.04157264530658722, 7.656180969206616e-05, -0.04993706941604614, 0.021660104393959045, 0.025283876806497574, -0.04500003159046173, -0.032270800322294235, -0.0158932376652956, -0.007061842363327742, 0.02154696173965931, -0.0026927273720502853, 0.011891494505107403, 0.007258906029164791, -0.015224268659949303, 8.599471584602725e-06, 0.019414139911532402, 0.02627231366932392, 0.036177802830934525, 1.3959183888800908e-05, 0.0031238398514688015], [-0.02160074934363365, 0.02233988605439663, 0.004522082395851612, -0.0742073506116867, -0.07938302308320999, 0.012711144983768463, -0.04525323212146759, -0.07441181689500809, 0.00119890330825001, 0.0012835199013352394, -0.03080921806395054, -0.06616952270269394, 0.052666135132312775, -0.022723138332366943, -0.0852869376540184, -0.09083209931850433, 0.06634198874235153, 0.05402028188109398, 0.10898752510547638, 0.003051737556234002, -0.08454901725053787, -0.0015268237330019474, -0.06366192549467087, 0.0027198356110602617, -0.06080986559391022, -0.1154952421784401, 0.012447659857571125, -0.15589985251426697, -0.04201975837349892, 0.036763034760951996, -0.005798664875328541, -0.02998044155538082, 0.07182259857654572, -0.009378713555634022, -7.186019502114505e-05, 0.05275319144129753, 0.018494172021746635, 0.04098038375377655, -2.5693920179037377e-05, -0.0014315817970782518], [0.09181103855371475, 0.057858020067214966, -0.00964111927896738, 0.07598479837179184, 0.044233620166778564, 0.022556640207767487, 0.02853887528181076, 0.03595353290438652, -0.0040702419355511665, -0.003723942907527089, 0.014694937504827976, -0.014952021650969982, -0.04007459059357643, -0.19212272763252258, 0.06397227197885513, -0.026478033512830734, -0.07891722768545151, 0.02782377041876316, -0.044049445539712906, 0.09920045733451843, 0.06045735999941826, 0.0007645191508345306, 0.04039622098207474, 0.005244189873337746, -0.09932790696620941, 0.07411094009876251, 0.022584056481719017, 0.030603395774960518, 0.03732408955693245, -0.14751392602920532, -0.1428198516368866, -0.1131225973367691, -0.005460585467517376, 0.014950604178011417, 6.242288509383798e-05, -0.09090956300497055, 0.10576065629720688, -0.03316060081124306, 3.714987906278111e-05, 0.003998677711933851], [-0.00012346578296273947, -0.0003662611998151988, -0.0003205306129530072, -0.0008874072227627039, 0.00020791727001778781, -0.00019321868603583425, -0.0001931328297359869, -0.000980119570158422, -7.797867874614894e-05, -6.863380258437246e-05, 9.183803922496736e-05, -0.0008254387648776174, 0.0008475090144202113, 3.387225297046825e-05, 0.0002455167123116553, -0.00027668222901411355, 8.81556115928106e-05, -0.0004658084362745285, 0.001031079445965588, -0.00079580198507756, -0.00024321979435626417, 6.733469490427524e-06, -0.0007882649661041796, -7.619240932399407e-05, 0.00040269034798257053, -0.0009953596163541079, 0.0003247188578825444, -0.0007828579400666058, 0.00013616023352369666, 0.00017504938296042383, 0.0005842139944434166, 0.0003052515967283398, 0.0006813618238084018, -0.0006955942953936756, 2.669664489474144e-08, 0.0004864150832872838, -0.0001464222586946562, -0.0002131487854057923, 6.869884145999094e-07, 7.824887870810926e-05], [0.08345156908035278, 0.12375137954950333, -0.17601880431175232, 0.206171452999115, 0.2180558741092682, 0.24268683791160583, 0.4225369691848755, 0.2253333181142807, -0.0022632803302258253, -0.0030696257017552853, 0.2105189710855484, 0.1289403736591339, -0.24447908997535706, -0.009941386058926582, 0.07992998510599136, 0.22907301783561707, -0.011432414874434471, 0.02557753212749958, -0.45756295323371887, 0.2637394368648529, 0.10672266036272049, 0.0028663617558777332, -0.0818660706281662, 0.18517151474952698, 0.005137561354786158, 0.14526192843914032, -0.1390550285577774, 0.08832589536905289, -0.02717895433306694, 0.07691100239753723, 0.0015365745639428496, -0.19761964678764343, -0.061009731143713, 0.2946736514568329, 9.301242971559986e-05, -0.03881075978279114, -0.1062806248664856, 0.18217934668064117, -7.521059160353616e-05, 0.0013593462062999606], [-0.038931187242269516, -0.08040955662727356, -0.04392373189330101, -0.1443643718957901, 0.023240696638822556, 0.024358047172427177, -0.011447030119597912, -0.12073490768671036, -0.006933359429240227, -0.0060850149020552635, 0.006055805366486311, -0.12028756737709045, 0.11367681622505188, -0.01488676480948925, -0.06309989839792252, 0.014358466491103172, 0.07941578328609467, -0.04580292850732803, 0.12961554527282715, -0.09994874149560928, -0.03958685323596001, 0.00033612747211009264, -0.0854828879237175, 0.003036782843992114, 0.0433417372405529, -0.1316545158624649, 0.004738088231533766, -0.06365147978067398, 0.047423455864191055, 0.03360550478100777, 0.042054641991853714, 0.06410712003707886, 0.015748942270874977, -0.09214062988758087, -1.1505834663694259e-05, 0.0594962053000927, 0.04801444709300995, -0.01924845017492771, 2.298777508258354e-05, 0.006993908900767565], [0.012174446135759354, -0.01447329018265009, -0.07266370952129364, -0.11328402161598206, -0.12896010279655457, -0.0006268782890401781, -0.05699467286467552, -0.13241104781627655, -0.0002856009523384273, 9.378910908708349e-05, 0.0059965793043375015, -0.12886813282966614, 0.1211981326341629, -0.07061665505170822, -0.0833982601761818, -0.05374598130583763, 0.029183028265833855, -0.016335580497980118, 0.163541778922081, -0.14756225049495697, -0.03972363844513893, -0.0012198906624689698, -0.10272171348333359, -0.015925221145153046, 0.07487575709819794, -0.173318549990654, 0.12469881027936935, -0.13778433203697205, -0.08506069332361221, 0.05826738476753235, 0.14904648065567017, -0.05696878954768181, 0.11776800453662872, -0.0636216253042221, -1.7669362932792865e-05, 0.16862598061561584, 0.06030580773949623, -0.0383475087583065, 3.792910092670354e-06, 0.00023626425536349416], [-0.025404414162039757, -0.038653310388326645, 0.012943240813910961, -0.09631206095218658, 0.040757790207862854, -0.006713259033858776, 0.037296172231435776, -0.039697274565696716, -0.004782501608133316, -0.004179704934358597, 0.013257191516458988, -0.05226274952292442, 0.023768125101923943, 0.011660219170153141, -0.007779330480843782, 0.04223957285284996, 0.039372269064188004, 0.00019757916743401438, 0.022537067532539368, -0.04212444648146629, -0.022230718284845352, 0.000430970307206735, -0.02902972139418125, 0.02063378132879734, 0.001914326916448772, -0.03619109094142914, -0.025947270914912224, -0.01813644729554653, 0.013563343323767185, -0.005852628033608198, 0.03231734409928322, -0.0375022366642952, -0.004095773678272963, -0.0022538574412465096, 1.2307848010095768e-05, 0.026165124028921127, -0.006689161993563175, 0.015031256712973118, -1.8976938008563593e-05, 0.0050324429757893085], [-0.14017942547798157, 0.03471149504184723, 0.04602121561765671, 0.21222956478595734, -0.29952529072761536, 0.021799730136990547, 0.007365549448877573, 0.02661284990608692, 0.013385751284658909, 0.012452882714569569, -0.01098821684718132, 0.0393872931599617, -0.06478512287139893, 0.22374482452869415, -0.3849729895591736, 0.06907826662063599, -0.2074817419052124, 0.08514531701803207, -0.042850982397794724, 0.042500756680965424, -0.2379441261291504, -0.0032752961851656437, 0.0693960040807724, 0.03838403522968292, -0.03533002361655235, 0.09185690432786942, 0.024156251922249794, 0.04605185240507126, -0.06172856688499451, -0.010428717359900475, 0.07939565181732178, -0.020548773929476738, -0.09998331218957901, 0.01719096302986145, -0.00014112683129496872, 0.03643827885389328, 0.09787304699420929, 0.02514667436480522, 2.8981492505408823e-05, -0.013637272641062737], [0.054701004177331924, -0.024125829339027405, 0.040189988911151886, 0.2866891622543335, 0.1951340287923813, 0.022186651825904846, 0.3743419945240021, 0.022459376603364944, -0.010957323014736176, -0.010986870154738426, 0.21338722109794617, 0.07016120105981827, -0.1620517075061798, -0.1797139048576355, -0.10441509634256363, -0.05006936192512512, -0.03451274707913399, 0.24550358951091766, -0.06059117615222931, 0.4361158013343811, -0.029211051762104034, 0.004581133369356394, 0.07581443339586258, 0.10893398523330688, -0.16522379219532013, -0.03980979695916176, -0.06557697802782059, 0.3286336064338684, 0.019699322059750557, 0.09479176998138428, -0.22486768662929535, -0.07368817925453186, -0.17150191962718964, 0.2278817594051361, 0.00033224388607777655, -0.18328730762004852, 0.038940299302339554, -0.005661371164023876, -4.3967233068542555e-05, 0.01106050331145525], [-0.0032853735610842705, 0.053824715316295624, 0.045254457741975784, -0.008909808471798897, 0.021196158602833748, -0.004449417348951101, 0.052808672189712524, -0.0023243229370564222, -0.015124485827982426, -0.014010156504809856, 0.07030786573886871, -9.597196913091466e-05, -0.004703697748482227, -0.10555456578731537, 0.034086551517248154, 0.2969016432762146, 0.04131258651614189, -0.1937343180179596, 0.00028644868871197104, -0.13553982973098755, 0.087015800178051, 0.002152778673917055, 0.014860386028885841, -0.012780653312802315, 0.11186496913433075, -0.005578805226832628, -0.05342445150017738, -0.017000170424580574, -0.08846858143806458, -0.006761246360838413, 0.018766537308692932, -0.1568862795829773, -0.06542354077100754, -0.034136634320020676, 2.0938850866514258e-05, -0.03707457706332207, -0.07838290929794312, 0.1804199367761612, 4.441244891495444e-05, 0.014604531228542328], [0.04909500107169151, 0.08727565407752991, 0.3446038067340851, 0.09101180732250214, 0.03639104217290878, 0.05549892038106918, 0.06151050701737404, 0.18981322646141052, 0.005213704891502857, 0.004446092993021011, 0.071723572909832, 0.23926109075546265, -0.27496421337127686, 0.06261847913265228, 0.07975118607282639, 0.14038191735744476, -0.09884943813085556, 0.025396678596735, -0.33565253019332886, 0.25883668661117554, 0.11021208018064499, -0.000343622756190598, 0.06079502031207085, 0.08120234310626984, 0.08971737325191498, 0.24427112936973572, -0.014955117367208004, 0.1793007105588913, -0.007418472319841385, 0.03446400910615921, -0.17485985159873962, 0.0010910304263234138, -0.3463708162307739, 0.06755514442920685, -7.8567310993094e-05, -0.021963246166706085, 0.045883532613515854, 0.059960588812828064, 0.00017151745851151645, -0.005181920249015093], [-0.1162286028265953, -0.002815278945490718, -0.05539073795080185, -0.1370493471622467, -0.10961117595434189, 0.026775376871228218, -0.0038492949679493904, -0.16254615783691406, -0.006531180813908577, -0.005527833942323923, -0.010509971529245377, -0.15050466358661652, 0.13965128362178802, -0.03423557057976723, -0.12786872684955597, -0.058973025530576706, 0.052245162427425385, 0.014143464155495167, 0.17831958830356598, -0.1205141693353653, -0.06202499568462372, -0.0005301364581100643, -0.11241820454597473, 0.004228882025927305, 0.056437041610479355, -0.166596457362175, 0.029788926243782043, -0.1164676696062088, -0.02262144163250923, 0.020271189510822296, 0.06629452109336853, 0.053802840411663055, 0.09775220602750778, -0.12869544327259064, -6.701322854496539e-05, 0.012117431499063969, 0.0489385612308979, 0.028755078092217445, 7.528572496084962e-06, 0.006315626669675112], [-0.10491017997264862, -0.014248893596231937, -0.02439591847360134, -0.12466274201869965, -0.0994902104139328, 0.009545287117362022, -0.026108238846063614, -0.13140319287776947, -0.004147456027567387, -0.003293293761089444, -0.006102637387812138, -0.12918905913829803, 0.1252155303955078, -0.022183159366250038, -0.11602144688367844, 0.01923956535756588, 0.027119893580675125, -0.03555440530180931, 0.15192914009094238, -0.13332824409008026, -0.015647193416953087, -0.0007992370519787073, -0.09980110079050064, -0.00808425061404705, 0.08341611921787262, -0.14811766147613525, 0.04368259757757187, -0.14008262753486633, -0.03993407264351845, -0.002840298693627119, 0.042680125683546066, 0.025647172704339027, 0.15687087178230286, -0.10381883382797241, 2.253921593364794e-06, 0.07394248992204666, -0.003931930288672447, -0.0057800449430942535, -2.1939820726402104e-05, 0.004106061067432165], [-0.1407378762960434, -0.06673478335142136, -0.0414111353456974, -0.15083612501621246, -0.033281657844781876, -0.006784508470445871, 0.004208896774798632, -0.1442190706729889, -0.005742022302001715, -0.004796770866960287, -0.0006305213319137692, -0.1348417103290558, 0.12065248191356659, 0.05069217085838318, -0.08529847115278244, 0.027721524238586426, 0.07799987494945526, -0.028878437355160713, 0.1468106061220169, -0.12115577608346939, -0.034148599952459335, -0.0006543804774992168, -0.08636953681707382, 0.0056928847916424274, 0.007486923597753048, -0.13059499859809875, -0.013603507541120052, -0.08247777074575424, 0.04462368041276932, -0.01725056581199169, 0.10419223457574844, 0.12494217604398727, 0.07007528841495514, -0.20970527827739716, -3.809851114056073e-05, 0.03099869377911091, 0.055419791489839554, 0.005351543426513672, -6.730635504936799e-06, 0.0056455000303685665], [-0.015197676606476307, 0.04566725343465805, 0.015987249091267586, 0.052078377455472946, -0.02351287566125393, -0.017748024314641953, 0.010758032090961933, -0.06254291534423828, -0.006470829248428345, -0.00559524679556489, 0.04517287015914917, -0.07329908758401871, 0.05197564885020256, -0.08396164327859879, 0.0883593037724495, 0.1433372050523758, -0.09183233231306076, 0.009714831598103046, 0.07930184155702591, -0.0455821231007576, 0.005146032199263573, -4.559590888675302e-05, -0.08423218131065369, -0.03473006933927536, 0.04086265712976456, -0.0662948489189148, 0.01370574813336134, -0.11673258990049362, -0.08640723675489426, 0.017788860946893692, 0.12319544702768326, -0.05470128729939461, -0.02558000758290291, -0.02330014295876026, -7.984288458828814e-06, -0.12773238122463226, -0.015892338007688522, -0.03011784516274929, 1.330158283963101e-05, 0.006330888252705336], [9.528031341687893e-07, -7.259347967192298e-07, -2.9536215606640326e-07, -7.459875064341759e-07, 1.4069851204112638e-06, -2.9792479949719564e-07, -4.6706742296009907e-07, -2.8196393486723537e-07, -6.948884845314751e-08, -6.41806181533866e-08, -3.240965043005417e-07, -1.7982492295232078e-07, 3.4820720884454204e-07, 7.441048524015059e-07, 2.7078331754637475e-07, -6.848248403912294e-07, 1.141076495514426e-06, -8.228690262512828e-07, 2.685267759261478e-07, 1.1451063386402893e-07, -3.0431849040724046e-07, 1.492434265060183e-08, 1.278673806837105e-07, -3.0702193498655106e-07, -8.833204674374429e-07, -5.263325419946341e-07, -3.215283683744019e-08, 4.5386605052044615e-07, 1.8663863556867e-06, 8.03917732383752e-09, -3.594899453673861e-07, -1.6479836517646618e-07, -7.042314678074035e-07, 1.042873350343143e-06, 9.04132740897623e-11, -1.1764120344537332e-08, 2.6402452135698695e-07, 9.342849160987043e-09, 2.254554043457091e-10, 7.104460308937632e-08], [0.04626921936869621, -0.11485187709331512, 0.025198139250278473, -0.17999616265296936, 0.043397802859544754, 0.015287879854440689, 0.012790984474122524, -0.0933845192193985, -0.0027289066929370165, -0.002148647792637348, -0.031373992562294006, -0.09196175634860992, 0.09778580069541931, 0.047761231660842896, -0.009600773453712463, -0.003518471959978342, 0.015649890527129173, 0.06527098268270493, 0.09021014720201492, -0.008000326342880726, 0.027600107714533806, -0.0010840741451829672, -0.06844758987426758, -0.02241356112062931, -0.013494196347892284, -0.09289849549531937, -0.0017924860585480928, -0.10747525095939636, 0.046210795640945435, -0.04976002871990204, -0.04153561219573021, 0.01251607108861208, 0.03319995477795601, 0.010787911713123322, -5.983151640975848e-05, 0.03406095877289772, -0.03678977116942406, -0.04214886203408241, 3.958111847168766e-05, 0.002948820125311613], [0.020136352628469467, 0.037383485585451126, -0.006537493318319321, -0.005887244362384081, 0.13483527302742004, -0.06787898391485214, -0.012256407178938389, 0.16991743445396423, 0.004621263127774, 0.004257303662598133, -0.053556352853775024, 0.06179147958755493, -0.09052439779043198, 0.08895408362150192, 0.0782298669219017, 0.15426519513130188, 0.2973596751689911, 0.022272257134318352, -0.11870674788951874, 0.14086157083511353, -0.04414457082748413, -0.001768932561390102, 0.15311840176582336, 0.004787301644682884, -0.09999515116214752, 0.1325550675392151, -0.33470386266708374, 0.06056661158800125, -0.11883293092250824, -0.3173295855522156, -0.04912905395030975, -0.1176953986287117, -0.04661507532000542, 0.21513627469539642, -4.651956260204315e-05, -0.06767697632312775, 0.0005418494110926986, 0.05109740048646927, -3.4267959563294426e-05, -0.0049918233416974545], [0.011963763274252415, -0.050259578973054886, -0.12304814904928207, -0.04925209656357765, -0.15013498067855835, 0.005394563544541597, -0.01946992427110672, -0.1161409467458725, 0.002251062309369445, 0.0018810174660757184, 0.0020559432450681925, -0.10724333673715591, 0.10354342311620712, 0.06395406275987625, -0.08892372250556946, -0.13894076645374298, 0.032440852373838425, -0.011289465241134167, 0.11164315044879913, 0.002736496739089489, -0.016849767416715622, -0.0015453677624464035, -0.04960855469107628, 0.037197552621364594, -0.010115325450897217, -0.10075877606868744, -0.019681105390191078, -0.011183293536305428, 0.0538291372358799, -0.024279136210680008, -0.015139367431402206, 0.07347583025693893, 0.041729263961315155, 0.004192910622805357, -0.00010886091331485659, -0.0018129098461940885, 0.05775321647524834, 0.021915456280112267, 4.95135500386823e-05, -0.0026618039701133966], [4.815914849132241e-07, 3.56478331298149e-08, 7.65382708323159e-07, 1.2670971045736223e-06, 1.557144599928506e-07, 2.130564809021962e-07, -3.049842689506477e-07, 1.31267506731092e-06, 9.5377934883345e-08, 8.183523902971501e-08, -5.124021527080913e-07, 1.1313934464851627e-06, -1.0031221790995914e-06, 7.723831458861241e-07, 6.622168484682334e-07, -1.520062795634658e-07, -4.627495115983038e-07, 6.192303203533811e-07, -1.301000224884774e-06, 1.1277973044343526e-06, 6.966504173533394e-08, -2.058276660221736e-09, 1.3111500720697222e-06, 2.1005819306196827e-08, -4.6147400212248613e-07, 1.3132396361470455e-06, -9.86876102615497e-07, 1.3037330290899263e-06, 3.3032617352546367e-07, -6.832232202214072e-07, -9.092431696444692e-07, 2.0210316620250524e-07, -5.712942652280617e-07, 1.1084573543485021e-06, -5.930488045091664e-11, -7.962376571413188e-07, -2.47756418048084e-07, 7.71792656450998e-08, -3.212168864230591e-10, -9.461779626462885e-08], [2.104824670823291e-05, -0.004002760164439678, -0.0027159724850207567, -0.008033436723053455, 0.007725424133241177, -0.003622171701863408, 0.0008543482981622219, -0.01057045254856348, -0.0014729156391695142, -0.0013045422965660691, 0.0030918435659259558, -0.009982534684240818, 0.009605392813682556, -0.00028690716135315597, 0.0032351301051676273, -0.0010897995671257377, 9.0016023023054e-05, -0.007838494144380093, 0.010745871812105179, -0.00937008298933506, -0.00397538673132658, 0.00018761267710942775, -0.008660201914608479, -0.00011653640103759244, 0.004045768640935421, -0.009393109939992428, 0.0030397186055779457, -0.006800049915909767, 0.0051619685254991055, 0.0019631360191851854, 0.004346712492406368, -0.0009325261926278472, 0.006906180642545223, -0.0067453449591994286, 4.309533778723562e-06, 0.002716189483180642, 0.00046581870992667973, 0.0012405352899804711, 2.220486067017191e-06, 0.001464977627620101], [-0.01306644082069397, 0.00237559387460351, 0.018006600439548492, -0.30442726612091064, -0.04274949058890343, 0.03677571564912796, -0.17476141452789307, -0.1303224414587021, -0.00882444903254509, -0.008351392112672329, -0.0015551381511613727, -0.18073812127113342, 0.18661640584468842, 0.026577411219477654, -0.035514961928129196, -0.22062622010707855, 0.0013026065425947309, 0.031517449766397476, 0.24307063221931458, -0.21655230224132538, -0.023484066128730774, 0.0023012920282781124, -0.14506526291370392, -0.04588646814227104, 0.1507994830608368, -0.2515973150730133, 0.0472208671271801, -0.08500272035598755, -0.10272755473852158, -0.07666942477226257, -0.0017570789204910398, -0.047531288117170334, 0.09448502957820892, 0.01682785525918007, -5.1505638111848384e-05, 0.1754201203584671, 0.011871405877172947, -0.03885875642299652, 4.878343315795064e-05, 0.009067079983651638], [0.020663440227508545, -0.048755794763565063, 0.026969853788614273, -0.05397266894578934, -0.01927911676466465, 0.02380596287548542, 0.020294036716222763, -0.12022417038679123, 0.0044012912549078465, 0.004307691939175129, -0.08906392008066177, -0.14623910188674927, 0.07850240170955658, 0.030215101316571236, -0.08572708070278168, -0.17140427231788635, -0.14851921796798706, 0.09088031202554703, 0.12096848338842392, 0.0796203762292862, 0.010085315443575382, -0.0021343440748751163, -0.06513825058937073, 0.03551919758319855, -0.05936859920620918, -0.09606773406267166, -0.07052230834960938, 0.11567135155200958, -0.012022913433611393, -0.004975191783159971, -0.08123202621936798, 0.11573483049869537, -0.019829655066132545, -0.11924628913402557, -0.0001810479734558612, -0.02237066440284252, -0.0698927789926529, 0.07728645205497742, 9.287200373364612e-05, -0.004447068553417921], [0.0713549554347992, -0.08011932671070099, 0.003754051635041833, -0.03299790248274803, -0.019393669441342354, 0.12158247083425522, -0.14180444180965424, -0.06191695109009743, 0.004273498896509409, 0.00373106449842453, 0.007499477360397577, -0.16625989973545074, 0.018734434619545937, -0.1225334107875824, 0.26692089438438416, -0.23571571707725525, -0.0364195890724659, 0.09545212239027023, 0.11291017383337021, -0.07760126888751984, -0.1451849788427353, -0.00014025626296643168, -0.02827662229537964, 0.05248827487230301, 0.0905386283993721, -0.07198947668075562, 0.0675554871559143, -0.05780142545700073, -0.06865068525075912, 0.17351384460926056, 0.0248261671513319, 0.1069241464138031, -0.020725389942526817, -0.10369475930929184, 5.286475061438978e-05, 0.04964185506105423, 0.1587410420179367, -0.14028842747211456, -1.0626768926158547e-05, -0.004193851258605719], [-0.16747421026229858, -0.08822109550237656, 0.028084132820367813, -0.09225913882255554, 0.06390392035245895, 0.023359231650829315, 0.041735898703336716, -0.16163328289985657, -0.00797447469085455, -0.00691052433103323, 0.03361206129193306, -0.19104136526584625, 0.10655678808689117, 0.004803849849849939, 0.019019629806280136, 0.14890193939208984, -0.10305724292993546, -0.12428031861782074, 0.17808906733989716, -0.12848195433616638, -0.13265302777290344, -0.0009677281486801803, -0.09851998090744019, -0.011239588260650635, -0.06471048295497894, -0.1410420536994934, -0.05483104661107063, -0.04430638626217842, -0.06600672006607056, -0.07084200531244278, 0.010808133520185947, 0.030890971422195435, 0.09946759790182114, -0.20065072178840637, -7.936877466363512e-08, 0.011105465702712536, 0.13909171521663666, 0.08636997640132904, 2.1648206711688545e-06, 0.007345900870859623], [-0.09046366065740585, 0.0533999502658844, 0.26354727149009705, 0.09145604074001312, -0.24412035942077637, 0.1951136738061905, -0.09943471848964691, 0.067527636885643, 0.009746227413415909, 0.008684072643518448, -0.039414163678884506, -0.029370678588747978, 0.01700025238096714, -0.1767723262310028, -0.23097136616706848, 0.10147813707590103, -0.011687099933624268, 0.05101912468671799, 0.014503872022032738, -0.022558240219950676, 0.08188857138156891, -0.002355063334107399, 0.10739883780479431, 0.030471649020910263, -0.0074497670866549015, 0.015211627818644047, -0.03875740244984627, 0.06011108681559563, -0.10599204897880554, -0.004490803461521864, -0.18797704577445984, 0.026925265789031982, 0.07609543949365616, 0.0847863182425499, 8.172259549610317e-05, 0.06263873726129532, 0.22438104450702667, 0.15871907770633698, -1.4617811757489108e-05, -0.010112348012626171], [0.0061747729778289795, 0.08036147803068161, -0.01774459332227707, 0.06868812441825867, -0.09441586583852768, 0.014292757026851177, -0.013331012800335884, 0.03759170323610306, -0.002929565729573369, -0.0032235931139439344, 0.015584683045744896, 0.02854250557720661, -0.0582425519824028, -0.08884423226118088, -0.02503099851310253, -0.05729404091835022, 0.07568168640136719, 0.012964209541678429, -0.024880114942789078, -0.024042848497629166, -0.01676803268492222, 0.0018714129691943526, 0.08430543541908264, -0.04341540113091469, 0.1162177175283432, 0.02504955604672432, -0.08450581133365631, 0.035203833132982254, -0.14489352703094482, 0.02486385591328144, 0.08092492073774338, -0.019725024700164795, -0.08022191375494003, 0.12586115300655365, -1.6588350035817712e-06, -0.0896337479352951, 0.012220069766044617, 0.0008956058882176876, 3.771458295886987e-06, 0.002425617538392544], [-0.09461915493011475, -0.09745339304208755, -0.05662018060684204, -0.2693636119365692, -0.14624327421188354, 0.16669587790966034, -0.06880982965230942, -0.17706117033958435, 0.007850118912756443, 0.006817081943154335, -0.05446980148553848, 0.04254481941461563, -0.004421521909534931, -0.23565712571144104, -0.06458041071891785, -0.19029559195041656, 0.07399721443653107, -0.06072978675365448, 0.37663733959198, -0.27175524830818176, -0.06948643922805786, -0.002735448069870472, -0.24945807456970215, 0.06822363287210464, 0.1939583718776703, -0.12196098268032074, 0.09750597923994064, -0.30445390939712524, -0.0013742456212639809, 0.14322280883789062, 0.10436250269412994, 0.299015074968338, 0.1444772183895111, -0.19245825707912445, -0.0003809587797150016, 0.16394758224487305, -0.016439849510788918, 0.15812663733959198, 0.00016084684466477484, -0.00873375590890646], [0.010708929039537907, -0.08542521297931671, -0.007063716184347868, -0.18157652020454407, -0.07291793823242188, 0.041352443397045135, 0.024608248844742775, -0.2091704159975052, -0.007847607135772705, -0.007003991398960352, 0.06407874077558517, -0.18448784947395325, 0.18364988267421722, 0.03420024365186691, -0.03867010399699211, -0.035998448729515076, -0.0007507041445933282, -0.031316883862018585, 0.27985879778862, -0.13145412504673004, 0.019937079399824142, 0.00025973605806939304, -0.21504107117652893, 0.0768909901380539, 0.003746505593881011, -0.24202658236026764, 0.07115449756383896, -0.11015066504478455, 0.009899042546749115, -0.000845151545945555, 0.05616369843482971, 0.027253784239292145, 0.16502495110034943, 0.002977214055135846, 4.5312637666938826e-05, 0.04966674745082855, 0.008642145432531834, 0.12945136427879333, -2.2169619114720263e-05, 0.007581236772239208], [-0.0005033156485296786, -0.004783303942531347, -0.0025905834045261145, -0.009350661188364029, 0.010099917650222778, -0.0046322341077029705, 0.0027235718443989754, -0.012483280152082443, -0.0018799614626914263, -0.0016731972573325038, 0.004335945006459951, -0.011676309630274773, 0.011402914300560951, -0.0009456936386413872, 0.00708878505975008, -0.0006397998076863587, -0.0005954699590802193, -0.009228604845702648, 0.012645352631807327, -0.010485115461051464, -0.00569132948294282, 0.00022572644229512662, -0.010777264833450317, 0.0011443309485912323, 0.006458729039877653, -0.01085527054965496, 0.002294438425451517, -0.007773209363222122, 0.006561183836311102, 0.002168774139136076, 0.007270112168043852, -0.0006963498890399933, 0.0035569004248827696, -0.010669995099306107, 4.863170943281148e-06, 0.002832354512065649, 0.0011890509631484747, 0.002810028148815036, 5.008710559195606e-06, 0.0018612355925142765], [-8.014960621949285e-05, -0.004212660249322653, -0.0022343455348163843, -0.007914779707789421, 0.008841745555400848, -0.004088687244802713, 0.002077733166515827, -0.010662062093615532, -0.001588632119819522, -0.0014168211491778493, 0.0035943614784628153, -0.009941134601831436, 0.009836205281317234, -0.00037031425745226443, 0.006664298940449953, -0.0009317171643488109, -0.0005636584828607738, -0.008279100060462952, 0.010906174778938293, -0.009036315605044365, -0.004765645135194063, 0.0001953227329067886, -0.009140846319496632, 0.0010379671584814787, 0.005802759435027838, -0.009309287182986736, 0.0016648309538140893, -0.00660794647410512, 0.005299649201333523, 0.0014704966451972723, 0.006166456267237663, -0.0004654497606679797, 0.0024642806965857744, -0.009164027869701385, 4.543099294096464e-06, 0.002736304420977831, 0.0004866822564508766, 0.002502427902072668, 5.0828552957682405e-06, 0.0015713038155809045], [-0.3818509578704834, 0.4361801743507385, 0.003909105900675058, 0.01073027215898037, -0.006670901086181402, -0.1278374344110489, -0.3114509582519531, 0.36232614517211914, 0.0027983926702290773, 0.002586222719401121, -0.12223351001739502, 0.20779170095920563, -0.2276034951210022, -0.2820659279823303, -0.011334868147969246, 0.12795396149158478, 0.03400760516524315, 0.010536463931202888, -0.15666769444942474, -0.07138226926326752, -0.06032700464129448, -0.0019737074617296457, -0.09872783720493317, -0.21485751867294312, 0.057727500796318054, 0.12218762189149857, -0.035890039056539536, -0.3886765241622925, -0.33190080523490906, 0.03914517164230347, -0.05638895928859711, 0.13617520034313202, 0.0017442707903683186, 0.003942166455090046, -0.00010369237861596048, -0.07333722710609436, 0.033490944653749466, 0.27361494302749634, -2.2576192350243218e-05, -0.00346667249687016], [0.07155407220125198, -0.2034429907798767, -0.14746429026126862, -0.525601327419281, -0.056658949702978134, 0.034961048513650894, -0.27496978640556335, -0.3271988332271576, 0.010833216831088066, 0.010165882296860218, 0.0005148748750798404, -0.4384336769580841, 0.37542086839675903, 0.026967886835336685, -0.11583320796489716, -0.17436638474464417, 0.13747285306453705, -0.10799366980791092, 0.6757620573043823, -0.5059376358985901, 0.09851151704788208, -0.001287761959247291, -0.25189369916915894, 0.014408725313842297, 0.10644327849149704, -0.5281248092651367, 0.15123982727527618, -0.36261242628097534, 0.09313415735960007, 0.06483688205480576, 0.16477999091148376, 0.020115261897444725, 0.5548478364944458, -0.04304001107811928, -6.099930396885611e-05, 0.20542828738689423, -0.1025138720870018, -0.022842837497591972, -9.71034387475811e-06, -0.009474033489823341], [0.043059613555669785, -0.11169903725385666, 0.002526948694139719, -0.32103267312049866, 0.1427655667066574, 0.017182936891913414, -0.4805004894733429, -0.19981010258197784, -0.0036524857860058546, -0.0035742204636335373, -0.11817806959152222, -0.35070642828941345, 0.5518428683280945, 0.07797134667634964, 0.002282423432916403, -0.15508395433425903, 0.0010383883491158485, -0.3439081907272339, 0.7933458089828491, -0.47914934158325195, 0.0682915523648262, -0.0012620639754459262, 0.020057477056980133, -0.1070082038640976, -0.004224658012390137, -0.4683089256286621, 0.0222772266715765, -0.3151050806045532, 0.0733649730682373, -0.09986503422260284, 0.1336016058921814, 0.011292907409369946, 0.3473978638648987, -0.2376394122838974, -0.00013626889267470688, 0.23144039511680603, 0.09452719241380692, 0.07282490283250809, 2.1785717763123102e-05, 0.002881116233766079], [-0.11569439619779587, -0.152462437748909, 0.021730812266469002, -0.2963210344314575, 0.025333473458886147, 0.07948264479637146, -0.140737846493721, -0.49418047070503235, -0.01756746508181095, -0.016002247110009193, -0.03719186410307884, -0.4628891348838806, 0.41883012652397156, -0.007220753468573093, 0.01024420466274023, -0.04829462617635727, 0.046219080686569214, -0.007996468804776669, 0.6179838180541992, -0.43678393959999084, -0.08392362296581268, 0.0009527057991363108, -0.2360454797744751, 0.05139891058206558, 0.14327837526798248, -0.5240809321403503, -0.003166133537888527, -0.20231376588344574, 0.022637739777565002, 0.061267778277397156, 0.1210455596446991, -0.0029353401623666286, 0.297664612531662, 0.035178765654563904, -4.154892667429522e-05, 0.06050313636660576, 0.0681043192744255, 0.09799250960350037, -6.991851842030883e-05, 0.016866445541381836], [0.013616788201034069, -0.05376625061035156, 0.2915498912334442, -0.22634735703468323, -0.08815882354974747, 0.1920764148235321, 0.05012596771121025, -0.10273260623216629, 0.008116832934319973, 0.007487649563699961, -0.09292136877775192, 0.039724547415971756, -0.11081796139478683, -0.17652364075183868, -0.3531343340873718, -0.05719805136322975, 0.22326423227787018, 0.42777249217033386, -0.01168450154364109, 0.24073563516139984, -0.035553496330976486, -0.00018916789849754423, -0.06451563537120819, 0.16239647567272186, -0.07396510988473892, -0.0767027735710144, 0.15908098220825195, 0.07355106621980667, 0.05359281226992607, -0.017543254420161247, -0.4997939467430115, 0.1981581300497055, 0.06408187001943588, 0.33829519152641296, 0.00034047430381178856, 0.4931475818157196, 0.17966273427009583, 0.2617758512496948, -0.00010584466508589685, -0.007429230026900768], [-0.12131018191576004, 0.136661559343338, 0.07146970182657242, -0.004373614676296711, -0.31511008739471436, 0.03624625876545906, -0.009957878850400448, 0.04572371393442154, 0.00018826524319592863, -0.00023074405908118933, -0.0633171796798706, -0.05236618220806122, -0.07313602417707443, -0.2270132601261139, 0.07908343523740768, 0.16808612644672394, 0.009117907844483852, 0.09397781640291214, 0.01235414482653141, 0.10491558909416199, -0.22453436255455017, -0.0007151770987547934, 0.022004475817084312, -0.03258887678384781, 0.11158417165279388, -0.01679243892431259, 0.12041789293289185, -0.07802019268274307, -0.3960362672805786, 0.15674757957458496, -0.08507547527551651, -0.15222151577472687, 0.04347921162843704, 0.005161751061677933, -0.0001979907538043335, 0.1827125996351242, 0.08928687870502472, 0.06756637245416641, 0.00010732142982305959, -0.0010846033692359924], [-0.034504394978284836, -0.10751944780349731, 0.16684702038764954, -0.16727283596992493, -0.0562288835644722, 0.0904267281293869, -0.06575454026460648, -0.19523024559020996, -0.015108592808246613, -0.013914419338107109, -0.11286644637584686, -0.33681175112724304, 0.30907660722732544, -0.09134964644908905, -0.18243953585624695, -0.10761357843875885, 0.125954732298851, -0.05287419259548187, 0.467844694852829, -0.1774238646030426, -0.13062891364097595, 0.0008640340529382229, -0.03385335952043533, 0.027867065742611885, 0.3462308943271637, -0.3408145606517792, -0.03472966328263283, -0.23934724926948547, 0.20705586671829224, 0.07208006083965302, -0.10541453957557678, -0.02283594384789467, 0.15672722458839417, -0.0007700680289417505, 6.338620005408302e-05, 0.05179455876350403, 0.12280397117137909, 0.04788770526647568, 1.689915188762825e-05, 0.01461184211075306], [-0.1363835483789444, 0.09297848492860794, 0.07395070046186447, 0.015238404273986816, 0.06433030962944031, -0.03773925080895424, -0.09064381569623947, -0.013560649938881397, 0.0012614823644980788, 0.00126793107483536, -0.0034180423244833946, 0.01983419433236122, 0.02298411913216114, 0.017206547781825066, -0.158583402633667, -0.2895508110523224, 0.17352595925331116, 0.1397542804479599, -0.0008061350090429187, -0.30373355746269226, -0.13864965736865997, 0.00042531307553872466, -0.05634312331676483, -0.07962648570537567, 0.04005001112818718, -0.024657314643263817, 0.09274037927389145, 0.017620708793401718, -0.13530340790748596, 0.01532116997987032, 0.20455195009708405, -0.0553668849170208, -0.20483382046222687, 0.0010493126465007663, -2.9589878977276385e-05, 0.0379796139895916, 0.0698547214269638, -0.0625397190451622, -7.457384344888851e-05, -0.0011567319743335247], [-0.019345398992300034, -0.039478253573179245, -0.02450316958129406, -0.04767514765262604, -0.017061449587345123, -0.009973152540624142, 0.01973080262541771, -0.17116913199424744, -0.006128140725195408, -0.005751687102019787, -0.014956978149712086, -0.18653102219104767, 0.11832499504089355, 0.010705231688916683, 0.002880117390304804, -0.04582647234201431, 0.020773442462086678, -0.014318949542939663, 0.1968202143907547, -0.08726134151220322, -0.07741432636976242, -3.0785802664468065e-05, -0.12094731628894806, 0.040910933166742325, 0.05945155769586563, -0.1300523579120636, -0.0572342649102211, -0.05760353058576584, -0.012759970501065254, 0.05002959072589874, 0.00943535566329956, 0.03363235667347908, 0.05348439887166023, -0.055963002145290375, -1.6688911273377016e-05, 0.048230208456516266, 0.05109921842813492, 0.061926838010549545, 2.2502090359921567e-05, 0.005594977177679539], [-0.12363483011722565, 0.09810057282447815, 0.08746200054883957, -0.14070047438144684, 0.03191772848367691, 0.010080157779157162, -0.20338763296604156, 0.048650842159986496, 0.003810464171692729, 0.003795220050960779, -0.017171990126371384, -0.02413460984826088, -0.04522649943828583, -0.06775505840778351, 0.06059025973081589, 0.1930246204137802, 0.05145122855901718, -0.023709824308753014, 0.151851624250412, -0.03190004453063011, -0.13419969379901886, -0.002799878129735589, -0.05479242280125618, -0.03198438882827759, -0.012835981324315071, -0.09515701979398727, 0.01830321177840233, -0.2569795250892639, -0.23615916073322296, 0.0494832806289196, 0.07322832942008972, -0.17435453832149506, 0.04367285221815109, 0.025974666699767113, -0.00015802813868504018, 0.15574544668197632, -0.06220536306500435, 0.15222316980361938, -1.4534225556417368e-05, -0.004315157886594534], [0.0021300138905644417, -0.005428852513432503, -0.16482365131378174, -0.1926734447479248, 0.13372312486171722, 0.012099548242986202, 0.0065670860931277275, -0.19827544689178467, -0.007404297590255737, -0.006747477687895298, 0.013583063147962093, -0.2738285958766937, 0.16704754531383514, -0.16730546951293945, 0.12668824195861816, -0.026747021824121475, -0.02735540084540844, -0.02605833113193512, 0.22411151230335236, -0.11084122955799103, -0.06645084172487259, 0.001059576403349638, -0.12758588790893555, -0.034741587936878204, 0.025433121249079704, -0.19403445720672607, -0.03057996928691864, -0.17578953504562378, 0.04855705052614212, -0.11971211433410645, -0.01165247056633234, -0.03534767031669617, 0.10854651033878326, -0.1887435019016266, 4.150213862885721e-05, -0.017329026013612747, 0.17913849651813507, -0.08836739510297775, 5.849009539815597e-05, 0.007293341215699911], [-0.0002250777033623308, -0.0003585101803764701, -0.00025438680313527584, -0.0009034898830577731, 0.00043981699855066836, -0.00027114327531307936, -0.00010882978676818311, -0.000975242699496448, -9.404291631653905e-05, -8.296138548757881e-05, 0.0001833503192756325, -0.0008365655085071921, 0.0008490961045026779, -1.3621554899145849e-05, 0.0004796096764039248, 7.162491965573281e-05, 0.00010252719948766753, -0.0006184660014696419, 0.0010143631370738149, -0.0008433889597654343, -0.00035511175519786775, 6.8476424530672375e-06, -0.0008067103335633874, -5.706778392777778e-05, 0.00047556727076880634, -0.0009745096322149038, 0.00033381624962203205, -0.0007971596787683666, 0.00019574850739445537, 0.00015461910516023636, 0.0008415633346885443, 0.00019574556790757924, 0.0005267009837552905, -0.0009091653046198189, 1.2585149988808553e-07, 0.00046663760440424085, -7.297242973436369e-06, -0.00018407416064292192, 7.227108085317013e-07, 9.415111708221957e-05], [0.08720885962247849, -0.09096945822238922, 0.016209861263632774, -0.3919399380683899, -0.2723460793495178, 0.1825615018606186, -0.20505636930465698, -0.15797863900661469, -0.0006156261661089957, -0.0014059279346838593, -0.03574889898300171, -0.020504962652921677, 0.1629314124584198, -0.01893085241317749, -0.03497912734746933, -0.058315176516771317, -0.03575945273041725, -0.1239582821726799, 0.5151004791259766, -0.15439744293689728, -0.07455147057771683, -0.0021816811058670282, -0.2921349108219147, 0.009254999458789825, 0.22587338089942932, -0.40120840072631836, -0.20437224209308624, -0.44852808117866516, 0.014790687710046768, 0.12501665949821472, 0.21513241529464722, -0.06575454771518707, 0.16773799061775208, -0.2673550546169281, -0.0003960172471124679, 0.2662374675273895, 0.010130736976861954, 0.24946120381355286, 7.449681288562715e-05, 0.00041165019501931965], [0.020765239372849464, -0.004508652724325657, 0.04681175574660301, -0.022827329114079475, 0.10623306781053543, 0.02674712799489498, 0.07243449985980988, 0.002512378850951791, -0.01161141600459814, -0.010624091140925884, 0.020929640159010887, -0.003456445410847664, -0.0019281378481537104, -0.06505712121725082, -0.07769064605236053, 0.16850660741329193, 0.047864001244306564, 0.009088288061320782, -0.005557024851441383, -0.007106592413038015, -0.07210373133420944, 0.002366707194596529, -0.023154061287641525, 0.008564721792936325, 0.04483712837100029, 0.0052809580229222775, -0.042187463492155075, 0.0003048675134778023, 0.03142215684056282, 0.04466569423675537, 0.017260326072573662, -0.05118047818541527, -0.06693689525127411, -0.026840683072805405, 4.186066871625371e-05, -0.016720788553357124, 0.0295378677546978, 0.01979486458003521, 1.6598725778749213e-05, 0.011714988388121128], [0.09959065169095993, -0.01181042194366455, -0.022148463875055313, -0.02573973499238491, -0.2682560682296753, 0.03527570143342018, -0.019536148756742477, 0.007799719925969839, 0.008526441641151905, 0.007772956043481827, 0.030893199145793915, 0.002041083760559559, 0.06100121885538101, -0.05745235085487366, -0.1429094821214676, 0.05399682745337486, -0.059476010501384735, -0.14027267694473267, 0.03455686196684837, 0.05020494386553764, 0.1675066500902176, -0.0019773005042225122, 0.0019527761032804847, 0.04021614417433739, 0.12077437341213226, -0.049264296889305115, 0.04291684925556183, 0.05627318471670151, -0.04828913137316704, -0.03688545152544975, -0.12296844273805618, -0.27750274538993835, 0.24914443492889404, 0.08855384588241577, -2.4452769139315933e-05, 0.01042746938765049, -0.06856003403663635, 0.04134621471166611, 1.7702826880849898e-05, -0.008517403155565262], [-0.036917801946401596, -0.0923842191696167, -0.008908643387258053, -0.24927835166454315, 0.07204275578260422, -0.002019352512434125, 0.023542232811450958, -0.1683955192565918, -0.00981997698545456, -0.008699941448867321, 0.009726356714963913, -0.19722546637058258, 0.14206333458423615, 0.03184865415096283, 0.010010938160121441, 0.028924856334924698, 0.03126964345574379, -0.05752617120742798, 0.23233024775981903, -0.17486122250556946, -0.059333838522434235, 0.000821198511403054, -0.11318652331829071, 0.021811148151755333, 0.07068268954753876, -0.20874205231666565, -0.023578204214572906, -0.11995577812194824, 0.0740191787481308, 0.001115577993914485, 0.08241429179906845, -0.057839661836624146, 0.1014702320098877, -0.03902595490217209, -3.578478072086e-06, 0.0848335549235344, -0.020155031234025955, 0.016614550724625587, -3.059437176489155e-06, 0.010267699137330055], [-0.0890403464436531, -0.011664384044706821, -0.0238716509193182, 0.017118530347943306, -0.07890447229146957, 0.05454003065824509, -0.038353078067302704, -0.1809452623128891, 0.008008846081793308, 0.007373542059212923, -0.02914162166416645, -0.16654877364635468, 0.13796882331371307, 0.27420952916145325, -0.037768203765153885, -0.06936054676771164, -0.27799686789512634, 0.039255473762750626, 0.21180374920368195, -0.10058297216892242, -0.12776552140712738, -0.002826546085998416, -0.05362723767757416, 0.06990204006433487, 0.13229221105575562, -0.14565306901931763, -0.04509340226650238, -0.056282319128513336, -0.02647627331316471, -0.04562525823712349, 0.04548345133662224, 0.0281856469810009, 0.03275064006447792, -0.010818111710250378, -0.000190728300367482, 0.13456901907920837, -0.04398403689265251, 0.08007847517728806, 6.078533624531701e-05, -0.008533729240298271], [-0.0683102235198021, -0.0019120443612337112, -0.047451529651880264, -0.1434580683708191, -0.2484423965215683, 0.06842531263828278, -0.28600701689720154, -0.16615669429302216, -0.001489165355451405, -0.0009962498443201184, 0.09985582530498505, -0.009628590196371078, 0.009764234535396099, -0.06270342320203781, 0.125920370221138, 0.019964857026934624, 0.03601686283946037, -0.21400186419487, 0.12014368176460266, -0.5642896890640259, 0.014171975664794445, -0.00017387114348821342, -0.27189940214157104, -0.043034035712480545, 0.2935802936553955, -0.05115671083331108, -0.07381202280521393, -0.02913164719939232, -0.13907799124717712, -0.03197513893246651, 0.1787732094526291, -0.014246104285120964, 0.21263337135314941, -0.09981276839971542, 0.00013212475460022688, 0.0996275246143341, -0.09503861516714096, 0.06252531707286835, 4.5241376938065514e-05, 0.0016068872064352036], [-0.06642746180295944, 0.03017018362879753, 0.021907271817326546, -0.12666496634483337, -0.15502867102622986, 0.03584637865424156, 0.1642630398273468, -0.10498274862766266, -0.019954722374677658, -0.018656600266695023, -0.02429240383207798, -0.08404044806957245, 0.12549103796482086, -0.24063576757907867, -0.06877245008945465, 0.21662408113479614, 0.0326700396835804, -0.043338872492313385, 0.12289426475763321, -0.15616004168987274, -0.055531829595565796, 0.0017192064551636577, -0.1829245239496231, -0.06502176821231842, 0.07925886660814285, -0.11098688840866089, -0.04774266108870506, -0.13826608657836914, -0.15492281317710876, 0.06890910118818283, -0.12829796969890594, -0.04056718572974205, -0.028964687138795853, -0.13912859559059143, -0.0001282741577597335, -0.0532732754945755, -0.09217266738414764, 0.31893882155418396, 0.00011941793491132557, 0.01926572062075138], [-0.030384069308638573, -0.10372676700353622, -0.1270696520805359, -0.2789979577064514, -0.07749166339635849, 0.10399866104125977, -0.16293439269065857, -0.3161085844039917, -0.006273912265896797, -0.005885941907763481, -0.026814529672265053, -0.2774222195148468, 0.2072882205247879, 0.05691341683268547, -0.15006306767463684, -0.23023569583892822, -0.05263514071702957, 0.0037617296911776066, 0.43052586913108826, -0.2777920961380005, -0.24334083497524261, -0.0005837741191498935, -0.24010439217090607, -0.051970478147268295, 0.01049904152750969, -0.36870867013931274, 0.04110300913453102, -0.2534213662147522, 0.10193268209695816, 0.13669800758361816, 0.14031444489955902, -0.029986482113599777, 0.11630162596702576, 0.0028889684472233057, -0.00017240410670638084, 0.10050635784864426, 0.06462869048118591, 0.09819644689559937, 0.00019579334184527397, 0.00586614478379488], [-0.11788790673017502, 0.16018591821193695, -0.16851656138896942, 0.028318436816334724, 0.03535587713122368, 0.06748725473880768, -0.0021053592208772898, -0.11830003559589386, -0.004185548052191734, -0.004051264841109514, 0.019070615991950035, -0.07305237650871277, 0.07787607610225677, 0.006607301998883486, -0.050705183297395706, -0.0031844640616327524, -0.014937670901417732, -0.05539758503437042, 0.11138315498828888, 0.008701291866600513, -0.09619535505771637, -0.0006645750254392624, -0.08721926808357239, 0.004326968919485807, -0.01260341890156269, -0.08977590501308441, 0.0005768591654486954, -0.10591081529855728, 0.14195924997329712, 0.044071637094020844, -0.01956063136458397, 0.1295509934425354, -0.04152863845229149, 0.07969392091035843, -0.00029768759850412607, -0.14609673619270325, -0.04051149636507034, 0.11308982223272324, 5.349417187971994e-05, 0.0034954403527081013], [-0.004890465643256903, -0.05679989233613014, 0.03235962241888046, -0.09739066660404205, -0.11440850049257278, 0.025219494476914406, -0.050077490508556366, -0.029847145080566406, 0.0054002427496016026, 0.0051100170239806175, -0.031009776517748833, -0.04536885768175125, 0.03814303129911423, 0.01690572313964367, -0.061781544238328934, -0.035632915794849396, 0.06626695394515991, -0.012694107368588448, 0.03524864464998245, -0.0440482422709465, -0.031276777386665344, -0.0014615727122873068, -0.03793425112962723, 0.036018162965774536, 0.100884810090065, -0.033001042902469635, -0.010782775469124317, -0.019892193377017975, 0.016191191971302032, -0.02076234482228756, -0.06129756197333336, 0.02507295273244381, 0.10100589692592621, -0.030561259016394615, -1.7439919247408397e-05, 0.1585044413805008, 0.06856770068407059, -0.047080978751182556, -3.974821447627619e-05, -0.005245084874331951], [0.08449113368988037, 0.05216628313064575, -0.016377244144678116, -0.053164925426244736, 0.06733670085668564, 0.002907230518758297, -0.03528878092765808, -0.12002377212047577, -0.012209245003759861, -0.011430454440414906, -0.05113479495048523, -0.03172503411769867, 0.10781244933605194, 0.09178272634744644, -0.07534535974264145, -0.13778989017009735, 0.004366039298474789, -0.11593031883239746, 0.19245746731758118, -0.13774597644805908, 0.040841978043317795, 0.000757656351197511, -0.024563465267419815, -0.008091702125966549, -0.08022165298461914, -0.1705593764781952, 0.09096340835094452, -0.07248978316783905, 0.04609736055135727, 0.002825432922691107, 0.19661018252372742, 0.03260653838515282, 0.00218566763214767, 0.06906076520681381, -0.0001773537223925814, 0.10662033408880234, -0.043079718947410583, 0.2362256497144699, 6.710171146551147e-05, 0.011262841522693634], [0.06590361148118973, -0.03164954110980034, -0.01244786661118269, 0.04229986295104027, -0.13819143176078796, 0.0780072882771492, -0.05565734952688217, -0.12821424007415771, -0.005214372184127569, -0.00478789396584034, 0.08014605194330215, -0.18279944360256195, 0.11568397283554077, -0.10612323135137558, -0.021572791039943695, 0.13580027222633362, -0.09059686958789825, -0.19970186054706573, 0.1934780329465866, -0.11551385372877121, -0.013210575096309185, -0.000695975439157337, -0.07651311159133911, 0.03194909170269966, 0.15979620814323425, -0.16533249616622925, 0.05521262809634209, -0.048412032425403595, 0.030401263386011124, 0.06618641316890717, 0.2156849354505539, -0.02018822357058525, -3.5798300814349204e-05, 0.21076305210590363, -0.00011059608368668705, -0.061675652861595154, 0.031826458871364594, 0.10438435524702072, 3.0754916224395856e-05, 0.00473853200674057], [7.496158787034801e-07, -1.2479998758863076e-06, -8.066271561801841e-07, -1.5855299579925486e-06, 1.748902377585182e-06, -2.75184959264152e-07, -5.500791075974121e-07, -1.1279656746410183e-06, -1.2301563856453868e-07, -1.1050533998968604e-07, -6.98439635016257e-08, -1.0146911790798185e-06, 1.1229437859583413e-06, 7.029547646197898e-07, 3.331731477373978e-07, -6.096011020417791e-07, 1.6126862192322733e-06, -1.542335326121247e-06, 1.1756064850487746e-06, -5.578853006227291e-07, -6.603196993637539e-07, 1.6008080194751528e-08, -4.703359763880144e-07, -1.7669826490873675e-07, -6.101661824686744e-07, -1.409808987773431e-06, 2.5133662262533107e-08, -1.1092318885630448e-07, 2.3402863007504493e-06, 1.7922084794008697e-07, 2.0743971163028618e-07, -3.045173357918429e-08, -4.93786217248271e-07, 3.36926717636743e-07, 1.9177590071528527e-10, 3.0468297040897596e-07, 8.032199048102484e-07, -1.0850383347360548e-07, 3.088888589353189e-10, 1.2389747894303582e-07], [0.15218687057495117, -0.2638401687145233, 0.053725678473711014, -0.2782522141933441, 0.06722048670053482, 0.0867624506354332, 0.008349098265171051, -0.10480841994285583, 0.006073185708373785, 0.005877861753106117, -0.056544359773397446, -0.09128548949956894, 0.10147318989038467, 0.10164906829595566, -0.011168159544467926, -0.008887341246008873, 0.07445431500673294, 0.07280082255601883, 0.09058260172605515, 0.0038129647728055716, 0.02938251756131649, -0.0025503328070044518, -0.018498875200748444, 0.0037371977232396603, -0.03220030292868614, -0.09129583835601807, -0.010081334970891476, -0.03492702916264534, 0.09991028159856796, -0.1396699696779251, -0.061318982392549515, -0.0013910868437960744, 0.02608882263302803, 0.22092071175575256, -7.957166235428303e-05, 0.10222981870174408, -0.0022069341503083706, -0.03979169577360153, 4.0856819396140054e-05, -0.005433038342744112], [0.04971329867839813, -0.12089589983224869, 0.19010590016841888, -0.3256804347038269, 0.08761833608150482, -0.02985106036067009, -0.04026927053928375, -0.19993984699249268, -0.010699888691306114, -0.009912850335240364, -0.01837318204343319, -0.3027181625366211, 0.20914684236049652, 0.00218748371116817, -0.01068117469549179, -0.022944048047065735, 0.2398936152458191, -0.039095740765333176, 0.30067339539527893, -0.14289823174476624, -0.06647641956806183, -0.0012186710955575109, -0.14614883065223694, 0.0476660318672657, -0.024690406396985054, -0.255734920501709, -0.09875690191984177, -0.20540669560432434, -0.007786575239151716, 0.017329473048448563, 0.08713319897651672, 0.05830882489681244, 0.15292778611183167, 0.004390637390315533, -0.00012275473272893578, 0.07901907712221146, 0.06975685060024261, 0.06752416491508484, 4.408583845361136e-05, 0.009912392124533653], [-0.025383496657013893, -0.008767829276621342, -0.1646755039691925, -0.0392659492790699, -0.09737410396337509, -0.084250807762146, 0.0782240703701973, -0.13084736466407776, 0.0005728669930249453, 0.00015008020272944123, 0.12143364548683167, -0.11917561292648315, 0.1294049173593521, 0.06156999245285988, 0.12960849702358246, 0.03221570700407028, -0.04506798833608627, -0.09511739015579224, 0.11833708733320236, -0.036762356758117676, 0.047254420816898346, -0.0013794978149235249, -0.12058070302009583, 0.05609489977359772, 0.13022677600383759, -0.1062665656208992, -0.024158915504813194, -0.03869159519672394, -0.06677340716123581, -0.07354331761598587, 0.1531578153371811, 0.11169359087944031, 0.09646285325288773, -0.04282557591795921, -0.00019424509082455188, -0.0035494123585522175, 0.03151308372616768, 0.02154143899679184, 0.00011718989844666794, -0.0012610271805897355], [4.572729892515781e-07, -3.496210609910122e-08, 6.586810172848345e-07, 1.1009177569576423e-06, 2.2748339745248813e-07, 2.211976664057147e-07, -3.4110476576643123e-07, 1.1635034979917691e-06, 8.604812506973758e-08, 7.369608567842079e-08, -4.880134838458616e-07, 9.940764584825956e-07, -8.704932952241506e-07, 7.520050075981999e-07, 7.231377594507649e-07, -1.6831509697112779e-07, -4.1081057133851573e-07, 5.351643608264567e-07, -1.142200289905304e-06, 1.0020318086390034e-06, 2.8727221490498778e-08, -1.2511366387357725e-09, 1.1986467143287882e-06, 1.6664285951151214e-08, -3.6686617477244e-07, 1.1493691545183538e-06, -9.589974752088892e-07, 1.2057737421855563e-06, 3.731701951892319e-07, -6.400620122803957e-07, -8.358859417967324e-07, 2.233623916936267e-07, -5.193003289605258e-07, 1.0093343689732137e-06, -3.471229206852833e-11, -7.18846422387287e-07, -2.0734650263420917e-07, 5.988839291148906e-08, -3.023514771882674e-10, -8.525563544026227e-08], [-0.0005414026090875268, -0.0049316962249577045, -0.002734457142651081, -0.009713515639305115, 0.009962433017790318, -0.004533062689006329, 0.0025446955114603043, -0.01249517872929573, -0.0018557226285338402, -0.0016472130082547665, 0.004347174894064665, -0.011655251495540142, 0.011327389627695084, -0.0011799701023846865, 0.006742273457348347, -0.0005871452740393579, -0.00035513920010998845, -0.008924784138798714, 0.012597932480275631, -0.010655038058757782, -0.005755240097641945, 0.0002225335774710402, -0.010805277153849602, 0.000947884633205831, 0.006306651048362255, -0.010996656492352486, 0.0029722745530307293, -0.007753516547381878, 0.006893135141581297, 0.002543882466852665, 0.007603353820741177, -0.0007790418458171189, 0.0042017241939902306, -0.010543017648160458, 5.046335900260601e-06, 0.003121644724160433, 0.0013464903458952904, 0.0022632356267422438, 4.831206751987338e-06, 0.0018419866682961583], [0.08117446303367615, -0.07794912159442902, -0.017000194638967514, 0.0416666679084301, 0.02565142884850502, 0.21895435452461243, 0.07313701510429382, -0.042025525122880936, -0.005997362080961466, -0.005125459749251604, -0.0875156968832016, -0.19694507122039795, -0.17595691978931427, 0.05577023699879646, 0.02925291657447815, 0.12542639672756195, 0.018676741048693657, 0.0010663119610399008, 0.01304752565920353, 0.1090998649597168, 0.04569914937019348, 0.002697537885978818, -0.0022474736906588078, -0.026642020791769028, -0.04889029264450073, -0.1291542500257492, 0.0267464742064476, -0.13280881941318512, 0.14082889258861542, -0.03734754025936127, 0.04054785519838333, -0.16327470541000366, -0.015594090335071087, -0.10541754215955734, 0.000379900389816612, 0.12127017229795456, -0.026856137439608574, -0.03004644624888897, -9.814125223783776e-05, 0.006170729175209999], [-0.0787835344672203, 0.03366246819496155, -0.025276843458414078, 0.1128859743475914, -0.05542481690645218, 0.01592283695936203, -0.09483025223016739, 0.15055547654628754, -0.008812261745333672, -0.008196193724870682, -0.19378963112831116, 0.26673802733421326, -0.2074095755815506, -0.13417956233024597, 0.02077215537428856, -0.05463749170303345, -0.0024172489065676928, 0.001111537916585803, -0.10220810770988464, -0.020668670535087585, -0.0038819715846329927, -4.285736577003263e-05, -0.28383931517601013, -0.16790932416915894, 0.015978530049324036, 0.15624725818634033, -0.06843686103820801, -0.293914258480072, -0.1961619257926941, -0.018371284008026123, -0.012020931579172611, -0.09835072606801987, 0.09180913865566254, 0.09000889956951141, -0.00026330718537792563, -0.05139096453785896, 0.035721633583307266, 0.2028878927230835, 7.818993617547676e-05, 0.00948561355471611], [0.04308977350592613, 0.02446633391082287, 0.01907225511968136, 0.100253164768219, -0.04886160418391228, 0.08920548111200333, 0.06313088536262512, 0.15922775864601135, 0.025367265567183495, 0.024453040212392807, -0.08480752259492874, 0.05306408926844597, -0.0710027888417244, 0.06137680634856224, 0.2823370397090912, 0.1544397473335266, -0.3887211084365845, -0.12936878204345703, 0.016461219638586044, -0.014005913399159908, 0.03319156914949417, -0.009840618818998337, 0.1062227338552475, 0.05985237658023834, -0.20784249901771545, 0.06515716016292572, -0.11178028583526611, 0.08169161528348923, -0.09806288778781891, -0.1403464823961258, 0.04227781668305397, -0.04882882907986641, 0.48465460538864136, 0.04218847677111626, -0.0003317238297313452, -0.012136751785874367, -0.16146965324878693, 0.05639820173382759, 0.00012193204747745767, -0.025061391294002533], [0.16681373119354248, 0.17944951355457306, 0.08734746277332306, 0.10865840315818787, 0.2083522230386734, -0.19566115736961365, -0.09589305520057678, 0.06878077238798141, -0.009657294489443302, -0.009382310323417187, 0.0949920192360878, 0.13071037828922272, -0.30866539478302, -0.18060776591300964, -0.2375282496213913, -0.2395823895931244, -0.11873116344213486, 0.1093861311674118, -0.14993758499622345, -0.047910429537296295, -0.1217021569609642, 0.003128123003989458, 0.011255469173192978, -0.11342024058103561, 0.09749896824359894, 0.4113640785217285, -0.08381269872188568, -0.14313624799251556, -0.22389373183250427, -0.007861223071813583, 0.06413941085338593, -0.06364185363054276, 0.06782837957143784, 0.08658179640769958, 0.00025533061125315726, 0.03716934099793434, 0.027302617207169533, 0.13389961421489716, -8.878209337126464e-05, 0.010464094579219818], [-0.037675317376852036, -0.13665077090263367, -0.2087479829788208, 0.04451951012015343, 0.036195773631334305, -0.34322115778923035, -0.08418982475996017, 0.053416576236486435, 0.02099359966814518, 0.021297400817275047, 0.023204289376735687, -0.21352121233940125, -0.1373801827430725, 0.04397296905517578, 0.586669921875, 1.0427082777023315, 0.05196144059300423, -0.44773828983306885, 0.13550087809562683, 0.12409750372171402, 0.03811831772327423, -0.013832096941769123, 0.14381559193134308, -0.04871705546975136, -0.2139917016029358, -0.11224554479122162, -0.06414735317230225, 0.023475755006074905, 0.10287097841501236, 0.11505550891160965, 0.32413509488105774, -0.3914034366607666, 0.04240747541189194, -0.09443338960409164, -0.0007056609028950334, 0.058952901512384415, 0.04962775856256485, 0.06755366921424866, 0.00019019938190467656, -0.022032413631677628], [-0.4485849142074585, -0.03372713923454285, 0.028040124103426933, 0.009802061133086681, -0.052141424268484116, -0.26265183091163635, -0.4705711603164673, 0.053893398493528366, 0.05093865096569061, 0.0462321862578392, 0.8172302842140198, 0.32498618960380554, -0.15875926613807678, 0.05071133375167847, 0.0834856852889061, -0.25142407417297363, 0.06447663903236389, 0.4877406358718872, 0.22733978927135468, 0.024524912238121033, -0.035429034382104874, -0.005870513617992401, 0.2852705419063568, -0.2222415804862976, 0.04661418870091438, -0.08493136614561081, 0.035335272550582886, 0.5383079648017883, 0.063556969165802, 0.030078081414103508, -0.0454537533223629, 0.04129783436655998, 0.02114935964345932, 0.010679180733859539, -0.00039715776802040637, -0.1329466551542282, -0.004862891510128975, 0.28044480085372925, 0.00014163619198370725, -0.051556918770074844], [0.050944697111845016, -0.1502840369939804, -0.059322938323020935, -0.018080081790685654, -0.0020174472592771053, 0.2427929788827896, 0.04279648885130882, -0.0927572026848793, 0.007693575229495764, 0.007474835962057114, 0.3490278124809265, 0.020235830917954445, -0.04583169147372246, 0.025696763768792152, -0.012336228042840958, 0.27181050181388855, -0.03544839471578598, -0.19947676360607147, -0.09657894819974899, 0.0729912593960762, 0.02824154496192932, -0.0026428860146552324, -0.6639873385429382, 0.07394534349441528, -0.022201601415872574, -0.08343935757875443, 0.033705879002809525, -0.04532991349697113, -0.17612537741661072, -0.029504571110010147, -0.05221248418092728, -0.1089470386505127, -0.0047182003036141396, 0.04608163237571716, -2.794366628222633e-05, -0.05688201263546944, 0.013482170179486275, 0.018631068989634514, -2.069461152132135e-05, -0.007839999161660671], [0.08048926293849945, -0.040782518684864044, 0.09169856458902359, -0.06608828157186508, -0.07551732659339905, -0.026345862075686455, -0.26126188039779663, 0.037139326333999634, 0.007783415727317333, 0.007189291529357433, -0.19425544142723083, 0.16411685943603516, -0.1121126040816307, -0.12203776091337204, 0.020228633657097816, -0.07712781429290771, 0.07692551612854004, -0.05734182894229889, -0.16270679235458374, 0.0010527886915951967, 0.022677022963762283, -0.001032665721140802, 0.1853744387626648, -0.09856116771697998, 0.04093194752931595, 0.09642893821001053, -0.04769112542271614, -0.18344582617282867, 0.1361159086227417, -0.038650378584861755, -0.017030183225870132, -0.017111988738179207, -0.003885389305651188, -0.038676466792821884, -0.00011459211964393035, 0.06725630909204483, -0.023358134552836418, -0.10990060120820999, 7.025200466159731e-05, -0.0068019176833331585], [-0.008666036650538445, -0.018381604924798012, -0.013186365365982056, 0.0007547180284745991, -0.04005973041057587, 0.013225696049630642, -0.016658758744597435, 0.014563030563294888, 0.013938995078206062, 0.012694969773292542, -0.02866569720208645, 0.013327697291970253, -0.01152790617197752, 0.015838252380490303, -0.006817581597715616, -0.007100498769432306, -2.675517498573754e-05, 0.009343582205474377, -0.008248129859566689, 0.02323666214942932, 0.006974258925765753, -0.0024464838206768036, 0.014609248377382755, 0.022500015795230865, 0.008984096348285675, -0.0018469411879777908, -0.00800731498748064, 0.006719913333654404, -0.018002361059188843, 0.01652611792087555, 0.012444022111594677, 0.032035041600465775, 0.004365190397948027, 0.006798837799578905, -0.0001151229880633764, 0.010194848291575909, -0.015762317925691605, -0.030020317062735558, 5.3183281124802306e-05, -0.01387089490890503], [-0.00835078302770853, -0.017604287713766098, -0.011091775260865688, -0.00013695501547772437, -0.037920158356428146, 0.012310738675296307, -0.015785232186317444, 0.013213462196290493, 0.013098389841616154, 0.011983976699411869, -0.027333678677678108, 0.012244047597050667, -0.010754150338470936, 0.014698690734803677, -0.0068723950535058975, -0.004324454348534346, -0.00010147687862627208, 0.009034067392349243, -0.0074525922536849976, 0.021345509216189384, 0.0061233858577907085, -0.002449520630761981, 0.013506493531167507, 0.019335417076945305, 0.007867427542805672, -0.002095579169690609, -0.007585860323160887, 0.005448559299111366, -0.015759089961647987, 0.01579022780060768, 0.012606379576027393, 0.028701595962047577, 0.006926120724529028, 0.00516015337780118, -0.00011288539099041373, 0.008609614335000515, -0.014717984944581985, -0.028268003836274147, 5.048159073339775e-05, -0.013020019046962261], [-0.04251469671726227, 0.005202180705964565, 0.003257380798459053, -0.016958588734269142, -0.001840719603933394, -0.0847768634557724, -0.11413480341434479, 0.012886936776340008, 0.005044347606599331, 0.0057671936228871346, 0.13816864788532257, 0.30850958824157715, -0.0662936195731163, -0.030319789424538612, 0.0022050843108445406, -0.06003766134381294, -0.0054901097901165485, 0.02953573875129223, -0.42800381779670715, -0.04995562508702278, -0.010944089852273464, -0.0005581759032793343, 0.02462814934551716, 0.02040679380297661, 0.00864243321120739, 0.06300050765275955, -0.021691758185625076, 0.4382077753543854, 0.044125739485025406, 0.017548855394124985, -0.0013806687202304602, 0.008207972161471844, 0.005427734460681677, -0.01604778692126274, 4.794916094397195e-05, 0.022315379232168198, 0.002837526611983776, -0.00955798476934433, -1.7230362573172897e-05, -0.003956532571464777], [-0.09431721270084381, -0.046243757009506226, -0.13131515681743622, -0.14755727350711823, -0.18870125710964203, -0.08035126328468323, -0.06040560081601143, -0.001814856193959713, -0.007102313917130232, -0.006118945777416229, 0.02008640579879284, 0.31021249294281006, 0.017753181979060173, 0.07539449632167816, 0.10753513127565384, -0.0649586021900177, -0.002259934088215232, -0.02418779954314232, -0.2915957570075989, 0.02223263494670391, -0.08480028063058853, 0.00024865218438208103, -0.1370166540145874, -0.07779275625944138, -0.09327369183301926, 0.14544866979122162, 0.03353102132678032, -0.05823354423046112, 0.03640027344226837, 0.0058026788756251335, -0.010683738626539707, 0.034826360642910004, -0.0013475674204528332, 0.07228146493434906, 0.00017329676484223455, 0.00754500413313508, -0.06328735500574112, 0.0458487831056118, -4.544594412436709e-05, 0.005890273954719305], [0.025621769949793816, -0.13022415339946747, -0.1563962697982788, 0.14356432855129242, -0.214046910405159, -0.0866050198674202, -0.020166905596852303, -0.10210122913122177, -0.002276913495734334, -0.002577295061200857, 0.019050901755690575, 0.0815916359424591, 0.4053806662559509, -0.046248964965343475, 0.43163400888442993, -0.04578929394483566, -0.10697272419929504, 0.13360752165317535, 0.09816678613424301, 0.10444016754627228, -0.050707440823316574, 0.0014703170163556933, -0.01643097773194313, 0.005045921541750431, -0.09117084741592407, 0.04432617872953415, -0.05266404524445534, -0.05706604942679405, -0.09443958103656769, -0.059498149901628494, -0.21719035506248474, 0.03672368451952934, 0.1015697568655014, 0.04235274717211723, 1.113824237108929e-05, -0.06210172921419144, 0.04767639562487602, 0.16940151154994965, -3.4556956961750984e-05, 0.002095963340252638], [0.033887024968862534, -0.009035654366016388, 0.11195840686559677, 0.11071905493736267, 0.13320064544677734, 0.04389170929789543, -0.021306099370121956, 0.06103886663913727, 0.009067965671420097, 0.009246669709682465, -0.07696104049682617, -0.0030724250245839357, -0.022070111706852913, 0.40090233087539673, -0.6460070013999939, -0.10825230926275253, 0.05437542498111725, 0.09558818489313126, -0.07691188901662827, 0.06086203455924988, 0.022335374727845192, 0.0008360273204743862, -0.0064903125166893005, 0.08769766986370087, 0.20927979052066803, -0.015589200891554356, 0.1645902544260025, -0.01033036969602108, 0.028860557824373245, 0.14812692999839783, -0.1256900280714035, 0.14846131205558777, -0.16467399895191193, -0.10606720298528671, -3.2069612643681467e-05, 0.06570501625537872, 0.022913074120879173, -0.10344593226909637, -3.339696559123695e-05, -0.008079489693045616], [-0.24777762591838837, -0.0005564680905081332, 0.4633537828922272, 0.13585862517356873, -0.003599251387640834, 0.6398021578788757, -0.00011433445615693927, 0.03467801585793495, 0.0073107946664094925, 0.007523172069340944, 0.9634078741073608, -0.04970137029886246, 0.20603710412979126, 0.23529623448848724, 0.25717923045158386, 2.5814976692199707, 0.3264622390270233, -1.6257179975509644, 0.06359688192605972, -0.13663889467716217, -0.07910357415676117, 0.0001355532294837758, 0.2561475336551666, 0.20895931124687195, 0.49440452456474304, 0.09531564265489578, 0.11400128155946732, 0.4147123694419861, -0.25500109791755676, -0.07152631878852844, 1.3000482320785522, -0.9054619669914246, -0.09839203208684921, -0.36859962344169617, 0.0001681922876741737, -0.15613974630832672, 0.1231580302119255, -0.19774402678012848, -6.141418270999566e-05, -0.006180344149470329], [-0.4550173878669739, -0.08538767695426941, 0.14207758009433746, -0.10267830640077591, -0.09024587273597717, 1.5691648721694946, -0.41993144154548645, 0.1871594339609146, 0.0011239915620535612, -0.0001277780393138528, 1.8944783210754395, 0.13278691470623016, -0.12235534191131592, -0.030757058411836624, 0.022465037181973457, 0.2613116502761841, 0.05783294513821602, -0.8472244143486023, -0.28487059473991394, -0.0941280797123909, 0.02396690659224987, 0.0063858432695269585, 0.34555235505104065, -0.15202894806861877, -0.0655808076262474, 0.03704831749200821, -0.040995776653289795, 0.42863044142723083, -0.6425024271011353, -0.15228679776191711, 0.3049207627773285, 0.13273608684539795, 0.053696975111961365, -0.1551976054906845, 0.00045873402268625796, -0.0997404158115387, -0.10525869578123093, -0.04563760384917259, -9.812221105676144e-05, -0.0013381997123360634], [0.01629912294447422, -0.311278373003006, 0.068735271692276, -0.01759161800146103, 0.026400772854685783, 0.009152352809906006, -0.04592004045844078, 0.07532622665166855, 0.0017074175411835313, 0.0014898835215717554, 0.017058325931429863, 0.3436685800552368, 0.5387581586837769, -0.3326822817325592, -0.3543006479740143, 0.020075982436537743, 0.18717624247074127, -0.0016958701889961958, 0.06702521443367004, 0.0912541076540947, 0.16516104340553284, 0.0007893232395872474, 0.0441446490585804, -0.0504067987203598, -0.053917624056339264, 0.012398796156048775, 0.4480392634868622, 0.037550803273916245, 0.0040925792418420315, 0.34986811876296997, -0.07146729528903961, -0.039662621915340424, -0.05960214510560036, -0.08910934627056122, 0.00020548905013129115, -0.06377013027667999, 0.21582277119159698, -0.009875711984932423, -5.101745955471415e-06, -0.0014614093815907836], [0.12349007278680801, 0.19456300139427185, 0.11380556225776672, -0.12757724523544312, -0.13413065671920776, -1.0141832828521729, 0.3853641450405121, 0.14248499274253845, -0.010723506100475788, -0.011535216122865677, -1.5072877407073975, -0.0006700233789160848, -0.23178350925445557, -0.2767670154571533, 0.05721208080649376, -0.10592681914567947, 0.10211692750453949, 0.252385675907135, 0.0007703853189013898, 0.09308386594057083, -0.11700961738824844, 0.00432470440864563, -0.32301461696624756, 0.32466769218444824, 0.09927678108215332, -0.005660483613610268, -0.05817679688334465, -0.4966011047363281, 0.15012679994106293, 0.15339215099811554, -0.05618930608034134, 0.2719890773296356, 0.10367169976234436, -0.3143059015274048, 0.0001272955851163715, 0.12231343239545822, 0.060705170035362244, -0.11627478897571564, 1.4306988305179402e-05, 0.009774056263267994], [-0.007499787025153637, -0.019091611728072166, 0.0012299082009121776, 0.0064911385998129845, -0.005328705534338951, -0.016874011605978012, 0.01259388867765665, -0.11413314193487167, -0.006056215148419142, -0.00569068593904376, -0.01642693020403385, -0.12401245534420013, 0.0690356120467186, 0.011156798340380192, -0.007669329177588224, -0.02390900067985058, 0.002368086250498891, -0.006789234466850758, 0.13815703988075256, -0.05521903559565544, -0.07775899022817612, 0.00010749642387963831, -0.08015593141317368, 0.026760628446936607, 0.035047609359025955, -0.06722680479288101, -0.05285808816552162, -0.021557500585913658, -0.010071063414216042, 0.04617646709084511, 0.005535139236599207, 0.008448438718914986, 0.027638504281640053, -0.025564774870872498, -2.2450667529483326e-05, 0.025687098503112793, 0.050059132277965546, 0.06280846893787384, 3.329801984364167e-05, 0.005516522563993931], [-0.015651443973183632, 0.22822238504886627, 0.044011957943439484, 0.1958509385585785, 0.07050332427024841, -0.10193019360303879, 0.576600193977356, -0.137802392244339, -0.02638375386595726, -0.024974139407277107, -0.08831609040498734, 0.04054683446884155, 0.23301474750041962, -0.11871939152479172, -0.05061383917927742, -0.2820408344268799, -0.012037730775773525, 0.21428586542606354, 0.01980692893266678, 0.003474306082352996, 0.02344316616654396, 0.005961416754871607, -0.25620564818382263, -0.20259547233581543, 0.0333734005689621, -0.1093929335474968, -0.16700653731822968, -0.013876006938517094, 0.1885054111480713, 0.09042906761169434, -0.08654426038265228, 0.031146734952926636, -0.032239507883787155, 0.08289944380521774, 0.0002214520500274375, 0.050201524049043655, -0.06016311049461365, -0.1175495982170105, 1.1648705367406365e-05, 0.026065601035952568], [-0.06046698987483978, 0.10643711686134338, -0.052977778017520905, -0.04538973048329353, 0.07177475839853287, -0.06713254004716873, -0.08368830382823944, -0.09441483020782471, 0.0059192245826125145, 0.005781395360827446, 0.058215364813804626, 0.4870682656764984, 0.5417274236679077, -0.1616312861442566, 0.04366018995642662, -0.010771241970360279, 0.017422210425138474, 0.05309033766388893, 0.05374440550804138, 0.01984749734401703, 0.22637394070625305, -0.00019858308951370418, 0.031663645058870316, 0.059926100075244904, -0.05646268278360367, -0.0010182388359680772, 0.03196060284972191, 0.013219144195318222, 0.041233278810977936, -0.09424468129873276, -0.03306055814027786, 0.015904244035482407, 0.03340016305446625, -0.05002545937895775, -6.716849748045206e-05, 0.011162917129695415, -0.03308340534567833, -0.002946894383057952, -4.9138994654640555e-05, -0.005595071706920862], [-0.0022597413044422865, 0.005735314451158047, -0.0020986993331462145, -0.001255362294614315, 0.013716477900743484, -0.0025615335907787085, 0.003621139796450734, -0.0005333477747626603, -0.0029233682435005903, -0.0026248213835060596, 0.006807956378906965, 0.0007549400324933231, -0.0008683155756443739, -0.0009826698806136847, 0.005120053421705961, -0.0059174783527851105, 0.0001090716032194905, -0.0017854903126135468, -0.0014375916216522455, -0.009319756180047989, -0.0019364651525393128, 0.0010765655897557735, -0.0001688943593762815, -0.002054742770269513, 0.00398093881085515, 0.002739893738180399, 0.0072671519592404366, 0.003704122733324766, 0.004449206870049238, -0.00709447730332613, -0.0038585246074944735, -0.00947758462280035, 0.0023940845858305693, -0.0006388857727870345, 6.363764259731397e-05, 0.0008861197857186198, 0.004648290108889341, 0.002160102128982544, -1.7679823940852657e-05, 0.0030220276676118374], [-0.16462460160255432, 0.10130466520786285, -0.05893320590257645, 0.04534713178873062, -0.008125881664454937, -0.17051808536052704, -0.044052574783563614, 0.14241327345371246, 0.00494694709777832, 0.005553486756980419, -0.06302804499864578, 0.014065897092223167, 0.17435088753700256, 0.06206353381276131, 0.06741810590028763, -0.4657977223396301, -0.04795590788125992, 0.43738678097724915, 0.07774227857589722, 0.03617923706769943, -0.0132224066182971, -0.0004261396825313568, -0.006052818614989519, 0.04678066447377205, -0.058251846581697464, 0.08254481852054596, -0.10855382680892944, 0.2869911193847656, 0.026834551244974136, -0.04881683737039566, -0.0018173162825405598, 0.1746196448802948, 0.03370680660009384, -0.011555111967027187, 0.0001229973422596231, -0.02045278251171112, -0.12485335022211075, -0.19054119288921356, -5.207287358643953e-06, -0.006348178256303072], [0.03399347886443138, -0.12221728265285492, 0.11569701135158539, -0.007077466230839491, -0.15145234763622284, 0.4739167392253876, 0.44567161798477173, -0.023374788463115692, -0.024105515331029892, -0.021329747512936592, 0.36986371874809265, -0.04835730418562889, -0.014471669681370258, 0.2123500257730484, 0.0943695530295372, -0.10260409116744995, 0.11482813954353333, -0.04561792314052582, 0.1293085813522339, 0.12296014279127121, 0.007487449795007706, -0.002442705910652876, -0.011026903986930847, -0.08585020899772644, 0.058175310492515564, 0.02059277333319187, 0.04145674780011177, 0.1671040803194046, -0.08338715881109238, -0.053356900811195374, 0.16183874011039734, -0.05471654236316681, 0.0267915241420269, 0.054614413529634476, -0.0005529664922505617, -0.11318620294332504, 0.00774121331050992, 0.018294429406523705, 0.0002144887112081051, 0.023036422207951546], [0.027619289234280586, -0.018275750800967216, -0.1335238218307495, -0.11653916537761688, 0.05099831148982048, 0.30577224493026733, -0.11061413586139679, -0.12507052719593048, 0.0085521275177598, 0.006604719441384077, 0.2005121111869812, 0.13913600146770477, 0.09546017646789551, 0.07430446892976761, 0.8882954716682434, 0.3459846079349518, 0.32467320561408997, -0.40735116600990295, 0.11133060604333878, 0.001707210554741323, -0.012830255553126335, 