{"model_data": {"model": "SimpleRNN", "input_size": 1, "skip": 0, "output_size": 1, "unit_type": "LSTM", "num_layers": 1, "hidden_size": 28, "bias_fl": true}, "state_dict": {"rec.weight_ih_l0": [[0.004248094744980335], [0.11029095202684402], [0.1098456010222435], [-0.4077543020248413], [0.11658384650945663], [0.02633301354944706], [-0.011479650624096394], [0.12971648573875427], [0.15274299681186676], [0.12094614654779434], [-0.016560837626457214], [0.30878832936286926], [0.18373893201351166], [-0.04956087842583656], [0.42801105976104736], [0.19914156198501587], [-0.0346064455807209], [0.1532268524169922], [-0.05398780107498169], [0.0745312049984932], [0.1360320895910263], [0.430340975522995], [-0.09207551926374435], [0.16656659543514252], [0.16467206180095673], [-0.06654531508684158], [0.2618149220943451], [0.10185948014259338], [-0.09014102071523666], [-0.11979176104068756], [-0.2586700916290283], [-0.1347501426935196], [-0.07287418097257614], [0.10814909636974335], [-0.04130326211452484], [0.015042435377836227], [0.11499152332544327], [0.045811962336301804], [-0.006220739800482988], [0.06630691885948181], [-0.006218144670128822], [-0.09458085894584656], [0.28239190578460693], [0.11090806871652603], [-0.012442357838153839], [0.14258643984794617], [0.14024072885513306], [0.07576365768909454], [-0.3243657648563385], [0.1890278160572052], [-0.06056716665625572], [0.1389402598142624], [-0.14790891110897064], [0.07596953213214874], [-0.37220415472984314], [0.1828211545944214], [-0.2797946035861969], [0.44322502613067627], [-0.28243836760520935], [0.5143764615058899], [-3.52024507522583], [0.0678294450044632], [0.03094959817826748], [0.23305360972881317], [-0.12762393057346344], [0.17587725818157196], [-0.0689011737704277], [-0.1870523989200592], [0.1296675056219101], [-0.593710720539093], [-0.21061450242996216], [-4.471598148345947], [0.22180117666721344], [1.2009587287902832], [0.2928386628627777], [-0.010494441725313663], [-1.6717112064361572], [0.046079859137535095], [-0.17829933762550354], [-0.3617914021015167], [1.7580848932266235], [0.1404101401567459], [0.4413217306137085], [0.2405627816915512], [-0.09052587300539017], [0.2996912896633148], [-0.06153734400868416], [-0.6327875256538391], [0.053161412477493286], [0.04809680953621864], [-0.12038004398345947], [0.11564554274082184], [0.22321218252182007], [-0.17075215280056], [0.012631654739379883], [-0.08382704854011536], [0.11666601151227951], [-0.15178123116493225], [0.3731505274772644], [0.16005733609199524], [0.04351506754755974], [0.21577684581279755], [0.1570827066898346], [0.13680747151374817], [0.3386208117008209], [-0.3989238739013672], [0.07858280092477798], [0.278026819229126], [-0.5558006763458252], [-0.1510598212480545], [-0.05819595232605934], [0.12796543538570404]], "rec.weight_hh_l0": [[0.057318031787872314, -0.03891202434897423, 0.2158353179693222, 0.1725705862045288, -0.021893413737416267, -0.026661671698093414, -0.06458483636379242, -0.3455125689506531, -0.13054729998111725, 0.0009618308977223933, 0.007264593616127968, 0.15641792118549347, -0.35304132103919983, -0.07023578882217407, -0.10223183780908585, 0.17020991444587708, 0.03287337347865105, -0.19315394759178162, -0.11442318558692932, 0.0014524627476930618, 0.47980886697769165, 0.11617667973041534, -0.09567844122648239, 0.20973876118659973, -0.1065855547785759, 0.03380927816033363, -0.06063010171055794, -0.059342168271541595], [0.034022193402051926, -0.4133337140083313, -0.0584552139043808, -0.7506362795829773, -0.13850416243076324, -0.09044703841209412, -0.12161058932542801, 0.1790006309747696, -0.18356604874134064, -0.14249296486377716, -0.4538450837135315, -0.6045379042625427, -0.12356214970350266, -0.31732863187789917, -0.24352948367595673, 0.32309019565582275, -0.8016100525856018, 0.3955591320991516, -0.24208281934261322, -0.3347439467906952, 0.05513518303632736, -0.7083452343940735, 0.3006100058555603, -0.4859895706176758, -0.4131831228733063, 0.07764090597629547, 0.04065380245447159, -0.33722788095474243], [0.059039484709501266, 0.018971320241689682, 0.0017670536180958152, -0.001176403253339231, -0.38180872797966003, 0.11567751318216324, -0.016902828589081764, -0.08476897329092026, 0.0608108714222908, -0.049518078565597534, -0.24396152794361115, -0.05299953371286392, 0.3080480396747589, 0.07125898450613022, -0.08973320573568344, 0.04544001445174217, 0.1391969919204712, 0.028745103627443314, -0.05752382054924965, 0.2307874858379364, -0.0428883358836174, -0.07145033031702042, -0.13447703421115875, -0.09514954686164856, 0.13468408584594727, -0.024061888456344604, 0.15436041355133057, 0.4974595308303833], [0.13797004520893097, 0.7960805892944336, -0.0631670132279396, -0.3679673373699188, 0.40674811601638794, -0.10543277859687805, 0.0726548582315445, -0.007049711886793375, -0.14972025156021118, -0.18181546032428741, -0.6323863863945007, -0.8631783723831177, 0.006597669329494238, -0.4742525517940521, -0.3321523666381836, -0.3926546573638916, -0.7014083862304688, 0.151139035820961, -0.08740513026714325, -0.44919076561927795, 0.24094922840595245, -0.02141493558883667, -0.11587710678577423, -0.13190321624279022, -0.6131648421287537, 0.05710706487298012, 0.16763584315776825, -0.33339229226112366], [0.12901349365711212, -0.14936475455760956, 0.17493225634098053, 0.5419066548347473, -0.022215960547327995, -0.0004333193937782198, -0.019414830952882767, -0.1840428113937378, 0.06198255345225334, 0.05365952104330063, 0.5302567481994629, 0.5051605105400085, 0.07488854974508286, 0.10473329573869705, 0.1457587331533432, -0.07269681245088577, 0.6284494400024414, -0.12181048840284348, -0.1348765641450882, 0.11865544319152832, -0.08735036849975586, 0.283134400844574, -0.017708204686641693, 0.1582377552986145, 0.2003736048936844, -0.14749333262443542, 0.15426993370056152, 0.2101374715566635], [0.026118053123354912, -0.07569513469934464, -0.07189716398715973, 0.0022048635873943567, -0.036798469722270966, 0.036579765379428864, 0.0036085445899516344, 0.1212518960237503, 0.09055667370557785, -0.11009421199560165, 0.007665816694498062, 0.07532118260860443, -0.02405906468629837, -0.007529528811573982, 0.04897168278694153, 0.03779968246817589, 0.07800257205963135, 0.0671398863196373, 0.05376464128494263, 0.08795147389173508, 0.08151554316282272, -0.041200026869773865, 0.11572717130184174, -0.007793910801410675, -0.10519751161336899, -0.07483170181512833, 0.040801722556352615, -0.041258301585912704], [-0.12010291963815689, 0.0910332128405571, -0.11284717917442322, -0.1798747479915619, -0.10124502331018448, -0.029461687430739403, 0.15465311706066132, 0.34100019931793213, -0.13769325613975525, 0.020969465374946594, 0.08280854672193527, -0.13334453105926514, -0.008219723589718342, -0.17536424100399017, -0.022779356688261032, -0.08786969631910324, -0.09847895056009293, 0.12118084728717804, -0.13250862061977386, 0.008917936123907566, 0.09158170223236084, -0.12030666321516037, -0.031516969203948975, -0.09544067829847336, 0.22092942893505096, -0.050691746175289154, -0.04295801371335983, -0.21462687849998474], [-0.1462814062833786, 0.3106902241706848, 0.0371987409889698, -0.28369519114494324, 0.1047547459602356, 0.05071735009551048, 0.5030147433280945, -0.018061788752675056, -0.20621825754642487, 0.21741485595703125, 0.07523779571056366, -0.8511176109313965, 0.12322788685560226, 0.27860674262046814, -0.4967615604400635, 0.0108571108430624, -0.9692469835281372, 0.13572271168231964, 0.08175892382860184, 0.04794895648956299, -0.16310344636440277, -0.26576608419418335, 0.1005564033985138, 0.26682549715042114, 0.013570336624979973, 0.13982878625392914, -0.02658102475106716, -0.33765244483947754], [-0.14628414809703827, 0.018388355150818825, 0.022711295634508133, -0.01757187396287918, 0.07097128033638, 0.17756889760494232, -0.07066569477319717, -0.05243929475545883, 0.14923155307769775, 0.052810944616794586, -0.20620158314704895, -0.6466763019561768, 0.29772359132766724, 0.3605235517024994, 0.030809633433818817, 0.09929036349058151, -0.5959573984146118, 0.04084891453385353, 0.09675195068120956, -0.001124142319895327, 0.0819791629910469, -0.016295360401272774, 0.27564606070518494, -0.003944921772927046, -0.09880482405424118, -0.15292422473430634, 0.23758509755134583, 0.020771494135260582], [-0.1481236219406128, 0.1360745131969452, -0.04062226042151451, 0.010630247183144093, 0.006623866967856884, -0.03573775291442871, -0.11082888394594193, 0.10441941022872925, -0.24703215062618256, 0.1727866232395172, -0.21327157318592072, -0.3588120639324188, -0.06934056431055069, 0.26076915860176086, -0.02938634343445301, 0.2454182654619217, -0.33965709805488586, -0.05119325593113899, -0.1445460468530655, -0.04983944818377495, 0.13804779946804047, -0.01651175692677498, 0.20364901423454285, -0.14796003699302673, -0.25293639302253723, -0.04600094258785248, -0.31512901186943054, -0.30729174613952637], [-0.1805347055196762, -0.0751752033829689, 0.06702349334955215, -0.05365558713674545, 0.07219160348176956, 0.0657263770699501, 0.04738235846161842, -0.008490113541483879, 0.10555887967348099, 0.039295267313718796, 0.09756771475076675, 0.11034280806779861, -0.053247757256031036, -0.051900774240493774, 0.01769506372511387, 0.140693798661232, 0.21572861075401306, -0.027999132871627808, -0.04935595020651817, -0.08619847893714905, 0.3249533176422119, 0.07904451340436935, -0.08867457509040833, 0.06112115830183029, -0.13016511499881744, 0.024405337870121002, 0.08221344649791718, 0.04384961724281311], [-0.12014219909906387, 0.034432560205459595, 0.06060236692428589, 0.2095191925764084, -0.05299052968621254, -0.05217651650309563, 0.11802209168672562, -0.1933041661977768, -0.2258635014295578, 0.13688141107559204, -0.0013098142808303237, 0.14281298220157623, -0.1450207382440567, -0.034435249865055084, -0.09811250120401382, 0.1359177529811859, 0.042828772217035294, 0.05895115062594414, 0.05716799944639206, -0.11051665991544724, 0.1001272201538086, 0.1568804830312729, -0.049410395324230194, -0.1348583996295929, -0.33811497688293457, -0.15274950861930847, 0.1682787835597992, 0.01576310768723488], [-0.008207702077925205, 0.08007786422967911, 0.1741156131029129, 0.22048790752887726, 0.03998398408293724, 0.15029747784137726, -0.08381713181734085, -0.3718462884426117, 0.2479272335767746, -0.19976358115673065, 0.011820076033473015, 0.4723348915576935, -0.35904812812805176, -0.10003761947154999, -0.13425283133983612, 0.14731693267822266, 0.21081697940826416, -0.3230736255645752, -0.005319887772202492, 0.158761128783226, 1.0442397594451904, -0.0049087880179286, -0.3198009133338928, 0.11819616705179214, -0.11911419034004211, -0.08237984031438828, 0.08811133354902267, 0.20652124285697937], [0.008896936662495136, -0.21337854862213135, 0.08860837668180466, -0.14650985598564148, -0.15847834944725037, -0.14852751791477203, -0.060845937579870224, 0.06185702234506607, -0.0007877243333496153, -0.022524908185005188, -0.0523911714553833, 0.16822631657123566, 0.0420461967587471, 0.02751557156443596, 0.02408760040998459, 0.1942700296640396, 0.19747406244277954, -0.06656540930271149, 0.0490800179541111, -0.07209919393062592, 0.28068798780441284, -0.22862128913402557, 0.1088293120265007, -0.020486298948526382, 0.22915101051330566, -0.024975668638944626, 0.09189805388450623, 0.05058968439698219], [0.027814049273729324, 0.06890902668237686, 0.09646857529878616, -1.071079134941101, -0.6143687963485718, 0.022632760927081108, -0.1464187502861023, 0.07633023709058762, -0.07221367955207825, -0.022504327818751335, -0.25556010007858276, -0.4561241567134857, 0.1928209662437439, -0.12509173154830933, -0.025204485282301903, 0.30670368671417236, -0.8801766037940979, 0.7305349111557007, -0.18057125806808472, -0.11774101853370667, 0.025968389585614204, -0.6789509654045105, 0.17783936858177185, 0.1840299367904663, -0.33015716075897217, 0.17680063843727112, -0.11392107605934143, -0.05189937725663185], [-0.2736929655075073, -0.4484490156173706, 0.35700705647468567, 1.0435322523117065, 0.49815601110458374, -0.04853062331676483, 0.22872810065746307, -0.9355795383453369, 0.03260183706879616, -0.14185036718845367, 0.16142870485782623, 0.6280110478401184, 0.19590991735458374, 0.22643785178661346, 0.8698300719261169, 0.04916665703058243, -0.09646651893854141, 0.09488607943058014, -0.20015205442905426, 0.051728565245866776, -0.04251056909561157, 0.9696578979492188, -0.03654065355658531, 0.08488856256008148, 0.013204900547862053, -0.06537792086601257, -0.07420247048139572, -0.18207821249961853], [-0.03332331404089928, -0.06880176067352295, 0.06971997022628784, 0.005929418373852968, 0.06978408992290497, 0.017038287594914436, -0.05837470293045044, 0.09964535385370255, -0.15579278767108917, -0.049063555896282196, 0.05528712272644043, 0.08904659748077393, -0.06569983810186386, -0.07366833835840225, 0.009611359797418118, -0.014769504778087139, 0.19832414388656616, -0.04570337012410164, 0.08401469141244888, -0.04777635261416435, 0.06040544807910919, -0.0898272767663002, -0.05669476464390755, 0.08973604440689087, 0.020108504220843315, -0.0357966385781765, 0.06355021893978119, 0.06433218717575073], [0.02983064576983452, -0.01563178189098835, 0.13514669239521027, 0.24411870539188385, -0.24231988191604614, 0.008204158395528793, 0.051039502024650574, 0.013159354217350483, -0.03895222023129463, -0.016889110207557678, 0.39844194054603577, 0.3438880741596222, 0.009882993996143341, 0.012157902121543884, -0.043276503682136536, -0.13603125512599945, 0.37792518734931946, -0.056399233639240265, -0.06492256373167038, 0.12552808225154877, -0.11224815994501114, 0.1673467606306076, -0.11828465014696121, 0.03205522894859314, 0.1656639575958252, 0.020118137821555138, -0.03400648012757301, 0.18161988258361816], [0.25109508633613586, -0.2010226547718048, -0.190263032913208, -0.3628392219543457, 0.032180577516555786, -0.12690016627311707, 0.24468854069709778, 0.06254314631223679, -0.12645114958286285, -0.07020322233438492, -0.08292286843061447, -0.689931333065033, -0.33477500081062317, -0.18127956986427307, -0.282897025346756, 0.2335435003042221, -1.0165027379989624, 0.36595261096954346, 0.2320227473974228, -0.11609086394309998, 0.08799552172422409, -0.2083638310432434, 0.11536172777414322, -0.4144710600376129, -0.4109874367713928, 0.001100690569728613, 0.19957335293293, -0.12472249567508698], [0.03117852658033371, 0.009541296400129795, 0.06700347363948822, 0.1734515130519867, 0.02971320040524006, -0.20991255342960358, -0.10642838478088379, -0.34536075592041016, 0.11501926928758621, 0.09983260184526443, 0.1737905591726303, -0.11433520168066025, 0.09769736230373383, -0.0015724884578958154, -0.04824185371398926, -0.0989726334810257, -0.12268007546663284, 0.07207439094781876, -0.13374751806259155, -0.08886244148015976, 0.22041600942611694, -0.16514216363430023, -0.08553052693605423, -0.1132378950715065, -0.17699392139911652, 0.09743210673332214, -0.1443217247724533, 0.2871061861515045], [-0.10716152936220169, -0.008456571027636528, 0.050584472715854645, 0.3471733331680298, -0.09203546494245529, 0.04724554345011711, -0.020279329270124435, -0.2434021532535553, 0.05087651312351227, -0.16268599033355713, 0.22919422388076782, 0.4220784604549408, -0.007798163685947657, -0.06343618780374527, -0.03582235425710678, -0.12736807763576508, 0.3997254967689514, -0.06696689128875732, 0.03391589596867561, 0.19374576210975647, 0.27336880564689636, 0.35386696457862854, -0.2529342472553253, 0.2410319447517395, 0.04713260382413864, -0.06432415544986725, -0.09878639876842499, -0.08161620795726776], [0.10257015377283096, 0.45620104670524597, -0.008462490513920784, -0.4389207661151886, 0.4906143844127655, -0.08026909083127975, -0.22965063154697418, 0.1055583655834198, 0.15961387753486633, 0.06304730474948883, -0.5378451943397522, -0.7676461338996887, 0.00454113120213151, -0.2676304578781128, -0.38336896896362305, 0.14440059661865234, -0.3609068691730499, 0.047968991100788116, -0.2553689479827881, -0.14426402747631073, -0.324936181306839, -0.09830915927886963, 0.027453692629933357, -0.2507387697696686, 0.017351770773530006, 0.11715736985206604, 0.23070460557937622, -0.40332019329071045], [-0.005862236488610506, 0.4445425570011139, 0.35137873888015747, -0.07783645391464233, -0.15682412683963776, -0.18420349061489105, 0.16356773674488068, 0.14177830517292023, 0.1212487444281578, -0.10618510842323303, -0.16001202166080475, 0.012549960054457188, -0.09770310670137405, -0.0464419350028038, -0.09907278418540955, -0.2449813187122345, -0.3196025788784027, 0.2716461420059204, -0.22234787046909332, -0.03974224627017975, 0.019733404740691185, -0.044971805065870285, 0.2214362919330597, -0.03384355455636978, -0.4365282952785492, -0.06402521580457687, 0.1219554990530014, 0.0657946839928627], [0.2368248701095581, -0.0708295926451683, -0.1402697116136551, 0.05802784860134125, -0.15599176287651062, 0.005798931699246168, -0.05399758741259575, 0.1299089640378952, 0.02088954485952854, -0.14734284579753876, 0.1581060290336609, 0.035103168338537216, 0.03485765680670738, -0.002113612135872245, -0.023401319980621338, -0.13245192170143127, 0.09135796874761581, 0.06606822460889816, 0.06282317638397217, -0.09451158344745636, -0.2394256293773651, 0.032887596637010574, -0.04223434627056122, 0.03922191262245178, 0.07100079953670502, -0.06151621788740158, 0.1184590682387352, -0.13183121383190155], [-0.0015297159552574158, -0.10332454741001129, 0.04198199510574341, 0.21371307969093323, -0.06838755309581757, 0.029118038713932037, 0.044452473521232605, -0.14168323576450348, 0.1663431078195572, -0.04064279794692993, 0.24455876648426056, 0.434384286403656, 0.15654170513153076, -0.09621899574995041, 0.04283948615193367, 0.032252613455057144, 0.517107367515564, -0.09709244966506958, -0.06538376212120056, 0.12598268687725067, 0.02050917036831379, 0.22846201062202454, -0.08560260385274887, 0.1298656016588211, 0.02078913524746895, -0.017450930550694466, -0.05541830137372017, 0.12084399908781052], [-0.21954166889190674, 0.0873354896903038, 0.09374387562274933, 0.23426976799964905, 0.23887570202350616, 0.08495035022497177, 0.14489656686782837, -0.313083291053772, 0.058129169046878815, 0.04744700714945793, 0.1929723471403122, 0.29648929834365845, -0.18284577131271362, 0.10279207676649094, 0.024026604369282722, 0.026972606778144836, 0.24992555379867554, -0.2031508982181549, 0.06980499625205994, 0.19010168313980103, 0.37296348810195923, -0.0021364393178373575, -0.11802919209003448, 0.17123538255691528, -0.06763311475515366, -0.10366881638765335, -0.1546785682439804, -0.06177755072712898], [0.7125380039215088, 0.1806941032409668, 0.1534707099199295, 0.4482455849647522, -0.34674912691116333, -0.04072282090783119, 0.3771355152130127, 0.4946526885032654, 0.8766307830810547, 0.23533783853054047, -0.023499444127082825, 0.3918984532356262, 0.5830538868904114, 0.01020297221839428, 0.036508191376924515, -0.20667751133441925, 0.5956037640571594, 0.19971683621406555, -0.1552431434392929, 0.4371510148048401, 0.2418556958436966, 0.30599504709243774, -0.1237727701663971, 0.20049269497394562, -0.5456446409225464, -0.08217533677816391, -0.3587373197078705, 0.09503906965255737], [0.03582723066210747, 0.19230534136295319, 0.14675965905189514, 0.035237569361925125, 0.09025797992944717, 0.20783844590187073, 0.035826485604047775, 0.05862009525299072, 0.06242901831865311, -0.017177904024720192, -0.018720071762800217, -0.14269721508026123, -0.08348480612039566, -0.020935852080583572, 0.027957359328866005, 0.03391366824507713, -0.04942790046334267, -0.043454594910144806, -0.09461066871881485, -0.29381823539733887, -0.02426650933921337, -0.026745382696390152, 0.016999663785099983, -0.027444256469607353, -0.05225168913602829, -0.16303594410419464, 0.5134825706481934, -0.0682477355003357], [0.04555346071720123, -0.10943929851055145, 0.2611560523509979, 0.02304212935268879, -0.12257903069257736, -0.026552829891443253, 0.1158214658498764, -0.2819298505783081, -0.17388111352920532, 0.1386721134185791, -0.2927895784378052, 0.07216141372919083, -0.07324893772602081, -0.3792537450790405, -0.06740700453519821, 0.13761135935783386, 0.07031390070915222, -0.0765693262219429, -0.15597933530807495, -0.02212458662688732, 0.5253864526748657, 0.16512678563594818, 0.011905613355338573, 0.15401339530944824, -0.18148921430110931, -0.14987482130527496, 0.19425387680530548, 0.13534756004810333], [-0.20194530487060547, 0.32590964436531067, -0.055789798498153687, 0.08392960578203201, 0.16706523299217224, 0.06786380708217621, 0.1845877319574356, -0.44923290610313416, 0.19392740726470947, 0.24769367277622223, 0.4901275038719177, 0.8529137969017029, -0.07479531317949295, -0.08504341542720795, -0.1219123899936676, -0.675677478313446, 1.1722129583358765, -0.046064358204603195, 0.28283318877220154, 0.3780778646469116, 0.1575198918581009, 0.5912621021270752, -0.36235907673835754, 0.13811306655406952, 0.5677570104598999, 0.10790939629077911, -0.033685553818941116, 0.5097987651824951], [-0.36547884345054626, -0.009492800571024418, -0.6034967303276062, 0.08105777204036713, 0.19636815786361694, -0.12959478795528412, 0.05426139757037163, -0.44139382243156433, 0.10674146562814713, 0.10032105445861816, -0.07686102390289307, -0.06903570890426636, -0.08182767778635025, 0.16984249651432037, -0.07690487056970596, 0.07354433834552765, 0.07128852605819702, -0.08244938403367996, -0.4114686846733093, 0.18178988993167877, -0.043322473764419556, 0.03978385776281357, -0.05162123218178749, -0.0005427505820989609, 0.5002626180648804, -0.05668926611542702, 0.4208017587661743, 0.43732258677482605], [-0.32794296741485596, -0.17414408922195435, 0.08106992393732071, -0.18780523538589478, 0.056577205657958984, 0.09723364561796188, -0.20419815182685852, 0.013124636374413967, -0.10661446303129196, -0.1262647807598114, 0.029590554535388947, 0.8335561156272888, -0.027780717238783836, 0.020587820559740067, 0.24312067031860352, 0.13079771399497986, 0.7048876285552979, -0.31835824251174927, -0.21888475120067596, 0.27929192781448364, 0.3818743824958801, 0.05803314223885536, 0.2752988636493683, 0.22386343777179718, 0.4235103726387024, -0.30228084325790405, -0.23546776175498962, 0.47214165329933167], [0.3021746873855591, -0.08468745648860931, 0.009344514459371567, 0.6120248436927795, 0.47799423336982727, 0.06771224737167358, -0.1337130218744278, -0.27928876876831055, 0.1630224883556366, 0.3256039321422577, 0.597954273223877, -0.10683668404817581, -0.07827815413475037, 0.39242690801620483, 0.30636292695999146, -0.5096246004104614, 0.22166912257671356, -0.20912118256092072, 0.04506717249751091, 0.09034252166748047, -0.07822659611701965, 0.019794343039393425, -0.2074650526046753, 0.38622769713401794, 0.24469658732414246, -0.0006054266123101115, 0.08712911605834961, -0.041428692638874054], [0.08394940942525864, -0.16290323436260223, -0.1189303994178772, 0.16357189416885376, -0.18549267947673798, 0.020032832399010658, 0.05952151119709015, 0.023717468604445457, 0.24824152886867523, -0.27997758984565735, 0.15466393530368805, 0.28912168741226196, 0.034892719238996506, -0.24432037770748138, 0.02988683618605137, -0.10990875214338303, 0.2882564067840576, -0.010349534451961517, -0.021966002881526947, 0.18363364040851593, 0.0336734764277935, 0.14964863657951355, -0.005864915903657675, 0.07629860192537308, 0.03885401412844658, -0.06412472575902939, -0.07571114599704742, 0.035113055258989334], [0.09855939447879791, -0.013003109022974968, 0.020655781030654907, -0.15680965781211853, -0.20168110728263855, -0.08765561878681183, 0.23138783872127533, 0.4689347445964813, -0.21225816011428833, -0.00519563490524888, 0.13732144236564636, 0.06669074296951294, 0.25293970108032227, -0.17726659774780273, 0.03146380931138992, -0.09466806799173355, 0.08666111528873444, 0.1830642819404602, -0.22796331346035004, 0.01350299920886755, -0.010187829844653606, -0.13167309761047363, -0.10429823398590088, -0.12025976181030273, 0.1907108873128891, -0.03857540711760521, -0.10694809257984161, -0.06553594022989273], [-0.13974863290786743, -0.4114888906478882, 0.10865398496389389, 0.2448730617761612, 0.044791679829359055, 0.007198217324912548, 0.15499147772789001, 0.13279768824577332, 0.49292445182800293, 0.06842407584190369, 0.15194299817085266, 1.3675047159194946, 0.05965306609869003, -0.3550685942173004, 0.017274310812354088, -0.032406289130449295, 1.4395179748535156, -0.019321752712130547, 0.008747288957238197, 0.18105359375476837, 0.07274513691663742, 0.3626178205013275, -0.1591515690088272, 0.1505824774503708, 0.08547943085432053, 0.054420843720436096, 0.052604496479034424, 0.5033057332038879], [-0.07120369374752045, -0.29345861077308655, -0.2082725316286087, 0.13298478722572327, 0.25967738032341003, -0.32951486110687256, 0.19677208364009857, 0.20290279388427734, -0.05649476498365402, 0.2129525989294052, 0.009895715862512589, 0.8494155406951904, -0.6136860251426697, -0.2368684858083725, -0.13488732278347015, -0.022882483899593353, 0.784002959728241, -0.2515096664428711, -0.08628232777118683, 0.15328305959701538, 0.22638025879859924, 0.2587698996067047, -0.2032855600118637, 0.1162666454911232, 0.042785607278347015, 0.055001165717840195, -0.0786755234003067, 0.5092713832855225], [-0.19253195822238922, -0.12213864177465439, -0.07685817778110504, 0.384255588054657, -0.1953551024198532, -0.028247440233826637, -0.2150559276342392, -0.1092599406838417, -0.3661506772041321, 0.13194333016872406, 0.14253556728363037, 0.47609853744506836, -0.07382947951555252, -0.12613125145435333, -0.025786105543375015, -0.03313794359564781, 0.5794446468353271, -0.1624879539012909, -0.23335829377174377, 0.018538115546107292, -0.13589082658290863, 0.43185120820999146, -0.08296888321638107, -0.06417588889598846, 0.2170843631029129, -0.027386846020817757, -0.08588672429323196, 0.035908766090869904], [-0.16290873289108276, 0.042162325233221054, 0.19411826133728027, 0.013034680858254433, -0.02718735672533512, -0.06307563930749893, 0.2007027566432953, -0.03056434541940689, 0.0168343223631382, -0.07289719581604004, -0.08672220259904861, 0.051963429898023605, -0.026340670883655548, -0.22546428442001343, -0.15898486971855164, 0.04921221733093262, 0.14360623061656952, -0.11587630212306976, -0.16678361594676971, -0.08140154927968979, 0.12482575327157974, 0.34998074173927307, 0.011041920632123947, 0.12013209611177444, -0.3153582811355591, 0.07021282613277435, -0.05089647322893143, 0.04221480339765549], [0.10687461495399475, -0.11295522749423981, 0.05459480360150337, 0.09612713009119034, 0.3567157983779907, -0.11108207702636719, 0.1055675819516182, -0.16732829809188843, -0.1727256029844284, 0.1454666405916214, 0.025846827775239944, 0.2708991467952728, -0.31964749097824097, -0.08021408319473267, -0.010327018797397614, 0.5950790047645569, 0.10090669989585876, -0.13163447380065918, -0.1473737210035324, -0.2018517404794693, 0.24455256760120392, 0.24412384629249573, 0.09753182530403137, -0.05109650269150734, -0.4121989607810974, -0.21927808225154877, 0.13223688304424286, -0.12006737291812897], [0.18843239545822144, 0.08692522346973419, 0.04958367347717285, -0.2950281500816345, 0.07016683369874954, 0.10322335362434387, -0.04838547855615616, 0.23142513632774353, 0.22014160454273224, 0.23958632349967957, -0.2580287754535675, -0.008577627129852772, -0.35791176557540894, -0.08634060621261597, -0.00259745423682034, 0.10435100644826889, -0.08517948538064957, -0.08165973424911499, -0.15046140551567078, -0.15199381113052368, 0.24986959993839264, -0.24287378787994385, 0.27333298325538635, -0.012231027707457542, -0.02683476358652115, 0.21294723451137543, 0.08812388777732849, 0.2685633599758148], [-0.07686497271060944, -0.2541120648384094, 0.0927068293094635, -0.11942160129547119, -0.23164191842079163, -0.15878038108348846, -0.010891384445130825, 0.03744139149785042, 0.07860404253005981, -0.16485263407230377, -0.12858878076076508, 0.1485147923231125, -0.11256562918424606, 0.24551302194595337, 0.03142926096916199, 0.20099222660064697, 0.07688385993242264, -0.009697145782411098, 0.2737729549407959, -0.016694383695721626, 0.341280996799469, -0.161434605717659, 0.2481531798839569, -0.026442591100931168, 0.04973851516842842, 0.027065983042120934, -0.1060495600104332, 0.022564062848687172], [-0.13753071427345276, 0.21596677601337433, -0.07530030608177185, 0.40659651160240173, 0.28082722425460815, 0.0803413838148117, 0.047736894339323044, -0.3699604570865631, 0.26292797923088074, -0.05783149227499962, 0.19767627120018005, 0.8264851570129395, -0.11851612478494644, -0.12226200848817825, -0.42116692662239075, -0.35953792929649353, 0.9814589619636536, -0.08759146183729172, 0.506537914276123, 0.2743307650089264, 0.11534462869167328, 0.413358598947525, -0.2661239802837372, 0.018729858100414276, 0.4152239263057709, -0.012108723632991314, -0.23930053412914276, 0.5034465193748474], [0.04521390423178673, -0.6748238801956177, -0.20676839351654053, 0.7044544816017151, -0.04770127683877945, 0.010989022441208363, -0.007866320200264454, -0.15016160905361176, 0.08881582319736481, 0.03681599348783493, 0.16598528623580933, 0.1295357644557953, 0.10063640773296356, 0.3353635370731354, 0.9933025240898132, 0.11151335388422012, 0.35492900013923645, 0.26419714093208313, 0.04760701209306717, -0.14831237494945526, -0.1646178662776947, 0.9030573964118958, 0.05911176651716232, 0.12145330011844635, 0.08308617770671844, 0.0824522078037262, 0.07263641804456711, 0.11570295691490173], [-0.067793108522892, 0.1444423496723175, 0.3071098327636719, 0.13140970468521118, 0.25416749715805054, 0.03701094165444374, -0.05122197046875954, 0.3280550241470337, 0.019378146156668663, 0.09563738107681274, 0.11045131832361221, 0.04359611123800278, -0.3847682774066925, -0.20967906713485718, -0.04144030809402466, -0.23141318559646606, 0.20224380493164062, 0.031202148646116257, 0.19946728646755219, 0.0862894207239151, 0.03426897153258324, -0.004861445631831884, 0.020790034905076027, 0.11305173486471176, -0.23217183351516724, -0.09658028185367584, -0.0820227786898613, 0.11700043082237244], [-0.07974892109632492, 0.36086606979370117, 0.2403913140296936, 0.058935537934303284, -0.11877754330635071, -0.007066831924021244, -0.004313434939831495, 0.05245402082800865, -0.4041084945201874, -0.06301116198301315, 0.26811090111732483, -0.07864278554916382, -0.2690337002277374, -0.07028792798519135, -0.27988284826278687, -0.36845600605010986, -0.021833743900060654, -0.10073859244585037, 0.1005774736404419, 0.15856501460075378, 0.17544220387935638, -0.25146278738975525, -0.2920428514480591, -0.2555926740169525, 0.25232452154159546, 0.09834957867860794, 0.17380784451961517, 0.3876328468322754], [0.21746769547462463, -0.2723446190357208, -0.40837374329566956, 0.40672412514686584, -0.17211894690990448, 0.12237463891506195, 0.051285166293382645, 0.03531115502119064, 0.1342700868844986, -0.02495061419904232, -0.002505325013771653, 0.9704927802085876, 0.09343741834163666, -0.5683677792549133, -0.16287757456302643, 0.003496533026918769, 0.5641969442367554, -0.04525911062955856, 0.033825602382421494, 0.27140575647354126, 0.46007752418518066, 0.23940598964691162, 0.23245744407176971, -0.12662796676158905, 0.1672135889530182, 0.13455890119075775, -0.1788296103477478, 0.19378028810024261], [-0.19229573011398315, -0.17230141162872314, -0.003892882727086544, 0.12583215534687042, 0.13723596930503845, 0.07303938269615173, 0.09690960496664047, 0.054034654051065445, -0.48037752509117126, -0.1981116682291031, 0.08034834265708923, 0.4341067373752594, -0.15875110030174255, -0.24464379251003265, -0.07537993043661118, -0.14931824803352356, 0.22429311275482178, -0.14496228098869324, 0.043379902839660645, -0.22665834426879883, -0.12468685954809189, 0.018347498029470444, 0.02579403854906559, 0.120093934237957, 0.46738457679748535, 0.22417674958705902, -0.610117495059967, 0.031548887491226196], [0.1763637810945511, -0.13396388292312622, 0.1322309821844101, -0.071811743080616, 0.46971598267555237, 0.10051155090332031, -0.47513967752456665, 0.05574320629239082, 0.027357911691069603, -0.031976427882909775, 0.08118884265422821, 0.13242748379707336, -0.3582022190093994, -0.35066989064216614, 0.04663388058543205, -0.03756919130682945, 0.10889090597629547, 0.1317453533411026, -0.18767622113227844, -0.06097283586859703, 0.5096162557601929, 0.16387981176376343, 0.07872854173183441, 0.23364821076393127, -0.22712315618991852, 0.03805917501449585, 0.23178528249263763, 0.011854681186378002], [-0.08254163712263107, 0.10450674593448639, 0.036915458738803864, -0.22912634909152985, -0.2557343542575836, 0.0023035374470055103, -0.08809258788824081, -0.3451795279979706, -0.0950850173830986, 0.017128070816397667, 0.35632067918777466, 0.8341159820556641, -0.028031300753355026, 0.3196122348308563, 0.1293627768754959, 0.0004908009432256222, 0.6586577892303467, 0.03770850971341133, -0.04550624266266823, 0.39552417397499084, 0.40558966994285583, -0.401763916015625, -0.10227827727794647, 0.37145406007766724, 0.15903478860855103, -0.031303729861974716, -0.17769108712673187, 0.316693514585495], [0.015182006172835827, 0.21024124324321747, 0.01911996304988861, -0.017583705484867096, -0.11646904796361923, -0.1644836962223053, 0.35149702429771423, -0.13604328036308289, -0.24570393562316895, 0.03917790204286575, -0.0054450188763439655, 0.5010875463485718, 0.1700301617383957, -0.2557131052017212, -0.1420668065547943, -0.08040759712457657, 0.299906462430954, 0.036653071641922, -0.4720313251018524, -0.1364108920097351, 0.3753637373447418, 0.1273333579301834, 0.03194073960185051, -0.08207283914089203, 0.3034355342388153, -0.17675046622753143, 0.4608002007007599, 0.317641943693161], [0.16111375391483307, -0.1343768984079361, -0.2702155113220215, 0.004649239592254162, -0.15297061204910278, -0.027821848168969154, -0.09266555309295654, -0.04298437014222145, 0.04230808466672897, -0.1085137203335762, 0.09182623773813248, 0.05050806328654289, -0.012720789760351181, 0.027497760951519012, -0.02285219542682171, -0.040886290371418, 0.06222014129161835, 0.07635191082954407, 0.058797623962163925, -0.13628734648227692, -0.11641452461481094, -0.06770297139883041, 0.0852082148194313, -0.060908082872629166, 0.06530309468507767, 0.029511163011193275, 0.015479645691812038, -0.2102809101343155], [-0.014212731271982193, -0.010212698020040989, -0.6369682550430298, 0.056620266288518906, -0.1367393285036087, -0.07824446260929108, 0.1274019032716751, -0.2361842840909958, 0.018376624211668968, 0.131893590092659, 0.17855514585971832, -0.251703679561615, 0.371934175491333, -0.035927388817071915, -0.11529380828142166, -0.2313256561756134, 0.20553728938102722, 0.15314379334449768, 0.06206830218434334, 0.16097435355186462, 0.036190662533044815, -0.04354414343833923, -0.06644341349601746, -0.3471554219722748, 0.31546807289123535, -0.06667403131723404, 0.11569887399673462, -0.09437867999076843], [0.18523673713207245, 0.1082429587841034, 0.36430826783180237, -0.00032242320594377816, -0.14255394041538239, 0.04019276052713394, 0.01995166949927807, 0.1184450164437294, 0.3806377351284027, -0.14601442217826843, -0.1032048761844635, -0.17283110320568085, 0.4160288870334625, 0.10479094088077545, 0.061248864978551865, -0.18681101500988007, -0.09253031015396118, 0.10992523282766342, 0.08864114433526993, 0.02982253208756447, -0.01593853160738945, -0.00634809210896492, -0.5888203382492065, -0.12147641181945801, -0.1556529700756073, 0.006929828319698572, 0.0095524275675416, -0.12687049806118011], [0.3463124930858612, 0.0061409370973706245, -0.7467500567436218, -0.1497470885515213, -0.07689323276281357, 0.14196568727493286, -0.23229745030403137, 0.34311938285827637, 0.026943333446979523, 0.2459535002708435, -0.1901819258928299, 0.4073200523853302, -0.4582987427711487, -0.23010468482971191, -0.1355149894952774, 0.24881868064403534, 0.08409197628498077, -0.136588454246521, -0.695710301399231, -0.7535184025764465, 0.24715755879878998, 0.6612799763679504, 0.13876676559448242, -0.2930793762207031, 0.5510746240615845, 0.2178746908903122, -0.10418229550123215, -0.06241436302661896], [0.2575695514678955, 0.19777259230613708, 0.1772400438785553, 0.07037772983312607, -0.23568925261497498, 0.12299076467752457, 0.11893240362405777, -0.2699095606803894, -0.0658319815993309, 0.09464143216609955, -0.04811995476484299, 0.04606878012418747, 0.2110033631324768, -0.12097252160310745, 0.03625117987394333, -0.017954863607883453, 0.05493273213505745, -0.11475854367017746, -0.2490210384130478, -0.28381258249282837, -0.17080366611480713, -0.11690717935562134, 0.0032727194484323263, -0.004576100502163172, 0.20292431116104126, -0.14503653347492218, 0.5181809067726135, -0.07139371335506439], [-0.04139050096273422, 0.034938789904117584, -0.25109967589378357, -0.2642039954662323, -0.8508107662200928, 0.04066202789545059, 0.11911377310752869, 0.504061758518219, 0.044750962406396866, 0.005952339619398117, -0.10483904182910919, 0.20101067423820496, -0.10875745117664337, -0.0753178820014, 0.19159004092216492, -0.5844671726226807, 0.005078141577541828, 0.17201757431030273, -0.1828906536102295, 0.04739543795585632, -0.5833441615104675, -0.376310795545578, -0.2693352997303009, 0.09988661855459213, -0.23497293889522552, 0.24227522313594818, 0.0187833271920681, 0.5812697410583496], [0.26019665598869324, 0.24658358097076416, -0.020171312615275383, 0.06604454666376114, -0.15632124245166779, 0.04848387464880943, -0.07237295806407928, 0.1425018459558487, 0.03983500599861145, 0.058887943625450134, -0.21077896654605865, -0.02972489222884178, 0.21020862460136414, -0.03731611743569374, -0.045563116669654846, -0.6059367656707764, 0.13701750338077545, 0.10784824192523956, -0.37446174025535583, 0.06415046751499176, -0.2625323235988617, 0.3720640242099762, -0.0756705179810524, -0.10307582467794418, 0.30473819375038147, 0.09344418346881866, 0.0023352275602519512, -0.14069002866744995], [-0.12453217804431915, 0.1644398272037506, 0.14381927251815796, 0.1579189896583557, 0.21652096509933472, -0.08045758306980133, 0.1016160249710083, 0.8135988712310791, -0.1472238451242447, 0.21958035230636597, 0.3894203007221222, 0.2571474313735962, -0.557100236415863, -0.01920444890856743, 0.18884404003620148, 0.2905583679676056, 0.06682983785867691, -0.2683274745941162, 0.17604026198387146, 0.12427277117967606, 0.09667787700891495, 0.14224737882614136, -0.07986569404602051, 0.2787885367870331, -0.20546968281269073, 0.04281940311193466, -0.047065962105989456, 0.22392284870147705], [-0.06491103768348694, 0.2868818938732147, -0.0323457308113575, -0.12517821788787842, -0.4600536823272705, -0.20017796754837036, 0.14634835720062256, -0.244126096367836, 0.015953395515680313, -0.01953228935599327, 0.1712479293346405, -0.259894460439682, -0.03377737104892731, -0.49947038292884827, 0.20800425112247467, -0.3629213571548462, 0.002714648609980941, 0.5894396305084229, 0.06375138461589813, 0.15633490681648254, -0.24334441125392914, 0.5505502223968506, -0.1862693428993225, 0.01049489714205265, 0.35038459300994873, 0.13006190955638885, 0.007767081260681152, 0.16775193810462952], [-0.07685030251741409, 0.6718424558639526, -0.21435408294200897, 0.5549914836883545, -0.292547345161438, 0.004509830381721258, -0.05032932013273239, 0.2829005718231201, -0.08374273031949997, 0.020758863538503647, 0.22635433077812195, -0.09452725201845169, -0.02718731015920639, -0.06316573172807693, -0.8377300500869751, 0.5304126739501953, 0.10913440585136414, 0.07576572895050049, 0.16182059049606323, -0.009891517460346222, -0.16458791494369507, 0.1495528668165207, 0.01840073987841606, -0.2220125049352646, -0.15468770265579224, 0.12353502213954926, 0.050451330840587616, 0.058916959911584854], [0.04239605367183685, 0.16891895234584808, -0.01983327977359295, -0.029082655906677246, 0.0725053921341896, 0.30030933022499084, 0.001355940941721201, -0.042743030935525894, -0.061326999217271805, -0.010763085447251797, 0.07407243549823761, 0.01672566682100296, 0.007233705371618271, -0.08144925534725189, 0.19342809915542603, 0.181685209274292, -0.0009680020739324391, 0.10393425822257996, 0.1554863303899765, 0.027265841141343117, -0.03345189988613129, 0.017284221947193146, -0.032960787415504456, 0.02690495178103447, 0.08682139217853546, -0.007424307521432638, -0.05255588889122009, 0.06925995647907257], [0.12738952040672302, 0.4676107168197632, -0.06918708980083466, -0.421352744102478, -0.19384245574474335, 0.17549000680446625, 0.11715628951787949, 0.06551855802536011, 0.05739428848028183, -0.07223927229642868, 0.1661936342716217, 0.3960382044315338, 0.3417332172393799, 0.05741558223962784, 0.11363625526428223, 0.25150421261787415, -0.31862255930900574, 0.061651963740587234, -0.5055833458900452, 0.10558881610631943, -0.1089099869132042, 0.21769338846206665, -0.045605167746543884, 0.36727479100227356, -0.0658489540219307, -0.19919486343860626, -0.09624795615673065, 0.03957926854491234], [0.06648288667201996, -0.15771636366844177, -0.5951558351516724, -0.25335633754730225, -0.4023689329624176, -0.0007758238934911788, -0.061439722776412964, 0.2894832193851471, 0.13253262639045715, -0.10447760671377182, 0.010382548905909061, 0.1597730666399002, 0.5349265336990356, 0.20703347027301788, -0.04008515179157257, -0.21362759172916412, 0.1045093685388565, -0.06259684264659882, 0.0006994063151068985, 0.2073153704404831, -0.3354322016239166, -0.08113764971494675, -0.20255081355571747, 0.10348080098628998, 0.3836374580860138, 0.26372772455215454, 0.5895993709564209, -0.25568872690200806], [0.21396534144878387, -0.25967249274253845, 0.0832032859325409, 0.05868891254067421, 0.09666052460670471, -0.01816745288670063, -0.47614097595214844, 0.39939969778060913, 0.5142163038253784, -0.11729345470666885, -0.08807206898927689, -0.038580626249313354, 0.02056206203997135, 0.08764440566301346, -0.5126850008964539, -0.04516034573316574, -0.015321163460612297, -0.23114721477031708, -0.4354746639728546, 0.16566552221775055, 0.22380900382995605, 0.2565227746963501, 0.061424098908901215, 0.365536093711853, 0.038984667509794235, 0.4531298577785492, 0.061108723282814026, -0.01997171714901924], [0.035288888961076736, -0.1383276879787445, -0.15683209896087646, -0.1629490852355957, 0.03473246842622757, 0.005736291874200106, 0.30566418170928955, -0.2873441278934479, 0.13877443969249725, 0.26202791929244995, -0.05668235942721367, -0.15947259962558746, 0.1375642865896225, -0.22816592454910278, -0.197158545255661, -0.24978069961071014, -0.16505348682403564, 0.04387110099196434, 0.16726207733154297, 0.18146364390850067, -0.08825831115245819, -0.23463283479213715, 0.25386545062065125, 0.10858665406703949, 0.18323048949241638, 0.12491796910762787, -0.08021009713411331, 0.3424566090106964], [0.18841947615146637, -0.48755618929862976, 0.19692040979862213, 0.5530651807785034, -0.5147595405578613, -0.06825527548789978, 0.1639230102300644, -0.23566018044948578, -0.14947423338890076, 0.04389017075300217, 0.05367017909884453, 0.026412488892674446, 0.08432554453611374, -0.12292859703302383, 0.5650316476821899, -0.3612397611141205, 0.024302400648593903, -0.1280812919139862, 0.18451526761054993, -0.129342719912529, -0.238785982131958, 0.0851273462176323, 0.15563234686851501, 0.21284940838813782, 0.4220963418483734, -0.0793839618563652, -0.17738178372383118, -0.2143329381942749], [0.4525175094604492, 0.14082476496696472, 0.2039719969034195, -0.1862383782863617, 0.3753258287906647, -0.13106456398963928, 0.19749341905117035, 0.33269211649894714, -0.08334358781576157, 0.17164663970470428, 0.3463406264781952, -0.10702674090862274, -0.10011953115463257, 0.22379612922668457, -0.010642376728355885, 0.3256048858165741, 0.1654215008020401, -0.2551567852497101, -0.17602844536304474, -0.25857898592948914, 0.1627909392118454, 0.26285672187805176, 0.22993165254592896, -0.13878224790096283, 0.04312196746468544, -0.18482400476932526, 0.05632615461945534, -0.24931401014328003], [0.6259117722511292, -0.440237432718277, -0.043031636625528336, -0.5310276746749878, -1.1595903635025024, -0.011798384599387646, -0.29936179518699646, -0.5925735831260681, -0.049149345606565475, -0.17102447152137756, 0.08423492312431335, -0.01531153079122305, 0.5024425983428955, -0.07833651453256607, 0.7349690794944763, -1.2771141529083252, 0.1663290411233902, 0.8306862711906433, 0.2855431139469147, 0.3628491461277008, -1.021139144897461, -0.4622896909713745, -0.2261882722377777, -0.18140704929828644, 0.1628587692975998, 0.06591500341892242, -0.033716630190610886, 0.2737642228603363], [0.17540638148784637, -0.4595295488834381, -0.12409597635269165, 0.9471986889839172, 0.23886097967624664, -0.06672245264053345, -0.008510574698448181, 0.07106234133243561, -0.0368678979575634, 0.12900249660015106, 0.29434651136398315, 0.049993641674518585, -0.061302755028009415, 0.010485943406820297, 0.40780168771743774, 0.30046480894088745, -0.08099935948848724, 0.2995178997516632, 0.2504201829433441, 0.21794506907463074, 0.10597985982894897, -0.014624256640672684, -0.06076928973197937, -0.12748683989048004, 0.3046731650829315, -0.30932945013046265, -0.2708677351474762, 0.20351389050483704], [0.07560133188962936, -0.4727042317390442, 0.3467250466346741, -0.3540553152561188, 0.1921514868736267, 0.06954269111156464, -0.10594730824232101, 0.0038623609580099583, 0.05686842277646065, -0.050060756504535675, -0.586475670337677, 0.05508134141564369, 0.0704510286450386, -0.10961548984050751, -0.005153946112841368, 0.26315373182296753, 0.04098568856716156, -0.370160847902298, 0.15439024567604065, 0.13281376659870148, 0.22915104031562805, -0.42443886399269104, 0.1180327758193016, 0.3382425606250763, 0.04029606655240059, 0.186678946018219, 0.030356360599398613, -0.27589139342308044], [0.024418355897068977, 0.39537346363067627, 0.015233214013278484, 0.25877413153648376, 0.10419052839279175, -0.011128401383757591, -0.000831762736197561, -0.12857592105865479, 0.01128911878913641, 0.020509662106633186, 0.024338673800230026, 0.0002315590245416388, -0.00796164944767952, -0.012477541342377663, -0.1735856533050537, -0.0995153859257698, -0.02840585447847843, 0.07248827069997787, 0.01446225680410862, 0.004896664526313543, 0.018501361832022667, 0.07663130015134811, -0.024494454264640808, -0.050951406359672546, 0.06445469707250595, -0.012288138270378113, -0.0003206486289855093, 0.0035639414563775063], [0.139979287981987, -0.004736846778541803, -0.06363894790410995, 0.20447616279125214, -0.3305908441543579, 0.041266102343797684, -0.12396980077028275, 0.6006566286087036, 0.11056728661060333, 0.04812748730182648, 0.030861016362905502, -0.10068735480308533, -0.05708787217736244, -0.1422005146741867, -0.023561576381325722, -0.07614189386367798, 0.09067527949810028, 0.1001368910074234, 0.16670997440814972, 0.1166575476527214, -0.0921449139714241, -0.11794529110193253, 0.18251073360443115, 0.15572762489318848, 0.0012278711656108499, 0.009604890830814838, 0.030953336507081985, 0.16982413828372955], [-0.16729414463043213, -0.29202285408973694, 0.0674973651766777, -0.7789628505706787, -0.37950706481933594, -0.09267060458660126, 0.1409461945295334, -0.08850106596946716, -0.13755010068416595, -0.11118367314338684, -0.08994760364294052, 0.10800663381814957, -0.18846112489700317, -0.11382840573787689, 1.6075479984283447, -0.8913015723228455, 0.1511605679988861, -0.43856117129325867, 0.05020736902952194, -0.007629765197634697, 0.28548750281333923, 0.4769022464752197, -0.026178469881415367, -0.24448105692863464, -0.33818069100379944, 0.04786587506532669, 0.1498478204011917, -0.0601210854947567], [-0.1245468333363533, -0.06267212331295013, 0.061402782797813416, 0.1849905252456665, 0.2635667622089386, 0.20954599976539612, -0.13136187195777893, 0.1426749974489212, 0.06348409503698349, 0.2554033696651459, 0.13466297090053558, -0.31287291646003723, -0.26870378851890564, 0.2442883849143982, -0.5570747256278992, -0.47292932868003845, 0.36504092812538147, 0.37965068221092224, -0.25175726413726807, 0.19549651443958282, 0.2190161496400833, -0.35197877883911133, 0.016684336587786674, -0.23480041325092316, -0.15985864400863647, 0.11702215671539307, 0.04397290572524071, -0.12915171682834625], [0.23821435868740082, 0.050268303602933884, 0.26670601963996887, -0.2015448361635208, 0.09515134990215302, -0.045009564608335495, -0.14897431433200836, -0.18997889757156372, 0.3577236831188202, -0.04915769398212433, 0.04373116418719292, 0.2692292332649231, -0.048722948879003525, 0.10887806862592697, -0.11005634814500809, 0.013606698252260685, -0.23250573873519897, -0.1566225290298462, 0.2563951313495636, 0.0249484870582819, -0.038428232073783875, 0.024001779034733772, 0.1075417771935463, -0.03559112176299095, -0.1934662163257599, -0.4211519658565521, -0.6996147036552429, 0.08897040784358978], [0.3791373670101166, 0.2402835190296173, 0.40180525183677673, -0.044207170605659485, 0.4825893044471741, -0.08354374021291733, 0.1665671020746231, 0.003992943093180656, 0.08009392768144608, -0.08870108425617218, -1.0229926109313965, 0.33545902371406555, 0.2743777632713318, 0.1120537519454956, -1.0713765621185303, 1.08868408203125, -0.03201564773917198, -1.1484360694885254, 0.7642776370048523, -0.191602423787117, 0.1781175583600998, 0.44607603549957275, -0.08606121689081192, 0.5481348037719727, 0.021497735753655434, -0.2840636372566223, 0.0028564755339175463, -0.5252947807312012], [0.42966988682746887, 0.95469069480896, 0.011081128381192684, 0.29480355978012085, 0.04479106143116951, 0.03623293340206146, -0.03248176723718643, -0.00469331257045269, -0.051275428384542465, 0.10671959072351456, 0.08507347851991653, 0.051283013075590134, 0.06782985478639603, -0.12559883296489716, -0.3433375656604767, -0.38803359866142273, 0.2605273127555847, -0.18246126174926758, -0.171505868434906, -0.25220417976379395, -0.03930607810616493, 0.0501132570207119, 0.125441312789917, 0.013731315732002258, 0.035375528037548065, -0.058158498257398605, -0.10905613750219345, -0.3485250771045685], [0.17365585267543793, 0.35082030296325684, 0.029040180146694183, -0.11977244168519974, 0.1544223576784134, -0.13280005753040314, 0.0850236713886261, 0.1157599613070488, 0.340342253446579, 0.30411088466644287, 0.264500230550766, 0.001522753038443625, -0.2522561550140381, -0.009633085690438747, 0.1221153661608696, 0.5559149384498596, 0.24113360047340393, -0.0029881286900490522, -0.13267624378204346, -0.054961785674095154, -0.15316124260425568, -0.021418441087007523, 0.14792092144489288, -0.31005483865737915, -0.29036104679107666, -0.10651301592588425, 0.2738036513328552, -0.3488622009754181], [-0.4078466594219208, -0.3487210273742676, 0.038480352610349655, 0.1182703822851181, 0.7040362358093262, -0.022102447226643562, -0.04216877743601799, -0.2187098264694214, -0.02536928839981556, -0.09666536748409271, 0.08145754039287567, 0.43006253242492676, 0.04191827028989792, -0.03383512794971466, 0.09547894448041916, 0.5679807066917419, -0.16706712543964386, 0.060282472521066666, -0.11558690667152405, -0.12224102020263672, 0.3133077323436737, 0.07725691050291061, 0.029322223737835884, -0.09430208802223206, -0.18957389891147614, -0.13706545531749725, 0.009202656336128712, 0.04965764656662941], [-0.15874238312244415, -0.8736269474029541, -0.8969841599464417, -0.7827860713005066, -0.4719741642475128, -0.1082158014178276, 0.007095146458595991, 0.18568548560142517, -0.19650569558143616, -0.06948325037956238, -0.04119255021214485, 0.1752331554889679, 0.048071589320898056, -0.17873987555503845, 0.6680556535720825, -0.989148736000061, -0.35050174593925476, 0.44760745763778687, 0.05119990184903145, -0.28763505816459656, -0.04564652219414711, -0.11241335421800613, 0.15500107407569885, -0.056234363466501236, -0.3197987973690033, 0.020550183951854706, -0.07745939493179321, -0.02916436456143856], [-0.09018389135599136, -0.3441537320613861, -0.1848248988389969, -0.19489964842796326, 0.05200199782848358, 0.03525509312748909, -0.27169135212898254, -0.09672592580318451, 0.234455406665802, 0.53985196352005, 0.1871250420808792, -0.0009026984334923327, -0.1575307846069336, -0.2770383656024933, -0.18028995394706726, -0.11444157361984253, -0.06386905163526535, -0.04068709537386894, 0.04942695423960686, -0.501573383808136, -0.09012164920568466, -0.21159981191158295, 0.060363929718732834, -0.1385076940059662, 0.07609586417675018, -0.7273356914520264, -1.0321180820465088, 0.48851245641708374], [0.28058531880378723, -0.5570862889289856, -0.9237191677093506, -0.2517518103122711, -2.6820430755615234, -0.05252676084637642, -0.06003039330244064, -0.892032265663147, 0.15519839525222778, 0.6358878016471863, 0.2329511046409607, -0.4336894154548645, 2.090851306915283, -0.06594245135784149, 0.4892582595348358, -2.0053207874298096, -0.07496112585067749, 0.9422855973243713, 0.010824771597981453, 0.14888548851013184, -1.4623819589614868, -0.7466534972190857, -0.26910266280174255, 0.24093689024448395, 2.8860151767730713, 0.11899039149284363, 0.8239152431488037, -0.48250439763069153], [-0.2454555630683899, 0.08516796678304672, 0.21676227450370789, -0.26371344923973083, 0.06328697502613068, -0.18438147008419037, -0.016893090680241585, 0.04916549474000931, -0.3496911823749542, 0.1468665450811386, 0.1457294523715973, -0.10930652916431427, -0.23996827006340027, 0.03572417423129082, 0.3006531596183777, -0.04988500103354454, 0.19377493858337402, 0.1469338834285736, -0.6113932132720947, -0.3733184039592743, -0.15693122148513794, -0.5448634624481201, -0.019036022946238518, -0.2716422379016876, -0.5666508078575134, 0.0943179577589035, -0.06616758555173874, 0.11816538870334625], [0.25317931175231934, -0.05717852711677551, 0.10004856437444687, -0.014713139273226261, -0.09355555474758148, -0.15171629190444946, 0.013728384859859943, -0.23865078389644623, -0.15890391170978546, 0.029346711933612823, 0.03516317158937454, 0.1798897534608841, -0.0004886561073362827, -0.2764044404029846, -0.14865276217460632, 0.020501697435975075, 0.07731369137763977, -0.24985137581825256, -0.10206892341375351, -0.02567373774945736, 0.45251160860061646, 0.14460930228233337, -0.06516856700181961, 0.13580071926116943, 0.3162463307380676, -0.019679076969623566, 0.3281765282154083, 0.06786320358514786], [-0.025593560189008713, 0.13409318029880524, -0.05914274975657463, 0.1173057034611702, 0.10953454673290253, 0.028091352432966232, 0.2658129930496216, 0.027905859053134918, 0.05920896306633949, 0.07425045967102051, 0.26796677708625793, 0.47638338804244995, -0.19743844866752625, -0.21220850944519043, -0.24019384384155273, 0.013914737850427628, 0.4440074861049652, -0.42735329270362854, 0.3774707317352295, 0.13321805000305176, -0.033650752156972885, 0.12345313280820847, -0.12949888408184052, 0.0500192791223526, 0.2139022946357727, -0.1828773319721222, 0.06769745796918869, 0.1888773888349533], [-0.2491757571697235, 0.1341857612133026, -0.20163552463054657, 0.09354141354560852, -0.26152628660202026, 0.04366786777973175, -0.036303237080574036, -0.11298206448554993, -0.008990248665213585, 0.06889128684997559, -0.1408596932888031, -0.06440497934818268, 0.0869181752204895, 0.14338716864585876, -0.1625080406665802, 0.13222108781337738, 0.246350958943367, -0.1231323853135109, -0.11978454142808914, 0.09333546459674835, -0.09991191327571869, 0.2234167456626892, -0.2711540460586548, -0.1973438560962677, 0.40040111541748047, 0.03750326484441757, -0.03125951439142227, 0.34686514735221863], [-0.12799639999866486, 0.061204005032777786, 0.20091335475444794, -0.4550746977329254, -0.0934380292892456, -0.0075755552388727665, 0.2816401422023773, -0.2544499933719635, 0.1729862540960312, -0.3404200077056885, -0.10859575867652893, 0.46542903780937195, 0.12821203470230103, -0.03669305890798569, -0.2108798325061798, 0.12554828822612762, -0.19163860380649567, -0.4656039774417877, 0.07815538346767426, 0.20088867843151093, 0.644138753414154, -0.8856467604637146, 0.33952635526657104, 0.7103400230407715, -0.15752020478248596, -0.2526373267173767, -0.10722510516643524, 0.01196061260998249], [0.05392405018210411, -0.43108493089675903, 0.19589167833328247, 0.575486958026886, 0.2079629749059677, -0.03997248411178589, -0.055047471076250076, -0.29289817810058594, 0.20583093166351318, 0.16034093499183655, 0.42837467789649963, 0.48527517914772034, 0.15918442606925964, 0.113236203789711, 0.4584006667137146, -0.08257788419723511, 0.558869481086731, 0.0009145967196673155, -0.16261816024780273, 0.039414163678884506, 0.15597398579120636, 0.11207544803619385, -0.08142586052417755, 0.45463040471076965, 0.001684981631115079, -0.1326596885919571, 0.0559823215007782, 0.15103517472743988], [0.08423739671707153, -0.11093368381261826, -0.0670064389705658, 0.13509245216846466, -0.10582280158996582, -0.01847984455525875, 0.07840081304311752, -0.004841156769543886, 0.17131389677524567, -0.09474261850118637, 0.1611499786376953, 0.21357382833957672, 0.15522320568561554, -0.05893387645483017, 0.04930863529443741, -0.048334237188100815, 0.22519336640834808, -0.03899082913994789, -0.04471074417233467, 0.17339177429676056, -0.017644986510276794, 0.11211615800857544, -0.015659132972359657, 0.07559593766927719, 0.056877411901950836, 0.02554355002939701, -0.08428029716014862, -0.020066633820533752], [0.10842227190732956, -0.03040514886379242, -0.25690189003944397, -0.13153553009033203, -0.06181550398468971, -0.026816673576831818, 0.19578026235103607, 0.20376098155975342, -0.1251804083585739, 0.0854187086224556, 0.2123527079820633, 0.07994779199361801, 0.2631019651889801, -0.16894832253456116, 0.10544069111347198, -0.16885706782341003, 0.1482684314250946, 0.12460588663816452, -0.2617870271205902, -0.09412813931703568, -0.2100943773984909, -0.01868426613509655, -0.03027946501970291, -0.009344207122921944, 0.34068024158477783, -0.10689733177423477, 0.0631481483578682, 0.0026311534456908703], [-0.3817138671875, -0.22395780682563782, -0.17345796525478363, 0.0023578188847750425, 0.10516249388456345, -0.11125922948122025, 0.5264814496040344, 0.12447318434715271, -0.36268892884254456, 0.5715668201446533, 0.02274657040834427, 0.28311216831207275, -0.09595958888530731, -0.15180851519107819, -0.2691522240638733, -0.0329258106648922, 0.18532858788967133, -0.08922459185123444, -0.5801128149032593, -0.054340194910764694, -0.3988321125507355, 0.2919713854789734, -0.07502175867557526, 0.1287166327238083, 0.2032804936170578, -0.17410781979560852, -0.2697522044181824, 0.2986346185207367], [-0.3791623115539551, -0.12957938015460968, -0.6558988690376282, -0.046265289187431335, -0.1798696368932724, 0.015009552240371704, 0.04476575553417206, -0.45882555842399597, -0.22647756338119507, 0.15889973938465118, 0.24816563725471497, -0.17162439227104187, 0.44206979870796204, 0.12548257410526276, -0.23106494545936584, -0.19718602299690247, -0.06673576682806015, -0.49572888016700745, 0.12864303588867188, 0.3881368637084961, -0.11942964792251587, 0.033240336924791336, -0.10286875814199448, -0.1484723687171936, 0.5205934047698975, 0.522137463092804, -0.9031309485435486, -0.248446524143219], [0.19157500565052032, 0.014260365627706051, -0.30257782340049744, 0.11750705540180206, 0.06297918409109116, 0.01787514053285122, -0.09524322301149368, 0.03144066408276558, 0.009516412392258644, 0.09476291388273239, -0.08497937023639679, 0.08676940202713013, 0.7721517086029053, -0.10004833340644836, 0.1007942482829094, 0.13199613988399506, 0.11993378400802612, -0.022707844153046608, -0.07310526072978973, 0.16032317280769348, 0.12468072772026062, 0.4274766743183136, -0.13861653208732605, -0.10526757687330246, 0.292675256729126, -0.259113073348999, -0.7213724255561829, -0.32200324535369873], [-0.17656990885734558, 0.05140778794884682, 0.18352970480918884, -0.1405092030763626, 0.3964194059371948, 0.0637475997209549, 0.13041812181472778, 0.2871016263961792, -0.1035853698849678, -0.036494962871074677, -0.05249922350049019, 0.0892554298043251, -0.19307205080986023, -0.31398969888687134, -0.054159846156835556, 0.23731325566768646, 0.22740438580513, -0.2403687983751297, -0.1546686291694641, -0.10890329629182816, 0.5864444971084595, 0.26880645751953125, -0.001086912234313786, -0.026398569345474243, -0.45060262084007263, 0.18252289295196533, 0.08910461515188217, 0.17842622101306915], [0.2563791871070862, -0.18809503316879272, -0.00538040604442358, 0.17064644396305084, -0.23272210359573364, -0.015929555520415306, 0.041420016437768936, 0.29015061259269714, 0.19411180913448334, 0.0009628705447539687, -0.0951983630657196, 0.5001373887062073, 0.5228623747825623, -0.14459773898124695, 0.24679410457611084, -0.03342905268073082, 0.6213688850402832, 0.07532408833503723, -0.3659878969192505, 0.029524831101298332, -0.012998181395232677, 0.3691646456718445, -0.18316447734832764, 0.18507766723632812, 0.24300837516784668, -0.18123489618301392, 0.37549906969070435, 0.07977135479450226], [0.6590831279754639, 0.019385958090424538, 0.15642789006233215, -0.004090386442840099, -0.005365422461181879, 0.19715651869773865, 0.06150347366929054, -0.22514060139656067, 0.03572921082377434, 0.169161856174469, 0.19045302271842957, 0.44847923517227173, 0.05973493307828903, -0.4544728398323059, -0.04609785974025726, -0.3334582448005676, 0.5276116132736206, -0.23732076585292816, -0.18806639313697815, -0.034800935536623, -0.16414859890937805, 0.026012049987912178, 0.08606646209955215, 0.1041480228304863, 0.24083194136619568, 0.23529359698295593, 0.22066913545131683, 0.6185781359672546], [-0.015158236026763916, -0.3262437880039215, 0.12174007296562195, -0.23436741530895233, -0.2370678186416626, -0.1908663511276245, -0.08053265511989594, -0.058490995317697525, 0.04789387434720993, 0.06734458357095718, 0.0322839617729187, 0.24028564989566803, 0.090239018201828, 0.010811521671712399, 0.03230718895792961, 0.16160611808300018, 0.27886462211608887, -0.04374547302722931, 0.049002502113580704, 0.04473006725311279, 0.3313339650630951, -0.22073136270046234, 0.031737472862005234, 0.014671734534204006, 0.29263588786125183, 0.029698338359594345, -0.07734894007444382, 0.051680319011211395], [-0.15811030566692352, 0.6123256683349609, 0.0350678414106369, 0.11134073883295059, 0.15637412667274475, -0.09134378284215927, 0.15736263990402222, 0.25149527192115784, -0.12940989434719086, -0.017501456663012505, 0.12814068794250488, 0.06812059134244919, -0.023565055802464485, -0.4517610967159271, -0.5456375479698181, -0.29371899366378784, 0.3326222002506256, -0.26144057512283325, 0.3914015591144562, -0.2218957394361496, 0.039907410740852356, 0.07282142341136932, -0.1586148887872696, -0.03648820519447327, 0.10109830647706985, 0.0185356717556715, -0.04537723958492279, -0.04725821316242218], [-0.04537670686841011, -0.18313510715961456, -0.021198483183979988, 0.38593897223472595, -0.18657410144805908, -0.04006359726190567, -0.013234985992312431, 0.0016530957072973251, -0.02047239989042282, -0.18871000409126282, 0.40669137239456177, 0.5680139660835266, 0.049214281141757965, 0.12160925567150116, 0.06910865008831024, 0.09374528378248215, 0.5715113878250122, 0.11951223760843277, -0.2424442619085312, 0.12403099238872528, -0.09474946558475494, 0.5836957097053528, 0.0180817861109972, 0.013039862737059593, 0.14064563810825348, -0.19671468436717987, -0.05684584751725197, 0.18149197101593018], [0.31339916586875916, -0.24147358536720276, 0.23061250150203705, 0.2852027118206024, -0.1939811110496521, 0.07865789532661438, 0.045577701181173325, 0.18803085386753082, 0.15989838540554047, 0.1455206423997879, 0.15734972059726715, 0.4208684265613556, 0.33884817361831665, -0.030812257900834084, 0.2650885581970215, -0.1899857521057129, 0.4231675863265991, 0.1832716166973114, -0.2463005930185318, 0.20826485753059387, -0.19780157506465912, 0.3558547794818878, -0.3072259724140167, 0.260347455739975, 0.36257681250572205, 0.06745296716690063, 0.36784303188323975, 0.15260300040245056], [0.04638286307454109, 0.037121161818504333, 0.0629592165350914, 0.3063391149044037, -0.3713485896587372, 0.04555438458919525, 0.012666945345699787, 0.04007863998413086, -0.08046240359544754, 0.009631730616092682, 0.47178396582603455, 0.2977618873119354, 0.005273833405226469, 0.031993500888347626, -0.08487346023321152, -0.2243620753288269, 0.4377371370792389, -0.009537474252283573, -0.028817975893616676, 0.11270945519208908, -0.23109938204288483, 0.17449922859668732, -0.1715991497039795, -0.07103952765464783, 0.26519638299942017, 0.01540257316082716, 0.03566654026508331, 0.22080528736114502], [0.05324603244662285, 0.012997359037399292, -0.006311685312539339, 0.11123081296682358, -0.27244865894317627, -0.20820175111293793, 0.6054564714431763, -0.33013463020324707, -0.1414632350206375, 0.18082299828529358, 0.5772171020507812, 0.19277389347553253, -0.12069661170244217, 0.13479021191596985, -0.3126482665538788, -0.16832539439201355, -0.11109385639429092, -0.03130120411515236, -0.06819671392440796, 0.14220088720321655, 0.02013973332941532, 0.25730574131011963, -0.27096104621887207, 0.3276500701904297, 0.15535129606723785, 0.007819917052984238, -0.0995921865105629, 0.1626937836408615], [0.25141850113868713, 0.007964151911437511, 0.20970332622528076, -0.09491374343633652, -0.11594206094741821, -0.061370477080345154, -0.12216334044933319, -0.13241815567016602, 1.066028118133545, 0.5146501064300537, 0.1380530595779419, 0.09014821797609329, 0.14210279285907745, 0.08778587728738785, 0.09490959346294403, -0.07448731362819672, -0.04065177962183952, 0.2889334559440613, 0.21737758815288544, 0.11057069897651672, 0.25709524750709534, -0.19973069429397583, -0.4965406656265259, -0.013529757037758827, -0.5373855233192444, -0.2839508056640625, -0.5462622046470642, 0.2551269233226776], [0.04297737032175064, 0.00915767252445221, 0.20045071840286255, 0.4895901381969452, -0.2414402812719345, 0.13021452724933624, 0.10615687072277069, -0.1098276674747467, 0.044389303773641586, -0.10010460764169693, 0.23137810826301575, 0.4564089775085449, -0.005621005780994892, 0.00526026776060462, -0.01829873025417328, -0.11079250276088715, 0.4870549142360687, -0.06663142889738083, 0.15720394253730774, 0.17843280732631683, 0.2853303551673889, 0.32279887795448303, -0.04961040988564491, 0.23279982805252075, 0.23540876805782318, -0.19600804150104523, 0.13841423392295837, 0.023356055840849876], [-0.07924673706293106, -0.21455390751361847, -0.13203614950180054, -0.7478839159011841, 0.10761143267154694, 0.03391814976930618, -0.15281876921653748, -0.0727403461933136, 0.11270519345998764, -0.00027401905390433967, -0.20539188385009766, 0.4471358060836792, 0.27754688262939453, 0.019757790490984917, 0.31125473976135254, 0.002204411430284381, 0.3599773645401001, 0.08780147135257721, -0.061731573194265366, 0.1880214512348175, -0.34503206610679626, -0.20887991786003113, 0.08009637892246246, 0.3715745508670807, 0.39681312441825867, 0.06629061698913574, -0.23285816609859467, -0.0971318855881691], [-0.04482021927833557, 0.14789947867393494, 0.26860037446022034, 0.1243644654750824, 0.06689278036355972, -0.11525724828243256, 0.10427306592464447, -0.10463785380125046, 0.23512060940265656, 0.09365567564964294, 0.03609269857406616, 0.4174855947494507, -0.238310769200325, -0.10743463039398193, -0.06800730526447296, 0.10755865275859833, 0.03511638194322586, -0.3128858804702759, -0.22958093881607056, -0.13710333406925201, 0.27675437927246094, 0.04847274348139763, 0.054429490119218826, 0.06756065040826797, -0.12826891243457794, -0.07738829404115677, 0.7256938219070435, 0.4613189399242401], [0.3716142773628235, 0.0384923554956913, -0.15148146450519562, 0.06957046687602997, -0.40578168630599976, 0.035353656858205795, -0.09868619590997696, 0.12991732358932495, 0.16616468131542206, -0.049403443932533264, 0.13798150420188904, -0.0352729931473732, 0.13177059590816498, -0.09913521260023117, -0.044379718601703644, -0.3498590290546417, 0.11160864681005478, 0.20063386857509613, 0.09427062422037125, -0.09026677906513214, -0.2933555245399475, -0.03606880456209183, -0.02236008271574974, -0.05832701176404953, 0.17814554274082184, -0.11050007492303848, 0.11341562867164612, -0.17104052007198334], [-0.21009205281734467, -0.07075130194425583, 0.054118283092975616, 0.4659411609172821, 0.31312450766563416, 0.25937870144844055, -0.06814663857221603, -0.9256110191345215, 0.3939913511276245, -0.2645059823989868, 0.43994084000587463, 0.1987682431936264, 0.061724696308374405, 0.2064507007598877, -0.017930150032043457, 0.7199134230613708, 0.04328254610300064, -0.37548187375068665, 0.0878428965806961, 0.43027523159980774, 0.7828338146209717, 0.0851498618721962, -0.24263812601566315, 0.30099883675575256, -0.07873418182134628, -0.1328611522912979, -0.5051392316818237, -0.15341022610664368], [0.26614025235176086, -0.04694157466292381, 0.29472094774246216, -0.03648819029331207, -0.22366195917129517, 0.09030430763959885, 0.240801602602005, 0.13715994358062744, -0.17317479848861694, -0.07667381316423416, 0.30201536417007446, 0.326772004365921, 0.6740881204605103, -0.05503659322857857, 0.0772787481546402, -0.30963459610939026, 0.28379085659980774, -0.012691307812929153, -0.0686415433883667, 0.08952812105417252, -0.08924343436956406, -0.11346980929374695, -0.17957480251789093, 0.043653927743434906, 0.03081349842250347, -0.23245258629322052, 0.34610408544540405, 0.09565532207489014], [0.49092987179756165, 0.012720922939479351, 0.21350999176502228, 0.17076539993286133, -0.17450588941574097, 0.38633182644844055, -0.07622841745615005, -0.014101184904575348, 1.4759286642074585, 0.7900654673576355, 0.03988200053572655, -0.5921168923377991, 0.20055995881557465, 0.4385155439376831, -0.09487874805927277, 0.17339786887168884, 0.14431537687778473, 0.09090034663677216, 0.22481891512870789, 0.4435478448867798, 0.22711341083049774, 0.132796972990036, -1.542409896850586, 0.0696670189499855, -0.5217489004135132, -0.009214046411216259, 0.04112404212355614, 0.4455033242702484], [0.1766185760498047, 0.08082253485918045, 0.12699241936206818, 0.07933341711759567, -0.19990229606628418, 0.11313079297542572, 0.11057623475790024, -0.0634402185678482, 0.054799359291791916, 0.044586535543203354, 0.0807252898812294, 0.09923826158046722, 0.03837293013930321, -0.062280066311359406, 0.0037129020784050226, -0.022168591618537903, 0.17523787915706635, -0.1074167862534523, -0.17718590795993805, -0.15536682307720184, -0.16507284343242645, 0.07703659683465958, -0.1642126441001892, 0.10802219063043594, 0.1398261934518814, -0.007869431748986244, 0.7151879668235779, 0.16742725670337677]], "rec.bias_ih_l0": [0.04407108202576637, -0.9050294756889343, -0.05169472098350525, -0.7864347696304321, 0.3926994502544403, 0.08899939060211182, -0.07023190706968307, -1.4357492923736572, -0.871605634689331, -0.42978453636169434, 0.1342310905456543, 0.2748658359050751, 0.28800028562545776, 0.25159111618995667, -1.1255247592926025, -0.30875205993652344, 0.38377681374549866, 0.3974880874156952, -0.8932588696479797, -0.26054540276527405, 0.4431713819503784, -0.6416395902633667, -0.2525334358215332, 0.12393708527088165, 0.6028404235839844, 0.283060222864151, 0.42103779315948486, 0.025846412405371666, 0.06895237416028976, 1.1052019596099854, 0.09676554054021835, 1.0343964099884033, 0.12400047481060028, 0.30840376019477844, 0.18592798709869385, 1.6740727424621582, 1.0873291492462158, 0.6280657052993774, 0.12791034579277039, 0.3692735433578491, -0.07406885176897049, 0.12241501361131668, 1.1666697263717651, -0.02270693890750408, 0.4360726475715637, -0.09213888645172119, 1.328824758529663, 0.3275676369667053, 0.017620636150240898, 1.0181350708007812, 0.4539857804775238, 0.14756204187870026, 0.29757386445999146, -0.26227322220802307, 0.33609867095947266, 0.04041358083486557, 0.01940597966313362, -0.14903371036052704, -0.10671716183423996, 0.17085611820220947, -0.09390232712030411, -0.01293155923485756, -0.0450834296643734, -0.1254953145980835, -0.08789004385471344, 0.08011308312416077, 0.13918843865394592, 0.359235554933548, -0.07367109507322311, -0.4084397256374359, 0.24487140774726868, -0.065218485891819, 0.4058256149291992, -0.2371922880411148, -0.0607123039662838, 0.22890819609165192, 0.18212470412254333, 0.20467150211334229, -0.001600373536348343, 0.1465580314397812, 0.4230192005634308, 0.008590217679738998, -0.19532230496406555, 0.3819032609462738, 0.022164056077599525, 0.2669326066970825, 0.19074541330337524, 0.29361337423324585, 0.41936394572257996, 0.23626767098903656, 0.14148634672164917, 0.11370523273944855, 0.12677551805973053, -0.09314234554767609, 0.20361237227916718, 0.5599651336669922, 0.24358955025672913, 0.2765445411205292, 0.24618081748485565, 0.5051040053367615, 0.5575459003448486, 0.43635937571525574, 0.0831202045083046, -0.39199376106262207, 0.31418126821517944, 0.2154664397239685, 0.14262478053569794, 0.12844635546207428, 0.2820243537425995, 0.16431482136249542, -0.20305421948432922, 0.2649083435535431], "rec.bias_hh_l0": [0.039100002497434616, -1.1012628078460693, -0.03300045430660248, -0.7791833877563477, 0.3979529142379761, 0.08899939060211182, -0.07049419730901718, -1.4814705848693848, -0.8725470900535583, -0.4309113621711731, 0.13566641509532928, 0.3067357838153839, 0.2435208559036255, 0.250782310962677, -1.1450828313827515, -0.2505318224430084, 0.406510591506958, 0.397508442401886, -0.9213972091674805, -0.31144046783447266, 0.4396701753139496, -0.7371575832366943, -0.25224459171295166, 0.13314692676067352, 0.6027929782867432, 0.2830648720264435, 0.4210384786128998, 0.04495140537619591, 0.06745755672454834, 1.1935813426971436, 0.09741979837417603, 1.1167075634002686, 0.09445459395647049, 0.30840376019477844, 0.18574047088623047, 1.7020163536071777, 1.0882680416107178, 0.6267784833908081, 0.11705729365348816, 0.3812206983566284, -0.0753188505768776, 0.12655849754810333, 1.236555576324463, -0.04109110310673714, 0.3924235701560974, -0.10636763274669647, 1.3355706930160522, 0.4017031192779541, 0.006366251036524773, 1.123963713645935, 0.4464319348335266, 0.14564058184623718, 0.38634923100471497, -0.2622712254524231, 0.3553813397884369, 0.025163868442177773, 0.05406574159860611, -0.16198621690273285, -0.14077448844909668, 0.3028920292854309, 0.1536560207605362, -0.012931674718856812, -0.1257544755935669, -0.10135302692651749, -0.06801319122314453, 0.05310697853565216, 0.09981894493103027, 0.5197111964225769, 0.03926822543144226, -0.3282283842563629, 0.18345092236995697, -0.03468446806073189, 0.5143525004386902, -0.2409149408340454, 0.01825699210166931, -0.03558005392551422, -0.051840249449014664, 0.2473345845937729, -0.0968124195933342, 0.0917048454284668, 0.39241528511047363, 0.005933037959039211, -0.21264426410198212, 0.40467172861099243, 0.003561708377674222, 0.34513944387435913, 0.19172775745391846, 0.3048032522201538, 0.4007270932197571, 0.23626767098903656, 0.14244629442691803, 0.13278384506702423, 0.1265050619840622, -0.0991232842206955, 0.20401757955551147, 0.5731274485588074, 0.25670796632766724, 0.27224820852279663, 0.3316062390804291, 0.5058276057243347, 0.5649250149726868, 0.43636611104011536, 0.07920633256435394, -0.26658859848976135, 0.3243432343006134, 0.2985183298587799, 0.15442970395088196, 0.13829763233661652, 0.2899492084980011, 0.16395001113414764, -0.26272422075271606, 0.22263461351394653], "lin.weight": [[-0.013256070204079151, -0.01006352249532938, -0.0665040835738182, -0.03964163735508919, 0.016886210069060326, 0.04748246818780899, -0.1324903666973114, -0.11884075403213501, 0.3663758933544159, 0.3152097761631012, 0.02693215385079384, 0.06794468313455582, -0.005793275311589241, -0.06139465793967247, -0.054698992520570755, -0.014677291736006737, 0.12299080938100815, 0.031361643224954605, 0.241202712059021, -0.9343624114990234, -0.009206045418977737, -0.06847259402275085, 0.22161799669265747, 0.002999458694830537, 0.04340377449989319, -0.884965181350708, -0.9971339702606201, 0.346835732460022]], "lin.bias": [-0.05944227799773216]}}