{"model_data": {"model": "SimpleRNN", "input_size": 2, "skip": 1, "output_size": 1, "unit_type": "LSTM", "num_layers": 1, "hidden_size": 40, "bias_fl": true}, "state_dict": {"rec.weight_ih_l0": [[0.014436203986406326, 0.47972816228866577], [-9.776928067140034e-08, -1.605707097951381e-06], [1.247444743057713e-07, -2.7546868750505382e-06], [0.030599478632211685, -0.13014115393161774], [-0.026889732107520103, -0.02603979781270027], [-4.690040441346355e-06, -8.631072887510527e-06], [-5.128124485054286e-06, -9.090347703022417e-06], [0.0010143853724002838, -0.004443471785634756], [0.045018937438726425, 0.18142063915729523], [1.715498996190945e-07, -1.2706792631433927e-06], [2.3402483293466503e-06, -5.9916978898399975e-06], [-8.171457011485472e-06, 2.163194068316443e-07], [-0.015322405844926834, 0.11400892585515976], [-3.6681999517895747e-06, 2.115691358994809e-06], [2.6577109224490414e-07, 8.540027920389548e-07], [4.367829546936264e-07, -7.559197570117249e-07], [-3.194255668859114e-06, -3.999165528512094e-06], [2.435054966554162e-06, -5.687451903213514e-06], [2.2294625523500144e-07, -1.788731765373086e-06], [-3.3005915156536503e-07, 2.3834884359530406e-06], [0.053792841732501984, 0.21229377388954163], [8.289606512335013e-08, -1.3728972589888144e-06], [2.085247174932192e-08, -1.4568698816219694e-06], [-0.009186933748424053, 0.3247235119342804], [2.1522587303479668e-06, -4.8047218115243595e-06], [0.017629224807024002, -0.0009390477789565921], [2.249726549052866e-06, -6.235368800844299e-06], [-3.8737237417763026e-08, -1.5703705003033974e-06], [-9.99949634206132e-07, 1.0421852039144142e-06], [-7.55224073145655e-06, -9.737575965118594e-06], [-3.140340822938015e-07, -2.074026724585565e-06], [4.6202762860048097e-07, -6.954699642847118e-07], [0.03342902287840843, -0.27759528160095215], [0.02178501896560192, 0.15763288736343384], [-6.152379228296923e-08, -1.5604664440616034e-06], [0.007561348378658295, -0.0388975515961647], [0.024261899292469025, -0.012600080110132694], [0.00023103466082829982, 0.17271851003170013], [-0.035762351006269455, 0.18184292316436768], [1.1691295185300987e-06, -2.192433612435707e-06], [-0.00391424959525466, 0.08148784935474396], [-8.67367617729542e-08, -1.7285084368268144e-06], [9.60955333084712e-08, -2.9801537948515033e-06], [0.00036071360227651894, 0.14414790272712708], [0.028211355209350586, 0.01578051783144474], [-4.5320998651732225e-06, -8.409727342950646e-06], [-4.9603067964199e-06, -8.66939444676973e-06], [0.025461196899414062, -0.029161857441067696], [0.09693312644958496, -0.08565322309732437], [1.7575364097410784e-07, -1.3963648370918236e-06], [2.2361048195307376e-06, -6.0284705796220805e-06], [-8.037156476348173e-06, 2.7730871465792006e-07], [0.00353049673140049, 0.17863395810127258], [-3.5765417578659253e-06, 2.062351768472581e-06], [2.531817244744161e-07, 7.244478297252499e-07], [4.348648587892967e-07, -8.480368478558376e-07], [-3.1444021715287818e-06, -3.7258619158819783e-06], [2.3226605208037654e-06, -5.699963821825804e-06], [2.259361764345158e-07, -1.913297865030472e-06], [-3.6099032740821713e-07, 2.096622438330087e-06], [0.13297483325004578, 0.2395888864994049], [8.980442345318806e-08, -1.4847187230770942e-06], [2.860269887605682e-08, -1.5894524949544575e-06], [0.006076016929000616, -0.01945354975759983], [2.0463614873733604e-06, -4.86556791656767e-06], [0.048097699880599976, -0.0034026787616312504], [2.1636776637024013e-06, -6.267442586249672e-06], [-2.739509952220942e-08, -1.672541202424327e-06], [-9.92233708529966e-07, 9.097392990042863e-07], [-7.316386472666636e-06, -9.419583875569515e-06], [-3.021328893737518e-07, -2.050585180768394e-06], [4.594196525431471e-07, -7.988236347955535e-07], [-0.05981069058179855, 0.2651212513446808], [0.024638013914227486, 0.015259609557688236], [-5.0103619031460767e-08, -1.6578184158788645e-06], [0.012044752947986126, -0.045051053166389465], [0.02310675010085106, 0.05016094818711281], [0.029839634895324707, -0.14662475883960724], [-0.13868457078933716, 0.20373456180095673], [1.1294538353467942e-06, -2.2793119569541886e-06], [-2.3366751670837402, 0.05006227642297745], [2.511083221179433e-05, 0.00014143290172796696], [-0.00025880293105728924, 5.524860171135515e-05], [0.6563727259635925, -0.021424347534775734], [-0.01386886928230524, 0.005494383163750172], [-0.000320590304909274, -0.00023690219677519053], [-0.000346840126439929, -0.00025955686578527093], [0.36862725019454956, -0.030127471312880516], [0.781579315662384, 0.0037343590520322323], [-1.193468960991595e-05, -0.00014072662452235818], [-0.00023095897631719708, 0.0005016268696635962], [-0.0006568983080796897, -1.409583001077408e-05], [0.16652251780033112, 0.06306244432926178], [0.00041921003139577806, -6.073535041650757e-05], [0.00017254834529012442, -9.749366290634498e-05], [4.070378054166213e-05, -0.0001443222281523049], [0.00039356015622615814, 0.00014593596279155463], [0.0002625997003633529, -0.0004857824242208153], [-7.021325927780708e-06, -0.0001258067786693573], [0.0002890744071919471, -0.00032231875229626894], [-0.012623018585145473, 0.0887070745229721], [1.3338972166820895e-06, -0.0001418099127477035], [9.629326996218879e-06, 0.0001422045606886968], [-1.4834295511245728, -0.03359386324882507], [0.0002809423313010484, -0.0004633361822925508], [-0.4294380247592926, -0.02614811807870865], [-0.00017747966921888292, 0.0005029159365221858], [-2.446834150759969e-05, -0.0001534696202725172], [-0.00024910690262913704, 8.139231795212254e-05], [0.0004749155486933887, 0.0002139285788871348], [-2.7139165467815474e-05, -0.0002625479537528008], [-2.5758607080206275e-05, 0.00014719035243615508], [-0.0336468331515789, 0.01029348187148571], [0.11327936500310898, 0.033233802765607834], [-1.914261702040676e-05, -0.00014627259224653244], [0.11971210688352585, -0.006114453077316284], [0.16669277846813202, -0.010701215825974941], [0.6986872553825378, -0.0010689146583899856], [0.09332650154829025, 0.06711985915899277], [4.608842937159352e-05, -0.0006025568000040948], [0.004786012694239616, 0.43685296177864075], [-1.386492840538267e-07, -1.608173306522076e-06], [4.8520078621550056e-08, -2.7636826871457743e-06], [0.006964185740798712, 0.1464938223361969], [-0.04735293984413147, -0.05826176702976227], [-4.553398866846692e-06, -8.673685442772694e-06], [-5.028688065067399e-06, -9.130089893005788e-06], [0.0011321656638756394, 0.10480521619319916], [0.08256525546312332, 0.19122949242591858], [1.2724147779863415e-07, -1.2717034678644268e-06], [2.289163603563793e-06, -5.99374106968753e-06], [-8.122494364215527e-06, 1.8536856316586636e-07], [-0.08326274901628494, 0.17705100774765015], [-3.6520955291052815e-06, 2.0930901882820763e-06], [2.48019432547153e-07, 8.549429821869126e-07], [3.7253337836773426e-07, -7.551454359600029e-07], [-3.1634815513825743e-06, -4.010832981293788e-06], [2.3793506898073247e-06, -5.6871376727940515e-06], [1.7640022065279481e-07, -1.791147383300995e-06], [-4.2251195964126964e-07, 2.379606257818523e-06], [0.02089851349592209, 0.24239477515220642], [2.8821038000614863e-08, -1.3744985380981234e-06], [-2.3224334455562712e-08, -1.4587740224669687e-06], [-0.0076989177614450455, 0.3326719403266907], [2.093229568345123e-06, -4.804443960892968e-06], [0.06298437714576721, 0.1550750583410263], [2.2036228983779438e-06, -6.237753495952347e-06], [-9.335325756865132e-08, -1.5719828070359654e-06], [-9.857312761596404e-07, 1.036702769852127e-06], [-7.369477316387929e-06, -9.801468877412844e-06], [-3.0409393048103084e-07, -2.077123326671426e-06], [4.0642859744366433e-07, -6.941798460502469e-07], [-0.005918558221310377, 0.07294698804616928], [0.03502209484577179, -0.07924115657806396], [-1.1426665480485099e-07, -1.5625120113327284e-06], [0.010009359568357468, -0.04114360362291336], [0.020830165594816208, -0.005010498221963644], [0.012806086800992489, 0.183185413479805], [-0.028547031804919243, 0.21709248423576355], [1.1144027212139918e-06, -2.1953999294055393e-06]], "rec.weight_hh_l0": [[0.014162706211209297, 6.453490186686395e-06, 5.394615982368123e-06, 0.02418866939842701, 0.035183876752853394, -9.41945327213034e-05, -0.00012214391608722508, -0.2800154685974121, -0.09261088818311691, 4.53422813961879e-07, 2.6086172510986216e-05, -0.0001576063659740612, 0.624409556388855, 0.00012494450493250042, 6.532009138027206e-05, -1.0572842938927351e-06, 7.491392898373306e-05, -9.703518117021304e-06, 1.810879552976985e-06, 6.720103556290269e-06, -0.5580817461013794, -5.825102107337443e-06, -3.29721643765879e-07, -0.016988588497042656, 1.2205485290905926e-05, -0.3330606520175934, 4.8595076805213466e-05, -1.6881855117389932e-05, -8.206559141399339e-05, 0.00011685911886161193, -3.7714693462476134e-05, 2.2549104414792964e-06, -0.030337780714035034, 0.0280174408107996, -1.687133772065863e-05, 0.012394841760396957, 0.06162286549806595, -0.05935600772500038, -0.4939248561859131, -9.348386083729565e-05], [5.13421582581941e-07, -4.976417056212767e-10, 3.5685432386856064e-10, -7.461961359922498e-08, -1.0504908232178423e-06, 1.2862583220751844e-09, 1.2966988593987594e-09, 2.274742882946157e-06, -1.6357112997411605e-07, 4.4093595441552225e-10, 9.784630744524847e-11, 1.6639236655180412e-09, 3.9437631471628265e-07, -1.3796362940965423e-09, -3.3413513622626567e-10, 3.0449121002362745e-10, -7.594792572618303e-10, -1.6279147474485e-10, 4.788880403339135e-10, -8.572070830936696e-10, 2.1639859824063024e-06, 4.4649114960826353e-10, -4.3509534863872545e-10, -6.8793994500993e-08, -2.689634348573833e-10, 2.1114383343956433e-06, -6.85441564618472e-11, 5.04031871795263e-10, 8.196679446292876e-10, -1.7153810594194852e-09, 2.3428564643879213e-10, -2.966973333684564e-10, 2.511024490559066e-07, 5.887890210942714e-07, 4.951978826994718e-10, -1.58091282287387e-07, -4.805141884389741e-07, -1.6193382634810405e-07, 1.5725471484984155e-06, 1.8023957326640527e-10], [-8.492125971315545e-07, -1.0931382882217733e-10, 3.5236355500067873e-10, 9.680398704858817e-09, -1.2211488638058654e-06, 1.8119719058518058e-09, 1.9341335200095955e-09, 2.919983899118961e-06, 7.254564025060972e-07, 3.709260329443076e-12, 1.2637824120531604e-10, 2.6365880589906965e-09, -3.926080864857795e-07, -2.2072317307220146e-09, -1.0660747840063323e-09, -1.325322213086011e-10, -1.292814411080201e-09, -3.059288933293658e-10, -1.2485920283800134e-11, -5.083283793894111e-10, 2.111224148393376e-06, 3.621192928848771e-11, -4.8509477684755e-12, 2.5480915155640105e-07, -4.3330380949946345e-10, 3.4636127566045616e-06, -9.392850386369389e-11, 1.6277876269121805e-10, 1.5405392517209293e-09, -2.2867596705111737e-09, 6.614091496714991e-10, 1.490888662525336e-10, 3.510318435928639e-07, -4.862569653596438e-07, 1.4969302186695899e-10, -1.549663295463688e-07, -7.49757646190119e-07, 3.111966009328171e-07, 3.233252755308058e-06, 8.370347748254403e-10], [0.0037093646824359894, -1.8491598893888295e-05, -2.9576618544524536e-05, 0.05010035261511803, -0.07452581077814102, 0.0003826470929197967, 0.00036255765007808805, 0.47782155871391296, -0.013394013978540897, 2.6575642550596967e-05, -0.00032836516038514674, 0.00032344256760552526, -0.07304874807596207, -0.0002323935623280704, -3.851865403703414e-05, 4.309339419705793e-05, -0.00014547751925420016, 0.0003192386357113719, 5.346893158275634e-05, 7.742410525679588e-05, 0.5396007299423218, 2.3164804588304833e-05, -1.3915160707256291e-05, -0.047206003218889236, 0.00029732644907198846, 0.5625618100166321, -0.0003500189050100744, 2.3376536773866974e-05, 0.00010400405153632164, -0.00044183828867971897, 0.00021228936384432018, -3.8927115383557975e-05, 0.01600816659629345, -0.03580630198121071, 2.4343102268176153e-05, 0.04059450328350067, -0.08435964584350586, -0.0014304608339443803, 0.44400492310523987, 0.0002400211087660864], [0.019161203876137733, 7.534107135143131e-05, -0.00010090554860653356, 0.028659433126449585, -0.015457767993211746, -0.00014234335685614496, -0.00013971903536003083, -0.024770362302660942, -0.010418032296001911, -7.194393401732668e-05, -0.00010025937081081793, -0.00038038514321669936, -0.03135666251182556, 0.00022521420032717288, 5.037417577113956e-05, -4.680381607613526e-05, 0.00015585581422783434, 0.0001180580657091923, -8.223619806813076e-05, 0.00021696316252928227, -0.012017880566418171, -6.92542816977948e-05, 6.083347398089245e-05, 0.007622953038662672, 0.00016437815793324262, -0.0012478367425501347, -4.0122515201801434e-05, -8.106284803943709e-05, -0.00010475056478753686, 0.00021936310804449022, -6.203252723935293e-06, 4.523815732682124e-05, 0.07116620242595673, 0.026964856311678886, -7.751597149763256e-05, 0.0014681251486763358, -0.013710497878491879, 0.016253024339675903, -0.04869082197546959, -3.57119097316172e-05], [4.1135281207971275e-06, -3.2500153679393406e-09, 3.799825343264729e-09, -4.911948963126633e-06, -6.111804850661429e-06, 1.5534425301666488e-08, 1.596933429937053e-08, 7.474268841178855e-06, -7.825393026905658e-07, 2.380218910857934e-09, 2.9839484216864776e-09, 2.5336206022075203e-08, -2.5901804292516317e-06, -1.8518067079753564e-08, -6.7087770894147525e-09, 7.087039288755648e-10, -1.2231104129512005e-08, -4.358311933572168e-09, 2.7007776015608442e-09, -9.43956468546503e-09, 1.021569551085122e-05, 2.5229576205987314e-09, -2.3700652551639223e-09, -1.7406392771590617e-06, -5.317473128485517e-09, 9.982859410229139e-06, 1.2042582486770925e-09, 3.446985363808608e-09, 1.1510938868752874e-08, -2.0890436047693584e-08, 3.734609510530618e-09, -6.043017752865865e-10, 1.7445630646761856e-06, 4.6692903197254054e-06, 3.3094718077109064e-09, -1.0173444024985656e-06, 2.3801486292995833e-07, 7.597749345222837e-07, 6.424495040846523e-06, 1.7955253950319161e-09], [3.8930675145820715e-06, -3.311587448706632e-09, 4.68463845493261e-09, -5.3635199037671555e-06, -6.083495463826694e-06, 1.66414633184786e-08, 1.7288051878949773e-08, 7.582054877275368e-06, -7.583409455946821e-07, 2.348802707885511e-09, 3.767251843811437e-09, 2.7649090128534226e-08, -2.7232149477640633e-06, -2.0213750673292452e-08, -7.558432102428014e-09, 5.449828921477717e-10, -1.3646290319968557e-08, -5.290962334925098e-09, 2.623971706583461e-09, -1.0259596727735243e-08, 1.0657611710485071e-05, 2.520263997496386e-09, -2.3585613462273614e-09, -1.7834008758654818e-06, -6.380268757766316e-09, 1.0907453543040901e-05, 1.7430074050750477e-09, 3.551943406066016e-09, 1.2649632452621518e-08, -2.2425284740279494e-08, 4.028230193853233e-09, -4.424871025143773e-10, 1.652709784139006e-06, 4.417203854245599e-06, 3.3975384727824576e-09, -1.008033564176003e-06, -9.405608381030106e-08, 7.993317012733314e-07, 6.933198619663017e-06, 2.145618349658207e-09], [-0.00646960036829114, 0.00022215000353753567, -8.823993266560137e-05, -0.03339308872818947, 0.026411879807710648, -0.00010894864681176841, -7.50546096242033e-05, 0.010415449738502502, 0.004329157993197441, -0.00020358111942186952, -0.0002485441800672561, -0.00039587277569808066, -0.015392469242215157, 0.00021612185810226947, -5.2452520321821794e-05, -0.0001400056207785383, 4.794663254870102e-05, 0.00026790236006490886, -0.00021518769790418446, 0.0004644308937713504, -0.12029173970222473, -0.00020296956063248217, 0.00020511412003543228, -0.0076140109449625015, 0.00029026251286268234, -0.10588241368532181, -0.00020027773280162364, -0.00020064513955730945, -9.875687101157382e-05, 0.00023692235117778182, 4.114110197406262e-05, 0.00014088790339883417, -0.040410757064819336, -0.013138221576809883, -0.0002070558548439294, 0.023926561698317528, -0.010369519703090191, -0.019508909434080124, -0.0824127271771431, 4.081769293406978e-05], [0.018022838979959488, 2.0743354980368167e-05, -1.0637182640493847e-05, 0.008380231447517872, 0.032169491052627563, 0.00015462609007954597, 0.0002039705723291263, -0.1549367606639862, 0.021310262382030487, -3.583275247365236e-05, 5.728123142034747e-05, 0.0003470341325737536, -0.18983344733715057, -0.0002752013097051531, -0.0001671866630204022, -3.322755583212711e-05, -0.000151280386489816, -8.639835141366348e-05, -3.1920393666950986e-05, -6.937035504961386e-05, -0.1613483726978302, -2.598456558189355e-05, 3.3929114579223096e-05, -0.029621709138154984, -9.808185131987557e-05, -0.21695326268672943, 3.742951957974583e-05, 5.414391353042447e-07, 0.00018950742378365248, -0.00020831503206864, 3.048876897082664e-05, 3.431628647376783e-05, 0.004560020752251148, -0.02648148126900196, -4.397787051857449e-06, 0.01290319487452507, 0.028723113238811493, 0.03680828586220741, -0.09641696512699127, -3.103023482253775e-05], [4.252061103215965e-07, -4.2236877884072044e-10, 3.527393099833631e-10, 1.5617126791767078e-07, -9.88951910585456e-07, 1.0298957242582674e-09, 1.0506220338157846e-09, 2.124619413734763e-06, -3.417256877469299e-08, 3.823994731977365e-10, 5.0069896145865656e-11, 1.1417601308849612e-09, 3.774006529511098e-07, -1.0523327764744295e-09, -2.4075519355903907e-10, 2.8321522904661833e-10, -5.580937378901751e-10, -8.758469643987965e-11, 4.0418132729591605e-10, -6.298801480397742e-10, 1.899273684102809e-06, 3.8709460636887627e-10, -3.785180779924957e-10, -2.570303792026607e-08, -1.8174728388942185e-10, 1.6853322222232237e-06, -9.423561236898692e-11, 4.3024356299881106e-10, 6.356217774339257e-10, -1.346513789357573e-09, 1.788054010409823e-10, -2.787114705693483e-10, 2.134842418399785e-07, 4.203437526939524e-07, 4.228423167162987e-10, -1.245215344169992e-07, -6.753157322236802e-07, -2.0514701759566378e-07, 1.4277910622695345e-06, 2.1710493125493002e-10], [-2.9437392186082434e-06, -4.4984016511762093e-10, -3.426034178577453e-10, 1.7773575109458761e-06, -8.995853022497613e-07, 1.3107381846566568e-09, 1.436648133790186e-09, 6.277627107920125e-06, 1.5423702279804274e-06, 4.712788492788889e-10, -1.5838077516150406e-09, 9.172654857891871e-10, 2.0026475340273464e-06, -1.2744740818249056e-09, -4.224779137640411e-10, 4.804306397154789e-10, 2.384559910639794e-11, 1.4834679040731658e-09, 4.615728355084059e-10, 1.9044373023024974e-10, 3.5282555472804233e-06, 4.681344201173943e-10, -3.841427176354273e-10, 9.80617301138409e-07, 1.1983918302149732e-09, 5.6698827393120155e-06, -1.8447617877725975e-09, 5.750954712446799e-10, 7.669918589137126e-10, -1.5309751244529934e-09, 8.526986894352717e-10, -4.712745194090928e-10, 5.9099420468555763e-08, -2.5863066639431054e-06, 5.328310570540395e-10, 4.246391682727335e-08, -1.5447016039615846e-06, -9.797918032461439e-09, 5.569169388763839e-06, 2.4295061518131433e-09], [4.885785074293381e-06, -6.3923382143116214e-09, 1.0576168385512119e-08, -8.641363820061088e-06, -1.111370602302486e-05, 3.336880993742852e-08, 3.517943980568816e-08, 2.8140959784650477e-06, -1.8237645917906775e-06, 4.17890744230931e-09, 9.804027811810556e-09, 6.09090449188443e-08, 8.910614269552752e-06, -4.45664447568106e-08, -1.7287593578885208e-08, 4.393919394996004e-10, -2.753377437159088e-08, -1.3201737480983411e-08, 4.751976590000595e-09, -2.410631338989333e-08, 4.187652393738972e-06, 4.652647600522641e-09, -4.281373922054854e-09, -2.1918424408795545e-06, -1.6030385907583877e-08, 5.145130671735387e-06, 4.969905820217946e-09, 6.988630119053596e-09, 2.8054502720920027e-08, -4.6126299224624745e-08, 7.81162245999667e-09, -1.8018982139711426e-10, 2.3715645056654466e-06, 8.532084393664263e-06, 6.676135644312353e-09, -2.325394007129944e-06, 1.2353136753517902e-06, 1.2358987078187056e-06, 3.1875049444352044e-06, 4.937583675257429e-09], [0.018319901078939438, -0.0001104799666791223, -1.6798070646473207e-05, 0.012634646147489548, 0.03915709629654884, 0.0001738772407406941, 0.00017036970530170947, -0.1535693258047104, -0.027313662692904472, 0.00011421833914937451, -6.999020843068138e-05, 0.00010564683907432482, 0.05141221359372139, -0.0001235866075148806, 2.535121893743053e-05, 0.0001089481811504811, -2.3870496079325676e-05, 6.895087426528335e-05, 0.00012574761058203876, -9.764378773979843e-05, -0.11543480306863785, 0.00011343803635099903, -0.0001074024912668392, 0.0319528728723526, 5.26075491507072e-05, -0.177510604262352, -8.98628932191059e-05, 0.00011108777107438073, 4.897488543065265e-05, -0.0002225867792731151, 3.2922428090387257e-06, -0.00010912876314250752, -0.002009356627240777, -0.00701806228607893, 0.00011199571599718183, 0.0023650878574699163, 0.025818264111876488, -0.002433305373415351, -0.09046237170696259, 4.061124855070375e-05], [3.4611073260748526e-06, -3.8452281359013796e-09, 5.930821611599413e-09, -3.736543249033275e-06, -5.523431809706381e-06, 1.97336120777436e-08, 2.0776676379341552e-08, -2.4589303393440787e-07, -8.68763265771122e-07, 2.6004445263794196e-09, 5.600433450325681e-09, 3.553002869693955e-08, 4.544593593891477e-06, -2.6245592366080928e-08, -1.0167590325238507e-08, 3.8255124068520274e-10, -1.6173395067653473e-08, -7.634900711650516e-09, 2.944549049033185e-09, -1.4403403802987214e-08, 7.400342383334646e-07, 2.851185509911147e-09, -2.5984103757537014e-09, -1.3044251545579755e-06, -9.289592206584985e-09, 9.44464090935071e-07, 2.7806004165853437e-09, 4.2296117719331505e-09, 1.657257264753298e-08, -2.7233641120005814e-08, 4.52520332316908e-09, -2.4225918493492316e-10, 1.6311462331941584e-06, 5.040271389589179e-06, 4.0265279999118775e-09, -1.1655408798105782e-06, 9.877757065623882e-07, 5.358262455956719e-07, -3.819650089553761e-07, 3.0049869259585194e-09], [3.844196214686235e-07, -1.350520945075928e-10, 1.1829397461582403e-09, 2.3540420102108328e-07, -6.7384524982117e-07, 2.588664171909727e-09, 2.879746441308839e-09, -3.5375722973185475e-07, 3.322790007587173e-07, -6.41466463280338e-11, 1.0494425328744228e-09, 4.625405836122809e-09, 3.477370853488537e-07, -3.596752451429097e-09, -1.760482648549555e-09, -3.233354695098001e-10, -2.468777626773999e-09, -1.3526935127572415e-09, -1.039602848251775e-10, -1.5385543949975045e-09, -5.939332936577557e-07, -3.2155779775000504e-12, 2.170081649099931e-11, -3.848736085387827e-08, -1.5779876294530482e-09, -1.0848801821339293e-06, 6.445903255603014e-10, 2.0803767042387733e-10, 2.4963926481547105e-09, -3.4631217893377197e-09, 6.752767789386382e-10, 3.361879663543732e-10, 5.5982990687653e-08, 4.315601245252765e-07, 1.826218343214947e-10, -1.214228433354947e-07, -4.239071813572082e-07, -3.042487861648624e-08, -4.3003308292099973e-07, 7.79613984480676e-10], [2.2758877094020136e-07, -2.4967986012036647e-10, 2.3275253946408725e-10, 3.9124631712184055e-07, -6.520304509649577e-07, 5.828498239601743e-10, 6.076875669336346e-10, 1.5058506050991127e-06, 1.3411229815574188e-07, 2.373625185292383e-10, -5.091392932254912e-11, 3.9730715939434447e-10, 3.977145297540119e-07, -5.09483899513441e-10, -1.0588174087500235e-10, 2.000946630609235e-10, -2.5494326094666064e-10, 4.131415695662888e-11, 2.3934759729726807e-10, -2.32116312282038e-10, 1.1336771876813145e-06, 2.3944077276460973e-10, -2.32767000118983e-10, 3.017878213995573e-08, -2.276070130979857e-11, 9.500487863078888e-07, -1.4302348194661363e-10, 2.6162783051120186e-10, 3.2233041236118254e-10, -7.171067628597427e-10, 1.0887641482826282e-10, -1.9965064324001247e-10, 9.779918030972112e-08, 1.2941471538852056e-07, 2.556091727168308e-10, -5.3443649505879876e-08, -6.91649461259658e-07, -1.8524096390137856e-07, 9.58176315180026e-07, 2.802603982221541e-10], [-3.5136824294568214e-07, -1.5263688091238237e-09, 3.3668088317284628e-09, -3.7399245229607914e-06, -2.931901690317318e-06, 9.402603140529209e-09, 9.947019208311758e-09, 2.6522043299337383e-06, -2.0454599791719374e-08, 9.668001954565852e-10, 2.2572195224057623e-09, 1.4878812848451162e-08, -5.08926120801334e-07, -1.1182507364537742e-08, -4.4742711757805864e-09, 2.1519187473617585e-11, -8.188819400345437e-09, -3.0603877210211294e-09, 9.931916400418572e-10, -4.965034161585891e-09, 3.0688283914059866e-06, 1.0923674187424126e-09, -1.036297492262861e-09, -3.829212005257432e-07, -3.657853131500133e-09, 3.843982540274737e-06, 1.082246958716837e-09, 1.6456386253693722e-09, 7.166405691094724e-09, -1.2422380457621784e-08, 2.416812527883394e-09, 2.4119749600370888e-11, 6.16131160313671e-07, 3.628442257763709e-08, 1.5834387134816552e-09, -5.423576112661976e-07, -1.4294731727204635e-06, 7.762666882626945e-07, 3.4410616081004264e-06, 1.8695807124657904e-09], [-3.2684015423001256e-06, -5.500352395770847e-10, 7.082311299921873e-12, 1.7261601215068367e-06, -1.0622426316331257e-06, 1.938106786170124e-09, 2.126363973786738e-09, 5.989171768305823e-06, 1.7561709455549135e-06, 5.270318625960613e-10, -1.2696170781367755e-09, 2.0668764477704826e-09, 2.154159574274672e-06, -2.215876593325561e-09, -8.123967609741101e-10, 4.789224017365257e-10, -4.859881941321476e-10, 1.1123634235943314e-09, 5.197076657914579e-10, -3.671584425379848e-10, 3.0231788059609244e-06, 5.377297496167444e-10, -4.477521686752084e-10, 9.802744216358406e-07, 7.497768517161774e-10, 5.179867457627552e-06, -1.658356119094151e-09, 6.856343826022737e-10, 1.3754115624209362e-09, -2.4109652052572983e-09, 9.209799034515243e-10, -4.6503167983047433e-10, 9.33602990471627e-08, -2.7144362775288755e-06, 6.419564879678319e-10, 1.2079174105394941e-08, -1.7103778873206466e-06, 6.553522524654909e-08, 5.604440502793295e-06, 2.568684154269363e-09], [4.4540863086695026e-07, -4.46914338869675e-10, 3.899682243790892e-10, 1.905672206703457e-07, -1.17932461307646e-06, 1.1636644980939082e-09, 1.1951725165104676e-09, 2.843702304744511e-06, -1.4077481402807734e-08, 3.958202099418884e-10, 7.64226459892825e-11, 1.356751266889944e-09, 3.1162701930043113e-07, -1.2638765589656487e-09, -3.277282056846076e-10, 2.8566887744219116e-10, -6.038503030936226e-10, -1.2113983427486374e-10, 4.228065120237545e-10, -7.577701799377223e-10, 2.547124267948675e-06, 4.039725776117109e-10, -3.949278126746947e-10, -3.587254582271271e-08, -2.3072513344324364e-10, 2.3462448552891146e-06, -8.856610583807267e-11, 4.562203947955368e-10, 7.797479883997482e-10, -1.534352644938508e-09, 1.8855307593046433e-10, -2.788034803025141e-10, 2.5520017743474455e-07, 4.823198196390877e-07, 4.4884626571040087e-10, -1.387683710163401e-07, -7.105420536390739e-07, -2.297641970017139e-07, 1.9930694179493003e-06, 2.1676502259815322e-10], [-1.510072706878418e-06, -1.4008808557619545e-09, 9.395566546999135e-10, -5.380038601288106e-07, -8.916482556742267e-07, 6.689897524836397e-09, 6.867888924233512e-09, 6.357167876558378e-07, -2.8907157911817194e-07, 1.0497895885919206e-09, 9.063149120080993e-10, 1.0946003214939992e-08, 6.205825684446609e-06, -8.449091204454362e-09, -3.1174054448968036e-09, 3.3719532721576684e-10, -4.728808011833507e-09, -1.5290939625600686e-09, 1.2367668000834442e-09, -4.400475095422962e-09, -2.4583945901213156e-07, 1.108683034267699e-09, -9.881268026035173e-10, 6.117439852459938e-07, -1.954038486573495e-09, 1.1994170563411899e-06, 1.5799783703585035e-10, 1.5284977727958449e-09, 5.351159071409484e-09, -9.102638642843885e-09, 1.6696225513257446e-09, -2.7883617637058933e-10, -1.914458351848225e-07, -4.3727294496420654e-07, 1.4681290627649446e-09, -2.228853475116921e-07, 1.0653192106246934e-07, 1.4943677228984598e-07, 5.234576860857487e-08, 8.928867645252581e-10], [0.08641277998685837, -5.8411773352418095e-05, 0.00017107086023315787, -0.024393217638134956, -0.010281363502144814, 0.00019701546989381313, 0.0002058065147139132, -0.0656791552901268, -0.06657983362674713, 5.562027217820287e-05, 0.00012758426601067185, 0.00030334267648868263, 0.05039035528898239, -0.0002535211096983403, -7.171868492150679e-05, 4.043837543576956e-05, -0.00019601323583628982, -0.0001334013359155506, 5.176444028620608e-05, -0.00021663001098204404, -0.23281316459178925, 5.550002970267087e-05, -5.2808714826824144e-05, 0.17331722378730774, -0.0001546546700410545, -0.081144317984581, 8.370286377612501e-05, 5.913298446102999e-05, 0.00013999266957398504, -0.00028047620435245335, -4.2983712774002925e-05, -4.202479976811446e-05, -0.01655472256243229, -0.17911309003829956, 5.8618821640266106e-05, 0.00310542737133801, 0.017396902665495872, 0.026520920917391777, -0.10257209092378616, 9.111401595873758e-06], [4.528403394488123e-07, -4.353454818861735e-10, 3.263253001151156e-10, 9.700460879003003e-08, -9.42343774568144e-07, 1.0566384434085307e-09, 1.0695265784121943e-09, 2.1063726762804436e-06, -7.056696915697103e-08, 3.948354698746215e-10, 4.9501711757438116e-11, 1.2217443723372412e-09, 3.554079341938632e-07, -1.0850662590655702e-09, -2.418873434884006e-10, 2.897939943569128e-10, -5.820021131697217e-10, -9.265818667891779e-11, 4.2159223334614637e-10, -6.667648100311396e-10, 1.931416136358166e-06, 3.9856007383320957e-10, -3.8858541384634293e-10, -4.0774356335759876e-08, -1.8592659356553298e-10, 1.7862952290670364e-06, -9.374633708203461e-11, 4.4271492027903037e-10, 6.463821700108952e-10, -1.3901272355454353e-09, 1.8422399716833127e-10, -2.8480348635007147e-10, 2.1343197431633598e-07, 4.5717038688053435e-07, 4.3489875589663995e-10, -1.2704616381142841e-07, -5.883498488401528e-07, -1.868614702971172e-07, 1.420739295099338e-06, 2.0116601440189896e-10], [4.877803121416946e-07, -4.0054590200178097e-10, 2.9960411929152997e-10, 6.241982930532686e-08, -8.73139072155027e-07, 9.779385079511371e-10, 9.851719440234774e-10, 2.0230697828083066e-06, -1.0408162864905535e-07, 3.614720189837328e-10, 6.08390282597071e-11, 1.1344337691454598e-09, 3.205177847576124e-07, -9.930116728895655e-10, -2.1808248262811247e-10, 2.626805162275758e-10, -5.53041334949711e-10, -1.0199818073486355e-10, 3.86510518035621e-10, -6.171363975404631e-10, 1.8852232415156323e-06, 3.6528480240605177e-10, -3.5817704358009905e-10, -3.9826392850272896e-08, -1.8323731421077127e-10, 1.800074187485734e-06, -6.623255416338125e-11, 4.042556289718391e-10, 5.941387382080165e-10, -1.2850377428819115e-09, 1.6441459305127637e-10, -2.580620162007108e-10, 1.981383661586733e-07, 5.035133767705702e-07, 3.9798744855268353e-10, -1.312145343490556e-07, -4.958204158356239e-07, -1.7292859411099926e-07, 1.342571408713411e-06, 1.7201384761023064e-10], [-0.011394314467906952, 1.7510245015728287e-05, 4.035925667267293e-05, 0.0041833859868347645, 0.10296229273080826, 7.247626490425318e-05, 8.329591946676373e-05, -0.30987343192100525, -0.011782838962972164, -2.120385761372745e-05, -1.0695886203393457e-06, 0.0001649683981668204, 0.02231304906308651, -0.00010021989874076098, -6.364142609527335e-05, -2.7880971174454316e-05, -0.00010420658509247005, -1.0143339750356972e-05, -2.622465035528876e-05, -7.337582701438805e-06, -0.3111753463745117, -2.1868669136893004e-05, 2.169371691707056e-05, -0.0005632243701256812, -1.4036427273822483e-05, -0.35998061299324036, -1.0229246981907636e-05, -1.2356161278148647e-05, 6.375330121954903e-05, -9.719109220895916e-05, 4.661459752242081e-05, 2.8267404559301212e-05, -0.039012741297483444, -0.007390604820102453, -1.63315544341458e-05, 0.011451272293925285, 0.04630548506975174, -0.0007994701154530048, -0.26908037066459656, 6.111173570388928e-05], [-3.225013642804697e-06, -5.600270247541062e-10, 3.0955238372598615e-10, 1.5755757658553193e-06, -1.1616452866292093e-06, 2.683487210219937e-09, 2.9195084128019744e-09, 5.347353180695791e-06, 1.800160362108727e-06, 4.664353903116591e-10, -7.075534047551457e-10, 3.7007672482047838e-09, 2.0703423615486827e-06, -3.3865239501551514e-09, -1.3702421419736766e-09, 3.215319122062965e-10, -1.2558264428363941e-09, 4.4698919565711037e-10, 4.6385764673750884e-10, -1.0199839861613214e-09, 2.547903477534419e-06, 4.985317714201187e-10, -4.045923318596323e-10, 1.0646444934536703e-06, 4.6670500797318937e-11, 4.689383786171675e-06, -1.1968799285000387e-09, 7.030493409665439e-10, 2.1804096306254905e-09, -3.4704623619319364e-09, 1.0538084849187612e-09, -3.001982273875825e-10, 1.089233450102256e-07, -2.4491428121109493e-06, 6.588760648185144e-10, -8.577218579830514e-08, -1.5992270618880866e-06, 1.6386616152885836e-07, 5.1500924200809095e-06, 2.480832872464589e-09], [0.006681604776531458, -2.956316529889591e-05, 9.195008897222579e-05, 0.026915134862065315, 0.013029683381319046, -3.541767000569962e-05, -9.293250514019746e-06, -0.10101598501205444, -0.0025189039297401905, 1.2529058039945085e-05, 0.00014464209380093962, 7.196582737378776e-05, -0.03841260448098183, -6.889889482408762e-05, -3.607806138461456e-05, 1.7618236825001077e-06, 2.2473817807622254e-05, -0.00014906961587257683, -4.3529277604648087e-07, -0.00014763273065909743, -0.12135712057352066, 2.0433742975001223e-05, -2.9048043870716356e-05, -0.023482466116547585, -0.00016216473886743188, -0.04815743491053581, 0.00012128619709983468, 2.6187350158579648e-05, 6.17052719462663e-05, 1.1444636584201362e-05, -1.4081349945627153e-05, -2.3644317934667924e-06, 0.037118855863809586, 0.012558985501527786, 2.7854845029651187e-05, -0.003472583368420601, 0.008907989598810673, 0.026469791308045387, -0.11250415444374084, -2.6739757231553085e-05], [-2.6459463242645143e-06, -4.3328127197206356e-10, -5.428258953443788e-10, 1.6064985857155989e-06, -8.072621540122782e-07, 6.599009116925458e-10, 7.278078695271972e-10, 6.423862942028791e-06, 1.2911986004837672e-06, 5.079659470830222e-10, -1.8538144352930885e-09, -3.5039890433630205e-10, 1.9933270323235774e-06, -2.5340288201114447e-10, 7.003023161367139e-11, 5.778033052017406e-10, 5.4227050627631e-10, 1.8383999877968904e-09, 5.016126958246048e-10, 6.698217536182938e-10, 3.93719437852269e-06, 4.851246071524429e-10, -4.1027023445217026e-10, 7.780281521263532e-07, 1.6135933700311966e-09, 5.906797923671547e-06, -2.0099417685770504e-09, 5.436955330395676e-10, 5.482472809070771e-11, -6.324249457456688e-10, 6.99589663977207e-10, -5.755749210578642e-10, 3.1892628982177484e-08, -2.5556805667292792e-06, 5.018715443227961e-10, 1.1618988082773285e-07, -1.5579191767756129e-06, -9.928638888823116e-08, 5.5591917771380395e-06, 2.1978372455322415e-09], [4.464668563741725e-07, -5.307762007689121e-10, 3.740695808662764e-10, -5.310303308192488e-08, -1.077992578757403e-06, 1.3442985613565384e-09, 1.360288770513307e-09, 2.3375578166451305e-06, -1.26126764143919e-07, 4.756064431177265e-10, 6.667131430271311e-11, 1.7139017982614746e-09, 4.067991028477991e-07, -1.4250666202642037e-09, -3.385778324371813e-10, 3.364928891080865e-10, -7.838618087951943e-10, -1.3388327946284306e-10, 5.142340997466022e-10, -8.602368262167204e-10, 2.1634436961903702e-06, 4.799764474761048e-10, -4.6513581875018417e-10, -7.592957729229965e-08, -2.5142091186758364e-10, 2.103188307955861e-06, -1.1406047634165972e-10, 5.437886807513337e-10, 8.365174664071162e-10, -1.7873267310619667e-09, 2.675862309509114e-10, -3.2887853551599733e-10, 2.313435345513426e-07, 5.007804020351614e-07, 5.316366791241478e-10, -1.4426943550915894e-07, -5.794863113806059e-07, -1.670932192610053e-07, 1.6341427908628248e-06, 2.3128823856133351e-10], [1.1802280823758338e-06, -1.1700778124179578e-09, 2.5393036562348925e-09, -1.1035843954232405e-06, -2.0872478216915624e-06, 7.891466147214032e-09, 8.40496738874208e-09, -6.076394925003115e-07, -1.4662436598200657e-08, 6.510657568625788e-10, 2.3083008837687657e-09, 1.3998397996317635e-08, 1.2142475043219747e-06, -1.0467518407608623e-08, -4.368473138782747e-09, -1.9296976516702813e-10, -6.724843348848708e-09, -3.1403188938128324e-09, 7.239541188752696e-10, -5.237333677854394e-09, -3.1071175499164383e-07, 7.70850605569251e-10, -6.84343026691181e-10, -3.468084059932153e-07, -3.7726546331384725e-09, -5.984135782455269e-07, 1.2019608641722357e-09, 1.3350625049923792e-09, 6.799064422580159e-09, -1.074386357657886e-08, 1.91965110474257e-09, 2.4611626625592464e-10, 5.223146786192956e-07, 1.6522802752660937e-06, 1.258005477566826e-09, -4.1248799220738874e-07, 1.3180340374674415e-07, 2.3711025676220743e-07, -5.974042096568155e-07, 1.529556370449825e-09], [6.997007858444704e-06, -5.9813984876200266e-09, 6.931956342270951e-09, -7.774507139401976e-06, -1.0019565706897993e-05, 2.6819682474865658e-08, 2.76765366180598e-08, 9.866248547041323e-06, -1.7366927522743936e-06, 4.443890588845534e-09, 5.896744870170778e-09, 4.545540832623374e-08, -9.856539691099897e-07, -3.3267482990595454e-08, -1.1919008002791998e-08, 1.4754335531108609e-09, -2.098703610897701e-08, -8.3518898463808e-09, 5.056499663425029e-09, -1.8167796156376426e-08, 1.3812006727675907e-05, 4.697713773538226e-09, -4.393339469999091e-09, -2.8602958082046825e-06, -1.0270790440358724e-08, 1.3792035133519676e-05, 2.5115813873100024e-09, 6.364039961681556e-09, 2.053653247457987e-08, -3.659577174630613e-08, 6.111894546023677e-09, -1.2861566256461288e-09, 2.919240159826586e-06, 8.499550858687144e-06, 6.10960615432532e-09, -1.7512312524559093e-06, 9.687996680440847e-07, 1.025589426717488e-06, 8.486525985063054e-06, 2.9962499148439292e-09], [-8.022055197898226e-08, -1.1880954553511458e-10, 1.5277432097171584e-11, -3.8570115634684043e-07, -2.508890020180843e-07, 8.346627278221774e-10, 8.505873227981908e-10, 1.7619114487388288e-06, -2.8104294447217626e-09, 8.195986944681266e-11, -1.4486013777403883e-10, 1.1489793561025863e-09, -3.488646314053767e-07, -6.806337160547571e-10, -2.731368742292517e-10, 3.5603505820630543e-12, -7.95045917989512e-10, 5.41598953185396e-11, 8.133171219837365e-11, 6.156818110891749e-11, 1.9360695659997873e-06, 8.608314061575584e-11, -7.695589998579777e-11, 1.6126627144785743e-08, 5.1274141182888755e-11, 2.267935997224413e-06, -1.8258441980556483e-10, 1.440243480033132e-10, 4.188374647107196e-10, -1.006849603690796e-09, 4.876076764581683e-10, -7.908573969317434e-13, -1.7982330291488324e-07, -1.3445583135762718e-07, 1.2809181493267374e-10, -8.335317325247615e-09, -1.80437609742512e-07, 7.557473225006106e-08, 1.4176019931255723e-06, 3.503229650814177e-10], [2.3694792616879568e-07, -2.514210506454617e-10, 2.4500459994136747e-10, 4.02771888730058e-07, -6.487316568382084e-07, 5.831372607012497e-10, 6.090228876765025e-10, 1.4208171705831774e-06, 1.3696275402708125e-07, 2.396779996693965e-10, -4.98468349929837e-11, 3.7061767543811186e-10, 3.922648375009885e-07, -4.927840357993318e-10, -9.808950179879261e-11, 2.0321694327307682e-10, -2.6188090584966517e-10, 4.198113731646025e-11, 2.399452303514238e-10, -2.1354891466263126e-10, 1.0697405059545417e-06, 2.418178157714834e-10, -2.356958794802466e-10, 3.1303901693036096e-08, -2.0833192809766032e-11, 8.473439834233432e-07, -1.4160170258570304e-10, 2.6309510126054647e-10, 3.130022074859795e-10, -7.114177025258073e-10, 1.1079715617201558e-10, -2.0323756566575923e-10, 9.176810777944411e-08, 1.301167884548704e-07, 2.5726826224925503e-10, -5.3520395226769324e-08, -7.172833420554525e-07, -1.8737937068635802e-07, 8.85030715380708e-07, 2.865276071961631e-10], [-0.009749894961714745, -0.00017625042528379709, -0.00020701975154224783, 0.03303885832428932, -0.13990768790245056, 0.0003776564262807369, 0.00036209201789461076, 0.3550023138523102, 0.04610718786716461, 0.00013367737119551748, 8.39585336507298e-05, 0.000440356059698388, -0.0033308290876448154, -0.00030777804204262793, -4.536541746347211e-05, 7.420827751047909e-05, -0.00028933718567714095, -0.0001357201545033604, 0.0001418322790414095, -0.00021097924036439508, 0.3936518132686615, 0.00015204938245005906, -0.0001615371584193781, 0.031684186309576035, -6.191105057951063e-05, 0.4992614984512329, 0.00011947443999815732, 0.00016302717267535627, 0.000234126127907075, -0.0004877530736848712, 0.00035637806286104023, -6.94317277520895e-05, -0.060846444219350815, 0.02951895445585251, 0.00017257571744266897, -0.008365298621356487, -0.09069103747606277, -0.040310848504304886, 0.3317939043045044, -0.00023562891874462366], [-0.009692338295280933, 9.671222505858168e-05, -6.366199522744864e-05, 0.04451572522521019, 0.02525087259709835, -8.344728121301159e-05, -7.725912291789427e-05, -0.1556757688522339, 0.03027971275150776, -0.000100292032584548, 3.3059463021345437e-05, -0.00017834351456258446, -0.16041460633277893, 7.68373574828729e-05, -3.3610711398068815e-05, -8.192303357645869e-05, 0.00011486787116155028, -2.1182344426051714e-05, -0.00010598803055472672, 0.0001286477199755609, -0.1981414556503296, -9.384692384628579e-05, 9.107867663260549e-05, -0.03406748175621033, 1.0368773473601323e-05, -0.18101200461387634, 7.047996768960729e-05, -0.00010048620606539771, -7.407997600239469e-06, 0.00013342911552172154, -3.957751687266864e-05, 8.241004252340645e-05, 0.04217452555894852, 0.01501204539090395, -9.45209976634942e-05, 0.009438617154955864, 0.01962892897427082, 0.030970050022006035, -0.12220840156078339, -0.00014662517060060054], [4.6291802391351666e-07, -5.145472381506977e-10, 3.5035258028059957e-10, -5.4511506419885336e-08, -1.0273114412484574e-06, 1.3035723611665162e-09, 1.3150396327432645e-09, 2.2532556158694206e-06, -1.3571926160693693e-07, 4.6052803237550677e-10, 7.405281249317497e-11, 1.6785478562653111e-09, 3.919442121969041e-07, -1.3920979924364474e-09, -3.3005762012372486e-10, 3.2369465441384193e-10, -7.594441742142521e-10, -1.4045523077932387e-10, 4.998887415119668e-10, -8.596455769449562e-10, 2.109426304741646e-06, 4.6474155079856416e-10, -4.503643291631221e-10, -7.716031547033708e-08, -2.520386954696363e-10, 2.056817493212293e-06, -9.855186111629166e-11, 5.250607171269905e-10, 8.182605704121215e-10, -1.7379618855173362e-09, 2.4843227475201957e-10, -3.1615896012304745e-10, 2.4019681177378516e-07, 5.222228764978354e-07, 5.143676040653133e-10, -1.4491700994767598e-07, -5.154644213689608e-07, -1.5836913291877863e-07, 1.5757390201542876e-06, 2.0693631530566137e-10], [-0.008422217331826687, -2.0019520889036357e-05, -5.879059244762175e-06, 0.0029375713784247637, 0.007028873544186354, 3.529030072968453e-05, 3.6006487789563835e-05, -0.023705868050456047, 0.011911681853234768, 1.902136136777699e-05, -4.420536424731836e-05, 3.083459159824997e-05, -0.057091012597084045, -3.4054082789225504e-05, -6.170653705339646e-06, 1.4095237020228524e-05, -5.712684924219502e-06, 4.314673424232751e-05, 1.917646477522794e-05, -7.547769200755283e-06, -0.00957002304494381, 1.8231359717901796e-05, -1.78590853465721e-05, -0.0036997711285948753, 3.7352183426264673e-05, -0.028933648020029068, -4.9116290028905496e-05, 2.03412910195766e-05, 2.0482340914895758e-05, -4.324302790337242e-05, 2.478372880432289e-05, -1.3796820894640405e-05, 0.005320584401488304, -0.006138645578175783, 1.9697468815138564e-05, 0.0035506330896168947, 0.004341769497841597, 0.006420742720365524, 0.0071589211001992226, 4.994126356905326e-05], [0.00048357807099819183, 0.00014837666822131723, -0.0002481522096786648, 0.00537786865606904, 0.026791708543896675, -0.00026982941199094057, -0.0003264938422944397, -0.010986341163516045, 0.00038390455301851034, -0.00013398229202721268, -4.595205973600969e-05, -0.0007248264737427235, -0.13130591809749603, 0.00046944929636083543, 0.00012687135313171893, -0.00010513490269659087, 0.00031152929295785725, 9.17790166568011e-05, -0.00013300329737830907, 0.00036923520383425057, 0.007539522368460894, -0.0001367569639114663, 0.00013079676136840135, -0.058822911232709885, 0.00019602867541834712, 0.01730503886938095, 7.266877946676686e-05, -0.00016938232874963433, -0.00023381292703561485, 0.00042549706995487213, -4.3514683056855574e-05, 0.00010656537779141217, -0.005960639100521803, 0.017488358542323112, -0.0001570945023559034, 0.021969906985759735, -0.0624382421374321, 0.02105669490993023, 0.1262647658586502, -0.0003579990298021585], [-0.012567557394504547, -3.9867580198915675e-05, -4.585476199281402e-05, 0.008303944021463394, 0.05338739603757858, 6.738533556926996e-05, 0.00010656678205123171, -0.19716237485408783, 0.015300707891583443, 2.9417164114420302e-05, 0.0001216092350659892, 0.0001576803479110822, -0.13213001191616058, -8.522518328391016e-05, -2.4420865884167142e-05, 3.102859773207456e-05, -7.590262976009399e-05, -0.00015177942987065762, 3.8346599467331544e-05, -0.00013101246440783143, -0.1934089958667755, 3.945387288695201e-05, -3.246896812925115e-05, 0.010502689518034458, -0.00015861753490753472, -0.22886817157268524, 0.00010789703810587525, 5.3475418098969385e-05, 8.155497198458761e-05, -0.00011330231063766405, -2.5080536943278275e-05, -3.2701918826205656e-05, 0.005780608858913183, -0.032725099474191666, 5.2398794650798663e-05, 0.0139892203733325, 0.031595416367053986, 0.014297452755272388, -0.10270067304372787, -8.904253627406433e-05], [-0.11734186112880707, -3.5792596463579684e-05, 5.661517570842989e-05, 0.041062064468860626, 0.03925970569252968, -1.7729453247739002e-05, -3.423818634473719e-05, -0.04038621485233307, 0.06462854892015457, 4.62117423012387e-05, 2.9324628485483117e-05, 7.748487405478954e-05, 0.07508879154920578, 1.8751476090983488e-05, 3.5646851756609976e-05, 4.4521442760014907e-05, -1.4380041193362558e-06, -2.9624547096318565e-05, 4.4140258978586644e-05, -4.2021780245704576e-05, -0.09952575713396072, 4.027266186312772e-05, -3.4494722058298066e-05, -0.1999259889125824, -7.779303268762305e-05, -0.11327075958251953, -2.7903583031729795e-05, 4.418330718181096e-05, -5.0046637625200674e-05, 8.13199676485965e-06, -7.64425567467697e-06, -4.868271935265511e-05, -0.009492033161222935, 0.1566019058227539, 3.727451985469088e-05, 0.006463958881795406, -0.021002156659960747, -0.0278987567871809, -0.2570945620536804, 0.00013732652587350458], [-3.15205312517719e-07, -2.1737510402797255e-10, -2.3406615534682373e-10, 9.301051022703177e-07, -2.0319365034993098e-07, 1.7072843139231964e-10, 2.2164794999390836e-10, 3.175286337864236e-06, 1.8244784882881504e-07, 2.4727647707223355e-10, -8.49724179907696e-10, -1.2081935452101789e-10, 2.296413185831625e-06, 1.568421503783668e-10, 1.234958801887842e-10, 2.474475624403283e-10, 3.984410024138185e-11, 8.097940096263301e-10, 2.2697189960840802e-10, 6.369622607138581e-10, 2.1397402178990887e-06, 2.287142142343157e-10, -1.9345712531926296e-10, 1.1024903301404265e-07, 7.271954149956628e-10, 3.2153245683730347e-06, -9.046767224241137e-10, 2.9370822440810684e-10, -1.7376082517284175e-10, -1.0795845467592713e-10, 5.522476920205577e-10, -2.5033869421875465e-10, -1.242890448338585e-07, -6.213866754478659e-07, 2.524611908416574e-10, 1.6108131717373908e-07, -7.196079536697653e-07, -3.407490396512003e-07, 2.2558795080840355e-06, 1.0619891632757117e-09], [0.05547524616122246, -0.00018288343562744558, -0.00022686536249238998, 0.010773612186312675, -0.08571159839630127, -0.0001174413991975598, -0.00018111175450030714, 0.12621042132377625, -0.05847208574414253, 0.00022067534155212343, -0.00016062340000644326, -0.00014296321023721248, 0.4190748631954193, 0.00014895490312483162, 0.00023406567925121635, 0.000216024971450679, 0.00021432657376863062, 0.00016064233204815537, 0.0002463941927999258, -0.0002669463283382356, -0.01309580821543932, 0.0002032279735431075, -0.0001845173246692866, -0.0029508296865969896, 0.000131460590637289, 0.14614902436733246, -0.00016545478138141334, 0.00018258603813592345, -0.0001999803353101015, 8.596236875746399e-05, -6.915038829902187e-05, -0.0002232203260064125, 0.027863716706633568, -0.018700450658798218, 0.00017989400657825172, -0.006180513184517622, -0.01793152280151844, -0.015602636151015759, -0.06665430963039398, 4.233753134030849e-05], [3.9169185583887156e-07, -5.273222969393032e-10, 3.427904349262434e-10, -9.495398245462638e-08, -1.111207893700339e-06, 1.3735590442820467e-09, 1.3778221896743048e-09, 2.3766942831571214e-06, -1.0748950529659851e-07, 4.6488221605578417e-10, 9.538977246981162e-11, 1.7884861369665828e-09, 2.944886432487692e-07, -1.4756855737374508e-09, -3.639672729871535e-10, 3.1611935291664395e-10, -8.055694444841777e-10, -1.6862898577496566e-10, 5.059602736778857e-10, -9.12212139159152e-10, 2.2396709482563892e-06, 4.706889877859055e-10, -4.597795200123045e-10, -3.487091149168009e-08, -2.76092204654077e-10, 2.2208423615666106e-06, -7.493630022059605e-11, 5.329667263076487e-10, 8.850613020250364e-10, -1.8296207882073645e-09, 2.6100785421867556e-10, -3.076515708855254e-10, 2.391279281255265e-07, 5.740429855904949e-07, 5.236482358839112e-10, -1.6119868462283193e-07, -4.5225183953334636e-07, -1.4732773934156285e-07, 1.69649558756646e-06, 1.9170175169502812e-10], [-6.798180152145505e-07, -1.5165660394167446e-10, 3.3795721776641585e-10, 4.804830666671478e-08, -1.1936499504372478e-06, 1.9441002141462604e-09, 2.0719719273643022e-09, 2.918382961070165e-06, 7.361697385022126e-07, 4.166179901066158e-11, 9.805796452599935e-11, 2.8391271555960884e-09, -7.672095989619265e-07, -2.37072339537292e-09, -1.1248824094423071e-09, -1.0774704045646288e-10, -1.366027402305292e-09, -2.9497282394430613e-10, 2.8653565631309164e-11, -6.012599307325672e-10, 2.250629222544376e-06, 7.444877353490753e-11, -3.841845938601374e-11, 2.7514761313796043e-07, -4.341838277799326e-10, 3.486234845695435e-06, -1.348780115373316e-10, 2.1147233963958456e-10, 1.6429688720620561e-09, -2.4615873783773168e-09, 6.975771071893178e-10, 1.2500335488940806e-10, 3.6547075410453544e-07, -4.0290544234267145e-07, 1.9537294004834393e-10, -1.6351074805243115e-07, -7.208412853287882e-07, 3.094909857281891e-07, 3.243068249503267e-06, 9.008183643466339e-10], [-0.04176166281104088, -0.0002539705310482532, 0.0001785264175850898, 0.006895992439240217, -0.029866332188248634, 0.00017299332830589265, 0.00023544968280475587, -0.027827035635709763, -0.017590098083019257, 0.00027681910432875156, -0.00038315303390845656, -4.275182436686009e-05, 0.05267683044075966, 3.9308291889028624e-05, 0.00020904067787341774, 0.00032372784335166216, 6.233280146261677e-05, 0.0003985740477219224, 0.0002702886122278869, -6.587043026229367e-05, -0.6826869249343872, 0.0002787200501188636, -0.00027234593289904296, -0.018482770770788193, 0.0002921488194260746, -0.17876139283180237, -0.0004763401229865849, 0.00026585711748339236, -0.0001565648417454213, -0.00022150577569846064, 7.460491906385869e-05, -0.0003322882403153926, -0.010337017476558685, 0.007699751295149326, 0.0002612520765978843, 0.02545005828142166, -0.006923678331077099, 0.01934082806110382, -0.5791044235229492, 0.000549689051695168], [0.04375585913658142, 5.825278640259057e-05, -0.0002804502146318555, 0.10319489985704422, -0.044026829302310944, -0.0002392495662206784, -0.00025712294154800475, -0.07624415308237076, 0.0007446442032232881, -3.969082172261551e-05, -0.00034261896507814527, -0.0007290331413969398, -0.03502547740936279, 0.0004532549064606428, 0.0001625371223781258, -2.0466272871999536e-06, 0.0003518089361023158, 0.0003737049992196262, -4.8164831241592765e-05, 0.000367648433893919, -0.11944595724344254, -4.281952715246007e-05, 3.564594953786582e-05, 0.030462956055998802, 0.0004284784372430295, -0.10954694449901581, -0.0002554766251705587, -6.318144733086228e-05, -0.00024841437698341906, 0.0003759792307391763, 2.8842785468441434e-05, -5.886126928089652e-07, 0.06415844708681107, 0.043737784028053284, -6.145345832919702e-05, 0.004950245376676321, -0.008277157321572304, 0.011409328319132328, -0.2063392996788025, 8.309785334859043e-05], [3.672247657959815e-06, -3.2301390451294765e-09, 3.6847056517075316e-09, -4.81235019833548e-06, -5.7741408454603516e-06, 1.547023664727476e-08, 1.591545562007468e-08, 7.1464655775344e-06, -5.685247970177443e-07, 2.369115570388658e-09, 2.9128257583721506e-09, 2.5205844522702137e-08, -2.8817300972150406e-06, -1.841044827699534e-08, -6.670934915575799e-09, 7.217644815149526e-10, -1.215562051015695e-08, -4.286553334509335e-09, 2.694727108121242e-09, -9.28720567117125e-09, 9.837314792093821e-06, 2.5139508252891574e-09, -2.352096961644179e-09, -1.7576985555933788e-06, -5.235369027190018e-09, 9.54704955802299e-06, 1.1467307103885105e-09, 3.4396863135555122e-09, 1.143109784607077e-08, -2.0791068422454373e-08, 3.746472909682552e-09, -6.179554645768803e-10, 1.7220377230842132e-06, 4.285829618311254e-06, 3.3009945887840786e-09, -9.406529102307104e-07, 1.98357284375561e-07, 8.470551051686925e-07, 6.493845376098761e-06, 1.7919016270795396e-09], [3.473494643913e-06, -3.292317973802028e-09, 4.581227841526925e-09, -5.2727032198163215e-06, -5.747134764533257e-06, 1.6567819116630744e-08, 1.722541576043568e-08, 7.106099474185612e-06, -5.526623567675415e-07, 2.338155447034751e-09, 3.7147427356387652e-09, 2.753087002815846e-08, -3.0321652957354672e-06, -2.0110368481596197e-08, -7.522610978583089e-09, 5.568410177403393e-10, -1.3573488111262577e-08, -5.238596667567208e-09, 2.6180473344794564e-09, -1.0125993377130271e-08, 1.0188200576521922e-05, 2.511342023225893e-09, -2.3405830607003963e-09, -1.819824774429435e-06, -6.3201315292360505e-09, 1.0291491889802273e-05, 1.7005581387508073e-09, 3.5453817659458764e-09, 1.2571423013696403e-08, -2.2319849080076892e-08, 4.033222200661157e-09, -4.5489748079496906e-10, 1.6320025224558776e-06, 4.060211722389795e-06, 3.3894060891270783e-09, -9.312923907600634e-07, -1.4508505330468324e-07, 8.878233757059206e-07, 6.923195542185567e-06, 2.1379225056961104e-09], [0.03275166451931, 0.00029758192249573767, 5.367619451135397e-05, -0.043879009783267975, 0.03705979511141777, 8.434581104665995e-06, 4.75548513350077e-05, 0.08346676826477051, -0.0014390141004696488, -0.00028700337861664593, -0.00012017201515845954, -0.0002799400535877794, -0.016344843432307243, 0.00012129418610129505, -0.00014522256969939917, -0.00020397730986587703, -6.61527446936816e-05, 0.00014749562251381576, -0.00029632291989400983, 0.0005764839588664472, -0.22138257324695587, -0.00028058351017534733, 0.000279312371276319, -0.02194095216691494, 0.00015758216613903642, -0.19390232861042023, -0.00011418708163546398, -0.00026932332548312843, -1.3564299479185138e-05, 0.00011585639003897086, 6.797212699893862e-05, 0.0002085012965835631, -0.07234230637550354, -0.0032374162692576647, -0.00027718106866814196, 0.046754758805036545, -0.03018496371805668, -0.04522997513413429, -0.168104887008667, 7.393574924208224e-05], [0.047854725271463394, 3.036025373148732e-05, -5.2265058911871165e-05, 0.02139115519821644, -0.015341674908995628, -4.609305688063614e-05, -9.120813774643466e-05, 0.06477200984954834, -0.05013899877667427, -7.628534604009474e-06, -0.0002622839529067278, -0.0002909463655669242, 0.1053176075220108, 0.0002083553117699921, 9.036809206008911e-05, 9.262076673621777e-06, 0.0001267225743504241, 0.0002882815897464752, -7.854645446059294e-06, 0.00020551730995066464, -0.01831391453742981, -2.5360386644024402e-05, 2.07253651751671e-05, -0.008305499330163002, 0.0002819850342348218, 0.004549215082079172, -0.0002501601993571967, -3.261004530941136e-05, -0.00015503651229664683, 0.00010640844266163185, 2.540371860959567e-05, -6.1861801441409625e-06, 0.019840583205223083, -0.07276804745197296, -4.0913120756158605e-05, 0.014586818404495716, 0.014117195270955563, 0.03714415058493614, 0.03514377772808075, 0.0001788404188118875], [3.432466542108159e-07, -4.54674353722595e-10, 3.3756133999141014e-10, 1.418787434204205e-07, -1.0538382184677175e-06, 1.1080208972558125e-09, 1.1219756235192335e-09, 2.230362042610068e-06, 4.630242411707286e-09, 4.097645001088779e-10, 4.308959439258686e-11, 1.2430280138531202e-09, 2.940130059414514e-07, -1.1318541659477432e-09, -2.607452864733517e-10, 2.9914554167120855e-10, -5.960537063920412e-10, -8.73262157030652e-11, 4.346292770129878e-10, -6.798396290363939e-10, 1.9897720449080225e-06, 4.1454537025309435e-10, -4.0669373424506716e-10, 5.286421078665171e-09, -1.8209006524827487e-10, 1.7972153045775485e-06, -1.0352870644103618e-10, 4.612766280054359e-10, 6.896010429358057e-10, -1.44783207645105e-09, 2.011996541595451e-10, -2.941194232608524e-10, 2.0974520964500698e-07, 4.321292692566203e-07, 4.535819497775151e-10, -1.3113894681282545e-07, -6.506100476144638e-07, -1.9723147204331326e-07, 1.5337129752879264e-06, 2.2651927555905615e-10], [-2.4027035578910727e-06, -4.4493037032466987e-10, -2.8873123336659035e-10, 1.8314973431188264e-06, -8.08512709227216e-07, 1.4523043878611475e-09, 1.6077099651568005e-09, 6.189346549945185e-06, 1.4072459180169972e-06, 4.6131423681039507e-10, -1.5600991609687753e-09, 1.2017292716492989e-09, 1.6431255289717228e-06, -1.5018833954272282e-09, -5.462173491288524e-10, 4.603817604920124e-10, -1.181201664257614e-10, 1.4350628463333237e-09, 4.4845374636004465e-10, 8.269109702530031e-11, 3.6391588764672633e-06, 4.597300040654062e-10, -3.6801597880220527e-10, 1.0225509186057025e-06, 1.1285427037321938e-09, 5.577261163125513e-06, -1.8484281882891196e-09, 5.844039141500446e-10, 9.132869460692916e-10, -1.7250760819820243e-09, 8.912644511305245e-10, -4.5089793010433254e-10, 6.7679621906791e-09, -2.470623030603747e-06, 5.367470912176486e-10, 3.3583599901021444e-08, -1.6088411030068528e-06, -5.4040398822507996e-08, 5.40038581675617e-06, 2.5225370681170034e-09], [4.374875970825087e-06, -6.379019090729798e-09, 1.049329512170516e-08, -8.582310329074971e-06, -1.0841889888979495e-05, 3.3565736856644435e-08, 3.54102986932503e-08, 2.4914984351198655e-06, -1.4807338857281138e-06, 4.152474364360614e-09, 9.731517813804658e-09, 6.125120677324958e-08, 8.400339538638946e-06, -4.481132620526296e-08, -1.7423719356202128e-08, 4.1549086393644075e-10, -2.767218276744643e-08, -1.3161532308458845e-08, 4.732498837256571e-09, -2.4062545733727347e-08, 3.823424322035862e-06, 4.635847261624804e-09, -4.252493024381465e-09, -2.107542059093248e-06, -1.600476018381869e-08, 4.631740466720657e-06, 4.87481788269406e-09, 6.996672574643981e-09, 2.8217259639973236e-08, -4.637011130625979e-08, 7.936916013306927e-09, -1.5361129035440513e-10, 2.2960757632972673e-06, 8.027526746445801e-06, 6.68115163193761e-09, -2.241117499579559e-06, 1.2295218994040624e-06, 1.3337760265130782e-06, 3.262300197093282e-06, 5.072811504192032e-09], [-0.05899583548307419, -0.00028748405748046935, -0.00021639773331116885, 0.04592927172780037, 0.07225026190280914, 5.447355579235591e-05, 2.2488346075988375e-05, -0.28971266746520996, -0.03475071117281914, 0.0003212500596418977, -0.0003076934372074902, -0.00025025836657732725, 0.21741600334644318, 0.0001257908734260127, 0.00028674519853666425, 0.00032865398679859936, 0.000257318519288674, 0.00033224659273400903, 0.00035254284739494324, -0.00015900225844234228, -0.1986282467842102, 0.0003102094924543053, -0.0002944875741377473, 0.014798907563090324, 0.000316503515932709, -0.3534590005874634, -0.00030297436751425266, 0.000284515816019848, -0.00019072253780905157, -8.782507939031348e-05, -6.345861766021699e-05, -0.000332381488988176, 0.02321718819439411, 0.026883777230978012, 0.000285961024928838, 0.0037261603865772486, 0.05189356207847595, -0.005239678081125021, -0.16338971257209778, 3.834563176496886e-05], [3.1565584777126787e-06, -3.827521855015448e-09, 5.8694382687463076e-09, -3.7387312659120653e-06, -5.4255460781860165e-06, 1.977158525789946e-08, 2.0825094537713085e-08, -3.193647160060209e-07, -6.996955335125676e-07, 2.5825550586944246e-09, 5.5164326440149125e-09, 3.555189564963257e-08, 4.394106781546725e-06, -2.6265004393621894e-08, -1.0188525578769259e-08, 3.7731090474224516e-10, -1.6172670314062998e-08, -7.555059688968413e-09, 2.9298503623209626e-09, -1.4313339846694362e-08, 6.208478566804843e-07, 2.8365376714134527e-09, -2.578720792456579e-09, -1.3161650258552982e-06, -9.212615559306414e-09, 7.943921218611649e-07, 2.6950226494903973e-09, 4.22037249592222e-09, 1.6582813344712122e-08, -2.726649483975052e-08, 4.5713242080580585e-09, -2.3571405938227485e-10, 1.599151346454164e-06, 4.76274908578489e-06, 4.01668831528923e-09, -1.1187634072484798e-06, 9.610723736841464e-07, 6.137968853181519e-07, -2.831298502314894e-07, 3.075811161323827e-09], [4.0682806456970866e-07, -1.5010176435126255e-10, 1.152584472308149e-09, 2.3556555106551968e-07, -6.916309871485282e-07, 2.606088900236614e-09, 2.8930120521408753e-09, -2.616098981889081e-07, 3.330533786538581e-07, -4.7857374313453604e-11, 1.0083488488632497e-09, 4.609059800486648e-09, 2.9085481401125435e-07, -3.590026720345918e-09, -1.746474853625557e-09, -3.0616767454638705e-10, -2.4577428980876448e-09, -1.3109677787781493e-09, -8.518488692210724e-11, -1.5279519871569391e-09, -4.815163379134901e-07, 1.272680138358906e-11, 6.440428051979197e-12, -3.163550488238798e-08, -1.5352676907554041e-09, -9.975872217182769e-07, 6.07113970207962e-10, 2.2319011916405174e-10, 2.4886201988039147e-09, -3.4796736603226464e-09, 6.825681131417127e-10, 3.19225118561306e-10, 6.498743232441484e-08, 4.4063722270948347e-07, 1.97804619905817e-10, -1.238791469404532e-07, -4.2552969148346165e-07, -1.8989648964407024e-08, -3.778892505579279e-07, 7.951583280707553e-10], [2.2608622884945362e-07, -2.733931692144864e-10, 2.189718961709275e-10, 3.9856422517914325e-07, -6.904296583343239e-07, 6.220426396197354e-10, 6.423327425508774e-10, 1.5879918464634102e-06, 1.42402797109753e-07, 2.592954184699181e-10, -6.39248445843954e-11, 4.340813819503353e-10, 3.4133137205571984e-07, -5.404527936292425e-10, -1.0704382519266531e-10, 2.1637085179104787e-10, -2.693688883059764e-10, 5.129542623993899e-11, 2.6321508861393283e-10, -2.571216850544289e-10, 1.214275584970892e-06, 2.611963145771057e-10, -2.54835930135755e-10, 4.609734105542884e-08, -1.2737289521724815e-11, 1.0261798024657764e-06, -1.5578563439255788e-10, 2.8460370171679017e-10, 3.4239572288541353e-10, -7.664787693428821e-10, 1.1912899833266266e-10, -2.1580624787187475e-10, 9.876659134988586e-08, 1.6837510941059008e-07, 2.78378459173112e-10, -6.072728808703687e-08, -6.817852522544854e-07, -1.8676115587368258e-07, 1.008511389954947e-06, 2.8845470456673183e-10], [-2.3219106992655725e-07, -1.5160921407186834e-09, 3.260818726147363e-09, -3.546527523212717e-06, -2.5013187041622587e-06, 9.332335793033053e-09, 9.892497487840046e-09, 2.203276835643919e-06, 4.764724792494235e-08, 9.59993307070306e-10, 2.2625736839643196e-09, 1.4854604657443815e-08, -1.0958135590044549e-06, -1.1134882349495001e-08, -4.467798575547022e-09, 2.2759259754590033e-11, -8.163205222899705e-09, -3.078844512671708e-09, 9.898347697046006e-10, -4.9275912239465924e-09, 2.823314162014867e-06, 1.0881040513055495e-09, -1.022791629168296e-09, -4.0490797914571885e-07, -3.6649827617196706e-09, 3.334467692184262e-06, 1.1022234236435224e-09, 1.647717295938378e-09, 7.133401425107877e-09, -1.2338734478589686e-08, 2.417334554749573e-09, 2.1732881119729264e-11, 6.176096576382406e-07, -5.222581478392385e-09, 1.5834541455816975e-09, -4.95481003781606e-07, -1.3732337720284704e-06, 7.963901111907035e-07, 3.143713911413215e-06, 1.8136956381198388e-09], [-2.691836698431871e-06, -5.439909078752692e-10, 6.396735224845074e-11, 1.789433781596017e-06, -9.600192925063311e-07, 2.091573803042479e-09, 2.3109969493617655e-09, 5.8642722251534e-06, 1.6197012655538856e-06, 5.139756953376207e-10, -1.2328318366172653e-09, 2.3877855248599644e-09, 1.7486845536041074e-06, -2.4668660447701996e-09, -9.495138009185666e-10, 4.53186099758085e-10, -6.458876211645759e-10, 1.0476342016119133e-09, 5.034651029411918e-10, -4.884662674342621e-10, 3.1159356694843154e-06, 5.268346869868878e-10, -4.2902081887064014e-10, 1.0266066965414211e-06, 6.630657689576935e-10, 5.042437805968802e-06, -1.650514502848921e-09, 6.943168262552035e-10, 1.5394293617632115e-09, -2.6229758365303724e-09, 9.63614077420516e-10, -4.3883099931640857e-10, 3.5350030458403126e-08, -2.575942517069052e-06, 6.450788792022877e-10, 1.1495473462019845e-09, -1.7681508097666665e-06, 1.7738804203304426e-08, 5.401581802289002e-06, 2.6600939229126652e-09], [3.652963584954705e-07, -4.765294270292486e-10, 3.7388128704129997e-10, 1.7916828198849544e-07, -1.2373667459542048e-06, 1.2364156365407553e-09, 1.2614856936821184e-09, 2.946523636637721e-06, 2.2896754714452072e-08, 4.2081257922710336e-10, 6.981313444009984e-11, 1.4541162718373357e-09, 2.3608798471741466e-07, -1.3400957010745174e-09, -3.4766792222917786e-10, 2.998652437469218e-10, -6.384098250045156e-10, -1.21141333075947e-10, 4.5083664579337324e-10, -8.060926925956835e-10, 2.6281468308297917e-06, 4.290118260641407e-10, -4.20511125920342e-10, 5.399941049866186e-10, -2.3158165662895414e-10, 2.457216169204912e-06, -9.758933938730507e-11, 4.847886536651913e-10, 8.315966804062214e-10, -1.6293264515354622e-09, 2.0957274804445092e-10, -2.9248567456896524e-10, 2.516114250283863e-07, 4.849330252909567e-07, 4.77089534545172e-10, -1.4484642463230557e-07, -6.837784667368396e-07, -2.2178085146151716e-07, 2.0979939563403605e-06, 2.2621333972683288e-10], [-1.6755673186708009e-06, -1.4496459588286825e-09, 9.230307074226118e-10, -6.457161703110614e-07, -9.987717248804984e-07, 6.982803668620363e-09, 7.153277525873136e-09, 7.295969339793373e-07, -1.633171962112101e-07, 1.0799099392500011e-09, 9.116826737987083e-10, 1.1390201670735678e-08, 5.8615278248908e-06, -8.771866788492844e-09, -3.2460791832278346e-09, 3.331360465264055e-10, -4.9321018380510395e-09, -1.5641278272582326e-09, 1.2746884658909607e-09, -4.516726104242252e-09, -1.4513042856378888e-07, 1.141467254051065e-09, -1.019536455260095e-09, 6.313013614089868e-07, -1.9917760774035287e-09, 1.391733576383558e-06, 1.5001513919976617e-10, 1.5788963469987038e-09, 5.571239469759348e-09, -9.47868716849598e-09, 1.7684109732130082e-09, -2.721995129295607e-10, -2.403778296411474e-07, -4.5831663442186255e-07, 1.5167659350723284e-09, -2.3785406710885582e-07, 1.732093579676075e-07, 2.0396906563746597e-07, 2.87543400645518e-07, 9.374445664178666e-10], [-0.29996174573898315, -5.647413490805775e-05, 0.0003740660613402724, 0.0430227555334568, 0.06650260090827942, 0.00047101007658056915, 0.00048399201477877796, -0.0279447790235281, 0.11819200962781906, 4.448396066436544e-05, 0.00018133803678210825, 0.0005412122700363398, 0.14303867518901825, -0.00041341441101394594, -0.00013687617320101708, 4.548685683403164e-05, -0.00044158007949590683, -0.00017921190010383725, 4.3692674807971343e-05, -0.00012567431258503348, -0.28930410742759705, 5.278987009660341e-05, -4.964565596310422e-05, -0.1527232676744461, -0.00022872336558066308, -0.1555384248495102, 7.187980372691527e-05, 6.057827704353258e-05, 0.00023763845092616975, -0.0005861706449650228, 2.949907684524078e-05, -4.282138615963049e-05, -0.13794562220573425, -0.16171401739120483, 6.261037924559787e-05, 0.04569926857948303, -0.060836002230644226, 0.0465751513838768, -0.15662680566310883, 0.00010284478048561141], [3.645683364084107e-07, -4.6396328445830193e-10, 3.1239813513828096e-10, 8.330177081461443e-08, -1.0015330644819187e-06, 1.1296565904928002e-09, 1.136278515723177e-09, 2.2049796370993135e-06, -2.9520437649921405e-08, 4.186401503236681e-10, 4.546879886491162e-11, 1.3197211101712014e-09, 2.775310292690847e-07, -1.1617050654777472e-09, -2.6278090814457755e-10, 3.028217676614986e-10, -6.182022671552545e-10, -9.517334143005485e-11, 4.482142990092086e-10, -7.14392933698349e-10, 2.010698608501116e-06, 4.225017002923437e-10, -4.132342801277389e-10, -1.109726976977754e-08, -1.8892411246529406e-10, 1.8885866666096263e-06, -1.0009169187918943e-10, 4.701903311143951e-10, 6.988847833788725e-10, -1.4852244989427277e-09, 2.0536174150098674e-10, -2.973081225654539e-10, 2.0633025599181565e-07, 4.6186335111997323e-07, 4.620923366172036e-10, -1.320563995932389e-07, -5.63374385365023e-07, -1.7843608191014937e-07, 1.522942056908505e-06, 2.090339012994491e-10], [3.870362945690431e-07, -4.2990383475327576e-10, 2.8412164287949793e-10, 4.5086579802955384e-08, -9.3172667448016e-07, 1.0568653729947641e-09, 1.0576353126623417e-09, 2.134344640580821e-06, -5.689835091970963e-08, 3.858409980406208e-10, 5.569798094962053e-11, 1.2416745409637997e-09, 2.2350047856889432e-07, -1.0765550673141888e-09, -2.417403777155158e-10, 2.7584257100699006e-10, -5.92204840721422e-10, -1.0400284106149016e-10, 4.1393799499189754e-10, -6.671085905907148e-10, 1.975203986148699e-06, 3.897773770411561e-10, -3.832169859219192e-10, -9.19932752196928e-09, -1.8589967065718582e-10, 1.9192871150153223e-06, -7.406112528807185e-11, 4.326685121291973e-10, 6.50831277759778e-10, -1.3878356242003065e-09, 1.8776563637246113e-10, -2.7064250840425075e-10, 1.883037725747272e-07, 5.005466618968057e-07, 4.260201913464101e-10, -1.353366201328754e-07, -4.6886475502105895e-07, -1.608929665053438e-07, 1.465057266614167e-06, 1.8112984723206438e-10], [-0.002861880464479327, 8.444624836556613e-05, 0.0002410789456916973, -0.02283751405775547, -0.05001426860690117, 0.0002525857125874609, 0.0003067208454012871, 0.0764702558517456, -0.06860032677650452, -0.00010954974277410656, -6.285742415457207e-07, 0.00012483252794481814, 0.47381484508514404, -0.00016687474271748215, -0.00016667129239067435, -9.565812069922686e-05, -0.00020696646242868155, 1.272532608709298e-05, -0.0001428909454261884, 0.00027339873486198485, -0.15106423199176788, -9.459572902414948e-05, 8.090936171356589e-05, -0.010216758586466312, 1.208586309076054e-05, 0.06998291611671448, -1.9621162209659815e-05, -8.202386379707605e-05, 0.00015549419913440943, -0.0002293174620717764, 0.0001165345311164856, 9.534115088172257e-05, 0.0004791100509464741, 0.02888638898730278, -7.941059448057786e-05, 0.004153435584157705, -0.0015304203843697906, -0.03969169035553932, -0.08912977576255798, 5.489868999575265e-05], [-2.7251951451034984e-06, -5.60635482482752e-10, 3.8724123907485364e-10, 1.6062278973549837e-06, -1.1198286529179313e-06, 2.9013873525940426e-09, 3.170996132340065e-09, 5.274461273074849e-06, 1.6914025309233693e-06, 4.533145248064585e-10, -6.479810576998091e-10, 4.138578368895196e-09, 1.6609056956440327e-06, -3.731359221603725e-09, -1.5515901896634432e-09, 2.866510639965014e-10, -1.4670294978813558e-09, 3.530708503340918e-10, 4.474944859111929e-10, -1.1906320374066581e-09, 2.6681200324674137e-06, 4.889893490123143e-10, -3.8842132288330333e-10, 1.1232593806198565e-06, -7.307831423331024e-11, 4.614792032953119e-06, -1.1738976457564831e-09, 7.176467753389204e-10, 2.412853250532976e-09, -3.769626832905715e-09, 1.113093062166115e-09, -2.641635243882945e-10, 4.816509502347799e-08, -2.318076212759479e-06, 6.680271336101384e-10, -1.0054954202587396e-07, -1.63543688813661e-06, 1.2390047743338073e-07, 5.024857728130883e-06, 2.5810720227781303e-09], [-0.043740298599004745, -6.981655315030366e-05, 0.0002454166242387146, 0.07986529171466827, 0.013980747200548649, -6.742162076989189e-05, -2.6125080694328062e-05, -0.1283269077539444, 0.012066563591361046, 5.0644655857468024e-05, 0.0002786194090731442, 2.8439266316127032e-05, -0.023695413023233414, -2.8476799343479797e-05, 3.6370945508679142e-06, 4.5635195419890806e-05, -3.608427869039588e-05, -0.00027269645943306386, 2.9810937121510506e-05, -0.00018341545364819467, -0.25029098987579346, 6.234089960344136e-05, -7.65640361350961e-05, -0.035844720900058746, -0.0002870029420591891, -0.023920215666294098, 0.00024244943051598966, 6.720333476550877e-05, 2.653398951224517e-05, 4.556452404358424e-05, -3.492132600513287e-05, -4.659488331526518e-05, 0.08515666425228119, -0.005614850204437971, 6.689326255582273e-05, -0.011595724150538445, -0.005477336701005697, 0.0453389547765255, -0.19159185886383057, -0.00016941876674536616], [-2.124806087522302e-06, -4.2584671899881243e-10, -5.161463478842165e-10, 1.6805973928057938e-06, -6.896343620610423e-07, 7.206406027471246e-10, 8.096999182249931e-10, 6.3458760450885165e-06, 1.1539673323568422e-06, 5.034802019743267e-10, -1.8654342515134203e-09, -2.3332169529766134e-10, 1.6961977280516294e-06, -3.4968639095467324e-10, 1.326707927545856e-11, 5.738208241901077e-10, 4.738565095863123e-10, 1.836441665403754e-09, 4.943692122338916e-10, 6.318418566131356e-10, 4.0429385990137234e-06, 4.801606334758901e-10, -3.9773689897160125e-10, 7.928067020657181e-07, 1.5969826572259649e-09, 5.813335064885905e-06, -2.0373005504836783e-09, 5.486469056847909e-10, 1.0775903086512884e-10, -7.141934821319751e-10, 7.18208603700532e-10, -5.719991147401515e-10, -1.1655581388936298e-08, -2.4494249828421744e-06, 5.021041360464551e-10, 1.1115795928162697e-07, -1.6445634400952258e-06, -1.40413064286804e-07, 5.37722917215433e-06, 2.27705543309753e-09], [3.4279099736522767e-07, -5.590446439107666e-10, 3.633068845765308e-10, -6.858704892920287e-08, -1.137436584031093e-06, 1.4229593059411627e-09, 1.4334432529850005e-09, 2.429128244330059e-06, -7.853707018057321e-08, 4.984868628987726e-10, 6.624693155155015e-11, 1.825620876694245e-09, 3.3007094657477865e-07, -1.5115765306106255e-09, -3.6485997556567895e-10, 3.4786878932990817e-10, -8.262994177776761e-10, -1.4091661171278247e-10, 5.398174129922495e-10, -9.11987707574724e-10, 2.2316683043754892e-06, 5.031231542496073e-10, -4.889184057610407e-10, -4.6491820171468135e-08, -2.596561021750432e-10, 2.196850573454867e-06, -1.1810753763885629e-10, 5.711834893951107e-10, 8.95839957770761e-10, -1.8903938414638333e-09, 2.909694707398103e-10, -3.396751491191452e-10, 2.2175240133037732e-07, 4.973646241523966e-07, 5.586329177020843e-10, -1.4818606075550633e-07, -5.550993478209421e-07, -1.5759634663936595e-07, 1.7386207673553145e-06, 2.412073873969689e-10], [1.147430907622038e-06, -1.1699471391679594e-09, 2.495271766989049e-09, -1.0979271110045374e-06, -2.032080146818771e-06, 7.920740507927349e-09, 8.437508469683053e-09, -6.097009190852987e-07, 3.7430901045354403e-08, 6.517328898780761e-10, 2.2497455010039857e-09, 1.3998168846285353e-08, 1.0258154361508787e-06, -1.046770581325518e-08, -4.367792350024047e-09, -1.8575460614123074e-10, -6.728803292332941e-09, -3.0840503484341752e-09, 7.271175883616365e-10, -5.186607143770061e-09, -2.7906807531508093e-07, 7.730651119253196e-10, -6.837596044917404e-10, -3.653123599178798e-07, -3.715291851946745e-09, -6.224257731446414e-07, 1.1469734051416935e-09, 1.3388934405611508e-09, 6.795321194630333e-09, -1.0769093172768862e-08, 1.9438330944865356e-09, 2.3937257731532213e-10, 5.145386694493936e-07, 1.592523744875507e-06, 1.2616296896084123e-09, -4.003232163540815e-07, 1.1944720768042316e-07, 2.82350015368138e-07, -5.591748504230054e-07, 1.5641226092100169e-09], [6.272582140809391e-06, -5.943124214979889e-09, 6.802854723986229e-09, -7.665738849027548e-06, -9.604330443835352e-06, 2.677125188199625e-08, 2.7647592659718612e-08, 9.390945706400089e-06, -1.3962426237412728e-06, 4.411396581360805e-09, 5.821898962921068e-09, 4.537767495094158e-08, -1.3277057178129326e-06, -3.319326324913163e-08, -1.1911436281764054e-08, 1.471330834945661e-09, -2.0926123056597135e-08, -8.281453744984901e-09, 5.029423100211261e-09, -1.7983936118071142e-08, 1.3214415048423689e-05, 4.669968411974423e-09, -4.354546501161849e-09, -2.8651249976974213e-06, -1.0192438892886457e-08, 1.3150895938451868e-05, 2.445193381106492e-09, 6.343339187253605e-09, 2.0481483176126858e-08, -3.651517488378886e-08, 6.1485319058363075e-09, -1.28195432047562e-09, 2.8610236313397763e-06, 7.915438800409902e-06, 6.087262693910134e-09, -1.6396237469962216e-06, 9.2322255795807e-07, 1.1412845424274565e-06, 8.600567525718361e-06, 3.014071880969027e-09], [-1.1023357870953987e-07, -1.074176442239505e-10, 2.104261903612681e-11, -3.860944843836478e-07, -2.282984183921144e-07, 8.294576692158273e-10, 8.499881354318006e-10, 1.7329555248579709e-06, 1.2532435533785247e-08, 6.992222079116317e-11, -1.3249928931813315e-10, 1.1540233213480633e-09, -3.880442136505735e-07, -6.849499856187435e-10, -2.839649904107233e-10, -7.038082356497499e-12, -8.025394793165219e-10, 4.107706189082627e-11, 6.833573984454944e-11, 7.026008247423832e-11, 1.9127219275105745e-06, 7.485909808702118e-11, -6.520890077910124e-11, -5.656785262431185e-09, 3.899390879635867e-11, 2.225175194325857e-06, -1.7078008451854032e-10, 1.338682359408594e-10, 4.2428782709436064e-10, -1.0002263461927896e-09, 4.892456995087002e-10, 9.842652734515234e-12, -1.8621570063714898e-07, -1.5787256302246533e-07, 1.1791623233392556e-10, -4.462007652250577e-09, -1.9309213428186922e-07, 9.598176831104865e-08, 1.4321435628517065e-06, 3.4340000287791383e-10], [2.3510833102591278e-07, -2.780219110487536e-10, 2.308324920097249e-10, 4.090031211489986e-07, -6.920807322785549e-07, 6.28624208243167e-10, 6.497045679232372e-10, 1.5077480384206865e-06, 1.4627593714067189e-07, 2.6415636344978566e-10, -6.385088985316756e-11, 4.146688548090083e-10, 3.243212063352985e-07, -5.295038851826916e-10, -1.0036862313489436e-10, 2.2125140608508786e-10, -2.798159204342454e-10, 5.248782311562117e-11, 2.6655189167001936e-10, -2.418779898594181e-10, 1.157738438450906e-06, 2.661479092669339e-10, -2.603762483399663e-10, 4.77251660413458e-08, -1.0405675453240004e-11, 9.293345897276595e-07, -1.5558200561205382e-10, 2.8891006254028184e-10, 3.3675265354027317e-10, -7.687778746934271e-10, 1.2281962946669722e-10, -2.2112728315093477e-10, 9.379574805734592e-08, 1.7356292403292173e-07, 2.8283897446357287e-10, -6.185675260894641e-08, -7.074667109918664e-07, -1.8868301765451179e-07, 9.402147611581313e-07, 2.9589761196824327e-10], [-0.003471300471574068, -0.0001449572591809556, -0.00030003912979736924, -0.030071012675762177, -0.06882050633430481, 0.0005539829726330936, 0.0005268176319077611, -0.21324656903743744, -0.010117697529494762, 0.00010049712000181898, -0.00018177898891735822, 0.0005412350292317569, -0.014731177128851414, -0.0004016270104330033, -0.00011553944932529703, 4.6750235924264416e-05, -0.00039138580905273557, 0.00012315773346927017, 9.993173443945125e-05, -5.848929959029192e-06, -0.5199682116508484, 0.0001160545798484236, -0.00012277411588001996, 0.006195896305143833, 0.00020136713283136487, -0.3072870671749115, -0.0001361517934128642, 0.00013326987391337752, 0.0003193647717125714, -0.0006550659309141338, 0.0005423215916380286, -3.7367128243204206e-05, -0.11419717967510223, -0.024846374988555908, 0.00014207819185685366, 0.009004020132124424, -0.0016717641847208142, -0.015856938436627388, -0.448610782623291, 3.814945011981763e-05], [0.020084572955965996, 0.00017195042164530605, -9.089439117815346e-05, 0.07553914189338684, -0.09101105481386185, -0.00017713468696456403, -0.00020044200937263668, 0.09451644122600555, -0.002639306942000985, -0.0001660090492805466, 3.080616443185136e-05, -0.0003538290620781481, 0.19399361312389374, 0.00018342924886383116, -3.39154212269932e-05, -0.00014125074085313827, 0.00020138632680755109, -4.857676685787737e-06, -0.000178630041773431, 0.00022477378661278635, -0.04706302657723427, -0.00016596147906966507, 0.00016182282706722617, -0.021118871867656708, 3.4417778806528077e-05, 0.0881442129611969, 7.271578215295449e-05, -0.00017958601529244334, -4.967322092852555e-05, 0.0002687250089365989, -3.401352296350524e-05, 0.00014272455882746726, 0.046838197857141495, 0.02015337161719799, -0.00017550488701090217, 0.007674954831600189, 0.007661421317607164, -0.000550713564734906, -0.021591776981949806, -8.429252920905128e-05], [3.5822921518047224e-07, -5.406561309762026e-10, 3.389638847384191e-10, -6.95105200065882e-08, -1.0828399581441772e-06, 1.3782325281042063e-09, 1.3843007851122024e-09, 2.340974560866016e-06, -8.789132976971814e-08, 4.81491624348962e-10, 7.375162980327588e-11, 1.7855558143153871e-09, 3.1561114610667573e-07, -1.4748804399999926e-09, -3.5577440993250775e-10, 3.337404241854358e-10, -7.992657646838097e-10, -1.4736459275077607e-10, 5.234543354326604e-10, -9.086946750613834e-10, 2.171979303966509e-06, 4.859573854432142e-10, -4.721724122802584e-10, -4.668713771138755e-08, -2.599865600583229e-10, 2.145877260772977e-06, -1.022190040944615e-10, 5.503781319582401e-10, 8.752333302552984e-10, -1.835880447664806e-09, 2.709878155204848e-10, -3.256298286569148e-10, 2.292840690643061e-07, 5.130665385877364e-07, 5.392944979476511e-10, -1.4802566283833585e-07, -4.907942070531135e-07, -1.481412539305893e-07, 1.6773998368080356e-06, 2.1623253187996738e-10], [-0.0044126808643341064, -2.3842030714149587e-05, 4.783544682140928e-06, 0.007012723013758659, 0.007742809597402811, 4.1890951251843944e-05, 4.33753157267347e-05, -0.022222641855478287, 0.014615962281823158, 2.233938175777439e-05, -3.823053339147009e-05, 4.5886667066952214e-05, -0.05313853546977043, -4.4575921492651105e-05, -9.455581675865687e-06, 1.6183968909899704e-05, -1.4203879800334107e-05, 3.6840763641521335e-05, 2.2031661501387134e-05, -1.8346616343478672e-05, -0.014444345608353615, 2.1534568077186123e-05, -2.1298572391970083e-05, -0.007278273813426495, 2.7759238946600817e-05, -0.031610116362571716, -4.7641391574870795e-05, 2.4429900804534554e-05, 2.6293713744962588e-05, -5.346232501324266e-05, 2.4671051505720243e-05, -1.6102469089673832e-05, 0.003038570750504732, -0.0036424424033612013, 2.3491538740927354e-05, 0.004545951262116432, 0.006772124208509922, 0.004490471910685301, 0.005693115759640932, 5.421519745141268e-05], [-0.07168213278055191, 0.00019162261742167175, -0.0005644042976200581, 0.009712012484669685, 0.08518258482217789, -0.0003265712584834546, -0.0004368141817394644, -0.1087135598063469, -0.00682376092299819, -0.00016286021855194122, -0.0003252917667850852, -0.0012641538633033633, -0.09454962611198425, 0.0008152404916472733, 0.00025208163424395025, -0.00012031534424750134, 0.0004961632657796144, 0.0003935734857805073, -0.000161982694407925, 0.0007699998095631599, -0.12541142106056213, -0.00017072596529033035, 0.0001627981837373227, -0.05285191908478737, 0.0005766824469901621, -0.08871438354253769, -0.00010307506454410031, -0.00022138239000923932, -0.0004088215937372297, 0.0006027249619364738, 2.8738479159073904e-05, 0.00012239017814863473, -0.05769604444503784, -0.035180237144231796, -0.0002050418988801539, 0.028066648170351982, -0.14143528044223785, 0.011765005998313427, 0.06332819163799286, -0.0003729817981366068], [0.03365210071206093, 8.337468898389488e-06, 3.8509977457579225e-05, 0.028569716960191727, -0.06624490022659302, -8.597782289143652e-05, -8.952087955549359e-05, 0.1319306492805481, -0.0056493706069886684, -1.4758427823835518e-05, 7.983950490597636e-05, -9.311012945545372e-06, 0.07154481112957001, 3.0730199796380475e-05, 6.721761565131601e-06, -1.5793890270288102e-05, 5.943820724496618e-05, -8.432509639533237e-05, -1.8339247617404908e-05, -7.486685353796929e-05, 0.0016540194628760219, -1.2932654499309137e-05, 6.924670742591843e-06, 0.02094973996281624, -9.353372297482565e-05, 0.1288769543170929, 7.397015724563971e-05, -1.1275654287601355e-05, -6.625157311646035e-06, 8.187364437617362e-05, -4.096825068700127e-05, 1.4587982150260359e-05, 0.04477827623486519, -0.022720007225871086, -1.0961373845930211e-05, 0.00390242924913764, 0.00477609783411026, -0.01297133881598711, 0.04236412048339844, -7.902213837951422e-06], [0.3026766777038574, -0.00012163916835561395, 0.00036570936208590865, -0.050267599523067474, -0.03327316418290138, -8.054864883888513e-05, -7.25680947653018e-05, -0.11956171691417694, -0.1229841560125351, 0.00012883568706456572, 0.00032241258304566145, 0.00019623752450570464, -0.008296600542962551, -3.603161530918442e-05, 7.241764978971332e-05, 0.00012550424435175955, -4.1185416193911806e-05, -0.0003070620878133923, 0.0001147998555097729, -0.0003060572489630431, -0.18883518874645233, 0.0001259105047211051, -0.00012489286018535495, 0.1419050246477127, -0.0004077141347806901, -0.0935017317533493, 0.00017926048894878477, 0.00013035260781180114, -5.67133174627088e-05, 1.6306010365951806e-05, -9.456463158130646e-05, -0.0001350628153886646, -0.012409918941557407, 0.14288105070590973, 0.00012297277862671763, -0.027817929163575172, 0.05015129595994949, -0.0901859700679779, -0.29795435070991516, -2.870143362088129e-05], [-1.5994370272665037e-08, -2.2087766338163561e-10, -2.5567656325442556e-10, 9.824298103922047e-07, -1.2695362272552302e-07, 1.3945609944610027e-10, 1.9235456283350771e-10, 3.1419376682606526e-06, 8.158913544775714e-08, 2.607228877238299e-10, -9.129396127960376e-10, -2.1628136781526308e-10, 2.1709095108235488e-06, 2.367643858747215e-10, 1.6791225354584327e-10, 2.7108135181030946e-10, 6.296912297143464e-11, 8.752978897241803e-10, 2.403593712951846e-10, 6.933147944643281e-10, 2.2218507638172014e-06, 2.3973042995173444e-10, -2.0008342205279916e-10, 8.184299815638951e-08, 7.920740729971953e-10, 3.167750492139021e-06, -9.627576513793201e-10, 3.0231789294177247e-10, -2.4330373826764173e-10, -5.773730105129715e-11, 5.514312895193996e-10, -2.749184768724433e-10, -1.372085591810901e-07, -5.310283199833066e-07, 2.5889942967260993e-10, 1.5298915911898803e-07, -7.735812914688722e-07, -3.5888245975002064e-07, 2.1302641926013166e-06, 1.1045619974225929e-09], [1.6670602560043335, 1.9097675249213353e-05, 6.51051668683067e-05, 0.9492750763893127, 0.14173835515975952, 0.0001450095878681168, 0.00016421705367974937, 0.4369061291217804, 0.09202013164758682, -1.3252450116851833e-05, 3.190441202605143e-05, 0.00016754333046264946, -0.07833215594291687, -0.00020178648992441595, -0.00010521528747631237, -1.0260145245410968e-05, -0.00010236192611046135, -4.864434595219791e-05, -2.2803669708082452e-05, -7.563945109723136e-05, -0.5676632523536682, -1.4575389286619611e-05, 1.9464914657874033e-05, 1.6583091020584106, -3.030746302101761e-05, -0.41356322169303894, 1.868842082330957e-05, -1.361818976874929e-05, 0.0001372565166093409, -0.0002216228749603033, 1.5313726180465892e-05, 1.5507503121625632e-05, -0.2506265640258789, -0.15201671421527863, -1.8688433556235395e-06, 0.0631130114197731, -0.1903657168149948, -0.8682560920715332, 0.45815086364746094, 3.0072320441831835e-05], [7.796421414241195e-06, -2.2534252366313012e-06, 5.585901590166031e-07, 2.5840316084213555e-05, -0.00019710470223799348, 7.074295808706665e-06, 7.108510089892661e-06, 0.00013050461711827666, -3.1135303288465366e-05, 1.758438884280622e-06, -5.526428594748722e-07, 9.829014743445441e-06, 5.7192231906810775e-05, -7.240438662847737e-06, -1.8965785102409427e-06, 1.0516411066419096e-06, -4.727919531433145e-06, -1.9420862429342378e-07, 2.3377244815492304e-06, -7.0431378844659775e-06, -4.957337660016492e-05, 1.9107294519926654e-06, -1.9296253412903752e-06, 0.0001933034072862938, -1.3367322253543534e-06, -2.404514088993892e-05, -1.9494448224577354e-06, 2.1691312213079073e-06, 4.322886525187641e-06, -9.760465218278114e-06, 2.1632647531077964e-06, -9.439946211386996e-07, -2.2207990696188062e-05, -0.000142783421324566, 2.195606612076517e-06, -9.924339246936142e-05, 0.00041038583731278777, 0.00014400876534637064, 1.5311470633605495e-05, 2.7875153136847075e-06], [0.00029564168653450906, -3.2422517506347504e-06, -3.4528441119618947e-06, -0.0003968282835558057, 0.00018469853966962546, 7.519052815041505e-06, 7.522087798861321e-06, 0.00017053898773156106, -0.0003324270073790103, 2.8411889161361614e-06, -7.002670827205293e-06, 1.0697752259147819e-05, 4.470333078643307e-05, -7.293957878573565e-06, -1.6744681943237083e-06, 2.0846930510742823e-06, -3.505126187519636e-06, 5.947858426225139e-06, 3.4784418403432937e-06, -2.5633621589804534e-06, -8.374201570404693e-05, 2.9537200134654995e-06, -2.7464268441690365e-06, -0.0005338254850357771, 4.796276698471047e-06, 0.00011067590821767226, -8.065301699389238e-06, 3.6648402783612255e-06, 3.5866785310645355e-06, -9.655245776230004e-06, 3.646717686933698e-06, -2.078011220874032e-06, 0.0001434258301742375, -0.0002244509378215298, 3.5708726500160992e-06, 4.065909524797462e-05, -0.0004068091220688075, 9.727229189593345e-05, 8.660763705847785e-05, 9.450799552723765e-06], [-0.19899287819862366, -4.945286127622239e-05, 1.9219028217776213e-06, 0.31557223200798035, 0.02227797545492649, 0.0001161430700449273, 9.490639786235988e-05, -0.08795639872550964, -0.029059994965791702, 4.1518767829984426e-05, 1.1566457033040933e-05, 0.00010750363435363397, 0.013205436058342457, -6.693118484690785e-05, 1.9776070985244587e-06, 9.763948582985904e-06, -0.00010058650514110923, -1.0613211088639218e-05, 5.27267693541944e-05, -3.8454974855994806e-05, -0.006395329721271992, 3.8385038351407275e-05, -4.145720959058963e-05, -0.28476256132125854, -1.8779164747684263e-05, 0.03234769403934479, 2.401989604550181e-06, 4.2987539927707985e-05, 4.935905963066034e-05, -0.00013049095286987722, 4.5424545533023775e-05, -1.0376911632192787e-05, 0.06490450352430344, 0.06311000883579254, 4.143054684391245e-05, -0.04122581705451012, -0.001492267707362771, 0.06689831614494324, 0.05615242198109627, 1.1694686691043898e-05], [0.0018624559743329883, 6.313253834377974e-05, 0.00028529937844723463, 0.04083986207842827, 0.41543635725975037, 0.00022998503118287772, 0.0003097486915066838, -0.0508393868803978, 0.07852188497781754, -3.118322274531238e-05, -1.962229907803703e-05, 0.00035886120167560875, -0.013807110488414764, -0.0002799499488901347, -0.00014447743888013065, -6.443316578952363e-06, -0.0002770064165815711, -1.4043377632333431e-05, -6.291337194852531e-05, -8.644819899927825e-05, 0.01675112545490265, -4.02286350436043e-05, 6.032306919223629e-05, -0.11552396416664124, -4.4746619096258655e-05, -0.13623511791229248, -5.4945125157246366e-05, -4.09508211305365e-05, 0.00013197252701502293, -0.00030160031747072935, 4.239389454596676e-05, -6.47709566692356e-06, 0.04109876975417137, -0.15322324633598328, -5.334092566045001e-05, 0.07568960636854172, -0.22604741156101227, 0.014855744317173958, 0.0709596648812294, 0.000244625611230731], [0.00011972775973845273, 4.217925379634835e-06, -1.013367864288739e-06, -0.00080297322710976, -2.917778692790307e-05, -9.997378583648242e-06, -1.1893249393324368e-05, 4.351487950771116e-05, -2.1106210624566302e-05, -3.7939614685456036e-06, -1.5753019511066668e-07, -1.5484512914554216e-05, -8.255797729361802e-05, 1.1507627277751453e-05, 2.7507076083566062e-06, -2.7222756671108073e-06, 4.5502802095143124e-06, 7.992367727638339e-07, -4.437252755451482e-06, 7.801643732818775e-06, -6.846291216788813e-05, -3.7508989407797344e-06, 3.5335228858457413e-06, -0.0004380693717394024, 1.999604819502565e-06, 3.4025684726657346e-05, 1.4698578070238e-06, -4.469627583603142e-06, -6.886471510370029e-06, 1.3802578905597329e-05, -2.8882711831101915e-06, 2.6029272248706548e-06, -0.0005491484771482646, -0.00010453029972268268, -4.257035016053123e-06, -0.00033998623257502913, 0.0001965935225598514, 0.000728562125004828, -9.103376942221075e-05, 4.1190401134372223e-07], [0.00017687711806502193, 3.6132159948465414e-06, -1.2093746590835508e-06, -0.0008401563973166049, -4.2592291720211506e-05, -1.0296514119545463e-05, -1.0604118870105594e-05, 7.742820162093267e-05, -9.004648018162698e-05, -3.1772949569131015e-06, -1.5537495983153349e-06, -1.4983564142312389e-05, 1.6206703890020435e-07, 1.1133680345665198e-05, 2.8009644665871747e-06, -2.1862699668417918e-06, 5.74830073674093e-06, 2.185632411055849e-06, -3.832436959783081e-06, 6.795037279516691e-06, -3.309497333248146e-05, -3.1336116990132723e-06, 2.9574853215308394e-06, -0.00045533792581409216, 3.0268390673882095e-06, 9.047697676578537e-05, -8.49460164431548e-08, -3.823672159342095e-06, -6.20170203546877e-06, 1.3817326362186577e-05, -2.432254404993728e-06, 2.002120027100318e-06, -0.0004699828859884292, -0.00016199619858525693, -3.6110050132265314e-06, -0.0003159063053317368, 0.00017437317001167685, 0.0007411869592033327, 2.20795063796686e-05, 1.6855300373208593e-06], [-0.0015845748130232096, -0.00027465351740829647, -0.00020222003513481468, 0.4729353189468384, 0.0058633615262806416, -0.0001758486032485962, -0.0002405951963737607, 0.20326657593250275, 0.016994882375001907, 0.00025763388839550316, 0.00018885009922087193, 3.411765646887943e-05, 0.040288228541612625, 3.4737397072603926e-05, 0.0001916588080348447, 0.00017654207476880401, 0.0001870261476142332, -0.00020991175551898777, 0.0002749148989096284, -0.000486849487060681, 0.02190222218632698, 0.00025216786889359355, -0.000263481168076396, 0.0010165453422814608, -0.0001702456211205572, 0.11328747868537903, 0.0002582150336820632, 0.00024225078232120723, -5.6655964726815e-05, 0.00010982454841723666, -0.00028126584948040545, -0.00017820084758568555, 0.07186509668827057, 0.049973029643297195, 0.00024972332175821066, -0.05566782131791115, -0.033925317227840424, 0.034862179309129715, 0.08600948005914688, -0.00022078522306401283], [-0.49318772554397583, -0.00011745135998353362, -3.0103541575954296e-05, -0.06320413202047348, -0.17199620604515076, -0.00010982433741446584, -0.0001104182520066388, -0.08598101139068604, -0.4783530831336975, 0.00010221159755019471, 4.3775133235612884e-05, 3.517259392538108e-05, -0.2208317667245865, -7.131062739063054e-05, 5.917232101637637e-06, 3.086526339757256e-05, 0.00013606787251774222, -5.103290095576085e-05, 9.302447870140895e-05, -0.0003159759216941893, 0.2766574025154114, 8.436896314378828e-05, -0.00010562535317149013, -0.45467689633369446, -5.302369027049281e-05, 0.08583536744117737, 5.435896309791133e-05, 8.830933074932545e-05, 7.935000030556694e-05, 5.3335879783844575e-05, -1.5184294170467183e-05, -5.2547016821336e-05, -0.03856661170721054, -0.1192360520362854, 8.53033852763474e-05, -0.02589246816933155, 0.19433747231960297, 0.1344824582338333, -0.3020954430103302, -5.373979001888074e-05], [-2.0168281480437145e-05, 2.3115267140383366e-06, -1.026023142003396e-06, 2.3200560463010333e-05, 0.00023100506223272532, -7.302224275917979e-06, -7.417022061417811e-06, -0.0001225094893015921, 5.3831674449611455e-05, -1.6605971495664562e-06, 5.373985345613619e-07, -9.785012480278965e-06, -7.601043762406334e-05, 7.3776664066826925e-06, 2.113994924002327e-06, -9.486418548476649e-07, 5.115647127240663e-06, 2.4612589299977117e-07, -2.2011256533005508e-06, 7.4958029472327325e-06, 3.1270177714759484e-05, -1.8732162061496638e-06, 1.9914291442546528e-06, -0.0001418552128598094, 1.5356491758211632e-06, 1.927924131450709e-05, 2.0908407805109164e-06, -2.1742796434409684e-06, -4.517381967161782e-06, 1.0075460522784851e-05, -2.244576535304077e-06, 8.427372222286067e-07, 6.209711864357814e-05, 0.00010363377077737823, -2.2438987343775807e-06, 0.00012041023728670552, -0.0004027896502520889, -0.00013738965208176523, -4.286676266929135e-05, -3.332870846861624e-06], [0.00019134981266688555, -7.941020157886669e-06, -2.7643070552585414e-06, -0.0002626099740155041, 0.0001388549426337704, 1.2258818060217891e-05, 1.2532495929917786e-05, 0.00011159298446727917, -0.00028540269704535604, 7.98573273641523e-06, -7.63050229579676e-06, 1.699343010841403e-05, -9.281281381845474e-05, -1.2069264812453184e-05, -5.371955467126099e-07, 6.867403044452658e-06, -6.162615136418026e-06, 6.16953730059322e-06, 9.497673090663739e-06, -6.3776424212846905e-06, 4.980770609108731e-05, 7.716317668382544e-06, -7.133223789423937e-06, -0.0004283067537471652, 4.313721547077876e-06, 0.00015512941172346473, -9.523934750177432e-06, 8.630169759271666e-06, 4.411809641169384e-06, -1.632475687074475e-05, 5.601630164164817e-06, -6.650318482570583e-06, -2.6315612558391877e-05, 0.0001582506811246276, 8.148337656166404e-06, -1.511462323833257e-05, -0.00044348134542815387, -0.0002107900654664263, 0.00020612633670680225, 1.2108107512176502e-05], [0.00024403883435297757, -9.92221430351492e-07, -1.438134745512798e-06, -0.0011500141117721796, -0.0002512451901566237, -2.2273179922649433e-07, -2.3982727270777104e-06, 7.739218563074246e-05, -0.00010854782885871828, 1.128811163653154e-06, -5.6460030464222655e-06, -1.6930958963712328e-06, -0.000224729796173051, 4.241605324750708e-07, 6.813293680352217e-07, 1.186767804028932e-06, 1.5723402384537621e-06, 5.797469384560827e-06, 9.743447435539565e-07, 2.710581838982762e-06, 9.914956535794772e-06, 1.1520932048370014e-06, -1.1690779047057731e-06, -0.0007744770846329629, 5.821946160722291e-06, 8.51628283271566e-05, -5.021130164095666e-06, 9.05025046904484e-07, -4.164619724633667e-07, 7.173806011451234e-07, -9.185021099256119e-07, -1.2883131148555549e-06, -0.0005168175557628274, 4.678949335357174e-05, 1.0048627245851094e-06, -0.00021753585315309465, 0.0002286233357153833, 0.0006589624099433422, 1.2504841834015679e-05, 7.812055628164671e-06], [-0.29650816321372986, 8.42832014313899e-06, 0.0013570572482421994, -0.1428893655538559, -0.0741209015250206, 0.0002901745028793812, 0.0003322377160657197, -0.1640874296426773, 0.06465236842632294, -3.679531073430553e-05, 0.0014486697036772966, 0.0014848194550722837, 0.07234863936901093, -0.0009598986362107098, -0.00040267271106131375, -7.544282561866567e-05, -0.000724602141417563, -0.0014389489078894258, -8.687636000104249e-05, -0.0010454270523041487, -0.26489922404289246, -2.9711411116295494e-05, 2.5638382794568315e-05, -0.17943769693374634, -0.0016488999826833606, -0.06920299679040909, 0.0010673997458070517, -1.559698284836486e-05, 0.0005439621745608747, -0.0006290205055847764, -0.00035188981564715505, 6.368816684698686e-05, -0.010723894461989403, 0.104148268699646, -1.3868337191524915e-05, -0.016176100820302963, 0.01416086032986641, -0.04591713100671768, -0.5373445749282837, -0.00027703537489287555], [-0.0001456053287256509, -9.378341019328218e-07, -1.6094917043574242e-07, 0.000802849477622658, 0.0002880272804759443, 1.6607572206339682e-06, 2.5403062409168342e-06, -0.00011542455467861146, 0.0001097671702154912, 1.3515601722247084e-06, 2.8547524379973765e-06, 1.5538078912413766e-07, 0.00011235404963372275, -9.161312846117653e-07, 7.780773785270867e-07, 1.3172033277442097e-06, 6.370926826093637e-07, -2.7865530682902317e-06, 1.7444303921365645e-06, -1.4681310176456464e-06, 3.726145450855256e-06, 1.1169262279508985e-06, -8.245095841630246e-07, 0.0004565274284686893, -2.622898591653211e-06, -7.656700472580269e-05, 2.599620074761333e-06, 1.0515121857679333e-06, -3.560403172286897e-08, -2.020595275098458e-06, 5.4102240909514876e-08, -1.2542184322228422e-06, 0.0004336234414950013, 3.951148028136231e-05, 8.936921176427859e-07, 0.0001658377586863935, -0.0002778958878479898, -0.0005048465682193637, -3.366881355759688e-05, -5.683478320861468e-06], [-7.07117942511104e-05, 6.92382911893219e-07, -6.344851612993807e-07, 0.00036001173430122435, 0.0002662482438609004, -2.71500539383851e-06, -2.2890546915732557e-06, -0.00011623790487647057, 8.372380398213863e-05, -8.410938079350672e-08, 1.7869595012598438e-06, -4.914096280117519e-06, -1.0874480722122826e-05, 3.3158355563500663e-06, 1.5718429722255678e-06, 2.639634146817116e-07, 2.267799118271796e-06, -1.3856813438906102e-06, -5.803654445912798e-08, 3.23860422213329e-06, 4.667445318773389e-05, -3.1552525570077705e-07, 5.676716341440624e-07, 0.00011242690379731357, -5.125850748299854e-07, -1.3088640116620809e-05, 2.537057980589452e-06, -5.875780288988608e-07, -2.3756781502015656e-06, 3.997273324785056e-06, -1.2490306744439295e-06, -2.7953865355812013e-07, 0.0002060864062514156, 8.069910836638883e-05, -7.043685741336958e-07, 0.0001405122602591291, -0.00033653771970421076, -0.00027525972109287977, -1.8593924323795363e-05, -4.424356120580342e-06], [-5.008017524232855e-06, 2.1825562726007774e-06, -8.30879741897661e-07, 6.973130075493827e-05, 0.00019513578445184976, -6.225621746125398e-06, -6.123664661572548e-06, -2.7993695766781457e-05, 1.5179200090642553e-05, -1.6047683857323136e-06, 1.3312916280483478e-06, -8.10907113191206e-06, -4.247553806635551e-05, 6.2432236518361606e-06, 1.6567515785936848e-06, -9.613949032427627e-07, 3.852392183034681e-06, -6.53005145068164e-07, -2.0838965610892046e-06, 6.274686256801942e-06, -5.177822004043264e-06, -1.811929905670695e-06, 1.9173107830283698e-06, -4.774795888806693e-05, 5.396349251896027e-07, 8.756971510592848e-05, 2.7214130113861756e-06, -2.056244056802825e-06, -3.7418974443426123e-06, 8.579971108702011e-06, -1.930219241330633e-06, 8.86959924173425e-07, 0.00011254272249061614, 6.003124872222543e-05, -2.14442957258143e-06, 0.00012596568558365107, -0.0003532902046572417, -0.00011304869258310646, 4.193312634015456e-05, -3.552455609678873e-06], [-0.00023922068066895008, 1.7099371518725093e-07, 2.6829136459127767e-06, 0.0007575585623271763, -0.00020694907288998365, 2.7946705358772306e-06, 3.765607289096806e-06, 0.00012818057439289987, 0.00020322392811067402, -9.04322234873689e-07, 5.958213932899525e-06, 9.696441338746808e-06, 1.2311656064412091e-05, -5.641335974360118e-06, -3.1746924378239783e-06, -1.7920150412464864e-06, -1.337790081379353e-06, -6.349015166051686e-06, -7.348723443101335e-07, -3.991039648099104e-06, -0.00010076199396280572, -7.101819505805906e-07, 6.24284496097971e-07, 0.0005914263310842216, -6.274792212934699e-06, 5.3906678658677265e-05, 5.337530637916643e-06, -1.660471014020004e-07, 5.423300535767339e-06, -4.4542525756696705e-06, 1.4698297263748827e-06, 1.888229462565505e-06, 0.0003532127302605659, 0.00011360290227457881, -2.1010855277836527e-07, 0.0003266111889388412, 9.101314208237454e-05, -0.0006013481761328876, 3.3807453291956335e-05, -5.698861514247255e-06], [-0.00019720113778021187, 7.772535354888532e-06, 2.8884321636724053e-06, 0.00029562084819190204, -0.00012819266703445464, -1.1688391168718226e-05, -1.171051826531766e-05, -0.00011274681310169399, 0.0002692538546398282, -7.933194865472615e-06, 7.81405015004566e-06, -1.4993581316957716e-05, 0.00010383041808381677, 1.0873373867070768e-05, -1.3206380877761603e-08, -6.862636837468017e-06, 5.53117752133403e-06, -6.4099453993549105e-06, -9.28477766137803e-06, 5.84078770771157e-06, 